0.11078941 -0.04411491 0.025739115 -0.13212183 0.12798883 -0.5069048 0.025074875 0.5428795 0.18214773 -0.06168363 0.0085992655 0.14853668 0.19818437 -0.15754539 0.25563467 0.37047955 -0.14041515 -0.08235409 0.32497713 0.18620768 -0.32270753 0.1717922 -0.15059613 -0.08178106 0.036200568 0.11329372 -0.08133474 0.1128483 -0.17354795 0.0344028 0.35964924 0.18356048 0.11433189 -0.042169902 -0.14541198 0.05922854 0.29451647 0.08514774 0.019237485 -0.28114942 0.22761 0.3759821 -0.1216458 -0.25141668 -0.17957444 0.20519285 -0.1311003 -0.22873953 0.11349209 0.110668875 -0.17263114 0.34669495 -0.052783143 0.045094512 -0.23500942 -0.26958326 -0.14222278 0.1638611 -0.4896385 0.02555593 0.19676968 -0.23954259 -0.13581242 -0.14834403 0.29721266 -0.10648816 -0.024625398 0.36206514 -0.09162288 -0.26656148 -0.16567597 -0.0973251 0.0503345 0.066464216 0.048772898 0.04519522 -0.4952202 0.35267803 -0.16439557 0.017928103 0.22775714 0.1913588 0.36328712 0.33440202 0.47374183 0.14007783 -0.11946309 0.13172202 0.1060832 -0.09740285 -0.46185923 0.24471846 -0.15275359 0.3523241 -0.24425407 -0.3466226 -0.11557921 -0.27736905 -0.17656423 0.07879239