7.0551854E-5 -7.20685E-5 4.2163557E-4 4.3324966E-5 -1.4366608E-4 -4.1915878E-4 -5.6276687E-5 2.6025996E-4 2.96903E-4 2.8506278E-5 -6.186837E-5 1.8096296E-4 -1.3175295E-4 9.893291E-5 2.6250567E-4 -6.250693E-5 1.062082E-4 -3.0044527E-4 4.055575E-5 2.405517E-4 -3.115856E-4 -1.9129846E-4 -4.468646E-6 -1.3676578E-4 -6.1905594E-4 2.401302E-4 -1.7448163E-4 3.8159487E-6 1.2983124E-4 0.001009065 -3.153036E-4 -2.6104844E-4 -1.4847211E-4 9.441349E-5 1.4393008E-5 -3.8425927E-4 -3.9578532E-4 8.2612224E-4 0.001270081 2.2098949E-4 1.4686823E-4 -1.4534743E-4 -2.8257084E-4 -1.0831602E-5 1.7606646E-4 -2.2943545E-4 2.4028665E-4 -7.848079E-5 5.6448946E-5 6.9043155E-5 2.0365434E-4 -4.014883E-4 -1.4085157E-4 1.7615268E-5 2.1527524E-4 2.406071E-4 -3.0246732E-4 -4.5416193E-5 -4.455347E-4 -4.0090922E-4 -1.15912466E-4 1.2374122E-4 -2.6839064E-4 -1.6280255E-4 3.7788032E-4 -1.601248E-4 7.03375E-5 3.396719E-6 1.9965641E-4 -4.499714E-6 1.3175514E-4 -2.3172928E-4 -1.4110834E-4 7.401687E-5 -6.350648E-5 -3.4065757E-4 -1.9324408E-4 -4.4428976E-5 -1.3110971E-4 1.2455703E-4 -2.5400706E-4 -6.829982E-5 2.6615424E-5 -5.0646457E-4 -8.170075E-6 6.847446E-4 1.2042807E-4 -2.065509E-5 -4.4531308E-4 -1.6696264E-4 -3.6827776E-5 -1.7277538E-4 -2.142783E-4 2.2298542E-5 2.2688849E-4 -4.0790008E-4 -2.2555274E-4 2.731532E-4 5.06517E-4 -1.9992443E-4 -1.9520966E-4 6.1067287E-4 2.9205703E-4 -3.883702E-4 1.1705456E-4 -6.646919E-4 -1.7514877E-4 -5.1466876E-4 -1.09230066E-4 -3.517741E-4 1.4227947E-4 3.7337095E-4 -2.88998E-4 2.3735687E-5 7.775916E-5 -1.3749124E-4 7.098239E-4 1.2801867E-4 0.0010897263 5.359772E-4 4.4606728E-5 1.16763025E-4 -7.1588455E-4 2.3195884E-4 2.9183817E-4 -3.1785338E-4 -5.796256E-4 -4.984417E-4 -1.3960693E-4 -6.602943E-5 1.7755097E-5 2.3259621E-4 -2.2327376E-4 -6.0218576E-5 6.9566275E-5 -4.0115134E-4 2.2016797E-4 -2.623243E-4 6.809664E-4 -1.3715625E-4 -1.7905395E-4 5.423147E-4 6.0008475E-5 -7.028438E-5