-2.4636806E-4 -2.1562629E-4 1.7022842E-4 -2.1584175E-4 -4.829729E-5 -2.3069765E-4 -2.998765E-4 2.2339875E-4 -3.0755412E-4 -7.1557442E-6 -1.116622E-4 1.1554689E-37 3.9002683E-4 -7.9311256E-5 5.006483E-5 -1.298711E-4 5.3842843E-4 -1.0495143E-4 -1.8643893E-4 -2.3621917E-4 -8.612009E-5 1.079359E-37 1.3621175E-4 -5.0230836E-4 -1.7553013E-4 -5.357864E-4 1.1313243E-37 -8.6117536E-5 1.9257977E-4 -5.9144525E-4 8.554521E-5 -5.8680074E-5 -7.694835E-4 -4.0738698E-4 -5.1599374E-4 -1.9605491E-4 1.18138225E-4 1.79955E-4 1.8078824E-4 5.628871E-4 -1.5734222E-4 1.1173371E-37 1.8167964E-4 -3.3585815E-4 1.1418766E-37 -1.3912021E-4 7.587945E-5 1.1135182E-37 -1.315945E-5 -4.8181668E-4 2.6891875E-4 4.4619065E-4 -3.6674368E-4 -3.5216197E-4 3.2076339E-4 -5.8325514E-4 3.5170437E-4 -4.60518E-4 1.092448E-37 -3.1664092E-4 -3.275636E-4 1.5503497E-4 -2.4646055E-4 -1.8151669E-4 4.292735E-4 2.594353E-4 3.1625145E-4 -1.5994432E-4 -6.865476E-5 -8.9142896E-4 6.565271E-5 -2.8164848E-4 3.7383652E-5 -2.5432374E-4 -1.2142374E-4 -1.8918935E-4 -5.728044E-4 1.8925691E-4 -1.8768694E-4 1.9002856E-4 -3.5353555E-4 -1.0580754E-5 -6.4078666E-4 -7.2396564E-5 -4.3864507E-4 -1.7700031E-4 6.9113524E-4 2.3608078E-4 -2.5155648E-5 -1.3841741E-4 -7.8341414E-5 -1.5021014E-4 -4.3510532E-5 -1.5155431E-5 8.4555504E-5 -1.8529623E-4 1.5635033E-4 -3.1140074E-4 -4.3439734E-4 -4.8168396E-5 -1.4877784E-4 -8.373461E-4 5.086483E-4 8.038155E-5 -4.7248395E-4 -1.8867177E-4 5.577024E-4 1.7363502E-4 1.6207465E-4 -4.5517104E-4 -1.7405412E-4 2.9198338E-5 9.920266E-6 -1.7849274E-4 -3.7262982E-4 -4.4659403E-4 -5.4069684E-4 -2.7338727E-4 5.1395327E-5 -8.1624E-4 -1.6647646E-4 -3.3535418E-4 1.7114749E-4 -4.1598256E-4 -4.9512164E-4 -3.094351E-4 3.11489E-4 -6.0772186E-4