-3.8580754E-5 -6.555908E-5 -3.8547485E-5 -1.5740487E-4 6.299641E-5 -1.5192373E-4 3.5176556E-5 -4.8540758E-5 -9.3374336E-5 -1.6576081E-4 -9.514045E-5 -2.8507572E-4 -4.952776E-5 1.8437723E-4 -2.9002873E-5 -9.2316375E-5 -5.43235E-6 1.9470965E-4 1.7239215E-4 -2.2029117E-4 1.9539014E-4 5.7293742E-5 -2.3687506E-4 9.976517E-5 -7.386282E-5 -2.70571E-4 2.0961795E-4 1.9070692E-4 -2.2620082E-4 -1.5702489E-4 -4.4241833E-4 4.5468907E-5 -4.90767E-5 -2.2043349E-4 3.0649858E-4 5.934348E-5 -1.3977534E-4 -5.653152E-5 -1.4475401E-4 1.2783054E-4 -7.027995E-6 1.8553765E-6 -1.1863951E-4 -8.287803E-6 -2.8384032E-4 -3.3116888E-4 -4.0660954E-5 1.5279712E-4 1.6368343E-4 1.1310842E-4 1.254351E-4 -7.6813056E-5 1.2817725E-5 -6.297347E-5 4.103753E-5 4.951915E-5 1.4786587E-5 -2.127621E-4 6.874263E-5 -6.0475977E-5 1.5875083E-4 1.727852E-4 2.215473E-5 -1.62773E-5 -2.0467669E-4 -6.0303337E-5 3.0840962E-4 1.4645548E-4 -1.8024117E-4 -1.1239358E-4 4.6308178E-5 -6.288067E-5 1.6971178E-5 -2.6298128E-4 9.537187E-5 2.8319595E-5 -4.2480638E-4 7.430582E-5 -2.5498282E-4 -1.2218844E-4 -2.5836262E-5 -9.22359E-5 1.4981603E-4 -2.0250058E-4 -2.1517774E-4 -1.4635087E-4 -6.14856E-5 1.1917591E-4 2.2335237E-4 -1.0544467E-5 -1.231964E-4 -2.6714912E-4 1.8023617E-4 -1.3017998E-5 -2.3144716E-4 1.622495E-5 3.0690126E-4 -1.2299526E-4 -1.1093133E-4 -8.565173E-5 -1.2214229E-4 -3.1051185E-4 3.9109553E-5 3.5235833E-5 -1.20498225E-4 8.584451E-6 -5.4587304E-5 -5.3298194E-5 -5.238834E-4 -6.720144E-5 -3.2577402E-4 1.3512708E-4 2.0715117E-5 5.21405E-5 -1.8762154E-4 -1.5709936E-4 7.38039E-5 1.796852E-4 2.3337432E-4 6.641161E-5 -1.1078065E-4 -4.2723658E-4 -3.0962387E-5 -8.357148E-6 2.1147923E-4 -3.593749E-4 -2.3363526E-4 2.1908693E-4 -7.4831565E-5 -3.4410274E-4 8.933942E-5 -2.8933727E-4 -1.444197E-4 -3.2878506E-6 -9.8478806E-5 9.917175E-5 -1.5562963E-4 2.5514502E-5 -8.744295E-5 -2.4499622E-4 -3.872211E-5 -1.4251054E-4 -1.07478176E-4 3.4749504E-5 -9.736668E-5 -6.593503E-5 -1.7636981E-5 -2.3845129E-4 -1.8626495E-4 -1.0909277E-4 -7.426045E-6 7.3873394E-5 -2.9607052E-5 -4.460042E-5 -6.390105E-5 1.2820968E-4 2.25039E-7 -9.483418E-5 -8.5489446E-5 -7.197478E-5 -2.99117E-4 1.38929E-4 3.073599E-5 1.3797078E-4 4.1519816E-6 -2.6290282E-4 -3.7955706E-5 1.01653764E-4 1.8068678E-4 -1.2949487E-4 -2.2749475E-5 8.7756634E-5 -2.7061897E-4 6.299945E-5 1.4480978E-4 -7.47156E-5 -1.9883033E-4 2.0359931E-4 -1.7532542E-4 6.1829225E-5 -2.9595723E-4 -1.8636497E-4 2.4652587E-5 -1.272101E-4 4.7564048E-5 -4.415538E-4 1.1248067E-4 -3.2501994E-5 9.234049E-5 -1.238337E-4 -6.585216E-5 -1.1912509E-4 1.720213E-4 7.831793E-5 -1.01094236E-4 -3.8888873E-5 1.08838416E-4 5.5072625E-5 3.3925862E-5 2.4046973E-5 -1.9903015E-4 -3.2440023E-4 2.9925912E-5 1.5484751E-4 -1.6953818E-6 -1.6235748E-4 1.1476747E-4 1.1426753E-37 4.1099483E-6 -2.9706804E-4 1.5630666E-4 -9.759333E-6 -5.217835E-5 2.609466E-4 -1.738184E-4 1.8450068E-4 -2.968831E-4 4.0929554E-5 -2.467467E-4 3.6033598E-5 -2.1354863E-5 -8.803334E-6 -5.8741014E-5 5.3459487E-5 -1.3272076E-4 -3.0690404E-5 7.687342E-5 -4.7395242E-5 8.388984E-5 -3.6727494E-4 4.8466074E-5 -7.033024E-5 4.2909036E-5 -8.429546E-6 -2.6642774E-6 1.6603755E-5 -1.8092198E-4 5.71474E-5 -1.880801E-4 6.1648876E-5 1.8913895E-4 1.717479E-4 -1.6248053E-4 4.6933867E-5 -3.761892E-5 2.560572E-4 -9.840577E-5 4.6218876E-5 -3.4644698E-5 2.2954791E-5 -1.871086E-4 5.9282094E-5 1.2953849E-4 7.4177544E-5 -7.729701E-5 -2.6727452E-5 -1.4817821E-4 -2.6727837E-4 -5.210035E-5 1.7196333E-5 6.0105394E-5 -8.809558E-5 9.4881114E-5 5.6953177E-5 -3.626678E-4 -8.788182E-5 -1.701313E-4 -8.0249396E-5 1.2771299E-4 -1.6337856E-4 1.8561594E-5 -5.8406396E-5 -4.7101642E-4 -5.4779106E-5 -1.2124474E-7 -4.2476713E-5 -2.3684872E-4 2.0871928E-5 -1.3937286E-4 1.9824321E-5 8.5501786E-5 2.5542158E-6 -2.7355726E-4 -4.3074204E-5 4.7393594E-5 1.0979758E-5 -1.8036886E-4 -2.912833E-4 1.13079186E-4 -1.7523195E-4 -1.235947E-4 -9.9814984E-5 -1.5316103E-4 -6.7414265E-5 -6.256503E-5 7.893283E-5 -1.9102986E-4 4.4131608E-5 1.9843408E-4 -5.6221546E-5 -1.4331356E-4 -3.4422712E-5 -1.7792489E-4 1.4589406E-5 -1.9431672E-4 -2.3523986E-5 -4.9607508E-5 4.064972E-6 6.664196E-5 -1.5865947E-4 -6.1300657E-6 -1.9916304E-4 4.734187E-5 1.448999E-4 2.7157257E-5 -2.1948757E-4 -2.095672E-6 -6.4973647E-6 -2.8482327E-6 1.1767044E-4 6.9360016E-5 -1.5647803E-4 -4.927006E-5 1.3403865E-4 -2.8247436E-4 -2.9954681E-5 3.4277546E-6 -3.863681E-4 -9.521551E-5 -1.986069E-4 -2.5684512E-4 -2.6648806E-4 -1.418259E-4 -4.887759E-5 1.9379091E-4 1.07206666E-4 -2.0774348E-4 -6.5836895E-5 2.9088356E-4 -2.699914E-4 3.6894344E-6 -3.8679922E-4 3.9818246E-5 -2.8337815E-4 -7.089726E-5 -3.0874956E-4 2.9882177E-4 2.9425379E-5 6.165927E-5 -3.3000582E-5