1.896321E-4 4.8729336E-5 -3.7959086E-5 1.4170117E-5 -3.563935E-5 -3.7514686E-4 5.0504917E-5 2.5246266E-4 -6.459638E-4 -2.8092775E-4 4.7816843E-4 6.107439E-4 -1.6815733E-4 -4.2193005E-4 1.055579E-5 -9.598789E-5 2.678299E-5 5.326083E-4 1.7030787E-4 1.35400005E-5 -8.950103E-5 -2.7921633E-4 2.961405E-4 3.7475082E-4 -2.325206E-4 -3.9212504E-5 -2.50636E-4 2.769418E-4 -4.5684377E-5 -3.331037E-4 -1.7280359E-4 -2.7068378E-4 -3.5315382E-4 -1.4506024E-4 -2.8304374E-4 -3.028808E-4 4.155575E-4 -1.6942529E-4 9.738975E-5 3.6113168E-5 -3.1216105E-4 6.228801E-5 1.7891283E-4 1.1558535E-4 -2.0627349E-4 1.4347078E-4 -6.348191E-6 2.3798234E-4 -3.251571E-6 1.3726534E-4 6.7287765E-5 -3.312153E-4 -1.3852009E-4 -1.7114865E-4 -3.9850973E-5 -4.7875015E-4 7.787123E-4 -4.7197642E-5 -5.9394057E-5 -4.6776106E-5 5.718156E-4 3.3471873E-4 2.4543618E-4 3.8814716E-4 -2.7878425E-4 3.0787464E-4 -1.852151E-5 3.8762853E-5 2.2945521E-4 -2.309724E-4 -2.0537718E-4 3.4436333E-4 -1.6955167E-4 -7.977106E-5 -1.7312978E-4 -3.6744765E-5 2.3853825E-4 -2.8147132E-4 -1.4892088E-5 7.932029E-5 -1.2460971E-4 4.4516692E-4 4.1759614E-4 -7.11358E-5 -1.0648753E-4 5.000354E-5 4.0935207E-5 4.4695256E-4 -1.02778606E-4 1.4058888E-4 4.0500716E-4 -4.0283485E-5 -9.0811445E-6 -5.1284293E-5 5.2987143E-5 6.293999E-4 -1.7054685E-4 -9.919349E-7 4.523334E-4 -2.9654364E-4 -7.197731E-5 -4.916859E-4 2.192206E-4 7.045179E-5 -2.1981858E-4 -3.951784E-4 -1.7640599E-4 -2.6735928E-4 1.1276744E-4 9.137379E-5 -1.1415697E-4 -2.3868513E-4 -2.4207056E-4 4.5069028E-4 -1.9314644E-4 3.6634487E-4 -2.883334E-4 -1.9851218E-4 3.57757E-4 -6.1804324E-4 -4.288496E-5 -3.6575372E-4 -2.1913566E-4 2.67337E-4 -7.336622E-5 -2.8784934E-4 -3.1428877E-5 -1.2934183E-4 1.6168487E-4 3.0857878E-4 -1.7173804E-4 1.8329927E-4 -1.9856537E-4 -6.081623E-5 -2.4402472E-4 8.6852204E-5 2.9361694E-5 2.580643E-4 -1.0345447E-4 -2.4729938E-4 1.7070517E-5 3.8490715E-4 -1.6592513E-4 -2.0351524E-4 4.4551364E-4 2.6173203E-4 -5.684331E-4 -4.2548173E-4 3.8415194E-4 -1.6277411E-4 -5.632422E-4 1.5566192E-4 2.3377858E-4 3.5559246E-4 3.9103696E-5 -1.1249965E-4 -1.8167251E-4 2.3013505E-4 -2.2254858E-4 -4.2321047E-4 -1.2274963E-4 4.485418E-4 4.0088696E-4 4.184908E-4 -1.9898168E-4 6.518989E-5 -2.4741614E-4 -5.8878E-4 1.1331941E-4 2.3122664E-4 3.637598E-5 -1.2123844E-4 2.9566113E-4 -4.0756195E-4 -5.769726E-5 -7.3240284E-5 3.660853E-4 2.462836E-4 1.6755032E-5 -1.1415039E-5 -3.692944E-5 -2.2473025E-4 8.367315E-5 -8.37556E-5 -2.7558362E-6 3.005312E-4 -5.1027484E-4 -5.7662728E-5 7.6521246E-5 -2.5213568E-4 3.5837933E-4 -1.7719719E-4 -1.07359665E-5 -3.1063202E-4 1.8310515E-4 -1.0517871E-4 -1.6866396E-4 1.5659066E-4 9.6878684E-5 1.919433E-4 -1.3142817E-4 4.8547954E-6 -5.5441713E-5 9.166084E-5 3.4039075E-4 -6.9378526E-5 1.837168E-4 3.7794583E-4 5.4032804E-4 -2.771194E-4 7.639889E-5 6.1585655E-4 3.9902388E-4 3.7979672E-4 5.1177153E-4 -8.249274E-5 4.6676167E-5 5.2123476E-4 -4.5655173E-4 -6.531694E-5 9.033871E-5 -6.790628E-5 -2.7625952E-4 -2.2277569E-4 3.336807E-4 1.10449946E-4 5.707501E-4 -3.8934257E-4 4.4402137E-4 -3.2834802E-4 3.0912602E-4 -2.736466E-4 -3.0647917E-4 -5.9015256E-5 5.5237475E-4 3.1241766E-4 3.182553E-4 -1.04221894E-4 -3.6780111E-6 2.8137298E-4 1.3501587E-4 2.0759625E-4 -1.56284E-4 3.0468349E-5 1.0897784E-5 -1.3480845E-4 -2.855446E-4 2.6894399E-5 -3.8173344E-4 -2.1042742E-4 -1.334533E-4 -1.7610299E-5 4.693329E-4 6.935993E-5 2.5686264E-4 2.452365E-4 -8.10698E-5 2.4822154E-4 -2.1407545E-4 2.4680368E-4 2.1596513E-4 -2.6488313E-5 3.5789802E-5 3.0288682E-4 -3.6712314E-5 3.276958E-4 -9.36212E-4 4.680192E-4 5.3851615E-4 -4.1206196E-4 3.8811166E-5 1.9780771E-5 -1.8579086E-4 4.7054113E-5 1.17144795E-4 -2.0004064E-4 -2.0543973E-4 -2.519307E-4 -1.3614159E-4 -6.964483E-4 6.375875E-5 4.552865E-6 4.431774E-4 -2.4726824E-4 2.1764514E-5 -1.1496994E-4 -3.0222398E-4 1.0368663E-4 -4.3574203E-4 3.6297584E-4 3.3213774E-4 3.1831954E-4 -1.5714168E-4 3.705867E-4 -3.9615628E-4 3.0423227E-5 3.5813253E-4 4.2414616E-4 -4.324352E-4 -2.2806313E-4