-0.04217774 0.023606649 0.054435425 -0.0024385403 0.024016187 0.029364163 -0.06323037 -0.055073168 0.035294596 -0.006279331 0.06130025 -0.048733328 0.03127772 0.06875428 -0.029339114 0.036853 0.009846517 0.039039996 0.042937048 0.040033553 -0.12857412 -0.025261354 -0.031468894 -0.032049753 0.047210556 -0.0532704 -0.021214377 -0.064218596 -0.019569468 -0.0070187952 -0.001307759 -6.1249465E-4 -0.04268399 0.09150706 0.026696395 0.14248115 -0.06578714 0.03405703 0.05024445 0.07111514 -0.030076921 0.04139421 -0.013937165 0.013726894 0.028798675 0.04058034 -0.0503428 0.038725547 0.026453098 0.08012706 -0.006631064 3.089411E-4 0.031860646 -0.026380619 0.0075473012 0.053224646 0.028951626 0.059558414 0.09467863 -0.047560457 0.028354993 -0.03486354 0.024277994 0.041498043 -0.07140874 -0.017131627 0.04083724 0.042590532 -0.022389695 0.01460545 -0.022879306 -0.051604193 0.06642569 0.04171282 0.037017845 -0.0036171244 -0.032940757 -0.0052713905 0.018010417 0.04410964 -0.08616616 0.006544831 0.059218835 0.027447538 -0.024432458 -0.017334308 0.026386956 -0.07340502 0.053515848 -0.06337857 -0.044688553 -0.046656393 0.056813456 0.012496432 -0.049074855 0.017838456 -0.041527566 0.08667195 0.017774628 0.03625755 -0.03733104 -0.03002329 -0.031081524 0.030924663 0.028244244 0.014099455 -0.026530437 -0.016402634 0.029133998 0.06599986 0.06323488 0.025636852 -0.079639204 0.012683433 0.08275571 -0.027634185 0.015300515 -0.014960738 -0.06978954 -0.02215234 -0.0083532985 0.035257664 0.05684932 -0.0011147001 0.0054560313 -0.033165224 -0.07310897 0.09012108 0.025400877 -0.026250165 0.026096212 0.020038411 -0.03320611 0.05257486 -0.017939992 0.07189681 0.05769167 0.05141151 7.2891207E-4 -0.037368856 0.037537485 0.0144301485 -0.059617072 -7.18836E-4 -0.03133253 -0.055203266 -0.0387989 0.05268145 0.033130024 0.057686526 -0.05524218 -0.020593405 -0.061547387 -0.011022579 -0.050081365 0.003896103 0.03024106 0.020787314 0.032627694 -0.04695109 0.014382906 -0.035822116 0.023297641 0.001959402 -0.0012573726 0.019271525 -0.0445169 -0.018796794 0.009680956 0.004506254 -0.033371195 -0.09369331 0.014262958 -0.027024943 -0.0615911 0.04185048 0.03760292 -0.058112126 0.038482368 0.08676432 -0.0068440074 -0.052435152 0.056381673 0.006874142 -0.014322553 0.005344081 -0.07652531 0.04842707 -0.11182094 -0.01002467 0.007088653 -0.0059901252 0.008420684 -0.05450814 -0.043602455 -0.011029708 0.006599743 -0.001723544 0.026602069 -0.022460125 -0.0027772696 0.04311755 0.070461914 0.0015548421 0.05254869 -0.022603631 0.033250403 0.045829393 -0.0058308598 -0.016275028 -0.008986554 -0.014018238 5.9649337E-4 0.05602892 0.014248288 0.0039811255 0.018352915 -0.08191211 -0.008486649 0.025824305 -0.104612894 -0.023982063 -0.0074891658 -0.007178217 -4.9526995E-4 0.01568095 0.011281789 -0.023560205 -0.008679219 -0.029173387 -0.023010213 0.018600447 -0.08111801 0.008433584 0.024300719 -0.042663034 0.045757532 -0.06396765 -0.025159203 0.06430237 0.036533404 -0.05656138 0.046388377 0.01203277 -0.0027533532 0.020465849 0.0098853605 -0.020563629 -0.022638472 -0.07111409 0.055057783 0.052444212 0.029962912 0.040457122 -0.03612663 -0.04742446 0.010343043 0.08120869 0.023846747 -0.08169988 0.007152208 -0.04835911 -0.09048851 0.017436208 -0.0033807734 -0.071283214 -0.036432344 -0.006115715 -0.04170224 -0.05761166 0.027760364 -0.03652682 -0.03555985 0.003552564 -0.017232088 -0.007022535 0.01943999 -0.02003947 0.0020312872 -0.021729073 -0.04310499 8.955203E-4 -0.050228797 0.039736345 0.05609609 -0.005336285 0.116944715 -0.016699621 -0.04532992 -0.018298255 0.0770317 -0.10631659 0.0058216383 -0.045242067 0.02376815 -0.018215377 -0.025879418 0.017205179 -0.061165184 0.04170681 0.04109934 -0.017416976 -0.054772843 0.03982327 -0.06875564 0.0636901 -0.020493137 0.041164048 -0.040877085 0.044744458 0.02567451 0.057555012 -0.043591753 -0.03767945 -0.10011756 0.01703489 0.0012814512 0.04109805 -0.03204513 -0.027123878 0.09324324 0.02991104 0.057536997 0.012707568 0.063471414 0.04879827 -0.019526303 -0.09174584 0.06028415 -0.011979609 0.026008232 -0.032206763 0.044588327 0.018653976 0.070938185 0.06302389 -0.055902574 -0.04078098 -0.030086393 0.0060203997 0.027406262 0.05640123 0.027707834 -7.6351385E-4 -0.061019085 0.011045813 -0.06869923 -0.033310592 -0.043757144 -0.020580545 0.02348311 -0.029705374 -0.06328455 -0.032439742 0.012065171 0.033471446 0.0421157 -0.063293554 0.022831392 -0.052121643 0.056526776 0.043764785 -0.0033625406 0.035912592 0.078933194 -0.017889014 6.462118E-4 -0.05566418 0.039492223 -0.032034382 -0.02382344 0.03615615 0.06967379 -0.066165306 0.07058168 0.038244016 -0.03712846 0.004075295 -0.045243833 -0.038797013 -0.025984867 0.034186702 0.02370799 -0.003272612 0.005605769 -0.032011308 0.04677582 0.018608928 -0.008950769 0.022986298 0.04449797 -0.024756147 -0.014051562 -0.042760365 -0.026724555 -0.028778538 0.06583403 0.09163154 0.0068328306 -0.01605863 0.036786918 0.045382105 -0.032237053 -0.057030234 0.047843203 0.027632508 -0.034905553 0.019731738 0.018723106 -0.04193834 0.06386887 -0.031323224 0.016091513 0.018759992 0.05611379 0.001992212 0.01969069 -0.004642681 -0.05212918 -0.0049452963 -0.06155762 0.036893524 0.020137224 -0.0688588 0.027510185 -0.035100084 0.033831306 -3.0118655E-4 0.035162084 -0.03433119 -0.060027402 -0.026107898 0.038404495 -0.0068808217 -0.059802536 0.010890882 0.0034943498 0.001071648 -0.018514644 0.04893584 0.03671043 0.049026836 -0.031548224 0.045417488 0.03879703 0.05523695 0.055145767 0.01579571 0.048936307 -0.023289286 0.023326926 -0.014333427 -0.053320467 0.07206878 -0.09797242 0.02195036 0.026547028 9.140336E-4 -0.008515267 -0.023090169 0.045365795 0.0015097968 -0.024759406 0.031149544 -0.009123712 -0.031715382 0.024273373 -0.010815794 -0.04296247 -0.012210401 0.030573012 -0.009757443 0.01881142 0.07104634 0.0013295755 -0.03157613 -0.05501013 -0.03461073 -0.008070986 0.032643728 -0.024995646 -0.026084946 0.077201545 -0.05194965 -0.030643431 0.025779234 -0.030573077 0.0067979423 0.0481453 -0.017742895 -0.002372928 0.011100759 -0.043495703 0.03715043 0.0175304 0.06108736 0.058348797 -0.022624351 0.025554325 0.0033329197 -0.036397785 -0.09234226 0.024731526 0.026010994 0.0029736941 -0.03070988 0.01535501 -0.065871134 -0.058699783 -0.020133339 0.070459776 0.03360074 0.031587306 0.0901493 0.06028786 -0.08273315 0.009221521 -0.07059919 -0.06251907 -0.021462172 0.053634837 0.05399091 0.031087637 0.044548467 0.0054306695 0.012696551 0.035023145 0.032777257 -0.048174925 0.012068172 -0.028030638 0.003522085 0.017651165 -0.0022411323 8.2771806E-4 0.0022848663 -6.0991966E-4 -0.018382588 0.034844052 0.070953436 -0.042470776 -0.01978136 -0.045042396 -0.0060170963 0.012617331 0.005566868 0.026554909 0.039823417 0.009754253 0.030265335 0.01308656 0.054272752 -0.012604201 0.03706265 -0.051827226 0.051132716 -0.05021566 4.38446E-4 0.007280671 -0.06757417 0.02806296 -0.06262903 -0.018197386 -0.025143677 0.08049576 0.020447826 -0.011840207 -0.0077623436 0.02595683 0.004661251 -0.036027312 0.008567637 0.021162903 -0.014875171 -0.019579822 0.034007445 -0.009127157 -0.018544277 -0.022367492 0.040339585 0.09518797 0.033323087 0.026029589 0.11089938 0.07030609 0.019209413 -0.026845613 0.04228158 0.03799228 0.039515477 0.009594499 -0.03490102 0.022805363 -0.008681395 0.027536001 0.014793206 0.031451143 -0.027781347 -0.01829132 0.037344504 0.0031219134 0.044542715 0.046178423 0.026031638 -0.01691356 -0.072682746 -0.009179197 0.0686694 0.015142754 0.065731905 0.05610692 -0.013222345 0.057827245 -0.045202624 -0.01684908 -0.03732517 0.058580924 -4.639262E-4 0.025039403 0.03696705 0.026843434 0.050950695 0.016003653 -0.024649998 -0.013544317 0.10445189 0.03125387 0.0393469 0.003418744 -0.05856288