6.2891355E-5 -1.16451265E-4 -4.7041604E-4 8.137072E-5 4.024223E-5 -3.7736118E-5 1.07001215E-4 -3.0344452E-5 -1.0968247E-4 5.963708E-5 -8.606916E-6 -3.995892E-5 -1.1525556E-4 -7.9465804E-5 -2.2672075E-5 3.3953216E-5 2.5544437E-5 -1.3488639E-4 2.5490933E-4 -1.10717694E-4 -1.6102969E-4 -1.13663555E-5 1.8174421E-4 1.1880104E-5 -1.6855622E-5 2.0246029E-5 -5.8553233E-5 -1.17466094E-4 -7.377537E-5 5.908531E-5 3.2753818E-4 -5.5035325E-5 -1.095683E-4 1.10397996E-4 -1.06163934E-4 8.924627E-4 -1.71641E-4 1.07178785E-5 4.875612E-5 -1.5725856E-5 -9.592684E-6 -2.1967948E-4 1.9011105E-4 -5.0164133E-5 -9.440603E-6 3.2118947E-5 -8.306776E-5 -4.693212E-5 8.931151E-5 1.846592E-4 -1.691664E-4 -1.9542473E-5 2.408558E-5 2.6440728E-5 4.1621047E-4 1.2602007E-4 3.0978327E-4 1.7206476E-5 1.1630261E-4 -1.2401932E-4 -2.922878E-5 6.571591E-5 4.9419672E-5 -5.1487237E-5 1.198415E-5 -1.9493178E-5 -3.9080795E-5 -3.869208E-6 -6.59574E-5 6.7427376E-5 3.0309993E-5 6.648081E-5 2.0016709E-5 -8.459832E-6 -1.2033406E-4 1.3559016E-4 3.6043307E-4 -7.4184936E-5 -1.3672438E-4 -1.0270319E-4 -1.07519816E-4 5.7804187E-5 -7.609405E-5 -1.7066297E-5 -1.5549321E-4 9.40358E-5 7.4226955E-5 -3.879749E-5 -7.8764686E-5 -1.0119823E-4 -2.4309193E-6 -1.8642815E-5 1.4088157E-4 -5.9824866E-5 -4.2489235E-5 -2.2245974E-4 -2.1043328E-4 1.9996634E-5 -6.4626347E-6 2.7494784E-4 1.2709976E-4 -2.075123E-5 -2.0848421E-4 -1.713187E-4 1.5972594E-4 -4.6726936E-4 -2.4418475E-4 5.4857963E-5 1.9771702E-4 6.210756E-5 2.3480708E-5 -2.6772305E-4 -2.4142497E-5 5.0289986E-5 1.3385317E-5 -2.8905193E-5 -6.409064E-4 2.987362E-4 -1.9011459E-5 4.3654925E-4 -3.523502E-5 3.079961E-5 -2.458585E-5 -2.2279622E-4 -2.0503896E-4 2.93103E-5 -6.734799E-5 1.4062098E-4 -2.8284237E-5 -1.06413296E-4 8.5476335E-5 -1.10118875E-4 -1.9955027E-4 1.2765513E-4 -5.243346E-5 -8.3065104E-5 -2.0551872E-5 6.979914E-5 -1.6419536E-4 -1.1184267E-4 4.4903885E-5 -5.936344E-5 -7.94311E-6 -6.198364E-5 4.012494E-5 -4.5350025E-5 -1.0247115E-4 5.3989483E-5 -4.163753E-5 3.9281615E-5 -4.1223502E-5 -5.185757E-6 3.6163843E-4 2.1592012E-4 1.07004525E-4 -3.774741E-5 -9.85737E-5 -6.858187E-5 7.938091E-5 6.7604116E-5 -2.6220636E-4 1.94782E-4 -2.1258436E-4 4.9043385E-5 -8.2108825E-5 -1.01822276E-4 6.5912216E-5 -1.0948863E-5 -2.6905465E-5 -1.0094531E-5 3.8051957E-4 3.9989268E-4 -1.7455364E-5 -3.3640812E-4 -6.531231E-5 -1.1496266E-4 -2.4371655E-5 3.44001E-4 1.0027098E-4 -1.0780033E-5 6.9173206E-5 4.8416335E-4 -2.3459637E-4 -1.6402216E-4 -6.0831306E-5 -2.3845638E-5 -4.1298426E-5 1.0199161E-4 -9.987332E-5 6.8114736E-5 8.649382E-5 -4.5255598E-5 8.994917E-5 -2.4752284E-5 -8.1022645E-6 -4.4519783E-4 -1.7128151E-4 3.3008656E-4 1.51866225E-5 -5.1331735E-5 -1.21784695E-4 1.6776113E-4 1.3513013E-4 5.403059E-4 2.2807284E-5 -7.058342E-5 -1.2325E-4 6.0762533E-5 -1.2342255E-4 2.38201E-5 -1.2983906E-4 -1.626026E-4 9.800529E-6 -2.7260303E-6 3.572788E-4 2.9595685E-5 -3.316269E-5 -7.470001E-5 1.6451771E-4 -4.068602E-5 8.2929924E-5 -5.5564215E-6 5.9805065E-5 1.2537788E-4 -6.286823E-4 -3.2807264E-5 -1.1615307E-4 4.3253214E-5 1.4161118E-4 -3.3613396E-5 5.6503217E-5 5.2737487E-6 -1.519272E-5 5.0884337E-5 1.0729383E-4 1.4419926E-4 2.7272932E-4 -2.1714264E-5 -4.923369E-5 -6.619686E-4 4.351925E-6 -1.8436663E-4 -4.979265E-7 7.3499956E-5 1.1186763E-4 -1.3031712E-4 -4.8710266E-5 6.348785E-5 2.8876459E-5 4.4294953E-5 5.6969002E-5 4.1092113E-5 5.715665E-6 7.741268E-6 1.1990795E-5 -1.0667464E-4 -4.4740962E-5 -7.650066E-5 -2.2997506E-4 2.1238138E-5 3.0341005E-4 -6.283294E-5 -1.3985469E-4 -1.241148E-4 1.7660917E-5 -4.543113E-5 1.0942113E-4 -4.942107E-5 -8.701293E-5 3.484627E-5 -8.145334E-6 2.7514143E-6 6.557316E-5 -1.5251113E-5 -8.520377E-5 -3.7865344E-4 9.913198E-6 -1.359315E-5 6.346077E-4 -2.6736543E-5 -1.1016928E-5 -1.571148E-4 6.955252E-5 -2.6276027E-4 -2.0124036E-4 -4.694694E-4 1.0413867E-4 2.1415655E-4 7.99057E-5 8.510197E-6 -1.16662646E-4 -1.00383564E-4 -1.1172565E-4 4.5621663E-4 -1.1797046E-6 3.6153655E-5 -4.4007493E-6 -1.19183205E-5 -2.1007068E-5 7.4519885E-6 5.3525688E-5 -8.510781E-5 -8.063547E-5 -9.841591E-5 1.7651631E-5 1.66476E-4 5.499242E-4 4.9243536E-5 -6.200299E-5 4.927852E-5 5.097467E-5 2.7999311E-5 -5.829358E-4 6.317948E-4 -6.0721795E-5 -7.439081E-5 4.766722E-5 -9.87479E-5 -7.663585E-5 4.6888517E-6 2.6825579E-5 -3.202508E-4 -3.7252335E-5 2.1288346E-5 1.064159E-5 4.550842E-4 1.1048667E-4 -4.0378218E-5 4.7077025E-5 -8.468301E-5 -4.6348363E-5 1.4823586E-4 5.693876E-5 -3.340049E-4 -1.0418148E-4 1.0032705E-4 -8.5556E-5 6.0149425E-5 -5.7647878E-5 1.2861725E-4 3.1470547E-5 -2.2863915E-6 4.2801134E-5 -1.6625784E-4 1.4554695E-4 -1.0650353E-4 -1.2154877E-6 -9.2528266E-5 -2.008545E-4 1.1631128E-4 4.0378148E-4 1.2573868E-4 -1.4655598E-6 -2.0586152E-4 -4.1746902E-5 5.6401812E-5 9.3894196E-5 1.05553525E-4 -1.0398796E-4 1.3143872E-5 3.8301566E-4 -1.3710704E-5 -1.251049E-4 -2.3980651E-4 -8.6285974E-5 -1.302695E-4 3.476193E-4 -1.0393786E-4 6.5613785E-5 1.7134185E-4 5.727262E-5 2.658421E-4 1.2402315E-4 7.2324256E-5 -5.2358148E-5 -1.15168485E-4 -1.04148814E-4 -1.3347939E-4 -2.1813854E-4 1.3452853E-4 -3.618642E-4 -4.5245388E-4 -8.694016E-5 1.1136609E-4 -9.5052834E-5 1.858771E-5 9.079771E-5 3.531514E-5 4.5986916E-4 -4.6424934E-4 -9.024712E-6 1.3611559E-4 -1.3220934E-4 1.00067526E-4 4.1485424E-4 1.18708514E-4 -3.5070465E-4 1.0006236E-4 5.3716867E-5 3.2013242E-5 -3.209836E-5 2.3413284E-4 2.2800334E-4 3.597659E-5 -4.570742E-5 2.1175324E-4 6.4603715E-5 -1.4455261E-4 1.419939E-4 2.0262754E-5 3.9717706E-6 2.731758E-4 -2.0637183E-4 -4.1821506E-5 4.05646E-5 -1.3950544E-4 9.070297E-5 -3.5462155E-5 -1.2927394E-5 -2.9883647E-4 -8.769122E-5 -2.5049853E-4 -1.2055936E-4 -2.6564352E-4 4.823895E-5 -1.6661882E-4 -2.3819863E-5 3.1487754E-5 4.8839574E-6 1.5931902E-4 1.024628E-4 7.81702E-5 3.3021747E-4 4.9337483E-5 -1.0656878E-4 -5.438234E-4 -4.747561E-5 2.4982815E-4 6.419802E-5 2.6992195E-5 4.2100542E-4 1.7898955E-4 4.456178E-5 3.174292E-4 -1.890562E-4 -1.2086389E-4 -4.3726075E-5 -7.019132E-5 -8.548908E-6 8.908151E-5 -1.2263688E-4 8.451339E-5 1.8216633E-5 -8.4657186E-5 4.1992367E-5 -4.614245E-5 -4.1704887E-5 5.613715E-4 -1.3370925E-5 9.194108E-5 2.734761E-5 -3.372798E-4 -2.0092484E-5 9.621555E-5 -1.4534371E-4 1.07409935E-4 -7.012193E-5 -2.6397694E-5 7.886514E-5 3.740778E-5 5.1321702E-5 1.6326447E-5 -8.4699976E-5 -1.0143447E-4 7.1705435E-5 -7.265122E-5 6.883347E-7 2.6949016E-5 -6.054644E-4 -1.2566085E-4 -1.4822044E-4 7.726509E-5 -4.0829003E-5 2.4391446E-5 6.333126E-5 3.846465E-5 9.1521346E-5 -1.5512378E-5 -3.926408E-5 -9.269177E-6 -2.2469176E-6 8.832407E-5 -2.6949216E-5 -9.302042E-5 2.7501479E-5 -5.8389203E-5 -1.48357E-4 -1.1168794E-4 -2.8428083E-4 8.910218E-5 -8.029445E-6 -3.1708492E-5 -3.486096E-5 1.8967115E-5 1.1029815E-5 1.2296293E-4 -3.7427984E-5 -5.2527717E-5 -2.8639124E-5 9.658267E-5 2.1567015E-5 -5.7579903E-4 1.255019E-4 4.6297224E-5 8.603553E-5 -1.7051207E-4 -2.9352953E-4 -3.5616578E-4 -5.940775E-5 8.492091E-5 -8.47895E-5 -1.2937351E-4 2.51454E-4 -5.3864118E-5 1.4962468E-4 -5.891996E-5 -0.0011058429 1.5350559E-5 5.323047E-5 1.3301439E-4 -5.9635568E-6 -1.7753948E-5 -1.2973965E-4 1.00779595E-4 -9.570896E-5 -5.3827418E-5 -7.9131234E-5 3.3320193E-5 1.6619642E-4 2.1908229E-5 -1.3508822E-4 3.225267E-5 7.493662E-5 3.5824673E-5 -1.1520073E-4 -1.9031648E-4 -4.6849305E-5 -5.143927E-5 2.4850515E-5 -2.2222186E-5 4.4360924E-5 -2.8947125E-5 3.657538E-5 -5.899176E-5 -4.822394E-5 4.8512718E-4 8.02588E-5 -4.8762385E-4 -7.756053E-5 -9.634312E-5 1.6563399E-6 -7.196965E-5 -3.8588428E-4 -3.3961458E-4 -1.6725721E-4 -4.3801556E-6 -1.4571156E-4 -9.37411E-5 -6.927863E-5 -4.6601493E-4 1.6891196E-5 5.2245392E-5 1.3815414E-4 -5.1824096E-5 1.3867649E-4 -5.8266312E-5 4.6802234E-5 1.2374244E-4 -3.3376866E-5 4.823403E-5 1.0423039E-4 2.4738893E-5 8.935496E-5 2.0241434E-5 4.9369795E-5 -1.6005487E-4 1.5467667E-4 -6.595842E-5 1.7841293E-4 5.7644218E-5 -5.904398E-5 5.6988774E-5 -1.677704E-5 2.3419267E-5 8.8763365E-5 3.091855E-5 6.911397E-5 1.9379491E-4 -5.851306E-4 -3.1247095E-5 8.292639E-5 1.6546133E-4 -9.359207E-5 4.614406E-5 6.7442306E-7 -1.7366187E-4 1.4178974E-4 4.4323417E-5 -7.1816015E-5 1.4872396E-4 8.908723E-5 -1.5261132E-5 -3.562182E-5 2.7778084E-4 -8.094922E-5 2.0324936E-4 2.7464965E-5 3.186552E-4 3.5625658E-4 4.257379E-5 -5.1074015E-4 5.9994276E-5 -1.0198175E-4 1.1928692E-4 1.4528823E-4 2.9096931E-5 1.4923714E-4 2.7883434E-5 -2.4393195E-4 7.630946E-5