0.07219491 0.08770233 0.012289558 -0.011042612 -0.045608625 0.015246487 0.025169596 0.063574836 0.06425751 -0.06614326 0.0716739 -0.019733852 0.09374825 0.098363966 0.07895577 0.06493408 0.03774264 0.044578597 -0.035266966 0.08589821 0.0014097623 0.16229737 0.05060895 0.07280172 -0.008557391 0.039136153 0.07292037 0.036861856 0.10091934 0.09910149 0.06893232 -0.02372977 0.027695112 0.09987851 0.108314075 0.06820944 0.031842705 -0.027254421 -0.048460227 -0.009879699 0.07033267 0.05181101 0.020047732 -0.06147574 -0.009295129 0.056690037 -0.03411345 0.1747595 0.12952128 0.04376835 0.054314487 0.075097784 0.01710394 -0.030440891 0.08057784 0.09313925 -0.03717266 -0.009286322 0.0016464557 -0.03907365 0.025150448 3.0301412E-4 0.12787743 0.011251064 0.025360923 0.040595092 0.051611234 0.15705784 0.04426897 -0.021425998 -0.031327154 0.13096371 0.02178075 0.04747429 0.0811929 -0.012587468 -0.03214706 0.11414052 0.08178689 -0.05101045 -0.012933996 -0.025171254 0.06976714 0.06662467 0.094518945 0.0751145 -0.098091364 0.12189077 0.024279725 0.116297156 0.09697941 0.0949092 0.024616867 0.07455039 0.049535647 0.086753674 0.1402551 0.022780886 0.12187826 0.10262565 0.013043707 0.07052419 0.06254338 0.07156347 0.039914858 -0.0046317116 0.11678606 0.032449853 0.0056155412 0.0010687275 0.026679719 0.013442801 0.005041654 0.112424485 0.13864326 -0.06849685 0.08848446 0.0010332029 -0.08083418 0.15157472 0.062109403 -0.035616554 0.07140491 0.067162454 0.083780296 0.19717126 0.08346927 -0.0018171569 0.048359953 0.123559766 0.046611965 0.14119792 0.1064748 0.0126052275 0.035830606 0.008617668 0.040418703 0.09984553 0.1600681 -0.10985652 0.06763091 -0.009186427 0.099926025 0.04837175 0.052564826 0.14894584 -0.07211031 0.005025731 0.015115275 -0.030531958 -0.014905857 0.07661011 -0.024666836 0.11563922 0.025238704 0.06644529 0.09986867 -0.050700013 0.03213098 0.03222305 -0.026716193 0.19875252 -5.2094157E-4 0.0997343 0.050731678 0.097621314 0.13771753 0.12824994 0.17727004 0.102188125 -0.093366385 0.09890988 0.06927375 -0.1139114 0.046443835 0.11573749 0.08662457 0.03689728 0.033859663 0.051125918 0.008761698 0.0821403 0.074228026 -0.024017623 0.065156035 0.02485734 0.13274042 0.011537353 0.065349415 -0.012851351 0.026143504 0.0253492 0.080657065 -0.05078954 0.10589744 0.060027078 -0.035785634 -0.023030475 0.07264803 0.11905646 0.027533863 -0.03804286 -0.046217818 0.17582293 0.09573572 0.027126875 0.0045826384 0.09325986 0.18759523 0.059850603