0.06883268 -0.024250453 0.050730612 -0.13881637 0.124196954 -0.5312758 0.05371334 0.51493055 0.17738655 -0.06782177 -0.005389968 0.17297338 0.16998939 -0.14939712 0.2886204 0.37271768 -0.14390677 -0.063648015 0.34641975 0.168455 -0.30989125 0.14092278 -0.16788913 -0.08208732 0.010190382 0.085002646 -0.07653119 0.12989962 -0.13827752 0.0638675 0.34496865 0.16707106 0.15281127 -0.060252596 -0.14518507 0.051420894 0.26854885 0.06505857 0.012017234 -0.303025 0.24362358 0.37973496 -0.141442 -0.24737824 -0.14982514 0.22002958 -0.08827086 -0.2310502 0.090330675 0.11746999 -0.16775514 0.36464402 -0.066478856 0.06407382 -0.20400237 -0.28263682 -0.13748698 0.14021543 -0.4589464 0.035701897 0.19964041 -0.22463438 -0.10909238 -0.14758098 0.31816435 -0.14206854 -0.057142977 0.3773497 -0.059404567 -0.24998623 -0.14923815 -0.06899492 0.024797095 0.10718748 0.09562638 0.045612566 -0.43311366 0.33488688 -0.1749147 0.040340323 0.20659569 0.21497455 0.31232154 0.35721478 0.45647708 0.13736546 -0.12507546 0.124362215 0.10488534 -0.13397714 -0.4569508 0.20663217 -0.1443473 0.34844136 -0.2492705 -0.3424708 -0.14826463 -0.28984854 -0.14933488 0.04870912 0.063385814 -0.36787292 0.04865749 -0.033716656 0.019127645 0.039492738 -0.2553033 0.24229261 0.23671938 0.15715238 0.1349918 -0.22110975 -0.25970468 0.17311807 0.18319198 -0.021355096 -0.2005202 -0.2573509 -0.11833674 0.15168445 -0.012532863 -0.2224412 -0.15916729 -0.2879358 0.06943964 -0.23903307 0.018922815 -0.13580906 0.100914 -0.056866657 -0.21166989 0.0838567 0.058041908 0.018279172 0.19181138 0.3660334 -0.31888783 -0.12738846 0.09491586 0.11297499 -0.050103705 -0.09729102 -0.22250375 0.060472846 -0.2646453 -0.011123389 -0.02030996 0.0641979 0.029787246 -0.0085813515 0.12898467 -0.29489616 -0.13129526 0.21391958 -0.06621054 -0.121797375 0.21769457 0.013855154 0.11210646 0.012298529 -0.07751923 -0.0534197 -0.0932588 -0.08504038 -0.36520407 -0.30657676 0.19892786 -0.29348248 0.013492634 0.17841643 0.44898522 -0.07933298 0.37408158 0.19866835 0.1000385 0.23755565 -0.13663109 0.19137006 -0.07056825 -0.04600017 -0.09717546 -0.17300975 -7.769445E-4 -0.1959652 -0.22191721 -0.30534464 -0.46516082 0.07769006 0.041291405 0.16333674 0.15398034 0.0064144335 0.17796676 -0.32969 0.05866133 -0.06848454 -0.16196862 -0.1150746 0.030128235 -0.23239172 0.13365023 -0.12324701 -0.28379023 -0.09176743 0.14884228 -0.16892517 -0.2036192 -0.10737543 -0.19112816 0.08580124 -0.07237915 0.5243992 -0.19960068 -0.020490572 -0.3494621 -0.10624305 0.46913522 -0.2343103 -0.028502328 0.016916474 0.15729506 0.40571418 0.15818599 0.00957136 -0.11334469 0.063097045 0.06171164 0.035081804 0.0924879 -0.23644762 0.09902252 0.1429014 0.11836985 -0.11095433 0.02904907 0.29073897 0.48998782 0.045722023 0.028797725 -0.15040848 0.50062686 -0.049053933 -0.031099282 -0.4966356 0.21375823 0.19070306 -0.57757044 -0.39708656 0.15786876 -0.0684364 0.55089784 0.1556835 -0.1738482 0.17733939 0.2716855 -0.051900413 -0.17539361 0.16796383 -0.16633604 -0.110100634 0.16612092 -0.09497759 -0.093269035 -0.06976019 0.11582747 -0.10948345 0.061592363 0.24127278 -0.3943102 0.31826022 -0.06057292 -0.21060209 0.15627794 -0.07793531 0.065026276 0.21145485 -0.34819052 -0.12331941 0.14414051 -0.009312178 0.13675952 0.13507533 0.16540544 -0.17863807 0.1606604 -0.020915914 0.0144763505 0.031073637