0.13639015 -0.05381986 0.015784785 -0.19059122 0.09432081 -0.5191821 6.161148E-4 0.5576589 0.24282485 -0.04912055 0.046833023 0.21389619 0.1684313 -0.14406525 0.24248514 0.3728188 -0.14948897 -0.060924932 0.27090794 0.19441172 -0.29776 0.19894123 -0.2605963 -0.024048474 0.038406935 0.14232844 -0.15719423 0.16952534 -0.23445685 0.033060715 0.3590325 0.17326164 0.1387606 0.03879451 -0.13234901 -0.007009436 0.25117314 0.10746425 0.002798624 -0.25785533 0.20420972 0.35186914 -0.15229829 -0.26924646 -0.20658924 0.28911275 -0.081805296 -0.30509287 0.07689436 0.11593708 -0.17257883 0.36541796 -0.026389802 -0.0033092129 -0.25962657 -0.3228603 -0.14882283 0.17681539 -0.5266901 0.047831647 0.17164463 -0.23693825 -0.14178059 -0.10090622 0.33969787 -0.11198255 -0.015567488 0.4188147 -0.083535776 -0.29479033 -0.21133524 -0.054462947 0.11881163 0.061703783 0.13037057 0.059336554 -0.44243523 0.44817597 -0.14742164 0.03324078 0.18876298 0.2379905 0.31061077 0.3226258 0.44337147 0.11793841 -0.2164299 0.1924652 0.07971262 -0.1502109 -0.48230815 0.24402916 -0.17963159 0.32339838 -0.24662246 -0.38007945 -0.118382305 -0.16231029 -0.15423085 0.07672384 0.047026984 -0.37164798 0.076361015 -0.08539559 0.013358771 0.062489226 -0.27872586 0.30318958 0.30840462 0.19081287 0.11615478 -0.3016762 -0.22442113 0.17591089 0.24040209 -0.062242717 -0.25619376 -0.24169055 -0.019309863 0.19354625 -0.015114575 -0.19266422 -0.103689924 -0.3200532 -0.037341084 -0.2567962 -0.07471628 -0.12901601 0.11933966 -0.029221356 -0.21697146 0.17698559 0.088445865 0.04011445 0.29239944 0.4042624 -0.24912366 -0.15125175 0.15452215 0.07894927 -0.10806237 -0.17055075 -0.25029284 0.055422686 -0.2103614 0.035519086 0.023881987 0.07083351 -0.031660985 0.020326007 0.20436572 -0.31240356 -0.029544301 0.2036119 -0.04570258 -0.12372219 0.237673 0.01590971 0.03269746 -0.002066547 -0.09408167 -0.05621372 -0.13136722 -0.101514496 -0.3610616 -0.3811946 0.22861657 -0.2659503 0.031253017 0.18663143 0.43973115 -0.06405694 0.4090549 0.26114616 0.0857567 0.18783832 -0.1379153 0.23563495 -0.11633621 -0.041410394 -0.09693311 -0.21179985 -0.0075239306 -0.1629882 -0.2591161 -0.32542288 -0.46665466 0.17578784 0.011909505 0.16219121 0.16450244 -0.036040362 0.18406288 -0.3484627 0.027683614 -0.02788302 -0.22472979 -0.14108379 0.036108732 -0.20536524 0.14100386 -0.0530394 -0.26800257 -0.095440514 0.06259687 -0.15653564 -0.16836788 -0.1609469 -0.18224102 0.009087374 -0.07924047 0.45115423 -0.21894108 -0.059810195 -0.3760642 -0.097483784 0.43052295 -0.15924841 -0.043224532 0.075484164 0.19017538 0.39215112 0.19497743 -0.0057590394 -0.20438671 -0.0045140414 0.060290985 0.067176126 0.059204705 -0.18583423 0.020807823 0.15439557 0.1252541 -0.11259348 0.08040892 0.22845516 0.4832226 0.0110543715 0.17730498 -0.068799466 0.47893855 -0.1422142 -0.02633923 -0.51888275 0.23364219 0.22244784 -0.69281054 -0.45359182 0.15788874 -0.075607605 0.53450716 0.17262062 -0.2175345 0.11508955 0.21727827 -0.054503873 -0.18247643 0.14110595 -0.26554072 -0.17666121 0.17018555 -0.082144246 -0.07496432 -0.057154395 0.14023125 -0.11979226 0.07025607 0.24011259 -0.4316509 0.34844583 -0.03277491 -0.20548283 0.16746645 -0.1545063 0.107883655 0.25793716 -0.41846877 -0.19328454 0.09307117 -0.08636418 0.11580536 0.12374988 0.16949138 -0.23343255 0.16455445 -0.073601194 0.036480755 0.0016185675 -0.094212376 -0.50007147 0.15687501 0.30510736 0.03071846 -0.07598436 0.03789915 0.12404931 -0.19641855 -0.17692834 -0.010896052 0.30395684