0.149397 0.10830822 0.05175486 0.14189765 0.12471329 0.0744745 0.077768914 0.080572866 0.10526584 0.08544215 0.06817711 0.030054908 0.12183679 0.10786105 -0.001849946 0.047400568 0.058745056 -0.025254678 0.09219413 -0.0065547647 0.1141414 0.08045856 0.13728268 0.00555663 0.052934792 -0.009428004 0.06525326 0.00813553 0.1173972 0.17015976 0.12437565 -0.027542505 -0.04324062 -0.011281253 0.026711343 0.10160337 0.07205714 -0.04408387 0.038984176 0.078890614 0.13633186 -0.0148403775 0.114423595 0.03253372 0.09680942 0.012000187 0.048534732 0.09772896 0.061893497 0.052744713 -0.03775235 0.13442716 0.079964295 0.03479184 0.06250363 -0.014430508 0.0021026814 0.118064806 0.079491936 0.09902519 0.08353663 0.08317674 0.038318403 0.08605754 -0.009210926 0.0029686405 0.115409195 0.011325171 0.080701016 0.06987414 0.059331108 0.015487901 0.08716384 0.07951837 0.09317669 -0.013630189 0.015780848 0.10638192 0.05026118 0.073623054 0.07533367 0.03573408 -0.005557756 -0.005266561 0.054258354 0.01768027 0.003063054 0.07233452 -0.07436555 0.10090241 0.16611494 0.06619224 -0.0139417825 -0.023688473 0.08078432 0.07592145 0.020871662 -0.0023393892 0.115350634 0.12304072 0.12632874 0.041458573 9.1054666E-5 0.025978768 -0.001622811 0.09172329 0.06166966 0.09051736 0.10540882 0.013015451 0.10121171 0.15111485 0.082032725 0.028474545 0.06840719 0.0205809 0.015040801 0.0681284 0.067202486 0.019472161 -0.0040847026 0.09681276 0.13512929 0.0798355 0.054716274 0.049415093 -0.018601798 0.10295917 0.09433565 0.13012858 0.0532906 0.038839433 0.022965679 0.007599719 0.038397085 -0.025360042 0.09956155 0.015528739 -0.092483 0.037474725 0.078646675 0.04177817 0.13847822 0.07144966 -0.08279498 -0.0010327264 0.0056751505 0.068036586 0.09701125 -0.07587099 0.08688858 0.10567433 0.0031109296 0.061641447 -0.0436351 0.080104254 0.0918029 0.0587068 0.028207172 0.017259825 0.13434425 0.0717997 0.03620931 0.11553037 0.15874216 -0.0036482832 0.017842676 0.12731965 0.04988453 0.112006396 0.09129893 -0.07320547 0.14984903 -0.048843957 0.042463336 0.055108503 0.14745891 -0.061872955 0.062432997 -0.01054836 0.1760362 0.09678095 0.06980653 0.01205265 0.056049526 0.107805185 0.045464996 0.028759899 0.011318772 0.1168008 0.029550742 0.00253291 0.116084315 -0.0032758398 -0.01822753 0.06015518 0.085287265 0.12401921 0.07539961 0.05250946 0.1634677 0.008596568 0.13611683 0.012718596 0.010006258 0.009207496 0.030750122 0.05520562 0.08910066 0.0128500685 0.102721475 0.10328909 -0.012055155 0.031062113 0.023225384 -0.06120805 -0.0031222252 0.052039865 0.08622923 0.066337444 0.07580408 0.04104467 0.15658897 0.022706794 -0.010028876 -0.05596335 0.13593757 0.056942042 -0.08980684 0.07219358 0.09113891 -0.010053437 -0.04961283 0.054114312 -0.056068584 -3.0752152E-4 0.033744007 0.0526165 0.05839177 0.07381841 -0.06812612 0.053284973 0.047153436 0.05684947 -0.028191576 0.050160494 -0.059781652 -5.859683E-4 0.109309636 0.00826081 0.118183464 0.13657099 -0.012534512 0.04085351 0.025064053 -0.026486838 0.10875522 -0.057191327 0.013945675 -0.075828075 -0.011139745 0.10619804 0.05727413 0.06582488 0.056081343 0.089778945 0.07959229 -0.028458096 0.054150194 -0.08649289 0.08121922 0.113934465 0.012887763 0.030148821 0.0468069 0.036287878 0.060440324 -0.09600574 -0.017184343 0.075519785