9.926017E-5 -7.804117E-5 1.2607798E-4 -3.1860513E-4 -7.961815E-5 -3.3533524E-5 -7.841562E-5 -1.4444935E-4 1.5830487E-5 6.729931E-5 5.0028364E-5 -1.962751E-5 4.625539E-5 8.874458E-5 6.5682885E-5 6.44417E-5 -1.00139565E-4 9.809131E-5 -4.3090477E-5 1.806747E-4 -1.3391518E-4 -6.301485E-5 -4.20809E-5 -1.1335764E-5 5.0330495E-6 -1.1966711E-4 2.552877E-4 2.4894477E-4 -4.7619706E-5 -1.05600295E-4 2.8251707E-5 -4.027516E-4 -5.0158178E-5 1.6556053E-4 3.0335916E-5 5.8233527E-5 7.2173694E-5 -9.141096E-5 -1.5625954E-4 1.3677319E-4 1.3791207E-4 -1.0709277E-4 -1.6210466E-5 1.9836027E-4 5.3847543E-7 -1.3714303E-4 4.98408E-5 -3.0874045E-4 9.2671195E-5 1.8096833E-4 -2.5589907E-4 -3.396136E-4 2.3889268E-4 1.8798545E-4 4.1703257E-5 -2.2798555E-4 1.3895839E-4 -7.492466E-5 -9.4914256E-5 1.0444854E-5 -2.0481237E-4 2.0672973E-4 9.487212E-8 1.8396562E-4 -3.0327821E-5 -5.0937786E-5 -2.673591E-4 2.468615E-4 -2.2316657E-5 -8.432202E-5 -5.5733435E-5 -4.7782928E-4 -8.2842325E-6 7.1478484E-5 -1.0134934E-5 5.2608855E-5 -6.275221E-5 -2.640746E-4 -1.0772914E-4 -6.6153734E-7 -1.3596463E-4 3.2599146E-5 7.349372E-7 -2.4296962E-5 -4.3510893E-4 -1.5083326E-4 -1.8523748E-5 -9.9447316E-5 1.16314804E-4 -5.723993E-5 1.1771989E-5 -2.6860335E-4 1.9268077E-4 -4.7086174E-5 -7.422566E-5 6.121124E-5 3.2280807E-4 1.5479876E-4 1.1002346E-4 1.7182434E-4 1.747511E-5 1.284506E-4 -3.641312E-4 -3.2135972E-4 -8.581724E-5 1.4176559E-4 -8.780733E-5 -2.1099777E-5 -1.20379074E-4 9.16969E-5 4.4009255E-5 -2.488805E-4 -2.0563877E-4 -2.176339E-4 5.6749577E-6 -7.769566E-5 -1.216668E-4 -3.4667715E-5 7.475384E-5 -2.3457598E-5 1.136398E-4 1.6140816E-4 2.2850928E-4 1.4064592E-4 6.111041E-5 3.6512414E-5 -1.354291E-4 -2.0368487E-5 -4.7692833E-5 -3.7740807E-5 -2.0314907E-4 1.4957311E-4 2.4570376E-4 -2.2343348E-4 4.127839E-6 -3.5297744E-5 -8.80873E-5 -4.283444E-5 1.3303506E-6 -6.502333E-5 9.010797E-5 -1.3166957E-4 5.2569885E-5 -1.2530641E-4 -6.5532927E-6 4.3200045E-5 1.0182074E-4 -5.0076065E-5 -1.8970556E-4 1.4136222E-4 4.7661062E-5 3.538986E-5 -2.068702E-4 -1.21046585E-4 3.7916583E-5 1.5355927E-4 -6.165362E-5 1.5571287E-4 5.2367213E-6 3.3609776E-5 1.3599165E-4 2.968032E-4 5.7334088E-5 9.664294E-6 2.3060564E-5 -1.09407454E-4 -9.712344E-5 -1.457995E-4 -1.1116187E-4 6.436818E-6 6.2238214E-5 2.1081867E-4 4.142505E-5 -1.440577E-4 1.6916844E-4 -5.410115E-6 8.468276E-5 -6.585075E-5 -3.173468E-5 -1.7519639E-4 7.703713E-5 1.5004932E-5 1.0963494E-5 6.59094E-5 -1.6670463E-4 -2.6170594E-5 -1.7341848E-4 -1.6908567E-5 1.1959551E-4 8.9971916E-5 -1.1548702E-4 -1.8537334E-4 -3.261219E-6 1.3608004E-4 1.7804747E-4 1.2594453E-4 7.4880854E-6 -9.111493E-6 6.8870984E-5 3.6368959E-4 -1.2625275E-4 5.0954235E-4 2.4601645E-4 8.2636234E-8 -8.3020044E-5 7.4474876E-5 5.305461E-6 -2.8493063E-4 1.7370487E-5 1.6311209E-5 -1.07957094E-4 6.223541E-5 4.5171604E-5 1.9073086E-6 3.4787463E-6 3.1470862E-4 -1.2970535E-4 1.4572454E-4 8.200618E-5 2.6104413E-4 1.1332023E-4 1.0770603E-4 -2.1820633E-5 1.3464247E-5 -9.042451E-5 8.938548E-5 1.2873634E-4 -1.4625656E-4 4.144389E-5 -1.01910395E-4 -4.395911E-5 3.0248365E-4 4.6876205E-5 1.8432856E-4 -2.0721837E-4 -1.624431E-4 -6.210401E-5 -1.3333616E-4 -3.812356E-5 1.8908073E-4 -3.620614E-5 -1.9708824E-4 2.712744E-4 1.5795421E-4 -2.9958608E-5 1.9147526E-4 -1.331555E-4 -4.5545157E-6 9.02117E-5 -5.2015224E-5 -1.092944E-4 -2.6132455E-4 -1.8301554E-4 5.214626E-4 -2.6329138E-4 1.6643734E-4 -2.576836E-5 3.1626896E-5 -1.4234791E-4 2.1926666E-4 7.0579525E-5 7.493378E-6 -1.2069454E-4 -3.5281726E-5 5.3552092E-5 4.4840024E-5 1.1782531E-4 -2.4096499E-4 3.2895623E-4 -9.773676E-5 -9.4673975E-5 -2.606594E-4 -8.7162174E-5 -1.2564046E-4 8.420932E-5 -1.4909376E-4 5.564258E-5 -5.9105318E-5 -1.6620386E-4 3.812023E-4 1.5462203E-4 9.292932E-5 -1.3755276E-4 -1.7695436E-4 -1.979826E-4 -6.3929E-5 1.6687695E-4 -1.9832973E-4 4.80988E-5 1.5171719E-4 8.54072E-5 -4.1069303E-5 -1.914908E-4 -1.6840955E-5 6.882008E-5 3.1578355E-4 -4.070871E-5 -1.486616E-4 -3.991044E-5 -2.3201723E-5 -5.5615084E-5 2.3326758E-4 1.5954637E-4 -1.4809257E-4 1.1760587E-4 -3.0384412E-5 6.126205E-5 1.0373165E-5 8.524873E-5 -4.395922E-5 -1.3974977E-4 1.9288168E-4 -6.416303E-5 1.18833064E-4 -8.8983536E-5 -5.1186225E-7 9.697609E-5 1.3758487E-4 1.6910458E-4 8.14294E-5 2.6297462E-4 1.7231348E-4 4.5481465E-5 2.1754552E-4 2.5773837E-4 6.0088332E-5 -1.6562994E-5 -1.2235176E-4 -1.6120884E-4 -4.016712E-5 -2.4722115E-4 -7.14749E-5 8.098561E-5 -1.5086387E-4 -2.0693147E-4 2.435524E-5 3.808297E-5 1.0525438E-4 -1.1811967E-4 -2.1698356E-4 -1.6305005E-4 -4.134489E-5 -8.279724E-5 -1.5835547E-4 1.2201985E-4 2.9013105E-5 -2.6645875E-4 1.8068258E-6 5.519791E-5 -2.677029E-4