9.276446E-5 5.7324312E-5 -1.9619176E-4 9.544255E-5 -2.734277E-4 -1.1302905E-4 1.757647E-4 3.6790596E-5 -1.3031578E-4 1.66202E-4 -7.5324955E-5 -1.3911378E-4 4.8368718E-5 -1.282495E-4 8.521483E-5 1.0009011E-4 5.8351143E-6 -2.8002141E-5 -1.4657484E-4 6.390286E-5 -3.4402263E-5 -2.7803727E-4 7.6930795E-5 -2.1996293E-5 -5.8834863E-5 -6.0100647E-6 1.2935068E-4 7.806538E-5 2.8450656E-4 -1.3633701E-4 -2.7518206E-5 -1.0719843E-5 -1.0162228E-4 -6.258402E-5 1.5050937E-4 9.746988E-5 -9.1249596E-5 -8.74143E-6 3.1142838E-5 -5.1342897E-5 -2.3942725E-5 -1.1682864E-4 1.12835216E-4 5.0349845E-6 6.902789E-5 -1.5893899E-4 1.2790828E-5 -1.0957769E-4 1.2575352E-4 4.8678936E-5 9.3999086E-5 -5.2546013E-5 1.2256496E-6 -1.0950141E-4 -3.5335826E-5 -6.1560815E-5 2.8725437E-5 -2.525722E-5 2.419813E-4 8.1191465E-5 4.791288E-5 3.1222284E-5 -3.473058E-5 -3.622877E-5 -1.4920172E-4 6.4833E-5 -1.0973309E-4 4.9554714E-5 3.879342E-5 -1.4176397E-4 3.068955E-4 -5.060603E-6 6.202939E-5 2.3467524E-5 4.1779385E-5 2.0240754E-5 2.4564637E-4 -4.0485866E-6 -2.694054E-4 -3.2380427E-5 3.6028796E-6 -5.1036404E-5 8.342971E-5 -8.312971E-6 1.2396407E-5 2.9849958E-5 9.5849355E-5 2.6566333E-5 -3.1127274E-6 -4.8964436E-4 -2.056936E-5 1.5099958E-4 -6.4966545E-5 -9.305645E-5 -1.1437614E-4 1.6189893E-4 -5.0327973E-5 -1.4356922E-4 1.7633918E-4 1.4791971E-4 -5.572051E-5 -6.896628E-5 -6.986018E-5 2.3478786E-5 -2.0668168E-4 -6.179853E-6 1.406666E-4 1.8885169E-4 -6.008988E-5 2.4892544E-4 8.867505E-5 -7.5323E-5 -3.0111847E-4 9.76172E-5 -3.6043726E-4 1.3277873E-4 -5.288377E-5 -2.247664E-5 -7.538876E-5 5.247417E-6 7.383722E-5 8.200448E-6 -6.0645118E-5 3.073424E-5 -1.09713605E-4 -4.7016452E-5 -3.0708376E-5 1.7608581E-5 -1.2218191E-4 -6.733478E-5 2.1827487E-5 -9.5492076E-5 1.03566155E-4 -5.2977746E-5 -9.4934934E-5 -2.9960074E-4 1.7828845E-4 7.8768324E-5 1.2976414E-4 -1.2391724E-4 1.1504308E-5 1.2274779E-4 1.3034244E-4 -5.2230112E-5 6.573765E-5 2.9400939E-5 -1.4296079E-5 6.594367E-5 1.16884316E-4 -1.9479325E-5 5.655348E-5 -6.904225E-5 -1.8919287E-5 -4.1507912E-5 3.58143E-6 2.6010547E-4 -1.0716797E-4 -1.6398047E-4 -1.7630507E-4 7.9199446E-5 1.3393872E-4 -1.5293702E-4 -4.8463313E-5 6.903843E-5 2.8030216E-4 2.7213342E-4 -1.744498E-4 7.728733E-5 -1.15481555E-4 1.20711076E-4 -2.5606885E-5 2.2214833E-4 2.7803904E-5 -3.4179408E-5 5.0514325E-5 -8.329518E-5 3.0373783E-5 1.4815945E-5 3.5358637E-5 -6.7691486E-5 -9.844243E-5 1.906357E-4 -7.557593E-5 -1.5076651E-4 5.6714205E-5 1.5351904E-4 2.2541797E-5 -1.07067826E-4 1.855914E-4 -3.376895E-5 7.7542776E-5 -2.0694322E-4 -3.0342322E-5 -5.9056612E-5 -6.292233E-5 -3.0816147E-5 9.504845E-6 4.6405956E-5 1.6289538E-4 3.3859673E-5 1.7441381E-4 -1.0678369E-4 2.1762185E-4 -9.411044E-5 -8.611896E-7 -4.552115E-5 -1.1316177E-4 5.550518E-5 -8.640201E-5 -8.6302825E-6 -3.134647E-5 -3.526846E-5 2.293968E-4 -4.7052796E-5 2.0088172E-4 4.0473264E-5 -2.2405218E-5 1.0246324E-4 2.0386342E-5 -4.7250775E-5 1.2322354E-5 -1.1456381E-5 6.7008594E-5 7.2163355E-5 -1.4905936E-4 6.9779504E-5 1.4829921E-4 -4.006263E-5 -5.9588303E-5 1.5902926E-5 -6.764013E-5 -2.2072715E-4 -1.4697429E-4 6.2482875E-5 -2.1618853E-5 2.4044019E-4 2.4185E-5 -1.2732151E-5 -2.2563607E-4 -1.2321587E-5 3.657039E-5 -1.8580843E-4 -1.1335179E-4 1.415634E-4 2.1944255E-4 -8.319673E-5 2.95539E-4 1.5002166E-5 -1.1632478E-4 6.860495E-5 1.1970807E-4 6.997348E-5 -1.3101568E-4 4.2280517E-6 -6.267236E-5 2.9504823E-4 -7.444824E-5 -1.2571333E-4 -4.3492328E-6 3.0546216E-6 -8.498621E-5 -1.3447621E-4 -6.921358E-5 1.9714845E-4 1.3691621E-5 4.431199E-5 -1.5843229E-5 1.08064356E-4 8.924779E-5 -3.2654087E-4 4.1851406E-5 -1.6098119E-4 -1.0682612E-4 -8.0669226E-5 -3.1730506E-5 9.631916E-6 -3.521074E-5 1.6562393E-5 -1.2376309E-5 6.958713E-5 1.274684E-4 1.0358398E-4 1.1743573E-4 1.883289E-5 -1.2619824E-4 7.947808E-5 1.2851095E-4 1.1094562E-4 8.7038796E-5 -4.4237444E-5 -2.9256192E-4 3.6619254E-5 1.8615401E-4 -1.9687599E-4 -1.0828425E-4 2.3877395E-4 1.8318978E-4 -1.8567452E-4 -8.8550674E-5 8.714765E-5