1.5952476E-4 6.6407083E-4 1.9458275E-4 2.642751E-4 -4.518309E-5 3.06112E-4 -5.24404E-4 -1.7946595E-4 -3.060288E-5 1.0738704E-4 1.5560356E-4 -2.834863E-4 -9.045387E-4 -6.185834E-4 5.0531834E-4 8.7940134E-5 4.5932855E-5 -1.747293E-4 -1.9340197E-4 -4.0751827E-4 8.927503E-5 -5.677911E-4 -4.3865322E-4 1.381159E-4 -2.2190817E-4 1.973405E-4 -5.244273E-4 -3.1288975E-4 2.1341883E-4 5.115434E-4 -3.1319837E-4 -7.2075485E-4 -3.4579766E-4 6.229033E-4 7.269194E-5 1.829745E-4 3.6351074E-4 5.782294E-4 -0.0011380193 6.5457955E-4 -1.3941279E-4 5.5673043E-4 2.8562627E-4 -9.137505E-4 -3.0864181E-4 2.9309094E-4 -1.3387487E-5 2.067335E-4 6.083776E-4 3.6834425E-4 -4.946559E-4 -7.984698E-4 -6.790919E-4 -5.289714E-4 -4.922313E-5 1.6421766E-4 1.6365254E-4 -1.5200111E-4 6.238088E-4 2.895155E-4 3.7136336E-4 1.9144367E-4 1.10462046E-4 0.0012943432 -1.08199325E-4 2.7854086E-4 6.402822E-4 -4.5749638E-4 -5.511978E-4 4.3568347E-5 6.674273E-4 7.5898366E-5 9.0109743E-4 -1.5893651E-4 2.8464068E-5 -5.1460206E-4 -6.6840876E-4 1.2993373E-4 -7.2003045E-4 -5.044641E-5 2.5280454E-4 -2.9829252E-4 -3.6257823E-4 4.9713167E-4 -2.3464055E-4 1.8090807E-4 -2.512028E-4 1.5745248E-4 1.4803087E-4 1.913122E-4 4.098974E-4 8.291791E-4 -8.208059E-6 3.3779064E-4 -9.761765E-5 -6.9648743E-4 -2.2975219E-4 2.6620517E-4 7.600165E-4 5.148668E-4 3.521944E-4 1.2875357E-4 5.793776E-4 5.1680578E-5 6.3638453E-4 -5.0732597E-6 -6.3402223E-4 -4.4344182E-4 -1.518669E-4 2.2943657E-4 3.8919967E-4 5.143603E-4 7.8414676E-5 -1.8542184E-4 2.4281228E-4 -1.223344E-4 7.083523E-5 7.361596E-4 1.8066677E-4 4.3541193E-4 -3.4545932E-4 -1.426549E-4 -8.811922E-5 -9.164966E-4 -6.856848E-4 9.95273E-5 3.2216692E-5 6.090186E-5 0.0010189754 7.286291E-5 6.751744E-5 -1.246177E-4 6.4940786E-4 1.9242412E-4 8.4818265E-4 2.3412624E-4 -2.5506943E-4 1.5050615E-4 -2.3790465E-4 -3.2623135E-4 3.011512E-4 -4.4426395E-4 -2.327166E-4 2.403793E-4 2.4130155E-4 -1.9313664E-4 3.1763826E-5 4.0730974E-4 1.485092E-4 2.4388934E-4 4.715304E-5 6.372005E-4 -3.4374927E-4 -5.069026E-4 5.037111E-5 -1.4251724E-4 -1.6479977E-4 1.479637E-4 -2.1308356E-4 9.731124E-6 2.946669E-4 5.09607E-4 4.3684174E-4 4.964629E-5 8.040419E-4 -3.8769107E-5 3.7456118E-4 2.997021E-4 -2.4171732E-4 7.96542E-5 3.686276E-4 -2.025166E-4 6.1074056E-4 1.3438168E-4 4.5295685E-4 -5.0654274E-4 -8.510916E-5 -4.9821415E-4 -7.628608E-4 -8.311425E-5 -7.306682E-5 -1.16160365E-4 -1.06482155E-4 1.7818704E-4 -1.0544439E-4 2.7080913E-4 -3.5762778E-4 1.8600002E-4 -6.8999827E-4 -3.3130636E-4 -7.5551674E-5 2.9882506E-4 -4.4337328E-4 9.1001287E-4 8.317297E-5 1.5507416E-4 -1.2503471E-4 5.751985E-4 -6.2232453E-4 3.7773815E-4 -1.728058E-4 -2.0329954E-4 -3.84074E-4 -1.384107E-4 -2.6088678E-6 -1.5749726E-4 4.6748706E-4 -8.4436033E-7 4.267366E-4 5.328434E-4 -5.052672E-5 3.5130038E-4 5.381803E-4 -1.6370807E-4 4.2437506E-4 -2.8857178E-4 -5.327321E-4 -1.0881348E-5 3.6156908E-4 6.0300686E-4 -3.100136E-4 -1.761791E-4 -2.7089214E-4 -3.1051232E-4 4.0684702E-4 -1.9494201E-4 5.222079E-5 3.1132426E-4 -1.6751936E-4 7.720197E-4 4.018971E-4 4.0725467E-4 1.8708999E-5 7.769673E-5 -3.13244E-4 4.8578792E-4 4.2786298E-4 -1.277688E-4 3.3493718E-4 2.0753941E-4 2.4044432E-4 4.2020922E-4 -3.4704024E-4 1.714467E-4 -4.0462578E-4 -3.4219844E-4 -9.928176E-4 -4.161693E-4 4.5617676E-4 6.693085E-4 4.9933407E-4 -4.551068E-5 3.4928927E-4 -2.6573805E-4 5.241877E-4 4.8229063E-5 -2.0375106E-4 -1.15650226E-4 -4.0624748E-4 -5.191908E-5 1.313994E-4 -7.6195414E-5 1.2764115E-4 -4.306325E-4 2.3425999E-4 -3.6686484E-4 -4.2386062E-4 -4.7665992E-4 -2.3681545E-4 2.9050707E-4 4.998395E-5 -6.735284E-4 8.8137365E-4 -1.2671844E-4 -9.8715E-4 1.9141671E-4 -6.099547E-5 -3.7358757E-4 -3.308172E-5 -2.9370488E-4 -1.1793012E-4 3.3278877E-5 4.9083325E-4 -8.479097E-4 6.684296E-4 4.0095928E-4 3.7627637E-5 -6.071427E-4 -5.041427E-4 -9.243953E-5 -5.907773E-4 7.0558555E-5 -9.559649E-5 3.5455992E-4 1.10030785E-4 1.4695311E-4 4.8354885E-4 -9.4423885E-5 3.6241717E-4 3.3584423E-4 5.500942E-4 7.7216554E-4 7.884182E-5 3.9749073E-5 5.3962176E-6 4.1699765E-4 -8.277183E-4 4.4130307E-4 1.03889135E-4 -7.3990005E-4 1.2823808E-4 -2.8473136E-4 -7.593882E-5 -8.164305E-5 -1.8958552E-4 5.138309E-4 -9.592534E-4 -8.401282E-5 5.531197E-4 6.230447E-4 -1.04645886E-4 -1.234419E-4 -2.0775122E-5 2.1574358E-4 5.3327833E-4 2.7631657E-4 2.2253691E-4 3.6081907E-4 -6.31215E-4 6.432325E-5 -6.671033E-4 1.5095255E-4 1.6809785E-4 -1.2056781E-4 3.7075023E-4 4.991576E-4 -9.381036E-6 1.283434E-4 -2.921714E-4 3.3683744E-5 -4.132773E-5 -4.00895E-5 5.3412246E-4 -2.8485005E-5 1.6975617E-4 2.7149994E-4 -0.0014003677 -4.275382E-4 4.2299044E-4 4.9020084E-5 1.0047239E-5 -1.883016E-4 -4.945617E-5 5.6965113E-5 2.8182476E-4 6.528128E-4 -3.6705795E-5 -1.945829E-4 7.4184136E-5 -3.17582E-5 7.998845E-5 -2.765711E-4 4.374218E-4 1.5278556E-4 5.491756E-5 6.2837097E-4 1.8366314E-5 -5.0739554E-4 -5.515561E-4 2.902167E-4 -2.0556402E-4 -4.2803044E-4 3.858804E-5 -2.6581378E-4 6.369239E-4 -3.0666907E-4 -1.6865824E-4 2.2516176E-4 4.7575598E-4 -6.06439E-4 -7.520392E-5 -2.9433443E-4 -9.673653E-4 -5.980665E-4 1.9450126E-5 -2.1428926E-4 2.6181067E-4 2.6808959E-4 3.406308E-4 -8.479191E-4 9.389603E-5 1.9438971E-4 -5.150454E-5 6.410683E-5 -8.617409E-4 -1.7124918E-4 1.8256047E-4 4.9383217E-4 1.5307018E-5 -1.703831E-4 3.287881E-4 -3.430351E-4 -3.2565126E-4 -8.9334947E-4 -4.6320897E-4 -3.9361438E-4 9.485958E-5 -4.0313247E-5 1.6610329E-4 6.5285794E-4 -7.4113676E-5 6.433647E-4 3.232056E-4 5.0139835E-4 8.1203575E-4 -8.7372016E-4 -6.091257E-4 -2.7995333E-5 -7.621493E-7 3.7202562E-4