-2.8152598E-4 -3.6276085E-4 2.9097231E-5 -6.552397E-5 -1.8495871E-4 3.4876753E-4 1.2027141E-4 -7.828165E-5 -1.273891E-4 -1.7924044E-4 -6.3208543E-4 1.0332464E-4 3.7251535E-5 -8.923029E-4 -3.151994E-4 2.6749203E-4 3.286105E-4 4.3524877E-4 3.712033E-4 6.15997E-4 2.3657263E-5 -4.879567E-5 -2.9625258E-4 6.777827E-5 -5.0925446E-5 -9.082022E-5 4.8351838E-4 -3.2931968E-4 -5.953568E-4 -2.8582203E-4 3.646864E-4 -8.2324946E-4 4.661958E-4 -2.6384764E-4 9.357519E-5 -2.2546126E-4 9.66314E-5 -2.576918E-4 -2.6143555E-4 -2.3508785E-4 -6.542767E-4 1.7186756E-4 1.6752684E-4 -5.214847E-5 -1.7314249E-4 1.3523543E-4 1.543811E-5 2.1559707E-4 -4.8135186E-4 4.4811392E-4 -1.6309733E-4 6.820546E-4 -1.8000476E-4 4.864475E-5 -1.3891644E-5 2.792665E-4 5.7862006E-4 -2.0554429E-4 2.0666872E-4 -6.3353806E-4 -2.1796674E-5 -5.542088E-5 5.9139624E-5 2.1849872E-4 -2.3643693E-4 2.1846688E-4 -1.3622918E-4 -7.20925E-5 -1.2397906E-4 -5.385494E-4 -1.6125338E-4 5.2967298E-5 -1.5877828E-5 -1.2735647E-4 6.476105E-4 -3.0522028E-4 -4.0776176E-6 4.4425562E-4 -5.328578E-4 5.629064E-4 3.1119678E-5 2.1136277E-4 -8.540508E-5 2.9805838E-4 1.7447978E-4 3.7474278E-4 1.4116438E-4 4.547124E-5 -3.1367273E-4 5.068806E-4 1.8081702E-4 4.0269378E-4 -0.0010754569 3.1224536E-4 -1.6130507E-4 -2.1398172E-4 -3.2653467E-4 -2.2229945E-4 2.5062542E-4 2.0882988E-4 -5.296925E-4 4.4415847E-5 -4.1816058E-4 -5.491594E-4 2.3692191E-4 -1.9326866E-4 4.161019E-4 0.0011912207 2.7971718E-4 -2.5828072E-4 7.841631E-5 -2.991073E-4 8.5234875E-4 2.680875E-4 1.424121E-4 -8.2598516E-4 -2.2144234E-4 1.9979147E-4 -1.3107929E-5 -3.6119626E-4 -1.392219E-4 6.6612207E-4 2.561485E-4 4.964362E-5 -7.881383E-5 -8.9803146E-4 -2.0994763E-4 7.276646E-5 -3.9880077E-4 3.3993647E-4 3.7674894E-4 1.7826591E-4 8.610631E-5 5.497707E-5 1.4195146E-4 2.4602702E-4 1.0208035E-4 -5.657725E-4 -1.3945946E-4 7.842647E-5 -2.1470545E-4 -1.7210032E-4 3.331831E-4 6.9985195E-4 1.0427405E-4 4.5106577E-4 -1.003957E-5 3.3629802E-4 0.0010170795 -6.0438528E-5 -2.8964295E-4 8.576284E-5 -1.3393097E-4 -3.8458093E-4 -2.2388766E-4 -3.3290297E-4 -6.4123026E-4 1.2010439E-4 8.298704E-5 -4.163458E-4 -5.4265757E-4 6.3480646E-4 7.6046563E-6 5.119434E-6 -5.9185777E-4 -4.810709E-5 -1.6521795E-4 5.9546996E-4 1.7712568E-4 -3.229372E-4 9.0960984E-4 -3.4876613E-4 8.350663E-5 7.406489E-5 6.26079E-5 3.081809E-5 3.0087112E-4 2.946192E-4 9.299746E-5 1.50518E-4 1.7088593E-4 -2.0445412E-4 5.222002E-4 4.2593287E-4 2.824135E-4 -9.991076E-5 -3.7532394E-5 -3.7082762E-4 2.6012817E-4 8.3127886E-4 -6.511429E-6 2.4425448E-4 -2.9393344E-4 -6.375802E-5 2.379033E-5 6.4198027E-4 -1.04539795E-5 -5.879171E-4 -1.8864387E-4 -1.3522906E-4 9.016156E-5 2.998766E-4 -2.1472847E-4 1.0183427E-5 4.200473E-4 -3.6071846E-4 -5.2334205E-4 1.1470436E-4 8.5971854E-4 3.249203E-5 7.698219E-5 3.0573522E-4 -6.7439076E-5 -3.454946E-4 6.8347855E-4 4.0879234E-4 -3.1958043E-5 5.985387E-4 5.077255E-5 9.8141056E-5 -3.7432864E-4 1.9057188E-4 -2.955132E-4 -5.16478E-4 4.4510387E-5 2.4650927E-4 -5.251465E-4 1.7265015E-4 9.881465E-5 -1.7569204E-5 -1.0365475E-5 -1.156417E-4 1.5706588E-5 5.103777E-4 2.3987939E-4 2.4999795E-4 -4.1991335E-4 4.2527672E-4 4.2461186E-5 -1.5210234E-4 -2.8174976E-4 -1.639911E-4 5.5898115E-4 3.7791866E-5 4.0094042E-4 5.2484706E-5 -3.9363696E-4 -3.5789508E-5 -2.8259083E-4 4.634049E-5 -1.4116587E-4 2.7952573E-4 3.7102378E-5 1.3499716E-4 8.04252E-5 8.0799556E-4 -6.648816E-4 3.4645485E-4 5.3949264E-4 -0.0010677592 8.006088E-5 1.2550295E-4 -1.2335637E-4 7.599885E-5 3.621107E-4 3.636836E-4 3.454075E-4 4.0377316E-5 -4.0666584E-4 9.514623E-4 1.9379315E-4 5.2477064E-4 -1.4019209E-4 3.3196845E-4 5.111702E-4 2.9305153E-4 1.731917E-4 -2.0330504E-4 3.0869644E-4 -9.431531E-5 6.992542E-4 3.064303E-4 1.986291E-4 -3.4922513E-4 7.250813E-4 -2.2882325E-4 1.18745025E-4 -4.7923526E-4