-1.721133E-5 -6.0301663E-6 7.368601E-5 6.824401E-5 -3.8158607E-5 -2.4974288E-5 -5.9911188E-5 9.5890064E-5 9.333517E-5 -1.8789677E-4 -2.2018894E-4 -8.4533465E-5 1.4739219E-4 -4.3928638E-5 1.3333312E-4 -2.0854607E-4 -6.30563E-5 -6.7633926E-5 1.0835884E-4 -9.036028E-5 -2.783168E-5 -4.3123673E-6 2.3369792E-4 -8.417123E-6 8.274849E-5 -1.3484366E-6 6.275588E-5 -5.991939E-5 3.2126347E-5 -4.5231027E-5 1.3679873E-4 -4.805336E-5 -1.0300262E-4 -7.226642E-5 3.6877915E-5 9.416689E-5 -9.2591813E-7 2.4326568E-5 1.3319393E-5 7.178933E-5 8.0152866E-5 -1.2458608E-4 1.1843416E-4 7.623483E-5 -3.7544884E-5 -1.0891714E-5 -7.704385E-5 -6.017316E-5 2.2785225E-5 1.4377154E-4 -8.883871E-5 8.076827E-5 -9.4060364E-5 -1.4886174E-4 1.01569436E-4 1.950495E-5 -2.7092428E-5 6.321696E-5 -2.7828812E-5 8.589875E-5 7.486378E-5 8.977937E-5 7.695133E-5 -8.2089886E-5 -5.89455E-5 -2.7189026E-5 -3.2041266E-5 2.7212292E-5 -8.110946E-5 1.1482306E-4 6.952137E-5 -6.742512E-5 -1.6616395E-5 8.472919E-5 5.513148E-5 -5.130549E-5 5.0653027E-5 1.3269781E-4 -9.948224E-6 1.6357635E-5 -7.2708186E-5 -1.732167E-5 -1.1231065E-4 4.8557704E-5 -7.80269E-5 -1.05738545E-4 -1.06986365E-4 -9.980108E-5 -1.9138159E-5 2.905292E-5 6.147486E-5 -8.368094E-6 -5.2724594E-5 -2.414667E-5 3.4710676E-5 1.3180997E-4 6.598988E-5 2.1981081E-4 -6.9113903E-6 5.1024195E-5 1.1204614E-4 -1.761967E-5 -1.6547204E-4 1.7287947E-4 8.929087E-5 -9.734759E-5 1.2754224E-4 -1.9500942E-5 2.1909567E-5 -3.246119E-5 -1.7598315E-5 -4.495269E-5 7.934193E-6 -1.00436104E-4 1.13288625E-4 -7.4518E-5 8.3935985E-5 8.0316546E-5 7.01988E-5 -3.2579646E-6 1.1346046E-4 6.9533366E-5 5.796118E-5 5.152424E-5 -8.666455E-5 1.0698033E-4 3.1813277E-5 -5.320859E-5 -4.2970125E-5 2.473608E-5 5.5894794E-5 6.2187995E-5 5.730242E-5 4.6130634E-5 -1.0513737E-4 -5.437545E-5 1.2687728E-4 -5.2102314E-5 -7.846503E-5 -6.929996E-5 -1.8123566E-5 -6.310868E-5 6.831581E-5 6.8757768E-6 -7.942954E-5 1.8191862E-5 4.0192797E-5 -1.0361024E-5 -1.0946285E-4 -1.2628485E-4 -1.7359843E-4 9.0539135E-5 -7.304088E-5 -1.4312814E-4 1.1022386E-5 -2.1447615E-4 8.16271E-5 -2.9862342E-5 -8.081758E-5 -1.89789E-5 -9.745415E-5 -5.2966916E-6 -6.0525366E-5 -8.662361E-5 1.4158977E-5 -1.0390354E-4 6.363024E-6 -3.6300684E-5 -6.717361E-5 1.4278727E-5 9.962606E-5 -1.5066364E-5 7.131851E-5 -9.6872405E-5 -1.3417425E-4 -1.4997726E-4 -1.2231014E-4 -2.1222617E-5 -3.966782E-5 1.0460111E-4 -3.235387E-5 2.2197589E-4 -9.05957E-5 -3.9105125E-5 -5.6388842E-5 -1.299861E-4 4.660029E-5 1.0122271E-4 4.748255E-5 5.29555E-5 1.367116E-4 -8.585667E-5 -3.0411738E-5 -1.4055846E-4 -3.0025269E-5 2.7820995E-4 -1.1690203E-4 1.377074E-4 -4.5172746E-5 3.7940506E-5 -3.5427565E-6 1.428718E-4 -2.5999043E-5 -7.029728E-5 -5.353132E-5 4.0965217E-5 -1.6879365E-4 -1.84631E-5 2.2806053E-5 -8.034451E-5 6.378825E-5 -1.607138E-4 -6.49852E-5 1.3705976E-5 -1.920118E-4 -2.8434795E-5 1.2982605E-4 -9.852065E-5 6.46979E-5 -6.98618E-5 2.9767978E-5 1.3457486E-4 -2.0836978E-5 6.444986E-5 3.225662E-5 -5.4937285E-5 7.799833E-5 -1.737085E-4 -1.5047513E-4 7.7020435E-5 -1.2513943E-5 6.0796506E-6 -9.459804E-5 -5.5869215E-5 5.4795193E-5 -2.9338384E-5 -9.356499E-5 1.1212607E-4 -6.093142E-5 1.5313055E-4 1.5551286E-5 -3.2379307E-5 1.1338552E-6 -5.922616E-5 3.406343E-5 -4.38481E-5 2.8308323E-5 1.0064082E-5 2.4551946E-5 5.050646E-5 -1.128548E-4 8.3821804E-5 8.544546E-6 4.102289E-5 7.674284E-5 -1.3696187E-5 1.3710788E-4 -4.397272E-5 6.148263E-5 -2.8578366E-5 -3.3584995E-5 3.730082E-5 2.602401E-5 1.0039133E-4 1.0187605E-4 -9.235155E-7 -3.3154414E-5 -6.7682886E-5 1.1712186E-5 -6.122178E-5 1.3734239E-4 8.759672E-5 -6.6264242E-6 -2.0236683E-5 -4.8874015E-5 1.3082609E-5 1.4910534E-5 -6.669425E-5 -4.7685025E-5 -5.641577E-5