1.4665394E-4 7.009852E-5 1.4190469E-4 1.221056E-4 1.20738245E-4 -1.3473927E-4 1.361206E-4 3.6835734E-4 -2.2762541E-4 4.141773E-4 2.0197014E-4 1.8055862E-4 -3.1439203E-4 5.892219E-5 -2.8870138E-4 -1.2701024E-4 1.725435E-4 -2.8187237E-4 2.3495313E-5 -2.775992E-4 3.3555403E-5 3.1583222E-5 -7.744054E-6 -1.4103466E-4 3.2350785E-4 -6.302342E-4 2.0990666E-4 -6.641006E-5 -2.0602092E-5 -3.0033463E-5 -3.9197592E-4 6.661867E-8 -2.5557686E-4 -1.9155019E-5 -1.3027526E-4 -1.7674104E-4 -1.600724E-4 7.788933E-5 4.928791E-4 -1.3058336E-4 -1.0923589E-4 3.4773246E-5 -8.4380335E-5 7.769123E-5 4.0621762E-4 -1.0814851E-4 -1.4417974E-4 -3.9690497E-4 -4.9683545E-4 -5.352E-6 7.42121E-5 1.5991868E-4 -4.141608E-4 3.2603733E-5 7.65384E-5 1.6914011E-4 2.876725E-4 2.3563363E-4 -4.830503E-5 7.77376E-5 3.8916405E-6 1.1512653E-4 8.472387E-6 2.5830933E-4 1.998982E-6 1.406984E-4 1.978112E-4 4.7438662E-4 1.6276274E-5 -2.812239E-4 2.1466633E-4 -1.9477704E-4 1.4234718E-5 1.9578994E-5 7.056794E-5 -1.1604172E-5 -2.9947114E-6 -4.098399E-4 1.13777016E-4 -9.7446136E-5 -2.0329545E-4 -6.031822E-5 5.647712E-5 1.4865816E-4 -1.0048608E-4 1.236996E-4 8.905675E-5 4.6884626E-5 -8.571218E-5 5.014392E-4 -7.0781636E-5 3.406433E-4 8.272188E-5 3.226898E-5 -2.5835403E-4 1.1365455E-4 -2.9769805E-4 9.934342E-5 -3.4205706E-4 -1.6028753E-4 -2.1745083E-4 1.4252709E-4 -2.99618E-4 1.823219E-4 8.0762606E-5 -1.4449761E-4 2.5210204E-4 7.55621E-5 -1.6494712E-4 7.467222E-5 1.7725429E-4 -5.8841328E-5 -2.753762E-4 1.6702844E-4 1.5193268E-4 2.3420464E-4 -9.730732E-5 -3.171009E-5 -9.188985E-5 -2.6562452E-6 3.5561642E-4 4.1147787E-4 2.0767875E-5 -3.5026553E-4 6.415658E-5 -6.2362233E-6 -3.5838384E-5 -4.1281385E-4 -2.1988231E-5 9.956546E-6 1.4577698E-4 -4.816674E-5 -9.302198E-6 -3.2362773E-4 3.647055E-4 -3.8552676E-5 -1.3254839E-4 -3.1220734E-5 -3.7052145E-4 -1.1094737E-4 4.9151276E-7 2.7055622E-4 3.1204356E-4 -3.3599103E-5 1.2663075E-4 4.2936756E-4 -4.1049163E-5 2.3807459E-4 3.9292153E-4 -4.4607377E-4 7.0401584E-5 -1.8084087E-4 8.655191E-5 1.214703E-4 -3.6639624E-4 -1.1525831E-4 -1.6404066E-4 -1.9023681E-4 5.4229295E-4 -9.109904E-5 -6.915165E-5 3.2746568E-5 -1.0669561E-5 -1.5999442E-4 -1.7629802E-4 -6.21769E-5 -1.91273E-5 -1.5581143E-4 -3.6728961E-6 1.0251795E-4 3.040783E-4 3.9431904E-4 -1.46678E-4 -2.3412638E-4 1.6418136E-4 -2.2881245E-4 1.15829214E-4 -3.8823806E-4 -5.8268015E-5 -1.734154E-4 2.6269178E-4 -1.9469191E-4 1.11724E-4 5.6423134E-5 -1.0783291E-4 2.1188948E-4 -3.3353025E-4 -3.4297573E-5 3.029703E-4 1.2779348E-4 1.5677378E-4 -9.7907076E-5 1.7233819E-4 4.072585E-5 -7.1399336E-6 -8.911271E-5 -6.3056854E-4 -5.4341384E-5 -1.8638166E-4 1.1912442E-4 2.8889917E-4 1.3847445E-4 1.8362683E-4 -1.3825482E-4 -3.5413657E-4 3.590418E-4 -1.8460517E-4 -1.5024206E-4 3.086398E-5 1.8529408E-4