-1.4971582E-4 -2.9183531E-5 -3.4471753E-4 -5.659346E-4 1.0473798E-4 6.907785E-4 1.8673431E-4 -2.0539897E-4 -6.018884E-4 2.423672E-4 -4.626499E-4 3.6231047E-4 1.2056186E-4 -1.8077993E-4 -4.4436078E-4 -5.680063E-4 -6.0797087E-4 6.1020026E-5 -5.7546553E-5 -7.89045E-4 -4.1669398E-4 -9.842328E-4 3.871292E-4 -7.5755094E-4 9.869112E-5 -4.3598583E-4 -4.7230633E-4 5.8060585E-5 -1.3864075E-5 -4.9550024E-5 -5.650936E-4 -7.7791064E-4 -4.762884E-5 1.9715853E-5 1.3229242E-4 -3.0890512E-4 1.2247622E-4 -3.355161E-4 3.7708232E-5 1.7384834E-4 5.48861E-5 1.6837275E-4 -1.0801441E-4 -1.5530095E-6 1.0385508E-4 -3.203365E-4 -4.715299E-4 -4.0642676E-4 2.653591E-4 1.3755285E-4 -2.793115E-4 3.315625E-4 1.5204835E-4 -4.343831E-4 -6.8019173E-4 -2.863618E-4 -4.169579E-4 -5.9130654E-4 6.079049E-4 -3.0137316E-4 -3.4355157E-4 -8.330609E-5 -4.9381156E-4 2.23347E-4 -4.4354278E-4 5.1882665E-4 -3.6588253E-4 7.0059474E-4 7.8965706E-5 7.212952E-4 6.068338E-4 6.3324143E-4 -5.873284E-5 5.029047E-4 5.795856E-4 -3.5340208E-4 3.472717E-4 -4.609818E-4 -4.0192308E-4 -4.675579E-4 6.540709E-4 3.1705463E-4 -1.3891557E-4 4.9460283E-4 5.910235E-4 -2.8432588E-4 -1.6639679E-6 0.0010698739 2.0873704E-4 -7.4698316E-4 -3.7940784E-4 -2.4657973E-5 -3.407399E-4 3.2878364E-4 8.377644E-5 7.1336067E-4 -2.6565682E-4 2.6803784E-4 -3.2871368E-4 -7.3274685E-4 1.5517951E-5 2.4421955E-4 1.8417668E-4 2.3490613E-4 6.248271E-4 -2.9711105E-4 8.02793E-5 -5.685151E-5 -1.704288E-4 -5.69037E-4 0.001236577 4.3950827E-4 -9.919967E-5 -2.806588E-4 -2.3411657E-4 6.924787E-5 -9.576951E-4 7.851497E-5 -8.516544E-4 1.9382423E-5 -4.763953E-4 7.7766206E-5 9.468882E-4 -3.4798819E-4 5.780063E-4 -0.0010288048 -7.126183E-5 3.125545E-4 -3.69888E-5 5.951997E-4 -4.007045E-4 3.5793186E-4 -5.550657E-4 -2.5193076E-4 -4.4861095E-5 9.522771E-4 -3.4502934E-4 -6.836093E-4 -0.0010430223 4.6610722E-4 -8.5244374E-4 7.015813E-5 4.8583339E-4 1.6417075E-4 8.159743E-4 -7.0140447E-4 8.290628E-4 -8.8563707E-4 -0.001103385 2.6796808E-4 -1.9874633E-4 4.0027057E-4 -2.638319E-4 1.116216E-4 -7.143412E-4 -3.841748E-4 -2.5528783E-4 -1.193398E-6 -3.1540604E-4 9.917002E-5 2.5383243E-4 -5.242549E-4 4.4560285E-5 2.9740424E-4 3.2286052E-4 2.7061728E-4 -3.035706E-4 -1.7588938E-4 1.227817E-4 -5.9229133E-5 5.1247183E-4 1.8391445E-4 -7.2844326E-4 -6.2855374E-4 3.1761255E-4 -2.4633997E-4 7.186795E-4 -2.3496008E-4 4.5003992E-4 -2.7702854E-4 7.636339E-5 9.97593E-4 2.0047036E-4 -3.725467E-4 2.295318E-4 -1.4534265E-4 6.792674E-4 2.2554075E-4 3.1588704E-4 -7.6069304E-4 -1.987296E-4 -6.682037E-4 -7.729983E-5 -4.9355504E-4 3.8564476E-4 -4.7171E-4 8.736955E-4 -2.6041555E-5 -1.99199E-4 2.0441497E-4 -3.1234833E-4 2.2659278E-4 -5.31705E-4 -2.6403935E-4 -2.7007377E-4 -4.8458172E-4 -5.9139123E-4 1.43319485E-5 -2.6946177E-4 3.2238255E-4