-1.8606035E-5 -1.5439015E-4 -4.2089858E-4 -7.3777547E-4 -8.1491633E-4 7.7528396E-4 -1.2548841E-4 -0.0012301804 -0.0018537083 -2.978322E-4 1.8948472E-4 -8.609595E-4 -6.144449E-4 -0.0011955368 -1.0992499E-4 4.2701547E-5 -3.4947228E-4 -0.0011033778 -0.001776268 -8.713163E-5 0.0019192769 2.366805E-4 6.15119E-4 -6.893515E-5 -0.0021535319 1.10500434E-4 0.001181493 3.2419403E-4 5.576277E-4 -0.001346726 0.0015527421 0.0032552052 0.0014259109 4.7223587E-4 -0.0018050952 -9.0227043E-4 0.002051899 0.0019811105 -0.0019168803 -4.6675862E-4 -0.001618416 0.0013438417 9.25452E-4 -8.2800584E-4 -3.1569484E-4 -3.4963572E-4 0.001421015 0.0015276821 -6.093187E-4 5.161965E-4 -3.242229E-4 3.4345774E-4 7.77973E-4 0.0014512818 -0.0026576773 -0.0013619727 4.4376982E-4 -0.0011879232 -3.7365887E-4 1.5978752E-4 0.0012712538 -0.0011616923 -0.0024230937 4.950019E-4 0.0013865103 -2.4550228E-4 -0.0010738503 -1.6777235E-4 5.15907E-5 -1.7556826E-4 3.8536964E-4 -0.0014417651 -2.570675E-4 -6.352159E-4 -2.4894718E-4 -6.147652E-4 -7.1173406E-4 0.0014027033 6.248691E-4 0.002317067 7.5844524E-4 -4.8053844E-5 -9.47462E-4 7.1374327E-4 1.5043945E-4 1.0770169E-4 1.830174E-4 0.0010691263 8.475248E-5 -2.1779473E-4 -0.0018520389 0.0011743094 -1.1813801E-4 -9.3876617E-4 -0.0013902072 2.8705364E-4 -0.001419563 -1.0110918E-4 -0.0010222032 0.0011237578 -4.1091497E-4 -5.491937E-4 0.0012793958 -6.0714106E-4 -0.0014865005 9.686767E-4 0.002416933 7.3617464E-4 -6.79869E-4 0.0011824246 -5.9826515E-4 -0.001035019 -7.683376E-5 0.0012552118 -9.1543695E-4 -0.0011918361 -0.0015354793 -3.5728287E-4 -5.351368E-4 -4.1299683E-4 -0.0017647131 0.0013846387 -6.6613907E-4 -0.0018359055 -2.7662955E-4 -0.0018908542 2.9211421E-4 0.0014765429 -0.0011223172 -0.0011970275 -0.002963196 1.3191233E-4 -1.5592741E-4 -9.1932993E-4 -0.0011854141 -7.229014E-4 5.314457E-4 -0.0020918376 0.0044631064 -1.3141643E-4 3.407703E-4 4.1771051E-4 -8.8340277E-4 -8.063464E-4 6.017701E-4 -4.0513344E-4 1.3178647E-4 -0.0014565618 1.2305751E-4 -1.9533072E-4 4.6324864E-4 -6.625847E-4 -8.606991E-4 8.657917E-4 0.0014864352 9.685644E-4 -6.250212E-4 -5.51866E-4 -6.769764E-4 0.0013711317 -0.001393895 0.001115146 -8.49908E-4 5.913517E-4 1.3221055E-4 5.22874E-4 -2.2461556E-4 3.5033748E-4 -0.0010593797 -2.9540347E-4 -3.8658048E-4 6.6460634E-5 3.9463473E-4 6.0333824E-4 -1.3167475E-4 -0.0017913054 -7.241712E-4 -0.0017221798 8.5432694E-4 0.002492586 6.254508E-4 6.0230907E-4 -1.9612658E-4 3.4562057E-5 -1.1453801E-4 -0.0014781518 0.0010116413 4.3486635E-4 -0.0019233006 3.0742877E-4 -5.153282E-4 9.4419403E-4 0.0021084356 2.2182384E-4 -6.8935606E-4 2.0043374E-4 -0.001235324 -0.0012292719 4.3533504E-4 -6.9485634E-4 8.1464706E-4 -0.0010122679 -3.864649E-4 -1.6521275E-4 9.954327E-4 4.7474608E-4 -0.0016143755 -5.21242E-4 -9.093137E-4 5.4981734E-4