5.2126838E-5 1.3008052E-5 3.3127246E-5 -7.813188E-6 -5.3925658E-5 -1.0350974E-4 -4.2479976E-5 -5.9311402E-5 2.0561906E-6 6.812721E-5 -5.3127962E-5 -6.8148685E-5 -8.9444875E-6 2.2269773E-5 -3.0237408E-5 -1.2439965E-4 4.0184463E-5 -1.21876685E-4 -7.684497E-5 4.991382E-5 -3.6912734E-6 -6.317216E-5 -3.8498274E-6 3.898899E-5 -4.326282E-5 -5.0699065E-5 -4.9806924E-5 8.62986E-5 -1.197165E-4 1.03571976E-4 -1.1851418E-4 5.30706E-5 -4.7426352E-7 -2.0530635E-5 -8.7022505E-5 -3.469944E-5 -1.1298553E-4 7.5422024E-5 -3.182808E-5 4.0422718E-5 5.9862632E-5 -1.4492297E-4 5.620352E-5 2.4269282E-5 -5.0313683E-5 -2.2059672E-5 -5.3335143E-6 -2.2147893E-5 -1.1563827E-4 -1.5733785E-4 -2.2018675E-4 -6.843484E-6 -1.7339188E-4 -8.2827144E-5 -8.06485E-5 1.0374191E-5 3.0092694E-6 2.5098416E-7 -1.1475339E-4 2.7985112E-5 -1.4358204E-4 -1.7905992E-4 -2.3235616E-5 -1.8893019E-5 -1.7077543E-4 -2.7817543E-5 1.0146377E-4 -2.9756278E-5 -2.629682E-6 -4.6966074E-5 -1.05192354E-4 -1.1795137E-4 6.478036E-5 5.4639124E-5 -2.7610979E-5 -7.1501985E-5 -8.5483734E-5 -1.9181567E-5 -5.7408888E-5 -1.8160068E-4 1.1180118E-6 -5.7773275E-5 9.215518E-6 -1.5600235E-5 3.1803425E-5 2.442781E-6 1.2089286E-4 -8.0624486E-5 -5.430862E-5 -2.5629703E-4 -3.049887E-5 1.01056656E-4 -1.5670065E-4 3.665801E-5 5.1599753E-5 -2.513949E-6 -4.3711254E-5 -2.8337423E-5 2.7546412E-5 -5.7972295E-5 -5.0702656E-5 -9.081315E-5 -7.0275484E-5 1.938888E-5 -1.5102875E-5 5.7164298E-6 -1.0244387E-4 -1.7738319E-5 -1.383208E-4 -3.64328E-5 1.1288417E-4 -4.206584E-6 7.920836E-5 1.305928E-5 -3.253365E-5 1.4811784E-5 -7.173296E-5 -5.2455773E-5 -7.1042945E-5 -1.537774E-4 3.76265E-7 -2.0803287E-5 -1.2463346E-4 -9.689757E-5 -7.53263E-5 -5.1301904E-5 -6.3957494E-5 -1.9032191E-4 -5.9154423E-5 -2.237125E-6 2.1178555E-5 1.5181506E-5 -4.825731E-5 -1.3882565E-4 -6.26638E-5 4.033422E-5 -2.0987386E-4 -2.3713264E-4 -4.3561595E-6 -1.0173061E-4