0.12305111 -0.038910244 0.012836453 -0.18015122 0.07624876 -0.4994785 0.0019989521 0.5730257 0.238561 -0.044833824 0.047906354 0.20241536 0.17654318 -0.13393708 0.21930121 0.38353965 -0.12863731 -0.049932774 0.2895054 0.18168604 -0.29220486 0.1883602 -0.25684223 -0.020760555 0.034131143 0.1559606 -0.15795265 0.15218373 -0.22891358 0.042836074 0.36674193 0.15838191 0.14873078 0.040964697 -0.13373336 -0.005787259 0.25143737 0.11715666 -0.010175059 -0.2540769 0.19536881 0.34256446 -0.16661225 -0.2629783 -0.21608321 0.29814652 -0.11095203 -0.3222931 0.08726869 0.11457577 -0.18036896 0.3409753 -0.032002974 0.0012866305 -0.24740681 -0.32267526 -0.14284968 0.17663413 -0.52558726 0.044649735 0.15831253 -0.2360172 -0.16606069 -0.11240944 0.34541038 -0.11049393 -0.022750009 0.41237167 -0.09976348 -0.30450636 -0.20593108 -0.057575915 0.12339925 0.051138446 0.11502899 0.05213218 -0.43803525 0.44866827 -0.15276386 0.026043389 0.1946983 0.2525033 0.31282425 0.3198691 0.4487878 0.10477658 -0.20934375 0.18583131 0.08245812 -0.16429675 -0.48875725 0.23973952 -0.16525038 0.31893453 -0.23763914 -0.37100372 -0.12305844 -0.18221761 -0.17460339 0.07730974 0.04985674 -0.3645673 0.07805127 -0.072517745 0.028458226 0.061995108 -0.2790911 0.31016314 0.31751075 0.19710267 0.10206619 -0.30108482 -0.22157823 0.1440665 0.24055804 -0.06685054 -0.23920928 -0.25008902 -0.033040784 0.20201693 2.401552E-5 -0.21310782 -0.09554192 -0.32499415 -0.038631503 -0.24612235 -0.07418702 -0.14119053 0.12799597 -0.0070946547 -0.2111024 0.17929177 0.091871105 0.055839922 0.30159748 0.4002764 -0.2609984 -0.14697793 0.14307897 0.06530375 -0.1307907 -0.16689222 -0.24325503 0.049320877 -0.21118937 0.03987432 0.031100824 0.0559339 -0.0018942567 0.036105417 0.20017307 -0.3201144 -0.027834797 0.2217798 -0.045751087 -0.12164734 0.24150576 0.013261864 0.03019124 -0.0011120475 -0.08403898 -0.06433095 -0.13968618 -0.0949581 -0.3666324 -0.3785573 0.20208968 -0.2700531 0.051637217 0.190782 0.43425956 -0.08137151 0.4068703 0.24724293 0.09665709 0.18956229 -0.14166443 0.24026567 -0.11889183 -0.02565434 -0.101173416 -0.22043441 -0.020518525 -0.17069115 -0.27535158 -0.32718873 -0.44437388 0.16812515 0.01433368 0.1780826 0.16039908 -0.04215058 0.1669376 -0.34608784 0.015877094 -0.034901403 -0.18808757 -0.13878314 0.033730716 -0.19765759 0.14519517 -0.04788459 -0.25791413 -0.0795436 0.07818179 -0.16464192 -0.1794001 -0.15668902 -0.17373763 0.016583096 -0.07554674 0.43865183 -0.20573953 -0.05137042 -0.3731306 -0.101766005 0.43489566 -0.13819118 -0.022031058 0.08117702 0.18945238 0.40498316 0.20714135 -0.0174917 -0.1981064 -0.0024628346 0.062539086 0.059219606 0.06173149 -0.17358233 0.031351652 0.15633877 0.12156001 -0.121634 0.0757775 0.24306126 0.4752322 0.02720442 0.17843772 -0.06638293 0.4771586 -0.13948007 -0.030414363 -0.522211 0.21565706 0.21679352 -0.6871025 -0.45001382 0.13999327 -0.07232123 0.5362568 0.1907959 -0.21010812 0.1288788 0.20165746 -0.05987166 -0.19354807 0.1353629 -0.27408814 -0.20342596 0.19453412 -0.06001017 -0.081206374 -0.049591802 0.114188485 -0.12447707 0.074218005 0.23130676 -0.41820702 0.34604827 -0.01830338 -0.21302001 0.1614048 -0.14943328 0.09678314 0.25884578 -0.4246567 -0.16419235 0.095142305 -0.08080547 0.09596449 0.13481624 0.17225195 -0.22221398 0.1719684 -0.06917837 0.038892332 -0.0174365 -0.08920055 -0.49710962 0.15379003 0.2801595 0.0421122 -0.08827771 0.043763943 0.11472045 -0.20770226 -0.19362931 -0.014520597 0.29729247