-0.47220147 0.35417208 0.6814348 1.1955907 0.11498633 -1.4052849 -0.6770836 -1.0383362 0.82660216 1.1078043 0.68472517 -0.9431777 -0.7092195 0.14923605 0.9587755 0.42324057 -0.21520083 -1.5078182 -1.9138887 0.13247727 -0.7052755 -1.7278681 1.7825046 0.5763306 0.6985022 0.39419863 0.021289743 -1.062204 -1.5521429 1.0914217 -0.9714247 -0.256481 -0.7366265 0.19927238 -0.4654971 1.8207088 -0.6952319 -1.2866356 0.8380953 0.4584215 -0.94552046 0.5866461 -0.98041475 -1.3669494 1.1037654 1.5060884 0.313234 0.22210397 -0.69668245 -0.55285144 -1.465354 0.07985882 0.43305948 -0.41877243 0.46279287 0.7343914 -0.94376767 -0.13975298 1.6580473 0.27514416 -1.3540825 -1.1465037 0.024561586 -0.19376242 -0.15460625 -1.5326679 1.1585188 -0.20806685 0.20410688 0.53497356 0.51151615 -1.3079735 0.037229095 -0.046300538 -0.78759825 -1.0958202 0.23315993 0.79673386 0.7591778 1.0708076 0.007524151 -0.2802408 0.25923643 1.1596925 0.54572505 0.28635788 1.9033958 0.37539583 0.47848958 -0.15821522 0.10227162 0.81164205 -0.36265028 -0.9678143 0.8649512 -0.69231087 -0.40223807 -0.7861377 -1.2866333 0.61766016 0.7544687 0.25586292 -1.003736 0.19592562 -0.007874973 -0.69363195 1.588978 -0.5338174 1.8006698 -0.7145983 0.038442597 -0.49352184 -0.304155 -0.9064572 -0.9141371 0.86498076 -0.14656293 1.0721972 -0.7896547 0.54079527 1.2353988 -1.2395989 0.2757555 -1.2409143 -0.49457803 1.3657618 -0.006917938 1.7611998 -0.5232855 0.64631104 -1.8163788 0.7427158 1.5944241 -0.55350524 0.61367095 -0.19876505 -0.79153943 -0.47582793 1.5910047 0.16159058 -0.7140976 1.2953907 -1.1731803 0.60839593 -1.3496712 0.6697018 -0.6531143 1.61686 1.8454113 1.3157618 -0.9078507 -0.5743442 -0.72789156 -0.6427922 0.42103526 -0.2373416 0.7372391 1.7254698 -0.36892492 0.17308545 -0.10194995 -0.96531045 0.61013883 -0.6172937 -1.3346524 -0.5056595 0.0015259291 -0.90076107 -0.123421915 -0.31968004 0.32386383 -0.644377 0.6116142 -0.89099604 0.6774948 0.92503977 0.08032661 -0.56330436 0.22368416 1.0470937 -0.36063677 0.5089554 0.27670977 -1.0103182 -0.49929914 -0.63373244 0.06365886 -1.7601814 0.33512214 -0.30910358 -0.28358796 1.1767418 -1.2505599 -0.8884658 -0.13048588 1.1838446 1.8464147 0.59568256 -1.6042869 -0.3163539