9.117785E-4 -6.7575515E-4 -1.1759452E-4 -6.697723E-5 2.9496661E-5 -8.9361565E-4 5.630941E-4 3.8070112E-4 -4.7939764E-5 3.5378453E-4 -3.9497958E-4 -7.221269E-4 5.725926E-4 -3.655599E-5 6.933665E-4 -3.348536E-4 6.252623E-5 -0.0012073499 0.0018502839 -4.0546196E-4 -0.0011486711 9.7903E-4 -7.128983E-4 8.153139E-4 -4.4358632E-4 5.9328886E-4 6.800527E-4 2.8325705E-4 8.9088484E-5 1.7871791E-5 6.51227E-4 -2.2772353E-4 -1.1301784E-4 8.8851724E-5 4.397329E-4 9.5589313E-4 3.296634E-4 6.7041017E-4 5.260428E-4 -3.2396053E-4 2.1763322E-4 -1.1007923E-4 6.194954E-4 8.195959E-6 -6.022242E-4 3.5692894E-4 2.2693023E-4 0.0010112775 3.2250388E-4 -6.091264E-4 9.9753175E-5 -1.8993305E-4 -2.6165473E-4 3.6751233E-5 4.1548238E-4 3.449968E-6 -4.2035853E-4 -1.5140545E-4 9.076727E-4 1.3599607E-4 -6.345727E-4 3.2888242E-4 -1.6062608E-5 -3.480422E-4 3.2791268E-4 1.4958218E-4 -5.2803196E-4 0.0015067342 4.43401E-4 -1.0510589E-4 1.3937654E-4 5.257937E-4 -1.3621376E-4 -0.0011330304 -2.9124145E-4 9.3037233E-4 -5.260656E-4 -6.0451886E-4 -3.53793E-4 4.8657565E-4 2.0594388E-4 5.177724E-4 2.4247878E-5 4.725024E-4 0.0012874897 7.895829E-5 1.1255137E-4 -3.68645E-4 5.1969127E-4 0.0010836258 1.2786505E-4 -1.0260922E-4 -4.6583347E-4 5.1996094E-4 -0.0020701028 1.2148629E-4 8.339841E-5 -1.7853387E-4 -2.8372073E-4 4.243289E-4 3.172663E-4 -6.712693E-4 -3.3551196E-4 5.1820197E-4 0.001717207 3.2994588E-4 6.150644E-4 -5.125455E-4 -0.0010088265 -1.4524692E-4 -0.0010582835 -3.7128082E-4 -2.5520055E-4 1.07288186E-4 -4.6960698E-4 -3.4809712E-4 -0.0012216362 4.6896967E-5 -5.3390366E-4 -5.4583536E-4 0.0013357352 0.0011741992 -6.2548206E-4 -6.677338E-5 4.7868025E-4 -2.7938571E-5 1.953077E-4 0.0011328465 7.6386525E-4 -5.4741575E-4 -1.8770921E-4 -1.859591E-4 1.7378469E-4 4.4927125E-5 -6.534868E-4 -1.3449302E-4 -8.1218436E-4 6.49211E-5 -3.9290672E-4 -1.4282485E-4 -1.826234E-4 3.3616606E-4 -0.0011036112 -0.001240537 2.3295094E-4 -2.9393582E-4 9.90223E-4 -1.3201173E-4 0.0016241289 -0.0022272877 -1.7442834E-4 -9.1812364E-4 -1.437776E-4 -0.001483781 -1.6203182E-4 1.8974504E-4 -7.9675665E-4 2.1532616E-4 -1.7969696E-4 5.42239E-4 -0.0018264249 5.06473E-5 -1.0930731E-4 1.135467E-4 6.488577E-4 -6.877863E-5 4.197151E-4 0.0017011105 -6.329044E-5 4.8348014E-4 -2.7006958E-4 4.3836987E-4 3.1862946E-4 -0.0014756004 -5.545E-4 6.083439E-4 0.0011178994 -1.2649482E-4 1.5458936E-5 2.5759602E-4 -6.916297E-4 5.418714E-4 -7.7917706E-5 2.7499924E-4 -6.573675E-4 0.0010911261 -8.315962E-4 5.602353E-5 -1.3259618E-4 8.3369465E-4 -0.0012020257 3.7909526E-4 1.2613615E-4 -7.155468E-4 -6.105881E-4 -9.120825E-4 7.9249265E-4 -6.3758524E-4 4.741467E-6 -5.4232357E-4 -3.366486E-4 9.09298E-5 -6.3095306E-4 -5.4636563E-5 1.5489815E-4 -3.8015013E-4 5.842672E-5 2.593947E-4 -3.4749147E-4 -3.555239E-4 4.2924235E-4 6.76342E-4 -3.160248E-5 7.8756886E-4 -4.8006157E-4 -4.0861143E-4 -0.0011091109 -7.686459E-4 -6.6627114E-4 7.1976165E-4 -3.1894274E-4 -8.48161E-5 6.57998E-5 -2.8115988E-4 2.1281623E-5 -4.8493495E-4 -7.730892E-4 -1.8382313E-4 -3.2738544E-4 -0.0016288061 0.001331452 -0.0010699227 0.0017045202 -0.0011422778 -3.6099792E-4 5.2331423E-4 2.5163085E-4 2.735592E-4 3.9391042E-4 -6.010194E-4 2.4352301E-4 8.389538E-4 4.4718228E-4 0.0014980277 0.001163823 5.4570555E-4 8.5319224E-4 -2.840557E-4 4.6148483E-4 -1.7031282E-4 -2.9205042E-4 6.7305507E-4 -2.8384628E-4 -8.166806E-4 1.4511085E-4 4.492834E-4 -8.32275E-4 -4.3235617E-4 -6.274073E-4 9.3911425E-5 -2.3923915E-4 -1.5576354E-4 -2.5102313E-4 5.656065E-4 -1.1634559E-4 7.743627E-5 -4.001764E-4 5.4180226E-4 -2.9809456E-4 7.2695344E-5 -1.2464466E-4 0.0017909639 -3.732599E-5 6.0945563E-4 -4.954374E-5 -2.2348888E-4 8.8765234E-4 -1.4494116E-4 -6.112861E-5 3.29056E-4 3.3727125E-4 5.649616E-5 2.311492E-4 1.2203732E-4 -6.2842673E-4 -3.1573596E-4 8.711414E-5 -0.0014023678