7.972731E-5 0.0029240812 1.7922372E-5 -1.3432729E-4 -7.5537607E-4 -0.001386215 -4.593269E-5 0.0010564321 3.2554474E-4 0.0019724541 -9.253975E-4 -9.357009E-7 1.0713231E-37 -0.003016804 0.0029500066 -0.0025055395 -0.0019315258 0.001754952 0.0 -8.0226536E-4 -1.02913626E-4 1.0619038E-37 -0.0026351875 -0.0010504673 0.0024848569 0.0010879281 0.0031702092 6.2696718E-6 1.137578E-37 5.291562E-4 1.6722099E-4 3.7181446E-5 6.0353734E-5 -4.73621E-4 -5.4043147E-5 0.0030763224 0.0011335253 1.1490827E-37 0.004445874 -0.0024802382 -1.6272427E-8 -0.0021119625 1.1114079E-37 7.340357E-6 9.627304E-4 -4.9130095E-4 -7.3213375E-4 4.6495552E-4 -8.552916E-6 1.638265E-5 1.1392752E-37 1.4931663E-4 -0.0024363005 -2.501176E-6 -0.0021666074 4.3489356E-4 5.0100603E-8 1.10874564E-4 6.294588E-5 0.004612899 -0.0010491688 1.1562333E-37 -0.0026884791 -3.872852E-5 -2.6517479E-5 -2.601188E-5 -0.0023748444 3.4599263E-5 0.0020851144 -0.0036367052 0.00223467 -1.6680367E-4 -7.8062486E-4 0.00149844 -2.7158015E-4 -5.793746E-6 5.146701E-4 -0.0019142781 0.0010221257 0.0011513863 -2.0729122E-4 4.794203E-4 -0.0016984828 0.0023852512 0.001044539 3.7445243E-5 -4.3769396E-4 -0.0037132422 -0.0010751329 -2.304832E-5 -1.4959217E-5 3.1010446E-4 -2.9078504E-4 1.076492E-37 2.0769422E-4 -3.1478825E-4 4.6220935E-5 -1.3577232E-4 1.968174E-5 0.003339795 0.001956287 -6.1996037E-4 1.0774925E-37 -9.142898E-5 3.0883396E-4 -4.417085E-7 1.7209767E-4 -7.2565104E-5 0.002581167 -1.4544786E-5 -0.005725195 3.2900774E-5 1.1530447E-37 1.2523953E-4 -2.2565087E-5 9.3997514E-4 -7.8230354E-5 -0.0010155945 1.0944596E-10 -0.0011329951 2.3086286E-4 0.0013236655 -2.073709E-4 1.1617799E-37 -1.2776509E-5 -2.0436259E-4 -7.4288306E-5 -0.0014735962 -1.2310964E-4 -8.431068E-5 1.1084528E-37 0.0025296558 -2.4735648E-4 -5.575628E-8 -0.0026282873 -4.473857E-5 -1.5741201E-10 1.07782E-37 -9.965604E-4 -0.0010809115 1.1515969E-37 -0.0017955188 1.0618179E-37 0.003174059 0.0018585061 5.921103E-4 0.0011570024 5.395699E-4 3.8770103E-4 -1.3060638E-4 8.495652E-6 4.5950706E-5 -1.5818718E-5 -3.9922742E-7 7.449262E-4 -7.133895E-5 -0.0015848181 -0.0015864328 1.1701372E-37 -0.0019900473 3.10617E-4 -1.9647773E-6 -0.0012897094 8.177779E-5 1.1585019E-37 -6.2704976E-7 -2.5253656E-5 -6.6137494E-5 4.4717747E-4 -1.6171567E-5 0.0017353261 -1.7586655E-4 0.002997346 -3.9125475E-6 -0.002306769 0.0014431018 -2.442228E-5 -4.2573357E-4 -0.0017212895 0.0028731998 3.531057E-5 8.777532E-4 0.0028017156 4.196489E-4 -4.2598808E-4 -2.7051726E-7 4.1684438E-4 -9.806329E-7 -0.0016222429 1.1009583E-10 6.1046136E-5 -9.305605E-4 -6.459448E-5 1.094008E-37 -3.3747747E-5 -0.0023579919 -0.0024727248 0.001161355 0.0011867096 4.52452E-4