-1.9671016E-4 -3.5081382E-4 2.7355773E-4 -2.4622868E-5 -1.0164188E-4 -1.740356E-4 2.2950192E-4 2.432965E-4 -6.8836845E-5 3.9095263E-4 -2.0556565E-4 2.380517E-4 -1.1743317E-4 -1.720592E-4 2.8348542E-4 -3.5616584E-4 -6.971143E-5 2.2600159E-4 -3.395097E-4 1.1453556E-4 -5.994778E-4 -4.1150197E-5 -4.4124914E-4 -2.9663948E-4 -3.4479122E-5 6.119682E-5 -2.2377282E-4 -1.4758614E-4 2.4053079E-4 8.860166E-6 2.1655731E-4 1.458326E-4 3.453523E-5 -3.2689117E-5 2.5151468E-5 4.1296524E-5 -7.2577015E-5 -4.7678183E-4 6.300025E-4 -4.609612E-4 -1.4795661E-4 -4.7318925E-4 -2.27331E-4 2.2341745E-5 -2.3104587E-4 -2.7833326E-4 -1.4472957E-4 -1.7973882E-4 2.1084736E-4 2.9274262E-4 1.569406E-4 -1.5049559E-4 -1.9853908E-4 -2.527938E-4 -4.143737E-4 -1.5506336E-4 -2.578014E-4 1.1718012E-37 -4.7224478E-4 -4.5357383E-4 -4.109433E-4 2.0285451E-4 -5.2353607E-5 -6.608669E-5 -1.331011E-4 -2.8546434E-4 -6.484199E-4 -2.8722032E-4 -3.2416277E-4 -5.3693034E-4 -2.8104364E-4 2.6244717E-4 1.9377176E-4 -4.588315E-4 3.714415E-4 -4.889355E-5 -5.4667733E-4 -1.3276341E-4 -3.7590507E-5 -1.5675584E-4 2.156855E-4 -3.4917542E-4 -6.9637084E-5 -1.510344E-4 4.5309625E-5 -3.2279722E-4 -8.327476E-6 2.3539852E-4 1.3030836E-4 1.9656021E-4 3.095196E-4 3.014957E-4 7.7253455E-5 6.0883176E-6 3.3691127E-4 -2.0230004E-4 6.8902955E-6 -1.1447517E-4 -3.1840176E-5 1.2758635E-4 -3.2063026E-4 1.7385089E-4 1.5925281E-4 -4.79949E-5 7.084786E-5 -4.3815828E-4 7.6571276E-5 -6.3822104E-4 1.7841435E-4 1.6625843E-4 1.0106922E-5 1.0729574E-37 -1.4143923E-5 1.9737257E-5 -5.1288276E-5 -2.713492E-6 -1.0739284E-5 5.8265607E-4 9.322646E-5 -2.234659E-4 -4.3916795E-4 -5.1442767E-4 -5.293814E-5 3.677174E-4 1.2259916E-4 -1.18046286E-4 -5.921748E-4 1.1737032E-37