-1.4464138E-4 -7.480136E-5 7.3160627E-6 -9.123463E-5 -1.660945E-4 7.901341E-5 -1.42545505E-5 -3.432326E-5 1.918304E-4 -3.2669163E-4 -5.4022466E-6 1.09709676E-4 -4.940015E-5 -8.9526293E-7 -1.5335342E-4 -5.356493E-5 -4.8407022E-5 -1.918165E-4 7.515644E-5 -2.465595E-5 2.8073558E-5 2.75042E-5 -4.343255E-5 -9.4776035E-5 -1.7273289E-4 1.1245123E-4 -8.539794E-5 2.670451E-4 -3.6549696E-5 4.4809145E-5 3.904498E-5 -1.556841E-5 -1.6096488E-4 -1.7226979E-4 -1.423764E-4 2.0493584E-4 1.9309911E-5 6.397561E-5 9.0711525E-5 -1.1028143E-4 5.764093E-5 2.0431802E-5 -5.4878725E-5 -9.59572E-6 -4.940288E-6 -8.9782625E-5 -1.9153384E-4 2.494118E-4 -6.648268E-5 2.0003074E-4 -1.2472027E-4 -2.5505578E-5 -1.0287072E-5 -9.635494E-5 -1.5809273E-6 -1.1679511E-4 -7.950038E-5 1.0089523E-5 1.6698007E-4 -1.17387084E-4 -9.407168E-5 -1.12940106E-4 3.607138E-5 1.5086021E-4 1.136011E-4 4.184394E-6 8.363719E-5 -7.988783E-6 4.388749E-5 4.8084785E-5 -1.8631766E-4 -7.339934E-5 2.1355494E-5 1.163553E-4 -4.2827964E-5 2.3055966E-4 1.7841748E-4 -9.854376E-6 1.9227162E-4 2.2575501E-4 -6.24298E-5 -7.143401E-5 1.4125119E-4 6.501579E-5 -1.4521452E-4 2.619285E-5 -1.2741768E-4 9.321121E-5 -3.570163E-5 -2.013988E-4 1.5356649E-4 -1.0771817E-4 8.00142E-5 1.9736715E-4 1.8186317E-4 -6.64224E-5 7.0415146E-5 -1.1088192E-4 1.1321483E-4 -1.7189945E-4 2.8346357E-4 2.4951605E-5 -1.7713501E-7 -1.3019271E-5 1.6730344E-5 1.4193263E-4 1.2643087E-4 -1.3188677E-5 -1.4252678E-4 -1.19673285E-4 7.569677E-5 6.624054E-5 1.907166E-5 -3.4544017E-5 -7.5806434E-5 4.315938E-6 -7.298945E-5 1.3958903E-4 -1.6324333E-4 5.106569E-6 -1.9799116E-4 1.0895875E-4 -1.5439791E-5 -8.452179E-5 2.7242664E-4 -8.042036E-5 -2.6207781E-5 6.4341286E-5 -6.394195E-5 -2.2290839E-4 -6.5740154E-5 2.3436573E-5 -1.2844648E-4 -6.359872E-5 1.6870486E-4 1.4688834E-4 4.9671413E-5 1.05103376E-4 -7.345445E-5 -5.382018E-5 -9.4744726E-5 1.17448515E-4 4.078868E-5 -9.8165874E-5 -1.8147937E-5 1.9861802E-5 -1.6135338E-4 8.966044E-5 4.0237348E-5 7.646604E-5 1.4055005E-4 1.6540173E-4 9.493547E-5 -1.7252319E-4 -3.7617836E-5 -3.0657585E-4 -2.3215366E-4 1.2544898E-4 5.3505835E-5 -5.826869E-5 -1.5551479E-5 3.396094E-5 7.540671E-5 -1.6481706E-4 -1.4464973E-4 1.7411615E-4 -4.68249E-6 -9.413914E-5 -4.7185677E-5 -6.4900814E-6 1.8670858E-5 -9.853985E-5 -2.1957287E-5 -3.2780133E-4 -4.0321193E-5 1.4985785E-4 -2.3946435E-5 -1.4958542E-4 9.100225E-5 6.0107915E-5 -1.5109232E-5 1.7486692E-4 -5.5390803E-5 3.19147E-5 -2.0774445E-4 -6.233607E-5 -1.556063E-4 -9.918588E-5 -1.8335215E-4 -1.3640674E-5 5.643851E-6 7.886963E-5 -9.03589E-5 -3.336763E-5 -6.310668E-5 4.1259897E-5 1.2465447E-4 1.1251313E-4 -9.224239E-5 -6.4848675E-5 6.1013317E-5 3.5076097E-5 -1.8478619E-5 1.0412244E-4 -6.323831E-5 -6.0709495E-5 2.7856313E-5 -2.1632222E-5 -5.638301E-5 2.1886262E-5 1.0293735E-4 2.2270075E-4 1.4898769E-4 -1.2239971E-4 8.365075E-5 -5.2032814E-5 -8.470265E-5 -2.0064696E-4 6.789894E-5 1.8595882E-5 -1.4591165E-4 4.303714E-5 -4.2146596E-5 -2.3438688E-4 -1.7212433E-4 -3.054269E-4 -1.7845831E-4 3.6058853E-5 1.3327076E-4 -5.7473357E-5 9.793978E-5 -1.7607663E-4 8.5991414E-5 -2.9714254E-4 1.6324993E-5 -7.5639226E-5 7.823194E-5 -2.3830005E-5 -1.19956916E-4 2.8665987E-4 1.4121446E-4 1.3689004E-4 5.1393552E-5 -7.5015065E-5 2.99424E-5 1.2890217E-4 -1.5409404E-4 1.5513442E-4 7.1475224E-5 5.678298E-5 1.6254945E-4 -7.717193E-5 5.7196485E-5 -5.2176307E-5 7.2011586E-5 -2.272294E-5 4.313633E-5 -2.2285289E-4 1.280185E-4 1.0395483E-4 -1.1199759E-4 -4.36563E-5 6.819355E-5 2.0391191E-4 1.0185596E-4 1.1561506E-4 1.2647893E-4 -1.7867498E-5 6.808148E-5 1.1387035E-4 -6.205318E-5 1.3616306E-4 -1.0113257E-5 -1.5691912E-6 -3.1258583E-5 8.231372E-5 1.15895746E-4 -1.3371324E-4 2.5565102E-4 2.1077246E-4 -1.6255928E-5 1.0108313E-5 -1.3443449E-5 5.0690287E-6 -2.4281818E-4 -1.1964721E-7 -5.3594864E-5 2.0648824E-4 1.6715997E-4 3.8061746E-5 -8.9190406E-5 1.5332332E-4 1.6176826E-4 -5.8608148E-5 1.5813626E-5 -1.292569E-4 -2.139132E-4 1.0485014E-4 3.971915E-5 2.9909297E-5