-1.6136635E-4 3.513605E-5 5.7539164E-5 -1.0312153E-4 1.0585986E-5 1.0832968E-5 -8.630484E-5 -3.6635928E-4 3.9911836E-5 -2.2791696E-4 -2.3303584E-4 -1.6526689E-4 2.20691E-4 2.6152331E-5 1.3375553E-4 1.05515726E-4 -2.1990786E-4 2.7449543E-4 -3.089383E-4 6.480111E-5 -1.8129816E-4 -2.4823106E-5 4.6485504E-5 -2.64205E-4 1.1542914E-4 2.4174915E-6 -9.37418E-6 7.856537E-5 1.0490102E-4 1.1314323E-6 2.2053636E-4 1.18807846E-4 4.904211E-5 3.027806E-6 -2.3239886E-4 -3.2801112E-5 3.5323545E-5 -3.0454848E-4 -2.3601056E-6 -3.6039597E-5 1.5263395E-5 3.1073877E-4 -1.4625597E-4 -7.164004E-5 1.021859E-4 -5.0456024E-4 1.7116645E-4 -6.954098E-5 5.4296626E-5 -1.1343722E-4 6.18175E-5 4.0736995E-7 1.6005865E-4 -3.6117312E-4 -1.2036104E-5 -7.439943E-5 -1.1889451E-4 -2.275462E-4 -1.1028712E-4 4.8180114E-5 2.4001078E-5 -1.588494E-4 -7.406152E-5 -2.8786768E-4 -7.675904E-5 -1.2421555E-5 1.4767869E-4 2.2764281E-5 -1.2263277E-35 -1.9700442E-4 -1.3046055E-4 1.8931479E-4 -1.7368246E-5 -6.190533E-5 2.5561823E-5 -6.719271E-5 -1.450029E-4 -2.7619363E-4 -1.3890519E-4 1.1439917E-4 -6.84521E-4 1.8339111E-5 3.6581077E-5 -6.2373E-5 7.499901E-5 -8.6700195E-5 5.040473E-5 -9.925571E-5 -5.6452474E-5 3.1186988E-5 -3.6402947E-5 -3.5388244E-4 1.5523643E-4 -9.408093E-6 -8.743747E-5 1.8016761E-4 -5.7810354E-5 -1.4527494E-4 2.4766685E-4 -2.9297233E-5 -2.2711128E-4 1.4598902E-4 5.2760115E-5 -5.1881943E-7 -8.316318E-5 -8.202832E-5 2.7502587E-5 1.9189176E-5 -1.2924272E-4 -7.9018864E-5 -2.1780084E-4 1.559321E-4 9.896055E-5 3.2788946E-4 1.5838831E-4 -1.9937444E-4 -6.647575E-5 -1.2044798E-4 -2.9974964E-5 -4.2458905E-5 -8.281582E-5 -2.511472E-4 -3.7315953E-5 -7.804999E-5 -3.4011355E-5 -4.350936E-5 5.8788864E-5 -8.9011155E-5 1.0170494E-4 -2.7819676E-4 3.4697473E-6 7.0698625E-6 4.957274E-5 -1.3363102E-4 -2.5630265E-4 -9.575396E-5 -7.5039214E-5 -1.6019667E-4 -8.5052025E-6 1.04762614E-4 -6.432632E-5 2.3091352E-4 -7.052088E-5 -1.02645965E-4 -2.4487355E-4 9.484329E-6 6.0466045E-6 -1.1613037E-4 2.0279626E-4 -1.10351684E-4 -3.277994E-5 1.1326269E-4 -1.6922056E-4 -8.139815E-5 -7.048071E-5 3.7184327E-5 2.187293E-4 -1.2232014E-4 5.693891E-5 -7.769185E-5 6.9686255E-5 -1.4562844E-5 -1.3533077E-4 2.0136414E-4 1.0436491E-4 -3.785186E-6 -1.2795573E-4 2.1014674E-4 5.104001E-5 -1.2885925E-4 -1.2659392E-4 4.9022605E-5 -1.975676E-4 3.689163E-5 -3.0329305E-5 9.721153E-5 -8.3153776E-5 -2.1085955E-4 7.6228105E-5 4.4004555E-5 -8.941002E-5 -2.6758085E-4 -3.1973654E-4 -5.03422E-5 1.7339626E-5 -1.2801822E-4 5.2212174E-5 -1.8835053E-5 2.4742549E-5 3.2055006E-5 -7.808401E-6 2.7582966E-5 -1.71679E-5 -1.7691782E-4 -2.4974413E-5 -2.100631E-4 3.6998623E-5 1.08818196E-4 8.769957E-6 1.11599904E-4 -2.4382256E-4 -1.81452E-4 -2.0873558E-5 -1.9692042E-4 -4.1376574E-5 8.54635E-5 7.219191E-5 5.638893E-5 -4.019533E-5 2.93517E-5 6.218301E-5 3.7693404E-5 1.2836866E-4 -4.8476682E-4 -8.437247E-6 -5.3981137E-5 6.3337786E-5 -1.3540554E-4 8.364742E-5 3.826197E-6 -4.8876012E-5 -3.0413246E-5 2.7738995E-4 -1.4661245E-4 -1.9169693E-4 -6.26617E-5 -1.5978522E-4 1.7706734E-4 -2.8289243E-4 -6.476636E-5 -1.5654159E-4 -8.2490464E-5 -1.7111878E-4 2.2831458E-5 -4.628244E-5 -1.9678597E-4 -1.14759794E-4 -5.7699737E-5 4.37012E-5 1.0614096E-4 -1.5937795E-4 4.5443303E-6 -3.7964164E-5 -5.777463E-5 -1.9365969E-5 -1.1782675E-4 -2.0469297E-4 -2.0441637E-4 -1.1561604E-4 -1.0252328E-4 7.550352E-6 6.938711E-5 -5.1594287E-4 1.5541015E-4 -3.978646E-4 3.970801E-5 5.5583096E-5 -3.425278E-5 7.312384E-5 9.114849E-5 4.7176036E-7 -6.424334E-5 -1.2063684E-4 -3.86963E-5 7.291013E-5 -5.5699697E-5 -1.021687E-4 -1.742272E-4 -2.6532303E-4 1.015565E-4 -1.8001047E-4 1.8582072E-5 2.0642256E-6 1.4613336E-4 -9.012394E-6 4.1707164E-5 -3.4364406E-5 -1.2089591E-4 1.1424829E-4 3.989124E-4 1.03149716E-4 -1.705211E-4 -8.01699E-5 1.6359886E-4 -3.0146094E-4 -3.66948E-5 -9.537109E-5 -2.3660052E-4 1.2558824E-4 1.8530473E-4 8.763999E-5 -2.5587625E-4 -1.3332246E-4 -5.0206716E-5 -3.5773228E-5 6.145888E-5 -3.4156925E-5 1.0937324E-4 2.6976566E-5 -8.804557E-5 1.11168745E-4 -2.2044285E-4 1.5814755E-4 -7.992841E-5 -5.754587E-5 -7.944112E-5 -5.1401737E-5 -1.013844E-4 -2.2436885E-4 -3.3447155E-4 -1.1424599E-4 -9.9504745E-5 2.2080846E-4 -2.7372234E-5 -5.767674E-5 4.6672638E-5 -2.8775702E-4 -4.5914792E-5 -6.973423E-5 4.809984E-5 -3.079232E-5 1.2437673E-5 -2.5029156E-5 2.0822861E-4 7.667006E-5 -1.1277855E-4 -6.974968E-5 -4.164809E-4 -3.06568E-4 1.09535526E-4 -2.5769408E-4 7.4751806E-5 1.5062204E-4 1.2050665E-4 3.5663106E-7 -8.965809E-5 -1.3976912E-4 4.6205838E-5 -1.618296E-5 -3.5963554E-4 -1.8912047E-4 -1.6568029E-4 2.2526088E-4 -1.7967867E-4 4.5173765E-5 -8.793045E-5 -2.8177448E-5 -7.513792E-5 -9.82316E-5 1.2096436E-4