-1.0847983E-4 -4.959419E-5 1.0194526E-5 5.6672492E-5 -6.4488035E-5 -7.131686E-4 -8.396348E-5 2.1156581E-4 -3.6086008E-4 3.160887E-4 -2.6716967E-4 -7.201103E-4 -6.830236E-4 -2.4769641E-4 -3.4440937E-4 3.8373267E-4 -3.362455E-4 -8.9418354E-5 -9.6986936E-5 1.4570673E-4 1.103375E-37 -8.8479996E-5 -7.3911273E-4 1.1310502E-4 -2.9934408E-6 -1.8918709E-4 -6.305548E-4 2.1461073E-4 -3.804751E-4 -6.0024293E-5 -8.9448906E-4 3.2061762E-5 3.341381E-4 -2.1142638E-4 5.867411E-4 -3.9113523E-4 -3.7441263E-5 -0.0012985922 -5.336606E-4 4.0908862E-4 -5.7560024E-5 -3.7818852E-5 -8.9292857E-4 -1.8959654E-4 -2.4331562E-4 -3.7055076E-4 -6.3489156E-4 -1.5026389E-4 -8.220537E-4 -4.249952E-5 2.958967E-4 2.1488224E-4 1.101541E-4 -5.6839816E-4 -2.0080672E-4 -3.299064E-4 2.9417488E-4 -4.5007883E-4 -9.320668E-5 8.084689E-5 1.4330745E-4 -8.835909E-5 -5.946483E-4 -4.863783E-5 -4.9006936E-5 3.0442904E-4 -9.30095E-4 -3.8024344E-4 5.4876204E-5 1.934998E-4 -4.7453705E-4 6.1539083E-4 -7.203551E-4 -3.0759024E-5 6.178912E-5 -1.6510239E-4 -6.508542E-4 -9.13818E-4 -7.993401E-4 -2.8854873E-4 -4.2823615E-4 -4.468689E-4 -3.001367E-4 -7.9962553E-4 -9.330614E-4 2.3047245E-4 -4.4844853E-4 3.8573888E-4 -4.320694E-4 2.8388144E-4 -6.0682493E-4 -4.0955818E-4 -5.63058E-5 -7.152214E-4 -2.9372668E-4 2.77991E-4 -3.6584883E-4 -3.202616E-5 2.3820152E-4 -4.0548298E-4 -2.5003275E-5 -2.5459976E-4 -1.2377943E-4 3.9801077E-4 -7.758688E-4 -3.6319962E-4 -1.2441142E-4 -2.8619356E-4 1.1594216E-4 -2.558521E-4 -3.7896817E-4 -4.748325E-5 -5.043333E-4 4.9418065E-4 -1.2126304E-4 -3.511654E-4 -1.354399E-4 -2.1577039E-4 6.188409E-4 -5.9688964E-4 -2.8982994E-4 -4.3628665E-4 -6.300269E-5 -3.3042935E-4 -5.159447E-5 -5.3627846E-5 -5.5762386E-4 -2.1559274E-4