0.13386285 -0.10306242 -0.14688115 -0.11814389 0.081497386 -0.4742665 0.05981946 0.6286791 0.18173195 0.035581768 0.10572902 0.28222364 0.08725949 -0.23180744 0.23606871 0.31837612 -0.35628834 -0.0689722 0.09022298 0.32246083 -0.39957336 -0.0023488153 -0.2585546 -0.02597047 -0.04988904 0.25329873 -0.015417876 0.15481274 -0.16047303 -0.021508642 0.43316182 0.090607725 0.08436029 -0.03699434 -0.10777197 -0.09361964 0.30920032 0.085587926 0.15810382 -0.38275057 0.21432163 0.358349 -0.1530929 -0.34464306 -0.20862529 0.26663485 -0.10601608 -0.22067998 0.28129193 0.15311308 0.04271108 0.37926796 -0.07904739 -0.02987318 6.636529E-4 -0.26300672 -0.23651211 0.1796506 -0.3010152 0.0185069 0.10722575 -0.22262153 -0.07687193 -0.3536738 0.12641165 -0.11107396 0.008901918 0.2697966 -0.15166245 -0.2398326 -0.20502341 -0.14968513 0.15884832 0.017912714 0.027988499 0.06753386 -0.4096978 0.35662317 -0.17751786 -0.07835065 0.20652679 0.25170797 0.21628653 0.21476279 0.52326775 0.08954575 -0.08572032 -0.06259502 0.27171972 0.06840352 -0.49242556 0.13279478 -0.28845453 0.43260273 -0.15236402 -0.37852582 -0.17031425 -0.22385567 -0.07939086 0.04195392 -0.12372728 -0.53136545 0.065226436 0.008603949 0.08852131 0.19234003 -0.25603813 0.22228609 0.40917677 0.086744905 0.21233535 -0.20190267 -0.22573477 0.11651648 0.16732986 -0.0036164045 -0.24626935 -0.2638799 -0.10322827 0.26366553 0.033875797 -0.1291951 -0.17240079 -0.22756453 0.10201581 -0.26476407 -0.081268914 -0.3290146 0.09929457 0.0051250714 -0.3265129 0.21824104 0.07890905 -0.063208714 0.2265767 0.46768808 -0.31763706 -0.17513274 0.17547253 0.165351 -0.23484734 -0.06443437 -0.49622986 0.10585764 -0.21849981 0.0077071935 0.10773099 0.028839098 0.2005422 -0.0050642467 0.21833287 -0.2678747 -0.09693457 0.2357008 -0.071617946 -0.25548908 0.23673765 0.009609315 0.08528612 0.13407417 -0.13431534 0.032899812 -0.13533552 0.013048339 -0.26175082 -0.52071404 0.17017907 -0.33333197 0.0062550977 0.15043086 0.33812568 -0.25305727 0.3792428 0.035635717 0.09213791 0.36440778 -0.23032436 0.3546684 -0.14468104 -0.06886816 -0.12788674 -0.092461 0.043631185 -0.112894095 -0.1301197 -0.25133064 -0.34142095 0.11368845 -0.103360794 0.27508214 0.014318015 -0.13867617 0.13158037 -0.3794314 -0.096984684 -0.038025245 -0.0838117 -0.2114829 -0.116743125 -0.4963317 0.21328412 -0.12249583 -0.39274493 -0.18064515 0.11279626 -0.22021563 -0.16387446 -0.08428668 -0.25310382 0.1419048 -0.14701097 0.3754474 -0.27325892 -0.030599771 -0.18935874 -0.057786446 0.30810508 -0.15951817 0.022903584 -0.20162652 0.09121809 0.4004668 0.19077748 0.029851424 -0.056577366 0.12049323 -0.14378704 0.10821291 0.105111405 -0.22944082 0.24725366 0.09284483 0.16010848 -0.0027721082 0.09417824 0.1119397 0.47345355 0.14547084 0.08189867 -0.32757556 0.49221984 -0.046528406 -0.013219463 -0.32753766 0.08792231 0.24478382 -0.49863872 -0.33268693 0.0910218 -0.12118016 0.43274283 0.22755443 -0.21728198 0.2834629 0.27289504 -0.047861803 -0.10802841 0.018793901 -0.1868174 0.010085087 0.12789634 0.14764695 -0.040944967 -0.18251313 0.08619764 -0.05620971 0.13331878 0.29475325 -0.4202374 0.2583868 0.011754959 -0.08806262 0.13792284 -0.22600618 0.043023203 0.2443498 -0.38839868 -0.15642144 0.07308786 0.04866368 0.13863027 0.17225172 0.12662779 -0.2710934 0.17476772 -0.14574939 0.07253545 0.08913163