0.062016603 -0.020306844 0.026966635 -0.12104265 0.11300674 -0.48314658 0.016273003 0.5347978 0.18834397 -0.049678415 -0.017156614 0.1613133 0.18835278 -0.12417311 0.25771746 0.41015935 -0.14267682 -0.048428465 0.31123048 0.20969494 -0.31922963 0.18581048 -0.12956016 -0.03916771 0.0085547045 0.13373531 -0.061932586 0.124389194 -0.17485875 0.06232533 0.35829276 0.1796399 0.11765156 -0.023868158 -0.121612005 0.052027043 0.27263477 0.073772706 0.017519806 -0.2761088 0.23876344 0.40689513 -0.12397359 -0.24991357 -0.18743928 0.21575552 -0.12096482 -0.17186408 0.114957936 0.13147102 -0.16058919 0.34901044 -0.05481359 0.04598479 -0.18652639 -0.2619084 -0.116065264 0.15500328 -0.44318533 0.013976637 0.18548028 -0.26421618 -0.12160717 -0.11419205 0.31072122 -0.07349016 -0.019873723 0.34286195 -0.065658346 -0.3065122 -0.14169282 -0.047310825 0.048575733 0.11130898 0.050873138 0.059821885 -0.45363027 0.35740033 -0.16392572 0.03666179 0.24744454 0.20315251 0.36540237 0.33617505 0.46401942 0.1308759 -0.08577847 0.15577197 0.1165203 -0.12796164 -0.49598306 0.2470416 -0.1332859 0.36908302 -0.23774222 -0.31248742 -0.10954183 -0.2740216 -0.19059478 0.08766875