0.076085925 -0.024266595 0.017018316 -0.13601378 0.12300914 -0.5015019 0.026933696 0.52024126 0.18325032 -0.06129956 0.023267217 0.15274332 0.17793874 -0.1397923 0.22906923 0.3633101 -0.15033595 -0.056506436 0.3206232 0.18905778 -0.31077623 0.14795028 -0.14570692 -0.08206934 0.009532334 0.114978336 -0.075751856 0.13096885 -0.15070577 0.05203519 0.35942653 0.17579445 0.12397013 -0.04364527 -0.14613017 0.0698689 0.28598556 0.07840299 0.0116141215 -0.2757384 0.22496732 0.36741534 -0.12161548 -0.27849728 -0.17885445 0.21897927 -0.12764904 -0.21400194 0.09847665 0.13756686 -0.1718223 0.3564544 -0.061143976 0.020753495 -0.21071024 -0.27046937 -0.11839802 0.14004256 -0.4791528 0.024738967 0.19215554 -0.22954369 -0.11341206 -0.14935303 0.28190687 -0.096101575 -0.02415599 0.35533658 -0.08026708 -0.27435544 -0.15927011 -0.07258531 0.034404483 0.08328979 0.07393782 0.051570754 -0.46183255 0.3614974 -0.15268314 0.0228406 0.23311521 0.20798321 0.3448789 0.33921006 0.45816857 0.11737086 -0.11424712 0.12659532 0.10558509 -0.100158945 -0.47246233 0.20826793 -0.16008396 0.3604311 -0.2412196 -0.33246562 -0.11658445 -0.26580203 -0.17295864 0.075023174 0.062102526 -0.37399986 0.057168387 -0.061445843 -0.0064134076 0.08028394 -0.27782264 0.25819966 0.2846716 0.16363317 0.0983479 -0.2604931 -0.23317148 0.17106001 0.18572521 6.6633744E-4 -0.23368435 -0.24563628 -0.059967693 0.15154432 -0.03695178 -0.16103603 -0.1643758 -0.31941155 0.040106352 -0.25075382 0.0036693255 -0.16783604 0.10809682 -0.07818164 -0.2054492 0.10000068 0.060629826 -0.03124834 0.20355697 0.3767876 -0.26749554 -0.13769364 0.11246067 0.12096093 -0.053560346 -0.08268919 -0.20444416 0.07896456 -0.23430227 0.029874118 -0.027003031 0.09894575 0.060369454 0.029490445 0.12944677 -0.28419307 -0.10194057 0.2106218 -0.06489264 -0.0977655 0.19745761 0.022241991 0.11890297 0.032981977 -0.054724008 -0.07353996 -0.095530964 -0.09441994 -0.38018042 -0.3477464 0.19631298 -0.28190148 -0.006151843 0.18673651 0.44924858 -0.051568702 0.36143896 0.21199676 0.07420788 0.2505651 -0.14566186 0.1890884 -0.09597784 -0.028684355 -0.087594785 -0.17656127 0.0134885525 -0.18015026 -0.23520233 -0.33399555 -0.45079783 0.10622443 0.029174428 0.1901362 0.16547492 -0.010920717 0.17932898 -0.3122318 0.02572057 -0.047992658 -0.16433367 -0.09894196 0.043541506 -0.24314366 0.13317908 -0.11244268 -0.28221178 -0.08627928 0.15161045 -0.17491181 -0.17412937 -0.12156387 -0.19298938 0.048227344 -0.08725434 0.4961763 -0.19834991 -0.043450143 -0.32619992 -0.1044757 0.45022178 -0.17332749 -0.0135707995 0.055142153 0.14771177 0.39353555 0.17797813 -0.0027068 -0.10434992 0.05031096 0.054085188 0.026343225 0.07578283 -0.25939602 0.09841485 0.1351211 0.087233596 -0.11387757 0.056314383 0.28625143 0.4802287 0.02775364 0.02589937 -0.12959692 0.51328355 -0.06200699 -0.012039168 -0.5037374 0.17734459 0.18354617 -0.5955173 -0.415324 0.14823934 -0.05635502 0.52197844 0.17845424 -0.18104331 0.15354507 0.2701879 -0.037777 -0.18562585 0.16029787 -0.17956716 -0.10220205 0.14413081 -0.075050645 -0.07540578 -0.105135344 0.122648045 -0.10207683 0.057065368 0.22572833 -0.3981971 0.33386537 -0.012511705 -0.18517399 0.11095029 -0.08967958 0.07382448 0.26562563 -0.3488692 -0.16278666 0.1434999 -0.0093555655 0.14251652 0.14455357 0.17923072 -0.18097833 0.16153552 -0.06342785 0.033262566 0.011896344 -0.10603964 -0.47026876 0.06718614 0.25096568 0.014122476 -0.073451765 0.045292564 0.10961128 -0.15972395 -0.11924299 -0.018591765 0.34134772