0.069262736 -0.027548606 0.031726915 -0.1299723 0.113183446 -0.51648074 0.023408618 0.54543644 0.18440078 -0.05178578 0.015204993 0.16440281 0.16857941 -0.15194635 0.2444116 0.35790953 -0.13705435 -0.05928677 0.33103642 0.18468767 -0.30088964 0.13292058 -0.15385456 -0.08591329 0.019503508 0.1224591 -0.085604504 0.117858835 -0.15962072 0.06775683 0.34701446 0.1761381 0.11100868 -0.029530626 -0.14782234 0.05309565 0.27301547 0.07923924 -0.0055237273 -0.26222497 0.23081005 0.35524347 -0.124496646 -0.26259446 -0.1669537 0.20235254 -0.096707955 -0.2198796 0.11339875 0.13736518 -0.18057264 0.36046812 -0.07136405 0.02470756 -0.22506618 -0.26694345 -0.100491956 0.15444395 -0.4683778 0.01975562 0.19734064 -0.22700594 -0.12967877 -0.13984288 0.28206334 -0.102354996 -0.020212295 0.37073138 -0.07829277 -0.28221264 -0.17798573 -0.061546866 0.028736372 0.0798183 0.06730084 0.056113996 -0.47036487 0.34107727 -0.16320136 0.030753128 0.24269627 0.19927894 0.34469065 0.33172596 0.44017142 0.11100908 -0.113828585 0.1129529 0.09306432 -0.09193908 -0.47580385 0.21385697 -0.15022488 0.3434692 -0.2516833 -0.3280363 -0.10685794 -0.29487157 -0.17153122 0.074970566 0.06500283 -0.3672034 0.05475083 -0.05390987 0.0056027924 0.060312863 -0.2697795 0.25421196 0.28832433 0.15265867 0.10111428 -0.24879675 -0.23749968 0.1574385 0.18267572 -0.02184037 -0.2422572 -0.24122044 -0.071456835 0.12764427 -0.04489011 -0.1492324 -0.13347588 -0.306488 0.052639987 -0.2421207 0.00388301 -0.17107187 0.09524832 -0.049523875 -0.21955095 0.09570625 0.061197173 -0.032865904 0.21416217 0.3650775 -0.2596737 -0.14686204 0.09873312 0.13129853 -0.05130632 -0.06483066 -0.1977812 0.07424593 -0.23159045 0.01108631 -0.04116669 0.10404762 0.06630543 0.02101788 0.13895302 -0.29569486 -0.11449373 0.22662841 -0.04129759 -0.10961483 0.20102485 0.040748876 0.12232118 0.030069942 -0.053421084 -0.088581 -0.09929818 -0.097720265 -0.34876156 -0.34649286 0.21331851 -0.2746818 -0.00491444 0.20145163 0.44105136 -0.07947092 0.3531468 0.21870714 0.06995663 0.2360854 -0.110090524 0.1987555 -0.098380975 -0.02431119 -0.06579398 -0.19595131 0.013791431 -0.1654981 -0.21428695 -0.31737554 -0.4421213 0.1059507 0.0374985 0.18175887 0.16739932 -0.013043024 0.17292893 -0.3049691 0.013294622 -0.023372002 -0.17419326 -0.086931385 0.019124983 -0.2353287