4.839072E-6 1.6203774E-4 1.3816802E-5 5.412665E-5 2.896158E-4 -3.4042896E-4 -2.655133E-4 4.9015413E-5 -3.147427E-4 2.8290245E-4 -1.1904459E-4 -7.2235474E-5 -1.585934E-4 3.1885123E-5 6.492077E-4 2.9989355E-4 1.0402675E-4 2.9812116E-4 -9.8301636E-5 -4.627695E-5 -1.3049823E-4 -2.6030836E-4 2.078055E-4 -7.274905E-4 -2.3143143E-4 -2.0249149E-4 -7.58429E-4 3.6638463E-4 -5.9560745E-4 -2.1358278E-4 -1.2093931E-4 5.4396874E-5 4.2321444E-5 1.15777635E-4 -4.1176213E-4 -2.732047E-4 2.8876275E-5 -1.6048104E-4 1.8191984E-4 1.1479593E-4 -5.348168E-4 -3.7615438E-4 -4.2420314E-5 -5.4911297E-4 -3.155323E-4 -3.31669E-4 5.4442463E-4 -1.8864355E-4 1.4785404E-4 -9.829285E-5 -3.2713322E-4 -1.5910417E-4 2.2231252E-4 2.2229367E-4 2.4023159E-4 2.3118655E-4 -3.5540678E-4 -3.329823E-4 -2.515602E-4 -1.6846332E-4 3.248555E-4 2.7764274E-4 -4.968825E-4 -4.3675835E-5 -1.5335971E-4 -2.8287966E-4 -1.3404919E-4 -2.4772156E-4 -1.9490253E-4 -3.1332733E-4 4.471747E-6 -2.3716768E-4 3.8711398E-4 -8.6663305E-5 3.3845904E-4 -3.433901E-4 -5.836744E-4 -2.6360183E-4 -1.5093043E-4 -2.3373662E-4 2.1153025E-4 1.9329175E-4 -1.0137219E-4 -4.4247127E-4 -1.8240654E-4 -2.9463563E-4 2.6847635E-4 -3.1653388E-5 -1.6738057E-4 -2.638127E-4 1.8688271E-4 -5.887235E-4 -5.631797E-5 2.4293522E-4 3.2152128E-4 -9.505497E-5 1.04366416E-4 -1.2396861E-4 1.7382075E-4 9.282432E-5 -3.8625818E-4 3.48129E-5 5.754449E-4 1.5270681E-4 8.4572406E-5 -1.4582196E-4 2.0368086E-4 -4.6526144E-5 1.4699837E-4 2.0539215E-4 -3.4999466E-5 -5.0766434E-4 -7.6130564E-5 1.2971506E-4 -4.872406E-5 2.8210218E-4 -4.4189065E-4 2.8419044E-4 -1.3893681E-4 -6.676948E-4 4.2799587E-4 2.7997303E-5 -3.3547642E-4 2.7311742E-4 -1.0852672E-4 8.398124E-5 1.2561266E-4 3.5126798E-4 8.289146E-5 2.7256658E-5 1.5832644E-5 3.255315E-5 -2.0425672E-4 4.0477858E-4 -1.2324667E-4 7.784529E-7 -1.602037E-4 -4.081383E-6 4.3030528E-4 -3.7880123E-4 -9.987039E-6 9.4452014E-5 4.8807575E-5 -4.0753825E-5 -7.741319E-4 5.5810186E-4 8.5292355E-5 -2.0667616E-5 -3.6506084E-4 -4.183726E-5 2.876959E-4 4.728281E-4 -2.071544E-4 -3.8002775E-4 2.9696876E-4 1.9855263E-4 -2.455047E-5 2.826085E-4 -1.9246664E-4 1.3014028E-4 1.3459145E-5 3.9705122E-4 -3.1131392E-5 2.86043E-4 -9.6904405E-5 5.429673E-4 -6.163017E-4 -1.6442598E-5 3.3701066E-4 -1.2253999E-4 1.3469081E-4 -7.228323E-5 1.5785237E-4 -2.1960195E-4 1.6903308E-4 3.1506832E-4 -1.5699002E-4 -9.560339E-5 1.74415E-4 5.4763537E-4 8.6062944E-5 2.9947452E-5 -6.094342E-7 7.259821E-6 -9.737503E-5 3.293129E-5 -1.9726605E-4 2.904455E-4 7.480143E-5 -9.942391E-5 -3.873115E-4 1.3181406E-4 6.0884922E-5 2.5296633E-4 1.0255333E-4 4.3569267E-4 -9.235352E-5 2.8611521E-5 -4.6568646E-5 -3.1468598E-4 9.5235264E-5 1.0603145E-4 -6.3271687E-4 1.2272917E-4 7.9450096E-5 -1.2075931E-4 -1.8536035E-4 -1.4765629E-4 -1.5619391E-4 -5.478894E-4