8.48164E-5 -1.5319358E-4 -4.5849002E-4 -3.3376855E-6 -1.5036597E-4 -2.1099127E-5 -5.1418995E-4 -3.8855273E-4 1.4014193E-5 -3.6235608E-5 -1.5003253E-4 -6.647331E-4 -4.215525E-4 1.5136063E-4 -2.1129243E-5 -2.7748136E-4 -2.0932207E-4 -1.7169603E-4 2.0169155E-4 4.5051172E-5 -5.211666E-4 -1.3136788E-4 -3.945407E-4 -2.5138562E-4 1.0306586E-4 -3.8328217E-5 -1.672861E-5 -2.4722677E-4 -1.4459218E-4 -4.117473E-5 -2.4752665E-4 -2.4435404E-4 -3.05004E-4 -1.01097074E-4 8.1055565E-5 2.884834E-4 -1.1441211E-4 -9.171816E-5 8.6934364E-5 -2.360499E-4 3.7756388E-4 -1.0679613E-4 -1.0247316E-4 -3.2621046E-4 1.2815362E-6 -2.3663463E-4 -7.891105E-5 -3.1209744E-5 8.939906E-5 -4.7054753E-5 3.6279886E-4 -1.0967066E-4 -6.47268E-5 9.988545E-5 -5.165625E-5 -2.758188E-4 -2.7351658E-4 -4.423525E-4 7.201891E-5 7.7592376E-5 -3.6621507E-4 2.9661754E-4 1.6046107E-4 -5.2700937E-4 3.0691287E-4 -5.9314107E-4 1.5337163E-4 -8.103778E-5 -5.4937846E-5 5.8922975E-4 3.418903E-5 -3.4915135E-4 -2.4305657E-5 3.3350196E-4 5.228183E-6 -7.533497E-4 -2.4450387E-4 1.493727E-4 -8.339686E-5 1.2020612E-4 -5.904759E-4 3.1560904E-4 -4.6686776E-4 -2.0656601E-4 -5.887411E-4 -5.371012E-4 1.6017728E-4 -3.505338E-4 -3.309055E-4 -1.19203425E-4 -2.791505E-4 -4.617355E-4 -2.333065E-5 2.2963155E-5 -1.2000959E-4 -3.3359075E-4 2.2260672E-4 4.5810983E-5 -1.2317114E-4 2.1973177E-4 -4.369584E-4 -3.2561686E-4 -2.962149E-4 3.668848E-4 1.4713361E-4 -6.2459405E-4 -2.2520307E-4 -1.7597098E-4 -2.2066943E-4 -7.520744E-4 -7.1338494E-5 -4.041654E-4 -1.7169594E-4 7.654778E-6 -7.626003E-4 2.6776434E-5 -9.405664E-5 2.8047792E-4 -1.7085942E-4 3.0696808E-4 -3.2587477E-4 7.832593E-5 1.3256684E-4 -1.8462024E-4 -4.6495115E-4 -6.6078355E-6 1.4220909E-4 -2.7866976E-4 -1.3986665E-4 -6.96315E-5 -2.525251E-4 -2.7328878E-4 -2.8967508E-4 -1.6562553E-4 -2.877896E-4 -8.511606E-4 -1.7492002E-4 -3.4195575E-5 -8.3638035E-5 -1.04708495E-4 -6.490115E-5 -2.4888944E-4 -1.2019723E-4 1.1170805E-4 -2.8084568E-4 1.1217198E-5 2.9055757E-4 1.8907295E-4 -3.1674374E-4 -5.1397213E-4 -4.6127068E-4 -4.5295004E-5 -3.4693617E-4 -1.9307366E-4 -6.7163346E-5 -1.4183263E-4 -2.2982E-5 -4.4757867E-4 -1.586363E-4 -1.087062E-4 1.8170904E-6 3.1898671E-6 -3.3389992E-4 -5.5183278E-5 1.7081859E-4 -6.013168E-4 2.584404E-4 1.6476991E-4 5.066581E-5 -5.987995E-4 -2.109775E-4 1.0065256E-4 1.9722855E-4 3.516253E-4 2.4750603E-5 -1.6528547E-4 5.0707007E-5 -1.007619E-4 -6.349373E-5 2.0321477E-5 -2.9659132E-4 -4.5731064E-4 -5.8176223E-4 2.0887893E-4 -6.6140847E-4 -6.795932E-4 9.400144E-5 -6.6152395E-4 -3.0605956E-5 -3.2548635E-4 -3.7783736E-4 -4.6044428E-4 -3.6911547E-4 -2.1025303E-4 3.455302E-4 -1.9185015E-4 -2.1262639E-4 -1.6402641E-4 -9.156714E-5 -2.801307E-4