-2.8360327E-4 -2.8475787E-4 8.190402E-4 1.0900214E-5 -2.56799E-4 1.595339E-4 0.0020016732 -2.2742312E-4 0.0015275177 -6.548469E-4 -3.2911083E-4 4.878623E-4 3.3541245E-4 8.699378E-4 -4.754144E-4 -8.215017E-4 0.0012799265 -3.8451995E-4 0.0025826925 1.13278904E-4 -5.8375794E-4 8.608584E-4 1.00524805E-4 -3.183767E-4 -5.9150327E-5 -6.0010946E-4 -0.0010899559 6.15456E-4 -4.7726237E-4 0.0011374371 9.98059E-4 6.1419973E-4 -3.6365038E-4 -1.9551469E-4 -6.7469536E-4 1.0108815E-4 -0.0010314703 -7.198163E-6 7.8685133E-4 3.2521258E-4 -3.1006188E-4 -1.724204E-5 3.5028224E-4 4.4706426E-4 -5.0637398E-5 0.0020388127 -4.989469E-5 5.678188E-4 0.0015383145 7.8452646E-4 9.808636E-4 -0.0027739322 -3.584184E-4 3.4491817E-4 9.91683E-4 2.2241267E-4 5.0733757E-4 -2.649738E-4 -4.959536E-4 -3.2160987E-4 -2.1050253E-4 2.29334E-4 -5.6647614E-4 -1.0744767E-4 -1.8176116E-4 2.9862535E-4 0.0012344519 0.0012757521 6.961856E-4 -1.4188916E-4 -3.0658816E-4 -5.73363E-4 -7.4956263E-4 1.0167695E-4 1.8769014E-4 3.0909752E-4 -1.4406642E-4 2.042515E-4 3.6692264E-4 9.851332E-5 6.330855E-4 -0.001040421 0.0026215392 0.0013374116 -4.2103644E-4 -2.3539443E-4 5.2150886E-4 0.0015043109 0.0015950059 3.7509445E-4 -9.579971E-5 -0.0015151966 2.9689376E-4 -1.1747875E-4 5.7986785E-5 0.0013840866 0.0010483213 1.3954178E-4 -0.0013699194 -6.1968964E-4 -6.879348E-4 -3.080872E-4 -8.425409E-4 6.7486084E-4 3.377999E-4 5.5054217E-5 9.0339384E-4 8.038726E-4 -5.132635E-5 -0.0011979293 -3.1825612E-4 2.3796258E-4 -0.0015174765 3.1591897E-4 1.333517E-4 -0.0018071122 4.1737396E-4 6.780085E-4 1.147986E-5 -5.9693184E-4 -9.59201E-4 1.362015E-4 1.5518832E-4 5.0567836E-4 5.631539E-4 4.6450623E-5 2.5994555E-4 -1.6309659E-4 4.5061977E-5 2.456969E-4 1.9527893E-4 0.002090723 8.591276E-4 6.416728E-5 -1.9627145E-4 4.8743785E-4 -1.9944065E-4 6.068469E-4 6.567027E-4 -0.0014623834 -6.2396924E-5 -7.318193E-4 -8.6056866E-4 -4.3561374E-4 -4.8494572E-4 2.1251864E-4 -4.3974654E-4 -1.5491668E-4 -4.346267E-4 5.49167E-4 2.0801452E-4 -3.5692228E-4 4.047972E-4 -6.3016475E-4 9.1885444E-4 1.9146435E-4 -2.77312E-4 -6.4680586E-4 -1.7607093E-4 0.0014414617 6.600847E-4 -2.7690068E-4 -5.7114946E-4 -4.2301114E-4 -7.5585034E-4 6.867489E-4 -1.4270973E-4 1.5631966E-4 4.8409912E-4 6.223696E-4 5.1941647E-4 3.2834616E-4 0.002311087 -0.0025546432 6.735452E-4 -1.9950872E-4 -1.06527674E-4 7.7349105E-5 8.31941E-5 9.265617E-4 0.0014668689 8.4033905E-5 3.5680959E-4 3.0437706E-4 6.468539E-5 4.2968997E-4 4.5143242E-5 -5.3627766E-5 -0.0016554934 5.26785E-4 -9.912025E-4 2.0818661E-4 5.920341E-4 -3.052675E-4 -0.0011725932 7.98976E-4 -2.587042E-4 -4.375543E-4 -0.0016977866 -0.0028912686 -3.6050263E-4 -3.7423248E-5 -3.132308E-4 -3.5759382E-4 -7.331316E-4 1.8159533E-4 3.6605826E-4 5.0527102E-5 0.0015883581 1.6751135E-4 -0.0010155891 1.8862449E-4 -1.7687871E-5 -0.001046535 -6.362973E-5 4.5532122E-4 3.6097772E-4 3.477549E-5 -8.0441765E-4 0.001581017 -6.948375E-5 7.872031E-4 -8.221158E-4 -6.6211977E-4 2.2342391E-4 -0.0011894639 -8.276169E-4 -1.8084058E-5 -5.3777144E-4 3.8190097E-5 -8.923921E-4 -7.04024E-4 -9.414193E-5 1.3221434E-5 8.0326153E-4 7.461818E-4 -8.4548735E-4 0.001576879 2.659171E-4 -8.537488E-5 -5.425347E-5 -7.0175604E-4 -3.392614E-4 0.0010651103 -1.0922385E-4 8.6652674E-4 -1.0266327E-4 -7.587014E-4 -0.0013919151 -1.9624174E-5 2.7398513E-5 0.0010346363 -1.9726541E-4 0.0015610433 3.5863067E-4 -3.2807823E-4 -0.0012514502 8.92936E-4 -4.657475E-4 -2.3918707E-4 -0.0010240984 -1.6967126E-4 3.775811E-4 4.476585E-4 -6.3162134E-4 -8.783778E-5 2.44561E-4 6.084045E-5 -5.571801E-4 -1.908872E-4 4.7179207E-4 -0.0010713314 -7.462564E-4 -4.462772E-4 -1.4487459E-4 -7.731598E-4 -1.6317841E-4 -3.8851003E-4 1.3900654E-4 -2.2911484E-4 8.776528E-5 1.589004E-4 -4.8257393E-4 0.0013563595 -8.693576E-4 0.0023926338 -6.682326E-4 3.5982463E-4