5.007979E-4 3.030348E-4 -3.698931E-4 0.0010233994 9.328425E-5 -8.80377E-4 2.6497483E-4 5.547884E-4 4.411699E-4 -8.6409505E-5 -0.0011897942 -6.875562E-4 3.729618E-4 1.471349E-4 -7.0827897E-4 4.32221E-4 9.4432005E-4 4.1480322E-4 -0.0010010486 6.3588907E-4 8.98972E-4 -0.0016434396 1.00783276E-4 -7.1161636E-4 -0.0012669237 -3.6883168E-4 -4.5512783E-4 -3.6596606E-4 -8.8295486E-4 3.390336E-4 2.8506352E-4 5.87138E-4 7.440422E-4 0.001167548 8.560827E-4 7.412648E-4 0.0013761189 -6.86551E-4 5.496018E-4 3.5775782E-4 -7.291945E-4 1.9742294E-4 -0.0014297767 6.842426E-4 5.907925E-4 -4.1059384E-4 9.354612E-4 2.7194625E-4 3.7277455E-4 -0.0012195428 -4.6649635E-5 -0.0014253673 1.2481847E-5 0.001093084 1.9077392E-4 -1.5993483E-4 6.992628E-4 -7.036918E-5 -0.0014094278 5.8426685E-4 3.8097656E-4 9.3091093E-4 -4.7008618E-4 1.9120873E-4 4.2494465E-4 -7.913536E-5 3.4862483E-4 -5.64528E-4 -7.648841E-4 9.059006E-4 -5.4078735E-4 9.739932E-4 -0.0014139323 -8.69052E-5 -0.001053186 -0.0010214432 5.692562E-4 -3.2277888E-4 -4.0773445E-4 3.8031835E-4 4.2571977E-5 7.458644E-4 7.061717E-4 3.0616438E-4 -5.5448283E-5 0.0010083884 -8.86899E-4 3.901321E-4 6.3617225E-4 -8.1821706E-4 -0.001196601 -0.0017265686 -0.0014762619 5.057272E-4 3.8241138E-5 1.8267716E-4 -0.0014365892 0.0011032863 -0.0013524762 -3.408091E-4 -0.0022969209 3.2029595E-4 3.2185394E-4 -7.110041E-4 -0.0016577869 2.771344E-4 -6.3791184E-4 7.9951505E-4 3.9763577E-4 2.6867993E-4 4.1807813E-5 6.5033423E-4 2.085942E-4 -1.1798311E-4 -1.1230823E-4 -9.434552E-4 2.3048035E-4 -0.0026128204 -0.0025701798 -3.984167E-4 -0.0020569265 -4.3182026E-4 1.0852872E-4 -3.0515217E-5 -4.132393E-4 -4.8117506E-4 0.0015321583 -0.0010590211 -4.224319E-5 -7.1600894E-5 -3.7827966E-5 5.2250613E-4 0.001455663 7.6700514E-4 -1.8567286E-4 7.99085E-4 -0.0017691674 -4.4413086E-4 -2.3133712E-4 -0.0013867939 2.9385267E-4 -1.2055323E-4 2.8903657E-4 -1.8694173E-4 -6.941486E-4 8.5726747E-4 -0.001509267 0.0012424095 9.813015E-4 -0.001423541 6.2013196E-4 5.38853E-4 -3.5521004E-4 -4.3135125E-4 7.725224E-4 0.002213053 -5.5722165E-5 -0.0020670013 9.4123883E-4 4.620794E-4 3.7598773E-4 -3.8141618E-4 2.9820763E-4 -0.0014641543 -0.0017956994 0.0015327148 0.0011858122 5.3120323E-4 -8.9292804E-4 1.9422537E-4 0.0011954064 0.0017180588 -4.999973E-4 -9.233653E-4 -0.0011787888 4.01498E-4 -6.175064E-4 2.1336891E-5 -2.1349704E-4 -9.822275E-4 -9.103513E-4 -1.43918E-4 1.2678666E-4 1.6140984E-5 6.603686E-4 -4.798627E-4 -0.0013631317 -1.21444245E-4 0.0013457561 -1.4862127E-4 3.7611823E-4 -5.7399913E-4 3.1828778E-4 2.5221962E-4 0.0010025874 1.5440979E-4 -0.0015546471 5.333619E-4 9.908925E-4 9.650039E-4 -1.5513736E-4 0.0020585544 6.3891093E-6 -2.0324881E-4 -2.1933485E-4 -5.6007743E-4 -3.1747532E-4 -7.4760587E-4 9.160008E-4 7.695935E-4