2.4926265E-5 -1.2428846E-4 -1.6935624E-5 -1.7054382E-4 -6.486449E-5 7.832529E-5 -2.4656404E-4 -1.2979479E-4 -2.650731E-4 -7.192677E-5 3.44441E-5 -7.7645826E-5 -1.0772163E-4 -3.6844722E-7 -2.4796449E-5 -1.4191822E-4 -1.06717736E-4 -1.3598506E-4 -4.595701E-5 9.768859E-5 -2.5382417E-4 -9.41114E-5 1.4344474E-5 -3.74861E-5 2.6539585E-4 -1.7800466E-4 -2.801346E-4 -2.673377E-4 9.559553E-5 -5.236484E-5 -5.9052378E-5 -6.812457E-5 -6.0046415E-5 -8.278593E-5 -5.4329357E-5 6.560985E-5 8.2778264E-5 8.134289E-5 -2.5552828E-4 -8.34299E-5 6.981263E-5 -1.5682424E-4 -1.1315423E-5 -9.171756E-6 -2.2815965E-4 2.028165E-5 -1.5834166E-4 1.7965258E-5 -1.2231103E-5 -4.3646916E-5 -2.2724469E-4 3.0463136E-5 -1.2126755E-5 -1.085962E-4 -3.0418838E-4 8.639093E-5 5.7162415E-5 -6.166033E-5 5.7650577E-6 -3.6219113E-5 8.890343E-5 7.232765E-5 -1.10820976E-4 -6.4802254E-5 3.7547252E-5 -5.1820953E-6 1.2679317E-5 1.4146727E-4 3.7764363E-5 -4.0499828E-5 -1.09214525E-4 -6.862496E-5 -2.5671097E-5 -1.2592078E-4 -8.677582E-5 1.4084228E-4 -4.6948462E-5 -5.1408846E-5 4.494656E-5 -1.7318453E-5 -6.7848625E-5 -1.3458435E-4 -1.3304941E-4 -2.1538122E-5 3.5117548E-5 5.2940322E-5 -5.6233872E-5 2.7162749E-5 -2.5518285E-4 -8.995683E-5 9.7559205E-6 -1.1475674E-4 1.6543267E-5 -4.803535E-5 -7.844389E-5 -2.3314892E-4 6.0901773E-5 -4.8405E-5 -1.5171405E-4 4.464419E-5 -5.1170526E-5 -3.9408536E-5 5.734679E-5 4.6662344E-6 -3.966415E-5 -4.4236007E-5 1.4307503E-4 -2.554881E-4 -1.1083494E-4 -1.3920784E-4 -4.468589E-5 -8.179211E-5 3.0646064E-5 -1.5373586E-4 -1.3984235E-4 -1.64708E-4 5.62929E-6 9.327158E-5 5.493348E-10 -5.4834236E-5 -5.817321E-5 -4.1668714E-5 1.1590068E-4 -9.5697214E-5 -5.964909E-5 -1.3002515E-4 4.2325173E-5 -1.4420688E-4 -7.7557845E-5 -1.655692E-4 1.6801013E-4 -6.0967148E-5 7.859838E-5 -5.1443647E-5 1.9437287E-4 -1.3256486E-4 -8.89447E-5 8.6584E-5 2.0867884E-4 2.302929E-5 1.21846046E-4 1.02633065E-4 -1.993345E-4 -1.7389575E-4 -5.8033456E-5 -1.2229242E-4 -2.2199129E-5 1.137775E-4 1.56547E-5 -5.8950154E-5 1.1375517E-4 1.3692898E-4 -8.1215076E-5 -1.8931506E-4 -1.0126364E-4 4.995748E-6 1.4747617E-5 -1.7451459E-4 -7.607708E-5 -9.0081965E-5 -1.0278678E-4 1.5681646E-5 -7.81312E-5 -1.2892339E-4 2.3392438E-4 -7.41276E-5 1.389285E-4 -1.712907E-4 4.304237E-5 -7.997218E-5 3.5367797E-5 6.9137546E-5 -1.2338045E-5 -1.560874E-4 -7.2035094E-5 -1.08316366E-4 3.93382E-5 9.547905E-5 -2.3835093E-5 6.711036E-5 2.0418444E-4 4.510627E-5 -9.569003E-5 -2.1397766E-4 -1.529666E-4 -3.7893216E-5 -1.197829E-4 1.09372224E-4 -6.5691864E-5 -3.1820222E-5 3.43056E-5 -6.0115373E-5 -1.2863893E-6 -1.5955478E-4 9.8679266E-5 -9.2279515E-5 -1.420023E-4 -5.469277E-5 -7.255506E-5 -1.3530631E-5 1.589637E-4 -8.8716384E-5 -7.0989714E-5 -8.959425E-6 5.551854E-5 -3.411984E-5 -1.8857987E-4 -2.613022E-4 9.065622E-5 2.0812513E-5