-2.4884054E-4 4.778711E-4 2.7743613E-4 3.9740626E-5 -1.15719595E-4 1.3162557E-5 1.8281006E-4 -4.0662475E-4 -2.739187E-6 2.6454634E-5 -1.4832872E-4 1.374603E-4 7.202161E-4 1.15203795E-4 1.6468143E-4 -2.4180289E-4 -1.837014E-4 2.209956E-4 -4.934148E-4 -4.7745946E-4 -5.6979712E-5 -2.4781417E-5 -2.2048908E-4 -2.8664118E-4 -2.3379049E-5 -1.8396808E-4 -2.5303868E-4 -1.2019237E-4 1.7387714E-4 6.723708E-5 -1.4243704E-4 -1.822593E-4 9.339998E-5 -3.0806006E-4 -3.9592298E-4 3.627015E-4 1.5037012E-4 -2.1141171E-4 -1.3363347E-4 6.4002146E-5 -5.4396305E-4 -2.8917356E-4 -1.7428274E-4 3.6680378E-4 1.7628312E-4 3.4579716E-6 -2.3862586E-4 -1.4330485E-4 -1.779402E-4 9.901705E-6 1.2891466E-4 -1.2875348E-4 -3.0410913E-5 -4.368348E-5 -8.268357E-4 -1.7598901E-4 7.112813E-5 -1.4700217E-4 -1.3895891E-5 1.760431E-4 -6.9812965E-4 -3.3230954E-5 -2.2561589E-4 -8.204763E-5 -4.0447083E-4 -3.1829E-4 2.1112704E-4 -2.4967513E-4 -4.7210223E-4 -1.508068E-4 6.401984E-5 -2.9786953E-4 -4.4088878E-4 -2.1972656E-4 -3.1553162E-4 -3.673295E-5 -2.770514E-4 -4.8360036E-4 -9.971412E-6 1.8903505E-4 -6.0252773E-5 -2.687608E-4 4.0553277E-5 -0.0012129529 3.4102844E-4 -3.157538E-5 -5.896088E-4 2.7413544E-4 -3.3946408E-4 -2.0982506E-4 -2.0462976E-4 -1.3519163E-4 2.7573988E-5 -7.275995E-4 -2.9392098E-4 -3.0561665E-4 4.237593E-4 -6.740623E-4 -5.2055744E-5 1.398677E-4 4.7145394E-4 -2.4986154E-4 2.6950883E-4 3.9963877E-5 -7.4706986E-5 -2.8606385E-4 -1.0550834E-4 -2.573431E-4 -2.6539643E-4 -2.2281337E-4 -1.5245297E-4 4.164117E-5 4.122844E-4 -1.468304E-4 2.6396607E-5 -4.5214852E-4 -1.9146269E-4 1.902505E-4 2.7980153E-5 -1.8789891E-4 2.3733905E-4 -6.0263454E-5 2.4222172E-5 1.975352E-4 -0.0010694504 5.253082E-4 -3.9264193E-4 -3.2289172E-4 4.142153E-4 1.6251107E-4 -2.0262552E-5 -5.967503E-4 -6.316368E-4 -1.6473529E-4 -1.0262142E-5 -1.479768E-4 3.6667654E-5 -2.1985687E-4 -1.9709984E-4 3.3190998E-5 1.4640151E-4 -5.393252E-4 -1.5984739E-4 2.4149938E-4 -7.425406E-5 -1.9367735E-4 -1.0647433E-5 -2.0832388E-4 -2.8945314E-4 -6.853669E-4 -2.7548248E-4 -4.936391E-4 -1.288474E-4 -1.0194809E-4 5.9809412E-5 5.3177646E-6 3.8725368E-5 -8.751852E-5 1.8382662E-4 1.4787773E-5 1.818304E-4 3.2146854E-5 4.488731E-4 -4.3594636E-4 -2.720802E-4 2.4785266E-5 2.44761E-5 -4.7702977E-4 -9.2377195E-5 1.1976868E-4 -5.056323E-4 4.6671666E-6 -3.048728E-4 3.2338017E-4 -2.5776972E-4 7.310118E-5 -2.92658E-4 -2.387806E-4 -3.5245097E-4 1.0046296E-4 4.312447E-5 -1.26665E-4 3.7563365E-4 8.366198E-5 2.2195607E-5 -1.2473538E-4 3.581811E-4 -1.5342778E-4 -3.2835492E-4 -3.4037532E-4 1.4850232E-4 3.261671E-4 -1.5891495E-4 -2.4485082E-4 5.2191387E-4 -7.268034E-5 -2.2967283E-4 -7.1589433E-4 1.6150938E-4 -2.748186E-4 1.2477933E-4 -7.2987124E-5 -1.2599205E-4 1.1216936E-5 -1.5822235E-4 -2.6009922E-4 -2.1463315E-4 -1.7282722E-4 -2.106065E-4 -1.7399972E-4 5.9774015E-5 2.8689654E-4 -1.2707207E-4 3.0672486E-4 -7.9988284E-5 -4.4487894E-4 -3.543927E-4 -6.4905756E-4 -4.8814577E-4 -1.7483026E-4 5.136692E-5 1.352695E-4 -1.2662067E-4 -3.6164947E-4 -5.31876E-5 5.404311E-4 1.829023E-5 2.0734764E-4 -4.0551194E-4 -2.6699458E-4 -2.0894388E-4 -4.6748767E-4 8.390853E-6 1.08159176E-4 -1.3047189E-4 -6.984565E-4 -1.5860621E-4 -9.88556E-6 2.0243665E-4 -9.183703E-5 -4.909124E-4 -5.477469E-4 -2.5399233E-4 -7.623409E-5 -5.7025545E-4 -6.973345E-5 -1.16697775E-4 -3.740858E-4 1.3308584E-4 -5.2036885E-6 -2.2439606E-4 -4.6827772E-4 -7.5356156E-4 -5.2864867E-4 3.3448014E-6 -3.9910033E-4 -1.4260321E-4 -2.0711395E-4 4.1562354E-4 -3.065708E-4 1.8359938E-4 3.857504E-4 -1.9440896E-4 -1.5589793E-4 -3.2680007E-5 -3.4804456E-5 8.826139E-6 5.728002E-4 -6.67352E-5 2.0224543E-6 3.7688244E-4 9.005655E-5 6.775041E-5 1.1618991E-4 3.0502237E-4 -3.24298E-4 -8.599982E-5 1.6575315E-5 1.0213675E-4 1.8241847E-4 3.9934253E-5 -3.8844597E-4 3.373874E-4 -1.9455596E-4 -1.5310103E-4 -3.517687E-4 5.526755E-5 -3.7365363E-4 -1.8037084E-4 1.1085096E-5 -4.6127665E-5 1.3446012E-4 -1.89149E-4 -1.7335104E-4 -3.6129088E-5 1.5358994E-5 -2.5332777E-4 -6.5514323E-6 1.2945262E-4 -3.6165334E-4