-0.0010387714 -0.1436768 -0.010596121 0.12664457 0.08292973 0.09749292 -0.118705764 0.13015397 -0.11194821 0.05149386 -0.085837305 -0.07356076 -0.065954596 -0.038859196 0.09767822 -0.062147696 0.09257559 0.024614055 -0.09493413 0.036919225 -0.026182994 -0.05535048 -0.19687113 0.12291297 0.023623355 -0.10580498 -0.031429052 0.24226475 -0.051996727 0.033953115 -0.011558537 0.027792312 0.13320859 0.14051628 0.1459331 0.113403894 0.14251736 -0.033173427 -0.048568316 -0.20040004 -0.11650649 0.049316082 -0.113504834 0.009167842 0.043363135 0.15156288 0.017396847 -0.10313276 0.054390937 -0.0039517567 0.10929652 0.00940089 0.0371145 -0.118738435 0.12846233 -0.015705206 -0.0059927376 0.0012559971 -0.053078435 0.05155079 -0.09720725 0.061840616 0.036285695 0.011572778 -0.2245363 -0.044766095 0.095782146 0.13814998 0.06327802 0.060305778 0.09945407 0.024846537 -0.116028465 -0.12985489 -0.042193446 -0.09917255 0.014438775 0.058427073 -0.06504123 -0.14318268 0.024248362 0.02524188 -0.09168835 -0.04265064 0.006704407 0.0909908 -0.13843104 -0.043023784 0.050339546 0.10916389 0.054249596 -0.0442529 0.16118068 -0.0824261 -0.18193239 0.00494552 0.22868985 0.057603493 -0.13844861 0.02719699 -0.026449012 -0.053046376 -0.0015959479 -0.042682003 0.056618236 -0.02064012 0.07560239 0.015198656 0.13693658 -0.052808613 0.043100867 -0.19771348 0.041464955 0.06824784 -0.14338611 -0.10836397 0.078686275 0.009767268 0.024866521 0.15006444 0.045804977 -0.057433378 0.057397205 -0.08919195 0.17941527 -0.16241848 -0.0066504916 -0.07291292 -0.081696555 0.18615735 -0.04683578 0.046344645 0.013531474 0.064326316 -0.08498374 -0.10146269 -0.15088217 0.07683881 -0.06868799 -0.09769159 -0.052072234 0.117657036 0.09053383 -0.14071582 -0.11360886 -0.057631824 0.09681309 -0.1774834 -0.01313811 -0.05557877 0.055468723 0.18265681 0.055524606 0.022338403 -0.15169248 0.14518766 -0.018304927 9.804321E-4 0.053151496 0.089786425 0.022177812 -0.21817182 0.17709407 -0.067685634 -0.15398365 -0.028289922 0.0025235256 0.14569294 0.1980556 0.11809978 -0.0070024943 0.19668134 -0.05200827 0.048959482 0.043038856 0.03211401 0.005076295 0.034849927 -0.07792233 -0.0745302 -0.16840206 -0.10628555 -0.10344048 0.050556634 -0.020888995 0.18174525 -0.03475132 -0.049431257 -0.023287341 0.10654048 -0.044911854 0.016942797 -0.047622465 0.08299988 0.016742509 -0.026933506 -0.20242067 0.08019049 -0.078593515 0.05394992 0.082148716 0.0025487647 0.015837986 -0.18394049 -0.035458148 0.11511566 0.048714496 0.07274424 -0.067098215 0.0064206743