-0.089692146 -0.15686622 -0.09425347 0.059451826 0.15657634 0.18221997 -0.024420181 0.18449648 -0.082439914 0.036182772 -0.15990555 -0.047948338 -0.036931526 -0.07354473 0.101671696 -0.026549667 0.14760356 0.020416325 -0.09520952 0.09091668 0.004278735 -0.07171337 -0.19599208 0.1136754 0.032756705 -0.091970645 -0.015423464 0.20284213 -0.039782133 -0.015093549 -0.087830834 -0.006325497 0.111774236 0.20076081 0.16988325 0.12368577 0.14343005 -0.054667488 -0.00627617 -0.19496776 -0.16265433 0.04763354 -0.19219771 -0.07776611 0.03242809 0.2038512 -0.030049114 -0.11448042 -0.08284894 -0.09500871 0.06916589 0.055579014 0.0935209 -0.13128057 0.18097346 0.04812029 0.04676731 0.03889276 0.03609515 0.02966029 -0.1371156 0.037160296 0.09973388 -0.047467954 -0.094714835 -0.008664397 0.20211017 0.16684727 0.010361924 0.1049627 0.086364195 0.05773396 -0.023010269 -0.10645584 -0.032070577 0.019634983 -0.09024348 0.075481676 -0.086717516 -0.014557314 -0.06869989 -0.051800583 -0.09594513 -0.023328217 0.0027015454 0.02591122 -0.14900374 -0.025494738 0.036622893 0.17404015 -0.044275843 0.008304904 0.19272761 -0.0575685 -0.108954765 -0.0473817 0.060829308 0.11626136 -0.12364865 -9.2615874E-4 0.03514897 -0.07778633 -0.09252435 -0.074790224 0.12741773 -0.09676727 0.034618635 0.013257478 0.08469554 -0.040404286 0.065048926 -0.15283473 0.028910542 0.14832373 -0.080951326 -0.08416387 0.01973599 -0.0797034 -0.17533587 0.17197588 0.1553228 -0.15891294 0.0505667 -0.044519406 0.17001711 -0.14552963 0.038012546 0.028882856 -0.14445403 0.2264628 -0.097615436 -5.153592E-4 0.0070368103 0.02465623 -0.1792594 -0.002891652 -0.06871898 0.10047592 -0.08035507 -0.14250089 0.00917059 0.1742269 0.11030858 -0.13224885 -0.18873557 -0.08204066 0.029883966 -0.06969145 -0.02945463 -0.1623929 0.031023009 0.1523443 0.03191891 0.043987848 -0.1070636 0.1729443 -0.052684903 -0.03256235 0.06945542 0.16629125 0.12143631 -0.15829067 0.1562542 -0.062805265 -0.14222625 0.09889887 -3.05356E-4 0.04232798 0.102265015 0.12987545 0.0494081 0.0892204 -0.0896275 0.06853976 0.05363834 0.060812768 0.04657063 0.013141346 -0.07023927 -0.15842044 -0.12592302 -0.10459389 -0.025145229 0.0154885845 0.067070365 0.16205 0.020023491 0.08071391 0.032268487 0.10143758 0.040701095 0.044124026 0.0014719261 0.07556571 0.022072027 0.026483105 -0.19118926 0.19937524 -0.095887356 -0.027341984 0.15496013 0.07105747 -0.028067883 -0.24552937 -0.032183006 0.085994884 0.013455927 4.294682E-4 0.023145711 0.06471971