-4.4258157E-4 -1.9876125E-4 9.477234E-4 -1.20861994E-4 0.0013834444 -0.0010953518 5.27669E-4 -1.6420959E-4 -6.4820255E-4 -1.4135173E-4 0.0012434986 -2.9989163E-4 2.8081232E-4 0.0011248395 1.3271927E-4 -9.071847E-5 5.119558E-4 8.397513E-4 1.6497751E-4 0.0013468278 7.150839E-4 1.1007099E-4 4.1093727E-4 -7.108291E-4 7.2946306E-4 -0.0012385347 2.7808337E-4 -8.290473E-4 -3.0158763E-4 7.0791296E-4 7.9722966E-5 -5.512643E-4 4.9607246E-4 3.224658E-4 3.22751E-5 -6.188206E-4 2.2007152E-4 5.1849056E-6 -9.877811E-4 -0.0027862743 -3.885206E-4 4.0122162E-4 -3.9150735E-5 2.0687788E-4 0.0015748955 -2.0912368E-4 9.3929004E-4 3.398204E-5 -6.123792E-4 9.243314E-5 2.0666656E-4 2.7363395E-4 -9.207288E-5 5.6774254E-5 1.428978E-4 5.5082737E-6 -0.0012859027 1.4158925E-4 1.8516374E-4 1.623153E-4 -3.297584E-5 7.6530164E-4 -3.2270487E-4 -6.096193E-5 2.126607E-4 -6.7207904E-4 -0.0026611274 -2.6888869E-5 -7.584905E-4 3.9270497E-4 -5.8192865E-4 6.7533937E-4 -6.8324344E-4 -9.9700716E-5 -7.171364E-5 -7.148477E-4 2.9792918E-5 0.0010394945 -3.780797E-5 6.981695E-4 0.0019347891 3.7891837E-4 2.5778223E-5 -4.4698842E-4 2.965501E-4 -3.7963153E-4 6.4214424E-4 -4.0819964E-4 -6.7044527E-4 -4.999833E-4 -0.0013066402 0.0021783153 -4.0204803E-4 -5.219561E-4 -9.197177E-5 1.8831599E-4 -3.0732574E-4 -2.7943568E-4 -1.5665735E-4 7.6915836E-4 1.006284E-4 -1.0536739E-4 -4.5790902E-4 2.9229085E-4 0.0012219867 3.006905E-4 8.265383E-4 8.213164E-4 -6.418832E-5 3.6676205E-4 -1.7820967E-4 -7.308981E-4 -5.6658714E-4 7.430884E-4 1.4229008E-4 -8.047789E-4 4.1613038E-4 6.9646485E-4 2.367318E-5 0.0010137819 5.1573952E-5 3.8789416E-4 -1.13620255E-4 -3.4658427E-4 8.605831E-5 -9.641005E-4 -4.249208E-4 6.730862E-4 -2.4868318E-4 7.531843E-4 0.0016723807 5.187511E-4 0.0015407611 0.0011913872 5.8869796E-4 4.301939E-4 -3.6482787E-5 4.3754524E-5 -1.6628968E-4 8.1646716E-4 4.837094E-4 -2.0094449E-6 6.061273E-4 6.9518056E-4 9.282014E-4 -6.710845E-4 8.586559E-5 -4.1554758E-4 4.809175E-6 2.0018984E-4 -5.6638673E-4 7.560607E-4 -4.3215757E-4 -0.0010544672 7.353132E-5 -2.8864777E-4 2.6621643E-4 8.1092794E-4 -8.222846E-4 -8.15501E-5 0.001250206 -7.7020435E-4 -3.1005274E-4 -0.0011414108 1.0798976E-4 7.021781E-5 1.872931E-4 -8.4550807E-4 -0.0029077064 7.0824183E-4 5.017966E-4 5.701574E-4 -2.0871968E-4 -0.0012442886 -1.770967E-4 1.7827304E-5 -8.043422E-4 0.0011453433 2.574338E-4 -6.553064E-5 -2.2034132E-5 6.762302E-4 -4.1450572E-4 -3.0329256E-4 -6.802037E-4 -0.0015791104 6.818143E-5 6.5669225E-4 8.494267E-4 4.1427102E-4 -1.4673843E-4 -5.496337E-4 -5.164006E-4 5.487772E-4 0.0012786691 7.873991E-4 2.5737548E-4 -2.9974111E-5 -7.239818E-4 9.5517386E-4 1.8673553E-4 -0.0010747068 8.9247053E-4 -3.9955563E-4 3.480718E-4 -5.348624E-4 0.0013172382 -1.0546192E-4 -7.2037464E-4 -2.45172E-4