-9.152742E-5 -1.0725618E-4 -7.443852E-5 2.2096805E-4 -4.5831967E-4 -2.4714816E-4 -1.7317987E-4 -1.3694561E-5 3.1907948E-6 -1.6642408E-4 6.108414E-5 2.0436858E-4 2.8515034E-4 2.7327743E-4 1.4038684E-4 1.0328745E-4 -2.0680987E-4 -2.1084446E-4 2.3901815E-4 -2.2327444E-4 2.1395522E-4 1.1394437E-4 1.5911018E-4 1.3398583E-4 1.7370177E-4 -7.976168E-5 7.224611E-5 2.7217797E-4 2.408535E-4 -3.4993613E-4 1.5949647E-4 1.8330933E-4 1.1935146E-5 1.4702335E-4 -3.60283E-5 1.2434958E-4 4.1114457E-4 6.0518036E-5 1.20859346E-4 -3.217977E-4 3.3504795E-4 6.6670225E-5 3.3938E-4 -1.1186818E-4 -7.072171E-5 5.8354366E-5 2.5273586E-4 2.3534578E-4 2.0424572E-4 1.1872586E-4 -1.2268478E-4 -1.9343366E-4 -6.741607E-5 5.098436E-4 -6.875649E-5 -8.235961E-5 -3.339169E-4 -1.7809702E-4 3.7821068E-4 -2.1297814E-4 2.8116492E-4 -1.7925879E-4 1.4982128E-4 -8.730368E-5 -8.796323E-5 5.5639248E-8 -2.743166E-4 -2.9383338E-4 2.7467855E-4 7.181023E-5 -1.3357027E-4 -4.2092754E-5 -3.4859127E-4 -3.0042804E-4 2.1381932E-4 7.754919E-6 3.6225168E-4 -1.4657257E-4 4.272025E-4 -3.1209245E-4 -8.2217935E-5 -6.1884575E-4 1.8186984E-7 3.31169E-4 3.205166E-5 -1.2345318E-4 2.4019167E-4 4.0706538E-4 -5.273498E-4 7.803085E-5 1.8793002E-5 -1.3831019E-4 -3.222863E-4 -2.0514303E-4 -3.3525797E-4 4.885342E-4 3.2711943E-4 -5.867849E-4 -3.3052737E-4 2.0980643E-4 2.2964683E-4 8.5507425E-5 -2.2318665E-4 -5.6570072E-5 5.8801525E-6 2.470985E-5 -1.1728714E-4 -5.208758E-4 4.579188E-4 -1.3565866E-4 -2.8362946E-4 -1.2650152E-4 -3.1251062E-4 3.9978186E-5 9.459378E-5 3.2089473E-4 4.4518433E-4 7.298993E-5 -2.8421964E-5 -4.8476906E-4 -2.8533772E-5 -2.1197049E-4 -2.4385838E-4 8.148097E-5 -3.676258E-4 1.3434647E-4 2.5070095E-4 3.879296E-5 1.0551625E-5 4.6727573E-4 2.2846565E-4 -6.513722E-4 -3.7216212E-4 4.6937627E-4 6.8541245E-5 5.47542E-5 -2.2420989E-4 -2.27155E-4 4.0750977E-4 -1.6857279E-4 3.731808E-4 -2.3935769E-4 -4.2868656E-4 2.1843527E-5 3.0316986E-4 1.16200245E-4 2.1455501E-4 -1.2277278E-4 1.1833577E-4 -3.9846875E-4 -2.4834363E-4 -2.7338538E-6 -1.1200418E-4 -1.9619193E-4 -1.06319756E-4 -1.2559182E-4 -1.435892E-4 1.3691379E-4 -6.3563246E-5 2.8051206E-4 1.7550147E-4 -7.649798E-4 -7.22994E-4 1.8287674E-4 -9.804044E-6 -1.8084733E-4 -3.61994E-5 4.1014358E-4 1.5865287E-4 2.663282E-4 6.219892E-5 6.539287E-5 1.8142017E-4 -4.0551258E-4 -3.6007745E-4 -1.4494045E-4 -2.7543594E-4 -1.2524304E-4 1.5947371E-4 4.7449816E-5 -4.0097095E-4 -4.869041E-5 -2.3106123E-4 -1.6176476E-4 1.8291562E-4 2.9278913E-4 3.221191E-4 -1.4351719E-4 2.5715487E-4 -2.2156166E-4 -4.5542023E-5 1.4957505E-4 -9.8131495E-6 -4.43324E-4 -7.685772E-5 3.458013E-5 -1.4829927E-4 2.4526715E-4 1.1652186E-4 -1.2406972E-4 -1.3670154E-4 -1.4422152E-5 -3.275003E-4 1.5996695E-5 6.640804E-4 -3.5990853E-4 7.851614E-4 1.7078841E-4 -1.575854E-4 1.3123224E-4