1.3783175E-4 4.0913478E-4 8.825727E-5 -8.065696E-5 4.39791E-4 -2.6196838E-4 -1.0130243E-4 -3.329894E-4 6.4406355E-5 3.1359075E-4 -2.143197E-4 -4.5863594E-4 3.0507974E-4 0.0010711447 -5.7077676E-4 1.5978499E-4 -1.5127298E-4 -6.272341E-4 1.8447911E-4 5.374076E-4 -8.4283215E-4 2.7486525E-4 3.866438E-4 3.6164676E-4 -5.5205608E-5 1.6095446E-4 5.594761E-4 -3.371086E-4 5.0515984E-4 -5.5246644E-5 -6.2892126E-4 3.036878E-4 5.6965416E-4 3.0352813E-4 -3.4523295E-4 -5.6636793E-4 -3.016319E-4 9.6473654E-5 2.3475381E-4 8.6877146E-5 -7.8254833E-4 4.1520954E-4 -2.0949123E-4 0.0011427731 3.0782193E-4 4.936575E-4 -3.8074577E-5 2.6058592E-4 -7.774198E-5 3.9998315E-5 1.7695004E-4 3.3167526E-4 7.006827E-4 6.0559873E-4 2.7171802E-4 6.658199E-5 4.237066E-4 -0.0014721272 -2.2618906E-4 3.701281E-5 4.3887913E-4 -2.674511E-4 1.8456866E-4 1.4357388E-4 2.2245434E-4 4.6730952E-4 9.611152E-4 1.7098256E-4 1.4556042E-4 -1.5663296E-4 -5.6559773E-5 -5.183272E-4 4.1478622E-4 1.7591979E-4 -3.183945E-4 -5.1005E-4 8.894133E-4 -3.2706154E-4 3.803352E-4 2.2758618E-4 -6.59488E-4 1.3685338E-4 5.895484E-4 -2.4903365E-4 2.1018356E-4 -1.9685883E-4 6.400322E-5 3.4175997E-4 5.2272907E-4 -1.1467915E-4 5.4285105E-4 3.0273275E-4 -0.0011342535 7.5468665E-4 7.092196E-4 -3.9398306E-5 -1.9717014E-4 -9.879052E-4 -4.2511773E-4 -4.329235E-4 1.8850353E-4 3.02536E-4 -1.9840896E-5 -2.1717724E-4 7.303375E-5 -3.2652158E-4 -5.25568E-4 -3.772191E-5 2.764013E-4 -1.7349725E-4 -4.7171564E-4 -0.0010033436 1.872566E-5 8.7123225E-4 8.31865E-4 6.8906933E-4 -2.7032368E-4 2.6132463E-4 -2.9926235E-4 -4.765977E-4 -8.539153E-4 8.656104E-4 4.7282255E-4 1.992358E-4 -0.001072404 4.3009932E-4 4.7195266E-4 -3.3325903E-4 0.0010659823 -1.1238665E-4 7.8843505E-4 -2.0787965E-4 3.6411067E-5 1.4538648E-4 2.9912428E-5 -4.6455342E-4 -2.8780164E-4 -3.5801716E-4 4.929984E-4 4.4010876E-4 -5.387672E-4 -5.18477E-4 -4.9706106E-4 1.6634422E-4 -6.027909E-4 -3.6208105E-5 3.2989436E-4 -1.7048999E-4 -1.6972695E-4 -7.2655815E-4 1.117951E-4 -0.0010023913 6.2134094E-4 8.237175E-5 3.252478E-4 -5.70202E-4 3.4494506E-4 3.1769444E-4 -5.379636E-4 -0.0011560111 -3.4605007E-5 -4.7873837E-4 5.0033617E-5 -6.699831E-5 -3.8140424E-5 6.214992E-5 -1.964506E-4 2.4743733E-4 8.407571E-5 4.8426306E-4 -4.6764466E-4 6.949083E-4 6.5535936E-4 -3.2852078E-4 -4.5883685E-4 -3.006368E-4 -7.157023E-4 2.0703644E-4 5.4239196E-4 -6.3572486E-4 -1.6982143E-5 1.1420811E-4 -9.577794E-6 1.4587311E-4 1.3522033E-4 -5.226307E-4 -3.1851177E-4 4.869134E-4 4.7383888E-5 -9.995418E-4 -8.6803564E-5 -2.287856E-4 -8.915074E-6 -0.0010758627 4.3120387E-4 3.8150593E-4 2.3387652E-4 3.0782574E-4 1.14192575E-4 2.85026E-4 -5.826052E-4 -4.7620723E-4 -7.0371677E-4 -8.0780976E-4 -2.3900133E-4 -5.2301795E-5 -1.1211677E-4 5.664074E-5 1.9008364E-4 -1.0615921E-4