0.039217755 -0.070166714 -0.019959513 -0.0061055166 -0.0027617735 -0.06493863 -0.011684073 -0.05039712 0.009743706 0.002930739 0.038924105 -0.028629106 0.009346956 0.033879276 -0.036944233 0.019348407 -0.0545099 0.01088314 0.031320088 0.029529711 -0.012120557 -0.022798328 -8.6461526E-4 0.038054634 0.012384269 0.024001066 -0.009931353 0.016916122 -0.010418972 0.025334578 0.008721368 0.006832155 0.041648738 -0.03466108 -0.017835012 0.027207445 -0.013856266 -0.023548681 -0.02043931 -0.016564894 -0.013559638 -0.004567575 0.003438536 0.0120154945 0.008096512 0.014817656 0.024585918 0.049871244 0.037669536 -0.007443739 -0.012925221 0.006201727 0.0031385422 0.022126954 0.06275561 -0.005867976 -0.00649852 -0.014300433 -0.0030350776 0.04448452 0.025624339 -0.014086701 -0.019895228 -0.03037718 -0.018738449 0.0012189241 6.1731704E-4 0.026257541 -0.0010073847 -0.04258353 0.013926569 0.023680119 -0.007055546 0.019763468 -0.0058739786 0.023729851 -0.029689131 0.029893793 -0.043739796 -0.037641466 0.011797283 0.017000578 -0.018811852 0.011460535 0.036432296 -0.021852091 0.00983864 0.012578343 -0.0053760945 -0.044428315 0.011000685 -0.0061577847 0.007873035 -0.007936768 -0.01019793 -0.043700088 0.018396214 -0.0031094064 0.0045953128 0.0030930615 -0.017527726 0.041233297 0.004921052 0.016015459 -0.014928614 -0.01393274 0.010593189 -0.01973951 0.0065671536 -0.04072746 0.031774297 -0.0026215399 -0.0016123549 -0.003991094 0.033819817 0.023285132 -0.043775614 -0.04506924 -0.0301478 0.011064514 4.7494035E-4 0.038637925 -0.02616031 0.013387874 -0.04563939 -7.529332E-4 -0.028798893 -0.0025080915 -0.042300675 0.031268757 -0.03272311 -0.001303005 -0.020290693 -0.04432353 -0.020417364 -0.0019111539 -0.055784617 -0.04624175 0.008641167 -0.013678907 -0.03627198 -0.003352206 -0.0303491 0.014573385 -0.0305312 -0.039267227 0.015676638 0.0017550776 0.03305073 -0.024157465 -0.0010908068 -0.0032267566 -0.021369256 -0.02147189 0.0072032814 -0.034545295 0.016605292 3.4184157E-4 -0.04228382 0.013385735 0.028705547 -0.002605643 0.011506031 0.010724254 -0.016835721 -0.027558785 -0.017705545 0.003409903 -0.014846617 0.028063638 -0.023521638 -0.028395472 -0.04485785 -0.0028850033 0.0072499616 0.046426382 0.010199354 0.012796269 0.046279408 -0.0048722615 -0.013902488 -0.015098345 -0.040670384 -0.069188274 -0.013508825 0.03553514 -0.030378953 -0.0095227705 0.014811052 -0.031197403 9.2660816E-4 -0.06982624 0.004396114 -0.017697258 0.03624667 -0.014865525 0.01090103 0.0025563193 0.014962934 -0.016717732 -0.012008498 0.04436603 -0.014787256 -0.021427182 -0.015339809 -0.0039710165 0.023342257 -0.022372833 -0.003063605 0.012791908