0.12446799 -0.10476188 -0.009544145 -0.02911676 -0.018132249 -0.11598428 0.05804409 -0.09418482 0.014882439 -0.024263911 0.08122227 -0.064457506 0.054720264 0.10200704 -0.0902558 0.04444199 -0.09732902 0.06327231 0.059432346 0.10849336 0.048883285 -0.036914773 0.03551177 0.048860487 0.01707551 0.0685834 0.007071919 0.06859787 -0.0396643 0.043746162 0.05829626 -0.023081526 0.13353235 -0.05142566 -0.024050426 0.07792505 0.007069172 -0.0487108 9.440706E-4 -0.064083144 -0.025720129 0.034006882 0.0023641377 0.057228547 0.027371971 0.08448936 0.097168125 0.15196918 0.13189492 0.012584305 0.025763068 0.013149076 0.009383361 0.09002358 0.13208243 0.0033681358 -0.024538204 0.024064697 0.006307775 0.14671995 0.077184595 0.0055795354 -0.044301067 -0.056894336 0.0053632744 0.007871643 -0.017382892 0.081368625 0.06899323 -0.095113136 0.03646959 0.07176492 0.0074909376 0.08162477 -0.0067705503 0.11130029 -0.054293673 0.088360995 -0.09655126 -0.068817645 0.05667963 1.02404134E-4 -0.055550463 0.05898612 0.082928 -0.027741343 0.05245174 0.057171967 0.0094289025 -0.03738406 0.072372414 0.007286526 0.0060458123 0.0063114464 0.021345345 -0.083111085 0.016302463 0.03152208 0.017083682 -0.005140813 0.017335098 0.084603556 0.014698082 0.048540078 -0.008000254 0.03583482 0.042623166 6.9827744E-4 0.004743931 -0.058081415 0.091441266 0.004976029 0.03974983 0.052993782 0.06959226 0.040870585 -0.059492774 -0.082656756 -0.075378045 0.016920602 -0.011703219 0.10295589 -0.05497952 0.06421856 -0.10052387 0.006190817 -0.04280405 0.05294483 -0.07618212 0.0384538 -0.060695414 -0.001764352 -0.03410766 -0.11871592 -0.012207769 0.054656748 -0.07166867 -0.06723032 0.06641031 0.031169817 -0.0204578 -0.003931428 -0.07166522 0.018869549 -0.06471844 0.0049530924 0.015131408 0.019370414 0.049599197 -0.061509363 0.04218969 0.04456742 -0.04002635 -0.002699669 0.08763082 -0.0747107 0.031661663 0.004528564 -0.03551862 0.007464744 0.12134593 0.020793399 0.057053935 0.030125778 0.0027929826 -0.065598965 -0.015126506 0.036486186 -0.033967413 0.04154685 0.018440163 -0.08756991 -0.06527758 0.039571613 -0.042702086 0.13099144 -0.029010687 0.050132208 0.09198014 0.037463512 -0.08347976 -0.02214136 -0.120087795 -0.12741655 0.01286826 0.10642364 -0.038397428 0.015997736 0.029327387 -0.010065064 0.02216988 -0.12867346 0.015338181 0.022905631 0.095838875 0.0063492204 -0.027213613 0.08264642 0.03281799 -0.012909325 0.008805043 0.079604134 -0.0990121 -0.039866682 -0.025199914 0.06044591 0.026102804 -0.08369277 0.029162817 0.077848695