1.9454325E-5 -2.2095646E-4 5.5659993E-4 1.4042851E-4 4.5842552E-4 -2.8058104E-5 -1.0991233E-4 1.6578993E-4 2.0372524E-4 1.62918E-5 -2.2958819E-5 9.784837E-5 -2.3746333E-4 -3.4017774E-4 2.3279179E-5 1.261856E-4 -5.559976E-4 2.572895E-5 -1.8419884E-4 -2.9832227E-5 5.0063885E-5 -7.330981E-5 8.3834806E-5 5.298535E-4 -0.0022254514 4.332448E-5 2.1535918E-5 4.7820364E-4 -7.7097386E-5 -8.834078E-4 2.748745E-4 3.2879796E-4 1.7470215E-4 2.8848968E-5 -1.5584858E-4 -4.2049575E-4 -2.6225473E-4 -7.8012235E-5 -4.3291936E-4 -4.1126242E-4 -3.703759E-4 1.9801897E-5 3.7242495E-4 9.221307E-5 7.219478E-5 3.1523278E-4 -7.777634E-4 -6.4870495E-5 5.5566103E-5 -3.501537E-5 -2.76251E-4 6.382294E-5 -8.8473334E-4 4.0915428E-4 -2.5598935E-4 -4.477513E-4 -0.0010018472 3.1932115E-4 5.605728E-5 -1.0727963E-5 -4.9838756E-4 -2.1825042E-4 3.273751E-5 2.1991378E-4 -1.12124835E-4 2.4580187E-4 3.4738303E-4 -2.2935087E-4 -4.4746016E-4 -1.3765313E-4 -2.8339855E-4 -2.582826E-4 -5.690863E-4 -8.7849883E-4 3.7373317E-4 -3.0199747E-4 -5.9244252E-5 -3.3873264E-5 -6.150502E-4 -4.8181333E-5 2.952046E-4 0.0012634372 -3.8006762E-4 -5.4254808E-5 9.0235975E-5 -1.0946732E-4 -2.8447976E-4 6.392014E-5 3.0978408E-5 -4.6339486E-4 4.5342668E-4 -1.06720836E-4 -1.621655E-4 -3.4784802E-4 -1.4598774E-4 2.257993E-5 2.7101624E-4 1.7849903E-5 7.553914E-4 -4.3095267E-4 -5.4535056E-5 -3.0965527E-4 7.01267E-5 -5.152185E-4 -5.713328E-5 9.601255E-5 -9.255453E-5 -2.0607031E-4 -3.1865117E-4 -1.5518175E-4 -3.996373E-4 -3.524777E-4 9.688466E-4 -3.154319E-4 5.2150455E-4 -3.3287948E-4 -9.903755E-4 2.3646242E-4 6.443821E-6 -7.472071E-5 5.373152E-5 -6.0118694E-4 -3.233406E-4 7.365755E-4 -1.8127597E-4 1.7432976E-6 -6.5395306E-4 -5.581936E-4 -1.4325118E-4 4.847017E-4 1.0495036E-4 -2.9178485E-4 -1.5147234E-4 -2.9465652E-4 1.829294E-5 4.608075E-5 2.8930255E-5 -6.65686E-4 2.2700064E-4 -2.431964E-4 2.9762124E-4 -4.2950799E-4 3.3746654E-4 -6.834368E-5 -2.528358E-4 -4.982291E-4 1.4490719E-4 2.9520984E-4 7.921257E-5 2.4274537E-4 1.4967954E-4 -2.1434939E-4 -1.5022862E-4 -7.413834E-5 1.5046267E-4 -1.20626355E-5 -1.1032011E-4 -4.4978803E-4 4.690041E-4 -8.939154E-4 2.1947915E-4 -4.9882254E-4 9.666677E-5 3.3301927E-4 3.151939E-4 6.8571925E-4 9.587049E-5 -2.1299295E-4 -0.0011096103 -2.9933406E-4 -1.9190644E-4 -3.8645294E-4 9.531526E-5 6.577409E-5 -5.041439E-4 -1.8991125E-4 6.4751634E-4 6.2001497E-4 -4.814571E-4 -1.7588786E-4 4.934421E-4 2.8174924E-4 3.705792E-4 4.5266707E-4 -3.8204633E-4 -5.8247516E-4 2.2746302E-5 -5.462697E-4 1.5225734E-4 -3.1853718E-4 -3.9636408E-4 -3.044875E-4 4.1848296E-4 -4.8709416E-4 -2.1930748E-5 2.8320574E-4 -2.6838237E-4 1.1907432E-5 3.267358E-4 2.0943723E-4 -6.5212836E-4 2.9499913E-4 1.6225484E-4 -5.8249007E-5 -1.9349786E-4 -4.134001E-4 4.9491187E-5 -1.345556E-4 4.416803E-5 1.4384219E-4