2.6566494E-4 3.0556225E-4 2.3489323E-4 -2.3952904E-4 -2.336863E-4 -1.7149601E-4 5.066514E-4 6.846274E-4 2.4994399E-5 4.5419158E-4 -2.6906253E-4 1.1765485E-5 7.667593E-5 -4.3633772E-6 2.4555097E-4 -1.2604962E-4 1.6396762E-4 -1.8584615E-5 -5.538423E-4 7.6294306E-4 6.941678E-4 -4.5256512E-4 1.0431779E-4 2.2741003E-4 1.1345328E-5 -0.0011356418 -6.1147293E-4 -5.0990185E-4 3.8020462E-5 -0.0010950991 4.3726095E-4 -6.736125E-4 2.6982478E-4 1.2728696E-4 2.1055581E-4 -4.0300353E-4 8.5073436E-4 2.7555402E-4 -2.8325256E-4 -1.5955535E-4 -2.885963E-4 9.2388684E-5 2.5061818E-5 -6.0791906E-5 3.3427117E-5 2.050838E-4 -6.4274593E-4 6.553515E-5 -2.3013423E-4 -1.9000753E-4 7.905059E-5 -5.510091E-4 -2.3509901E-4 1.75769E-4 -6.004549E-4 -1.1808523E-4 -5.544394E-4 1.3068359E-4 4.5961843E-4 6.6687795E-4 -8.2687516E-4 -3.734952E-4 -9.7691285E-5 -4.6158922E-5 1.7391768E-4 4.166267E-4 3.8255108E-5 4.773733E-4 3.143878E-4 5.1654456E-4 -7.955899E-5 -2.8464966E-4 0.0013781204 5.039357E-4 -1.8986886E-4 2.0531302E-4 -2.1872544E-4 9.1908994E-5 -0.0010263493 -7.0496324E-5 -8.9470606E-4 -7.9333986E-5 4.223351E-4 -0.0010494589 2.442351E-4 -6.984563E-5 5.0863673E-5 7.3647534E-5 -4.3025182E-4 2.6655698E-4 7.5515354E-4 -1.457E-4 -4.1662325E-4 7.5356656E-4 4.3983295E-4 4.9554143E-4 4.3786542E-5 -2.4999074E-5 -4.4317672E-4 -7.6280604E-4 6.1715284E-4 -2.3554513E-4 -4.284716E-4 -3.5273057E-5 -2.981313E-4 1.5858455E-4 -7.869741E-5 -1.5217246E-4 -6.4205175E-5 -2.061449E-5 2.4887896E-4 -2.489491E-4 5.046925E-4 -5.930073E-4 -2.8220043E-4 1.1891459E-4 4.386544E-4 -4.1680768E-4 6.331844E-4 -1.8602346E-5 -2.821559E-4 -2.9516494E-4 -4.2495676E-4 3.055546E-4 1.7469202E-4 -4.7048193E-4 -3.573706E-4 -1.4217885E-4 4.5347007E-4 3.6310928E-4 -2.4604396E-4 -6.7149E-4 7.672727E-5 -2.1591954E-5 2.363288E-4 -6.3508446E-4 7.725889E-4 1.67122E-4 1.7833743E-5 -6.178344E-4 2.0783968E-5 -3.4790923E-4 -1.4369345E-4 -9.0763567E-4 -1.5829896E-4 -1.16138086E-4 -1.3544054E-4 -1.3668135E-4 1.297729E-4 1.303307E-4 -1.7947212E-4 5.9097183E-5 3.1940028E-4 1.906794E-4 -0.0010219249 -1.0954404E-4 -9.160271E-4 -3.111461E-4 3.512124E-4 -2.7131994E-4 1.7628504E-4 -3.6630832E-4 -4.3595367E-4 -1.0305163E-4 -8.072716E-5 6.0410093E-5 -0.0011792134 -5.356406E-4 9.592815E-4 -2.4800087E-5 8.1600726E-4 1.4480492E-4 1.8436037E-4 1.3134276E-4 -1.7209697E-4 -6.0587603E-4 2.1792499E-4 -1.3353562E-4 4.0325898E-4 -6.161236E-4 6.3316646E-4 2.1729701E-4 -4.3757347E-4 4.812591E-4 -1.4164418E-4 -1.2696837E-6 -2.4987137E-4 -8.6600485E-4 -1.2072519E-4 6.373484E-5 9.806997E-4 -2.2004827E-4 -2.2985964E-4 0.0011722312 4.6582677E-4 2.2711129E-4 1.2964194E-4 -5.822745E-4 -3.467496E-4 -7.1657135E-4 -3.7269635E-4 -0.0012022969 -2.453843E-4 -1.0029574E-4 1.874851E-4 6.722039E-4 0.0010958472 1.5161675E-4 -5.4325315E-4 -2.5287757E-4