-0.007183707 0.07681742 0.06860388 0.03369727 0.06405352 0.050310895 0.07641033 0.004129309 -0.031388145 0.07217222 -0.023406995 0.089168295 0.0712343 0.024672315 -0.028604522 0.08431141 0.0076865507 -0.042301156 0.047687035 0.028939579 0.011802612 0.019262746 0.12386743 0.010826128 0.070139274 -0.007508749 0.04000904 -0.013738732 0.013197581 -0.10784204 0.10970294 0.05053177 0.09329305 -0.015908567 0.15287362 0.029282963 -0.027065638 0.011512575 0.054872964 0.014641274 0.05280411 9.2158525E-4 -0.017634684 0.084955476 0.106831685 0.08115833 0.046483945 -0.023118855 -0.031315938 0.07063575 0.028209258 0.06485039 0.08462636 0.048487984 0.101656556 0.034961376 0.0029621206 0.029954622 0.044591803 0.01841462 0.034594554 0.053596526 0.063447565 -0.023942335 0.022750577 -0.030147513 0.043853402 -0.06343656 0.09012326 0.08916992 0.010927067 1.8693583E-5 0.05039566 -0.009477666 0.089002185 0.09755336 0.01460548 -0.01663309 0.026987508 0.094909936 0.07672451 0.06664018 0.053991467 -0.008725722 0.09119091 0.044708602 0.14351727 0.052671883 0.02428831 0.033442553 0.04815997 0.010483451 0.06971562 0.09760995 0.08598988 0.027687334 0.035269264 0.060927488 -0.049954783 0.017764205 -0.005129044 0.06900175 0.10900527 0.033781875 -0.014731701 0.07071152 -0.038136087 0.09381289 0.04458846 0.03700392 0.011684421 -0.029012898 0.09820494 0.06341422 0.086334944 -0.019457802 0.021695869 0.05232807 0.018157512 -0.016906649 0.078681365 0.09424979 0.004845326 0.029354183 -0.023349848 -0.0642391 -0.03401921 -0.00899038