0.11688472 -0.028180638 0.014496059 -0.13514437 0.11986013 -0.5218576 0.03492555 0.52765375 0.14879644 -0.039711155 0.015679967 0.19177529 0.1679144 -0.14519688 0.17744222 0.3795383 -0.11529004 -0.04759949 0.32569903 0.21714988 -0.2902006 0.15248963 -0.15518478 -0.07206536 0.02084771 0.108600564 -0.0618629 0.13964845 -0.12711667 0.06670916 0.35570443 0.19867508 0.13538785 -0.013571974 -0.13579324 0.07426224 0.3077478 0.067241915 -0.003219467 -0.28189722 0.22108877 0.37923646 -0.07704089 -0.25519267 -0.18239531 0.228541 -0.098640494 -0.19365335 0.114469126 0.16630395 -0.18295757 0.3319368 -0.059178572 0.030307207 -0.23709823 -0.26518476 -0.08982717 0.13355455 -0.47342706 0.02987457 0.2212843 -0.25095916 -0.11060842 -0.1388266 0.28856447 -0.06328457 4.064007E-4 0.3651169 -0.06384263 -0.2653767 -0.1455825 -0.07012117 0.06198578 0.09490003 0.072254494 0.060311537 -0.44936448 0.34937888 -0.16099778 0.010508688 0.22437584 0.24210554 0.35527584 0.36784443 0.44773075 0.14165004 -0.075051896 0.11036009 0.11527933 -0.07023223 -0.48186302 0.21890199 -0.15929076 0.3695848 -0.24507973 -0.31739506 -0.14833093 -0.25423852 -0.14449415 0.06893188