0.118906446 0.06144373 0.06633756 0.053238735 0.05875978 0.070454486 0.10942091 -0.003989676 0.024404624 0.021951493 0.100376524 0.05966404 0.03462005 0.062656015 -0.07062162 0.036367904 -0.008711694 0.027749598 0.058379926 0.0686024 0.017821858 -0.042806674 0.07471319 -0.008299414 0.0017394129 0.052102175 0.030782608 0.08140248 0.071105145 -0.07369117 0.062217653 0.09972188 -0.064119965 0.0062162606 -0.07254013 -0.0039671645 0.003037985 0.050907217 0.031273972 0.05218978 0.18276396 -0.007659903 0.0036640991 0.028711464 0.13221991 0.03593596 0.04797255 0.15826073 0.09627338 0.10969737 0.08702971 -0.06576122 0.0082984185 0.14843874 -0.014495348 0.059723835 0.035607737 0.051060077 0.03234171 0.016929341 0.08931324 0.077943094 -0.036189705 0.01588569 0.071857736 6.578906E-4 0.04714779 -0.06668766 0.050591595 0.10215335 0.016514162 -0.05072686 -0.011807015 0.10939694 0.088551015 0.063467406 0.040687885 -0.0207862 0.025609441 0.11290148 0.04046093 0.09583363 0.12464691 0.07576509 0.024909565 0.061089493 0.05365184 0.13256751 0.015270439 0.008077673 0.09356091 0.058062628 0.1254089 0.104711644 0.032534417 0.005545712 0.02048266 0.097072124 0.020574272 -0.054878503 0.07683017 0.041519787 0.13590312 -0.054621935 0.0054888357 0.06925064 0.07852916 0.112072825 -0.07617216 0.113354504 0.1170177 -0.024800736 0.16365926 0.07088428 0.07910124 0.08439559 0.016890582 -0.009457474 -0.03028355 0.100991316 0.029249944 0.060802322 0.19351833 -0.0049201758 0.005838425 -0.0023754353 0.11171481 0.023970105 0.07971163 0.03623469 0.008383559 0.089397036 0.06614895 0.017895607 0.059175868 0.0482105 -0.041590504 -0.016560007 -0.044299852 0.037412636 0.122869216 -0.0923121 0.061941404 -0.0015116459 0.12758031 0.019321674 0.062190868 0.09191132 0.12178295 0.020731024 0.07098669 0.1330193 -0.0017290958 0.13942826 0.021353116 0.014059058 0.08149457 -0.036493193 -0.04810908 0.07282305 0.05139036 -0.005009859 -0.15558715 0.112813674 -0.04318001 0.08603256 0.021468414 -0.02925432 0.031392638 -0.00697866 0.051440552 0.08186407 0.014157527 -0.016608045 0.012367013 0.1253953 -0.12497944 -0.102422446 0.11657396 0.0108840475 0.100360945 0.078999676 0.032771744 0.031378984 -0.037959706 0.12474797 0.12246024 0.12377307 0.024825353 0.08728723 0.06858838 0.04163954 -0.06211428 0.08607894 0.06173172 0.011525256 0.03392257 -0.025912942 0.14754461 -0.017108433 0.124000914 0.08957809 0.049614534 0.07841525 0.045564692 -0.0022326843 0.022764409 0.119804546 0.13289838 0.1410297 0.060592096 -0.044803116 0.015958047 0.008048906 0.03955745 0.1165148 -0.028403487 0.10596867 0.09494094 0.026858974 0.11623966 0.09345493 -0.008604128 0.02611538 0.04763523 0.0056262827 -0.055818412 0.09407239 0.07706977 -0.017977107 -0.01184323 0.07166285 0.08673346 -0.050589982 0.073581554 0.10408199 0.015446912 0.102238946 0.036750663 0.013601561 0.015686972 0.09482865 0.053495593 0.11521699 0.08203404 0.026163492 0.0284111 0.11517632 0.06800288 0.16472849 0.08799966 0.13131757 0.12347451 0.03371264 0.10664924 0.05663248 0.08009848 0.11043072 0.057043973 0.15622552 -0.027890833 0.13782637 0.11752897 0.022921864 0.06446228 0.11294887 0.09964059 0.19557399 0.09552499 0.020839006 0.013348282 0.051523924 0.032130092 -0.041156515 0.23144983 0.07413421 0.036399703 0.061306465 0.10444179 0.06830562 0.0906888 0.0060914205 0.07446376 0.027639208 0.1178273 0.13388653 0.014011124 0.029097354 0.13014862 0.17234945 -0.010194801 0.0642958 0.054184612 -0.0244634 0.059449513 -0.011182764 -0.03747336 -0.0019478106 -0.010713637 0.14643447 0.027686968 0.108853534 -0.03763725 0.10184377 0.023968434 0.13143335 0.064101204 0.0822039 0.10226427 0.058364972 0.07517734 0.09752301 0.035563506 -0.0024587722 0.03107127 0.046036676 0.018343765 0.09106891 0.066376194 -0.043030817 0.09547544 0.05797756 0.06378322 0.019346574 -0.0027376981 0.036466755 0.070038445 0.07536921 0.03523747 -0.017303253 0.16099282 0.11864813 0.0010404759 0.0336804 0.20035459 0.099959016 -0.061387707 0.009834255 0.067731984 -0.01125908 0.0051019965 -0.0111600775 0.17881185 0.16386437 -0.04452593 0.085110255 0.009092593 0.12349749 0.054618686 -0.04767666