0.07664766 -0.033965506 0.0401598 -0.12506123 0.1322938 -0.5282542 0.03745018 0.5261423 0.17709693 -0.062335614 0.013779725 0.1913399 0.17819814 -0.13363124 0.2756082 0.3511891 -0.13105948 -0.07057931 0.35240978 0.16754845 -0.30357635 0.16479774 -0.17849258 -0.07940919 -0.002177161 0.07858847 -0.08673689 0.13745679 -0.14297514 0.054271832 0.32910326 0.16229957 0.15228407 -0.06005253 -0.15513659 0.061884016 0.24542738 0.07648424 -0.009834694 -0.29683456 0.23313133 0.37116766 -0.15862353 -0.24110858 -0.13565902 0.23769742 -0.098359056 -0.22585317 0.053937897 0.10230551 -0.1633211 0.36259565 -0.054658007 0.04223074 -0.2052131 -0.30159986 -0.17432684 0.13576792 -0.47399807 0.050124772 0.20585762 -0.21374655 -0.13424274 -0.13408335 0.32786736 -0.15537421 -0.056060202 0.3446425 -0.07828658 -0.2594845 -0.12487886 -0.06406279 0.02404774 0.10088724 0.06934053 0.04179425 -0.4126095 0.3401446 -0.15159746 0.03472483 0.20749786 0.20413116 0.32059962 0.33059818 0.4401734 0.13077411 -0.13250592 0.115228534 0.08078472 -0.11993873 -0.43221688 0.18356727 -0.14978953 0.35135645 -0.26351854 -0.33078715 -0.1395711 -0.30286357 -0.14924942 0.07164072 0.056662712 -0.36082968 0.05573299 -0.020687481 0.042093247 0.050842285 -0.24309416 0.23770346 0.24015129 0.16694015 0.17779857 -0.25487256 -0.23625775 0.15366295 0.17308524 -0.036248803 -0.20004548 -0.25437647 -0.11161104 0.1460341 -0.0062820935 -0.226661 -0.13721149 -0.32044762 0.066589005 -0.26883188 0.024780668 -0.14776304 0.09026157 -0.057779025 -0.20925649 0.082374796 0.043558475 0.018521698 0.1868886 0.36304578 -0.3330742 -0.113339715 0.085976325 0.10788132 -0.039278377 -0.09084171 -0.229214 0.04519754 -0.25040615 -0.009512271 -0.015347814 0.08225435 0.04060651 0.009069025 0.14955343 -0.3082499 -0.12287831 0.19548437 -0.044072416 -0.09042164 0.22033417 0.019472517 0.11276165 0.019386034 -0.076692946 -0.05943998 -0.080723196 -0.10760509 -0.41264516 -0.30576643 0.22624357 -0.28801057 0.022264184 0.19167982 0.43986088 -0.08813317 0.3868377 0.21496081 0.09185871 0.26753277 -0.12647796 0.18081869 -0.07478158 -0.06439982 -0.055524256 -0.16333176 -0.004211714 -0.20114185 -0.22345483 -0.3166414 -0.45834485 0.083019316 0.052905846 0.18260802 0.17140119 0.006774996 0.1738198 -0.29464853 0.068664566 -0.064954355 -0.15618739 -0.12556024 0.04099397 -0.21776013 0.1451679 -0.12307063 -0.28947642 -0.073124364 0.15048099 -0.17287056 -0.20536338 -0.10988639 -0.18803537 0.06431793 -0.10475752 0.52496594 -0.2049243 0.0024571603 -0.32667264 -0.10052876 0.48937795 -0.20049734 -0.05057638 0.017176019 0.17022526 0.43732587 0.15553044 0.01351412 -0.12414517 0.066113606 0.04201991 0.035837498 0.094346344 -0.24502163 0.106196426 0.13958505 0.13073085 -0.096709386 0.047994547 0.27902806 0.48312312 0.04287874 0.033524133 -0.15262613 0.48118228 -0.009896295 -0.026220832 -0.4771563 0.19053651 0.16867153 -0.6081921 -0.37900686 0.1402659 -0.05138765 0.5387192 0.16678435 -0.1758747 0.17811117 0.2850444 -0.05767816 -0.18757105 0.16077937 -0.17110029 -0.08656934 0.17393154 -0.08868852 -0.105132684 -0.042637344 0.110737525 -0.121098325 0.054929037 0.22766833 -0.39560834 0.3354867 -0.052698594 -0.2071362 0.12515879 -0.109289736 0.061054397 0.20906228 -0.3444296 -0.13976797 0.1378668 -0.029119272 0.1149787 0.14330542 0.16728596 -0.19614337 0.1806537 -0.04564709 0.0023336075 0.045757763