0.057923872 -0.0661533 0.02293312 -0.12480542 0.11851696 -0.5181272 0.009074022 0.52671885 0.17491755 -0.037647616 0.015385903 0.15436167 0.13913324 -0.1076431 0.2579687 0.34821692 -0.13684918 -0.03901214 0.30889508 0.21868505 -0.29896295 0.16625465 -0.13567555 -0.066147126 -0.0060666557 0.09100418 -0.07804263 0.116915815 -0.17161584 0.04290251 0.3536048 0.16869488 0.12988235 -0.04104097 -0.12744862 0.05773091 0.28630027 0.07610916 -0.0046606264 -0.2752235 0.21880275 0.31705746 -0.11883926 -0.29177245 -0.17769435 0.21023843 -0.13354273 -0.20169893 0.06511246 0.14301193 -0.17202105 0.35722497 -0.07023623 0.0182979 -0.25127354 -0.3120336 -0.14949052 0.15631302 -0.4644308 0.038152374 0.18124251 -0.2681069 -0.102547705 -0.15457173 0.2885495 -0.108783536 -0.024436416 0.34532636 -0.09641467 -0.29064146 -0.1589448 -0.062257122 0.016065534 0.0702628 0.069578595 0.025919562 -0.44802743 0.35591194 -0.13086484 0.035646793 0.21065646 0.20927073 0.3434325 0.32780164 0.45359424 0.13266401 -0.13002327 0.1477844 0.12492578 -0.10765745 -0.4700846 0.21690758 -0.15364993 0.3521373 -0.24510674 -0.3456014 -0.13555133 -0.27611563 -0.1749203 0.03705962 0.04110467 -0.38142964 0.0521712 -0.07105764 -0.030294977 0.08273058 -0.2829835 0.2258914 0.28394803 0.17677042 0.09785051 -0.26468268 -0.23142658 0.18178983 0.16763504 0.0013880746 -0.2516613 -0.24693021 -0.05258176 0.13278128 -0.04477805 -0.16722599 -0.13954751 -0.29567015 0.04755088 -0.26202658 -0.018421998 -0.22839299 0.1014627 -0.07896083 -0.21837558 0.07766345 0.065900244 -0.05108044 0.19533211 0.38479817 -0.26264387 -0.1202348 0.11538342 0.1273063 -0.07790613 -0.10257112 -0.2056288 0.08269838 -0.2570045 0.04162294 -0.019981137 0.07087093 0.034629367 0.021430958 0.118033186 -0.27461028 -0.09515675 0.22401263 -0.03133536 -0.095426105 0.18924576 0.004062121 0.1249453 0.03801941 -0.061444137 -0.079521395 -0.10134258 -0.10608219 -0.40050122 -0.38412175 0.19604695 -0.27333605 -0.002780954 0.17323662 0.42264512 -0.055497754 0.37466514 0.19383459 0.057334494 0.24205817 -0.15921919 0.19200653 -0.08567789 -0.040528692 -0.08012849 -0.1504448 0.023491515 -0.15710162 -0.2371131 -0.33705714 -0.46784645 0.09817788 0.04359136 0.18287943 0.15936789 -0.010664348 0.17561977 -0.30208582 0.032126103 -0.030188363 -0.1666376 -0.09688767 0.02058762 -0.24553175