0.096821845 -0.034709986 0.019524997 -0.13231106 0.12330091 -0.51888764 0.0171679 0.52218306 0.1967801 -0.05070574 0.010223045 0.15047926 0.17443506 -0.15224129 0.2279925 0.36146155 -0.15366103 -0.074956 0.31377542 0.17837818 -0.31153768 0.16081724 -0.1509801 -0.07674096 -0.005094042 0.11466077 -0.062710986 0.10286164 -0.15723042 0.063375495 0.35127863 0.17649414 0.13044332 -0.04066288 -0.13351479 0.07355842 0.2857715 0.06474367 0.016534766 -0.28247637 0.22042732 0.37411273 -0.11173764 -0.28398064 -0.18800862 0.22094312 -0.12894377 -0.2011199 0.1092185 0.12526916 -0.16707233 0.36278895 -0.06387038 0.020577943 -0.21337582 -0.28683925 -0.11857776 0.13907896 -0.4713844 0.011770305 0.20294861 -0.24930926 -0.13604283 -0.14814317 0.29619828 -0.08185866 -0.029587714 0.3564058 -0.084169544 -0.2886882 -0.15576963 -0.070655234 0.039351307 0.07430444 0.058244415 0.063365944 -0.4648217 0.3567466 -0.16605698 0.047402732 0.2289622 0.21081501 0.330597 0.32379204 0.44566888 0.122363105 -0.10637836 0.12721579 0.06691845 -0.11222641 -0.48569402 0.2235573 -0.16756764 0.34702617 -0.23689543 -0.3136916 -0.116883606 -0.26668286 -0.16363665 0.07054631 0.05591667 -0.3678846 0.059746847 -0.065680765 -0.0012829427 0.081766896 -0.264301 0.26338747 0.2832697 0.17407306 0.09982636 -0.23854704 -0.23383574 0.19245629 0.18113594 0.0035619678 -0.23174366 -0.25799298 -0.07790146 0.16456087 -0.046981942 -0.16605078 -0.16716176 -0.32354555 0.025351034 -0.2507557 -0.0034557993 -0.15040092 0.105788484 -0.07299838 -0.20026118 0.094955824 0.068983205 -0.021518525 0.1954269 0.36696678 -0.26041365 -0.12685226 0.13016446 0.12094179 -0.054520342 -0.07075023 -0.20388725 0.08728265 -0.24520084 0.006691214 -0.029349038 0.106045686 0.0547395 0.040799614 0.11563043 -0.2969443 -0.09855003 0.20440821 -0.066660844 -0.09553856 0.18637702 0.021253947 0.13584544 0.037619457 -0.062381286 -0.08179156 -0.08220236 -0.121992566 -0.3772913 -0.34422243 0.19926524 -0.26805082 0.007714535 0.18718743 0.4592877 -0.044551075 0.36186188 0.20009609 0.0676161 0.26160347 -0.14134167 0.19331387 -0.09123496 -0.029190242 -0.08170115 -0.18591185 0.013420629 -0.1773431 -0.24270667 -0.33660167 -0.45411497 0.11700671 0.033494197 0.17957048 0.15558851 -0.018620221 0.18767484 -0.3152254 0.027085735 -0.05657892 -0.17159855 -0.09918605 0.032016184 -0.22854142 0.12999192 -0.112789236 -0.28786007 -0.08435329 0.15290008 -0.16312455 -0.19964024 -0.13009405 -0.20839864 0.03017735 -0.0670824 0.51162773 -0.20219073 -0.06014982 -0.33285725 -0.11391032 0.45566195 -0.18392122 -0.0020619868 0.060726248 0.14242595 0.40565607 0.1946947 -0.007956758 -0.113557704 0.049358718 0.03933295 0.018651318 0.07864522 -0.23708148 0.10216761 0.1334145 0.08956924 -0.11036878 0.05488826 0.2747743 0.48728248 0.025681982 0.03354898 -0.12158808 0.5114444 -0.08206312 -0.0146824485 -0.48559457 0.18121496 0.1749738 -0.6264698 -0.41644606 0.16611487 -0.052994475 0.5300163 0.174896 -0.17774259 0.1521705 0.26689395 -0.03854677 -0.18888187 0.17215873 -0.17481348 -0.1174963 0.16250378 -0.059123486 -0.07381668 -0.111193724 0.10522186 -0.10735174 0.054154668 0.22975849 -0.40670964 0.34599194 -0.023562392 -0.19569823 0.1144857 -0.093525715 0.069811925 0.26741964 -0.355791 -0.15067899 0.1363814 -0.031033609 0.1391004 0.16195258 0.19040558 -0.20687163 0.16593197 -0.051146545 0.015798202 0.009556824 -0.09926613 -0.47999638 0.08175851 0.24512134 0.009152403 -0.053820364 0.045510218 0.112275645 -0.16032934 -0.10890056 -0.008708221 0.34408832