7.8196055E-5 -1.3323857E-5 -3.0129797E-5 -7.089988E-5 1.0431552E-4 7.875011E-5 -2.486871E-5 -2.1143598E-5 -1.9989035E-5 1.2451399E-4 6.295004E-5 1.390376E-4 -2.7793223E-5 2.8469763E-4 5.372697E-5 7.225818E-5 -1.795099E-4 -1.228183E-4 -1.3459874E-4 3.6444122E-5 -4.5036548E-5 -3.1986012E-5 2.2818098E-5 -1.3183067E-4 7.964995E-5 1.0450895E-4 -2.611958E-4 -1.4953961E-4 4.1014817E-5 -5.7251695E-5 -1.182112E-4 8.076764E-5 -1.4029352E-4 8.7163346E-5 -1.284701E-4 -6.94198E-5 -1.4284524E-5 -4.5996476E-5 4.1463027E-5 1.0481672E-4 1.0166928E-5 -4.4485627E-5 8.2506056E-5 4.47785E-6 1.4695452E-4 -3.4495315E-7 -2.9070363E-5 -4.553859E-5 -5.0163875E-5 -1.5893677E-4 -1.03047285E-4 3.6973623E-5 -2.1074447E-7 2.0871954E-5 -1.5221407E-4 1.21230805E-4 -5.8678277E-5 1.1862974E-4 -7.297619E-5 1.0437598E-6 6.7232984E-5 -4.3926942E-5 -8.556642E-5 -1.3660362E-4 -1.0402891E-5 -8.829953E-5 7.033495E-5 -6.4726555E-7 -1.6890324E-4 -1.3384556E-4 -6.3320374E-5 -1.14049035E-4 -8.509072E-5 -4.4175773E-5 6.985365E-6 -6.204072E-5 -3.7705817E-5 -3.111254E-4 -1.5868307E-5 -1.2287398E-5 -1.9106155E-5 -5.744258E-5 -6.8273475E-5 4.0163195E-5 -2.943891E-5 -9.707785E-5 1.4443212E-5 -7.829489E-5 7.903723E-6 -1.2045767E-5 2.9740255E-5 5.4199045E-5 -9.739444E-5 -9.497806E-6 3.681517E-5 2.6517984E-5 -2.2369003E-4 3.2562843E-5 2.736397E-5 -1.2527507E-4 1.8842335E-4 -1.2401812E-4 9.018139E-5 1.3012777E-4 6.507258E-5 -2.6355236E-4 -1.884741E-4 7.857654E-5 -2.61707E-5 -1.0028397E-4 -4.5373294E-5 -6.942314E-5 -1.0438794E-6 1.9546071E-4 1.5260512E-6 1.8324972E-6 -2.770018E-4 -1.3201952E-4 -7.547115E-5 -1.7309678E-4 6.272901E-5 1.0125982E-4 1.1985411E-4 2.2916605E-4 -1.3496072E-5 -8.728683E-5 7.89104E-5 -1.618024E-4 9.854496E-5 1.0511256E-4 -7.5849974E-5 -1.2194223E-4 -8.957841E-5 -2.418743E-5 3.427951E-4 -7.804568E-5 -7.322323E-5 -1.8340054E-4 6.0085018E-5 -1.1598745E-4 8.693842E-5 -3.138633E-5 -1.8094579E-6 3.289422E-5 -6.0351158E-5 -8.870923E-6 2.9141966E-6 1.4351385E-4 -1.4571473E-4 -1.5821576E-4 -5.8842E-5 -1.9129217E-4 9.664436E-5 -1.1366827E-4 4.049117E-6 -5.8168178E-5 -5.1715775E-5 -1.8152434E-5 2.969355E-5 -1.4641297E-4 -1.9639321E-5 1.4754274E-4 -5.051465E-5 1.9884224E-5 1.1158459E-4 6.420905E-7 7.81177E-6 -2.3447818E-4 -7.543032E-5 2.390937E-4 -6.7040906E-5 -6.163318E-6 8.195487E-5 -3.2673477E-5 -5.254544E-6 -4.361434E-5 1.2585837E-4 -6.0985374E-5 -2.7088941E-5 -6.346749E-5 -9.79587E-5 -3.4530207E-5 -9.152585E-6 -1.5110345E-7 -8.988503E-6 -1.3689704E-5 9.396754E-6 -8.67491E-5 -1.100712E-4 -4.990066E-5 -1.8103042E-4 -3.633444E-5 4.6431152E-5 4.451842E-6 3.6533507E-5 1.3936183E-4 -4.3145683E-5 -8.636008E-5 -7.543261E-5 -7.398227E-5 1.2382184E-4 -2.2902168E-5 -1.1259036E-4 1.2515065E-4 -2.0981486E-5 -1.8300365E-4 1.0766097E-4 -1.512488E-4 -2.2373091E-5 -5.3822594E-5 3.854095E-5 -1.7572876E-5 -1.6790046E-4 1.1908222E-4 -1.0842157E-4 -3.2456795E-5 4.1973217E-5 -6.5396336E-5 1.9704863E-4 -8.1866136E-5 3.274016E-4 -1.6493004E-4 -7.4064636E-5 4.9092792E-5 -4.7511203E-5 6.3193875E-6 4.1865038E-5 4.203273E-5 -1.0685306E-4 -5.588893E-5 5.387253E-5 2.1492637E-5 3.2983307E-4 -1.2395167E-4 -2.3632329E-5 1.8478604E-6 -5.7215242E-5 -1.2988632E-5 1.0165389E-4 5.0216247E-5 -1.2963524E-4 -1.08660206E-4 -9.932998E-5 -6.93718E-5 2.7523716E-5 -1.5349699E-4 -4.2930835E-5 -2.946037E-5 -1.7192861E-4 -1.1639229E-4 -2.3254894E-5 2.3971313E-4 -2.2305525E-4 -3.4369167E-4 1.14599265E-4 -2.135796E-5 -2.9140621E-5 -5.017216E-5 -3.2565487E-5 -4.723428E-5 -2.687583E-5 -2.323044E-5 2.0105204E-5 2.4201057E-5 1.0796357E-5 -2.9983594E-6 1.3962062E-4 1.3989034E-4 2.5075697E-6 -2.501048E-4 -6.669614E-5 -1.3466143E-4 2.65025E-4 -3.1406467E-5 1.9102241E-4 -3.914539E-4 -3.033289E-5 -5.618902E-5 6.783312E-5 -7.642452E-5 1.7427458E-4 -4.692127E-6 -2.3728069E-4 7.6710014E-5 -4.0513045E-5 4.0155493E-5 1.4889128E-4 5.2561798E-5 3.544315E-5 -3.481793E-6 6.215603E-6 1.03416525E-4 -6.367643E-5 -7.906373E-5 -8.865936E-6 1.4249292E-4 1.21774865E-5 4.4063567E-5 -1.847971E-5 -7.0060254E-5