1.3018362E-4 1.8678953E-4 -8.340455E-5 4.819216E-5 5.3555216E-4 1.5011756E-4 1.0435877E-4 3.7665508E-4 -8.498301E-5 -7.75456E-5 4.699771E-5 4.8074103E-4 3.3425645E-4 -2.5300826E-5 -1.5927738E-4 -1.4129443E-4 1.7439558E-4 4.0966424E-4 -3.6491413E-4 3.534832E-4 -6.057446E-4 -1.5455822E-4 -4.8205658E-4 1.176047E-4 -5.915889E-5 -1.9833626E-4 3.348689E-4 3.4691574E-4 -9.6632645E-4 5.2641117E-6 9.4342846E-5 2.5371352E-5 6.140837E-4 -3.4972632E-4 -9.275922E-5 -7.533803E-4 4.1325312E-4 -3.0889057E-4 8.242471E-5 2.7342737E-4 5.3116877E-5 8.898963E-5 -2.8507583E-4 2.448482E-5 2.0143291E-4 -3.535996E-5 1.2995067E-4 7.962521E-4 1.3995508E-4 3.2121997E-4 -2.0885929E-4 -1.4415028E-4 -6.662702E-4 -1.6940659E-4 9.7790435E-5 -2.0832624E-5 4.7281047E-4 -3.5010796E-4 -1.2455814E-4 -3.0820142E-4 -2.2297856E-4 1.7150276E-4 -7.221017E-4 -2.3550348E-4 2.9446092E-4 -9.9078316E-5 1.1104279E-4 -4.1126405E-4 3.307683E-4 -7.185901E-4 4.9033645E-4 4.8058695E-4 1.5549928E-4 2.8179912E-4 1.9807575E-4 4.9001863E-4 5.2659605E-5 -4.293281E-4 1.9830279E-4 1.749516E-4 1.6034818E-4 -0.0013435599 3.7005666E-4 -1.4322149E-4 -4.587331E-4 7.2266004E-5 1.4385307E-4 -6.5066176E-4 -4.9656956E-7 2.4524613E-4 -2.4797145E-4 0.0011150541 -6.458942E-4 3.175335E-4 9.0362584E-5 -5.5864255E-4 1.5554964E-4 -1.0270704E-4 -8.572821E-4 -3.6468857E-4 7.568469E-4 5.9593913E-5 4.217563E-4 3.9141165E-4 -4.8691247E-5 -3.7632923E-4 7.17332E-5 2.2503099E-4 2.6229204E-4 -1.1475757E-4 -8.268101E-4 -5.5441924E-6 6.587204E-4 -6.5856E-5 -2.159902E-5 -2.12147E-4 -2.5257634E-4 8.8568864E-5 4.7046848E-4 2.3294946E-5 -6.34277E-5 1.456097E-4 -9.2172566E-5 -6.383466E-5 -4.4239688E-4 2.0064384E-5 -5.547445E-4 -1.3684621E-4 8.731606E-5 -5.6694145E-4 -6.5099724E-5 1.6562646E-4 4.5502593E-4 -2.3991786E-4 -8.405507E-4 -2.1237248E-4 -3.265906E-4 -5.015065E-4 4.79918E-5 -2.345632E-4 5.196025E-4 2.0273468E-4 -5.5627286E-5 2.8454547E-4 1.3775154E-4 -9.956973E-6 -7.8570726E-4 3.077653E-4 -6.583864E-5 -7.354795E-4 -1.1731552E-4 1.433262E-4 8.763276E-5 5.389354E-4 1.4449771E-4 4.5456324E-4 1.4005334E-4 1.5376275E-4 3.4219236E-4 -2.8646807E-4 -4.9943446E-6 -5.300689E-4 -1.983031E-4 8.814572E-5 4.8621767E-4 -5.6972647E-5 2.1956666E-4 2.2664024E-4 4.1947688E-4 9.0792106E-5 1.2384055E-4 -1.13630376E-4 3.8470683E-4 -2.1949995E-4 2.3862139E-4 -4.8235487E-4 1.8634484E-4 1.6380739E-4 4.8321704E-4 5.6158635E-5 -1.9344293E-4 1.5989481E-4 -4.0162448E-4 -3.373488E-4 6.737891E-4 6.3736085E-4 4.180618E-4 -7.803572E-5 -3.7131933E-5 1.2801215E-4 1.9563817E-4 2.4067423E-4 -3.150961E-5 -1.2215275E-4 -3.9212973E-4 -2.9152437E-4 -1.5357826E-4 2.0535478E-4 -1.8090454E-5 -1.9871666E-4 -2.9998238E-4 -1.8365862E-4 2.3083223E-4 -5.458719E-5 -2.3358737E-4 -1.8817201E-4 1.7593135E-4 -1.6809467E-4 -4.92128E-4 -2.937711E-4 -4.9000507E-4 3.390947E-5 4.1480176E-5 9.9515986E-5 -2.3980105E-4 -2.688573E-4 -3.037764E-4 3.7798545E-4 6.4698805E-4 -4.746528E-4 -5.085669E-4 -8.9078804E-4 -2.4357018E-4 9.064196E-5 -7.610127E-5 1.5537361E-4 2.1080305E-4 -5.579657E-5 5.5034924E-4 -1.2997104E-4 -3.0313188E-4 5.276409E-4 -1.00617064E-4 -4.804242E-6 -4.2487943E-4 1.2913048E-4 -4.262919E-4 2.3898811E-4 -2.516092E-4 -8.872397E-6 1.592536E-4 -4.016321E-4 -1.5850645E-5 -1.8278674E-4 -3.439157E-4 -1.2850386E-4 5.0198287E-6 -1.1856422E-4 4.9490825E-4 -5.0977193E-5 2.3434233E-4 -1.811884E-4 1.2029644E-4 -4.949424E-4 2.004691E-4 3.7666937E-4 4.4242355E-5 -3.7699932E-4 2.249658E-4 3.8777743E-4 -1.02922684E-4 -4.0614355E-4 1.723385E-4 1.718523E-5 5.279282E-4 -2.2281485E-4 -2.1605098E-4 -3.5425182E-5 1.272569E-4 -3.7859354E-4 -2.0464462E-4 -3.0944793E-4 4.3170122E-4 -5.56032E-4 3.5229395E-4 -1.9946603E-4 -4.454155E-5 3.7811237E-4 -1.6575039E-4 -7.010895E-5 1.188929E-4 2.2505691E-4 2.8870383E-4 -2.7912283E-5 4.177437E-4 1.2802382E-5 -6.751756E-4 -5.2900135E-4