-2.2968725E-5 -1.245901E-4 -7.732178E-5 -7.587452E-5 -1.224722E-4 1.4816015E-4 -2.2026138E-4 -7.070883E-5 6.1833256E-5 -1.3369584E-4 7.43712E-5 -2.9409784E-7 -1.8487517E-5 -4.512659E-5 -1.0537645E-4 -1.3080367E-4 -8.673409E-6 -1.2442599E-4 1.0488071E-4 -5.7564266E-6 -2.5461116E-4 -2.2723066E-4 -2.3688682E-4 1.1116041E-4 1.3593659E-5 -7.6781864E-5 -1.345314E-4 -3.303805E-5 6.7234556E-5 -5.8929003E-5 -6.9245325E-5 2.2807837E-4 1.7869013E-4 1.6760746E-4 2.6818048E-5 3.5134497E-5 1.7700806E-5 -2.3063742E-5 6.157023E-5 -1.2136328E-4 -1.380707E-4 -1.643973E-5 7.155537E-6 -8.731346E-5 9.069918E-7 -2.9284495E-4 1.2521412E-4 1.8281443E-4 1.3639454E-5 -5.0712577E-5 -9.629966E-5 -1.8490024E-5 1.4768717E-4 -2.0841263E-4 -1.3934246E-4 -7.017693E-5 1.1274012E-5 -5.662349E-5 5.2114647E-5 -1.2167807E-4 -5.952065E-5 -1.4859796E-4 1.7196871E-5 1.8049077E-4 -6.439477E-5 -1.7433186E-4 -1.3473832E-4 9.501304E-5 1.5729558E-5 -8.311702E-5 -1.249092E-5 -4.1547723E-4 -1.4914208E-5 -2.0704826E-4 -8.9059904E-5 -1.0023904E-4 -1.0398021E-4 -2.1792825E-5 5.7235993E-5 3.7579866E-5 -3.116027E-4 3.1375494E-5 -1.0868108E-4 2.0181996E-4 -1.7564733E-5 -1.8197786E-4 4.2482214E-5 -8.898471E-5 -9.674494E-5 1.3237118E-4 -3.4673753E-6 1.1530538E-4 3.4746514E-5 -2.2393837E-5 4.220666E-5 1.9334603E-4 -3.4142242E-5 2.9795712E-5 3.8649352E-5 2.2071805E-5 -9.1662456E-5 1.8512853E-4 -1.8887987E-4 -1.5929827E-4 1.13996924E-4 -6.63993E-6 -1.5140601E-4 8.6047476E-5 -9.8156255E-5 -1.2458536E-4 -1.6990045E-4 -4.3709003E-4 1.1359618E-4 2.772395E-5 3.120581E-5 -3.340671E-4 7.956906E-5 -4.245845E-5 -2.3624962E-5 -3.0382911E-5 4.731094E-5 1.6250958E-4 1.7371417E-4 -2.012543E-5 -5.3242708E-5 -2.1487991E-5 2.7708607E-4 -6.1245504E-5 9.7817596E-5 5.440462E-5 -7.4138356E-5 2.7438925E-4 5.6081526E-6 -1.16367235E-4 -4.7047806E-4 -5.9133185E-5 2.281793E-5 1.7517387E-4 -1.6109007E-6 -1.1404836E-4 -1.3403286E-4 5.9031747E-5 -9.900554E-5 -2.2451434E-4 -4.456447E-5 -2.6642181E-5 8.843422E-5 -7.1620907E-6 -2.0966069E-4 3.498944E-5 -2.582885E-5 -5.286353E-5 -1.9710988E-6 -8.4712854E-5 3.1896067E-5 -1.6252292E-4 -1.7716906E-4 -1.7577633E-5 8.4426574E-7 -1.7452215E-4 -1.0720975E-4 -1.0961233E-4 -7.349714E-5 -1.0779437E-4 -1.6331636E-4 -8.9079986E-5 5.6846482E-5 2.8230988E-5 -5.2609408E-5 -1.2068901E-4 5.3378535E-5 -1.1598516E-4 -1.0998312E-4 -2.0217904E-5 4.4107634E-5 3.627965E-5 9.168641E-5 -2.554178E-5 -2.2586674E-4 -4.2359494E-5 -9.071799E-6 -1.931837E-4 1.3288272E-4 9.516831E-6 -1.3931665E-4 1.3782775E-4 -3.5852607E-4 -3.1823365E-5 5.2968455E-5 -2.5540836E-5 8.5878935E-5 -8.042344E-5 -4.762E-5 3.0661566E-5 -2.2940934E-5 -6.921023E-5 -2.2535198E-4 2.21584E-4 8.347281E-5 8.969348E-5 9.1874725E-5 -1.200587E-4 -2.9303264E-5 -3.912764E-5 -9.0021706E-5 -9.71382E-6 -6.622947E-5 -6.506833E-5 1.1101671E-4 -2.5621666E-5 -2.6485603E-5 -3.6342608E-5 -4.1800675E-5 -9.028221E-5 -7.2579714E-5 -7.590731E-5 2.2252944E-4 6.221031E-5 -3.0116633E-5 -4.607022E-5 1.9911148E-4 5.7526668E-5 -1.6681445E-4 -3.2414348E-4 8.8610504E-5 -1.9589045E-4 2.651469E-5 4.396615E-5 -2.5388453E-4 -1.4113779E-4 -3.432408E-5 2.6014185E-4 -1.45190315E-5 2.7573491E-5 -1.3329233E-4 -3.2030886E-5 -1.4756902E-4 6.961728E-5 3.9475206E-5 1.7902254E-5 -4.4961613E-5 -2.4247634E-5 -1.6967407E-4 1.43474135E-5 -1.3453007E-5 -6.21654E-5 -2.9808603E-4 -1.9364554E-4 -5.1282193E-5 -4.169704E-5 -9.276867E-5 -1.5418339E-4 -1.4403793E-5 -9.034808E-5 -1.6997688E-4 -9.425667E-5 -2.5159187E-4 -1.7480069E-4 -1.6527498E-4 -1.5655377E-4 -5.2209605E-5 -2.2844324E-4 -8.9261084E-5 -6.291061E-5 -1.7418659E-5 -5.6974826E-5 -4.923535E-5 -7.937539E-5 -1.4201882E-5 3.8851347E-5 -6.2002735E-5 2.5175014E-4 -8.416418E-5 -5.909375E-5 1.817687E-5 1.1384581E-4 -1.21007324E-4 -3.757933E-5 3.6150323E-5 2.6768463E-5 -6.328366E-5 5.621563E-5 -2.0298059E-4 1.1390526E-5 2.0748234E-4 -1.5106982E-4 -6.4133914E-5 -3.9257924E-4 -7.709703E-5 -2.3671015E-5 4.4925073E-6 -5.3137966E-5 -1.240304E-4 -1.0230029E-4 6.3496256E-5 -1.4160987E-4 3.2241565E-5 -1.0383879E-5 -8.0606915E-5 -1.7759122E-4 -3.2635892E-4 4.1194604E-4 -9.842647E-5 -2.3574058E-4 -1.4106282E-4 -1.4890831E-4 -5.954766E-5 -9.0312285E-5 1.4321913E-4 -3.8796854E-5 -7.940141E-5 5.3549007E-5 -1.4890211E-4 -1.0513609E-4 -1.1959488E-5 4.749738E-5 9.733982E-5 -2.3764269E-4 4.9967526E-5 -1.0039046E-5 -1.3340863E-4 1.1494189E-5 -1.2821697E-4 9.633319E-6 -5.0249364E-6 -1.4215253E-5 -1.1318478E-4 -3.2189777E-4 -1.3157331E-4 -3.453427E-5 9.566971E-6 -1.988842E-4 -2.94428E-5 3.706599E-5 -3.2031792E-5 2.0268317E-5 -9.8095996E-5 -1.4671235E-4 2.0562993E-4 1.5423834E-4 5.8107827E-5 -5.1973584E-5 8.336102E-5 2.7854667E-5 -6.935197E-5 1.2555644E-4 9.95922E-5 -1.0356426E-4 4.108475E-6 -1.65413E-4