1.3855792E-4 9.345665E-5 4.3837924E-4 -6.670744E-5 8.8001645E-5 -1.0662776E-4 -5.5574556E-4 -8.9721E-5 -1.8010485E-4 2.817423E-4 -3.5206706E-4 -2.5048363E-4 -1.47405335E-5 -3.7341597E-4 -1.6558311E-5 -1.0016942E-4 2.9542916E-5 -1.12407375E-4 -2.9997387E-5 9.94744E-5 1.4217512E-4 -2.5139845E-4 -1.263068E-4 -4.3290434E-4 7.072764E-4 -7.123268E-5 -4.4477227E-5 7.183559E-5 -3.5947972E-4 -1.7693563E-5 4.1760952E-4 1.5193243E-4 -1.7609568E-4 -8.872931E-5 -5.5087364E-4 -1.70516E-5 4.6512796E-6 -2.1093173E-4 -2.6150554E-4 1.18253345E-4 -3.2362645E-4 5.4380238E-5 1.5066679E-4 2.6734645E-4 2.331729E-4 1.21839104E-4 1.3755106E-4 6.440953E-5 6.0177026E-5 -1.7656482E-4 3.1533925E-4 8.7910834E-5 -6.082022E-5 -7.43212E-5 -3.5068515E-6 -9.092941E-5 -3.319326E-5 1.1248206E-37 6.534559E-5 2.158893E-6 -1.8053314E-4 -6.1445025E-5 -1.9626408E-4 1.0423635E-4 -1.08198605E-4 -2.4347383E-4 2.525404E-4 1.2431524E-4 9.453309E-5 2.3431843E-4 -5.3922275E-5 -1.7186574E-4 -4.875626E-4 -2.3671264E-4 -3.3183402E-4 -1.7859775E-4 -3.719001E-5 -1.0726018E-4 1.2510366E-4 -2.2443031E-5 -3.5664503E-5 -5.134428E-4 -3.2343285E-4 -3.0780747E-4 -1.5035283E-4 -1.9838329E-4 5.175176E-4 -1.7827854E-4 -2.437293E-4 -3.4214027E-4 1.1972502E-4 -1.295599E-4 1.8331216E-4 2.8701092E-5 4.1693918E-4 -3.6608602E-4 -1.0142229E-4 -4.0957835E-4 1.1110118E-4 -3.736129E-4 -1.9119896E-5 7.020672E-4 -2.8289878E-4 -1.3200504E-4 -1.5288172E-4 3.352131E-4 -1.8551793E-4 1.6335062E-4 -2.104399E-4 -5.919484E-5 -1.5616202E-4 1.0729574E-37 3.01946E-4 2.4993737E-5 -1.836675E-4 8.29099E-6 -3.1098473E-4 2.7914665E-4 -6.895151E-5 -8.1082806E-5 -9.573518E-5 -1.464978E-4 -1.9197905E-6 -2.3808044E-4 -8.536014E-5 -1.402228E-6 -8.4230196E-5 1.1162479E-37