4.3101114E-4 1.8575991E-4 9.022202E-5 -3.4106977E-4 -7.106E-5 -1.7575381E-4 -1.0522208E-4 2.534366E-5 -1.05192594E-4 -2.4311412E-4 -1.4715003E-4 -7.2897103E-4 -2.469727E-4 -3.4128688E-4 -2.9298404E-4 -4.5572342E-5 2.220367E-4 1.1128188E-4 -5.8042693E-5 -4.621537E-5 -3.8407426E-5 -2.6187967E-4 -5.348953E-4 1.21262936E-4 -8.5121996E-5 -2.8489616E-5 -2.150512E-4 -1.3027055E-4 -3.1779148E-4 -3.5250993E-4 -1.2565684E-4 -1.8745042E-4 -6.550783E-5 4.7199609E-4 3.1639854E-4 6.579492E-5 1.2084075E-4 1.8387636E-4 -1.5007796E-4 3.5519213E-5 -1.7869513E-4 -4.1611245E-5 -9.021633E-5 -1.5526696E-4 5.527964E-5 -7.7464574E-7 -1.9768238E-4 1.08508844E-4 8.26155E-5 4.3194876E-5 -2.5716636E-5 -3.468854E-4 -9.905054E-5 -3.0826163E-4 2.295751E-4 -1.633395E-4 -6.9391106E-5 -2.2709771E-4 -3.3741808E-4 -1.9739529E-4 1.384045E-4 -1.3329544E-4 -4.018606E-4 -2.0560261E-4 -3.5664972E-4 -1.718633E-4 -4.7304417E-4 -2.0972456E-4 -1.3043579E-4 1.4092388E-4 4.5428347E-5 -1.5723957E-4 2.0413165E-5 -2.3848547E-4 -6.871062E-5 -1.4643495E-4 -5.502807E-7 -5.6884623E-5 -7.42405E-5 -1.3072966E-4 8.099174E-6 -5.1297847E-4 1.8363091E-4 -1.3083853E-4 -6.8565845E-5 3.2024815E-5 -1.19154465E-4 -2.7971907E-4 -7.4727356E-4 3.173122E-4 -3.8820082E-5 1.1091067E-4 -3.088462E-4 -2.0470152E-4 -5.8799633E-6 -3.6372832E-5 2.2681008E-5 5.2012307E-5 1.05737E-4 1.3475293E-4 -1.251405E-4 1.0589187E-4 -3.2570833E-4 6.390984E-5 1.118436E-4 -2.1996866E-4 -3.0478573E-6 -2.1265514E-4 -2.1121313E-4 -1.8209254E-4 1.7094944E-4 4.02555E-5 -8.1695674E-5 -1.9597095E-4 -4.346031E-5 1.3291676E-4 8.681796E-5 -5.37677E-5 -7.313643E-5 -5.40869E-5 3.153351E-5 -6.118707E-5 5.3094234E-5 -1.8114838E-4 1.01980426E-4 -2.0470415E-4 8.905014E-5 4.3011285E-5 1.324265E-4 1.41494E-4 5.0920025E-5 -6.2513405E-5 -1.1027826E-4 1.5172953E-4 -2.748439E-4 -6.0829305E-4 -1.1764286E-4 -1.9203906E-4 2.2639251E-5 -4.6141125E-4 3.8008075E-5 9.2977425E-5 -2.0499833E-4 -3.071414E-4 -1.8374467E-6 -2.8087143E-4 -3.105645E-5 -3.1468808E-4 -2.4890224E-4 -9.7684664E-5 -1.6258034E-4 -5.794687E-5 -1.4016099E-4 -3.5737222E-4 -3.1864335E-4 -3.3130687E-5 9.687377E-5 -6.5006556E-5 -7.1537135E-5 2.1171977E-4 -2.0752428E-4 -1.3409638E-5 -1.5706744E-4 -2.6205496E-4 -1.959921E-5 1.6277477E-6 -2.1000014E-4 -1.2999054E-5 -1.5068654E-6 5.1656098E-5 7.5169937E-6 -1.2482921E-4 -4.1387515E-4 -2.4774455E-4 2.8037117E-5 1.339129E-4 3.1437583E-5 -2.3130514E-4 -6.7502755E-5 1.09901535E-4 -1.1810682E-4 -2.647744E-4 -2.8085822E-4 -1.3256547E-4 9.527829E-5 -9.9933306E-5 1.2312196E-4 -1.6731708E-5 5.980459E-6 -1.4379426E-4 1.2812029E-4 -3.2323442E-4 -1.9803876E-4 -2.7429825E-4 -3.2218103E-4 -2.2027933E-4 -3.2061493E-4 -3.0012868E-4 -5.750537E-5 2.3130131E-5