0.041255955 0.012506919 0.012072608 -0.0023552857 0.052069068 -0.018177029 -0.04432593 0.03501148 0.04792455 -0.032298073 0.008803725 -0.006874483 0.10015052 -0.031915788 0.054820478 0.047917645 -0.026493737 -0.016954975 -0.004842455 -0.051740475 0.044464856 -0.013788823 0.001807687 0.01140616 0.07530894 -0.026490318 0.0032591175 0.026777983 -0.015206239 0.046692826 -0.083902135 0.0050809677 -0.04652258 0.09745858 0.06564115 0.03540839 0.05089797 0.028787665 0.011367568 0.05870374 -0.008725135 0.020803573 -0.0121631175 -0.0024697254 0.02189794 -0.08035828 0.08939376 0.016368598 0.045036092 0.021525668 0.072813824 -0.0077214157 0.008532626 -0.048760016 -0.011545572 0.0046313913 0.012760914 0.008100285 -0.029975511 0.044036873 -0.009084238 0.020471022 0.050651845 0.04290153 7.272659E-4 0.030070929 0.047940973 0.017017476 0.0010822349 -0.0137560135 -0.018350137 -0.06818676 0.03422313 0.04224267 0.033144448 0.058809485 0.014435804 0.0030673798 0.032973267 0.039202295 0.026433324 0.02651442 0.06292337 0.040428672 0.025682684 0.061726376 -0.016135426 0.014394231 0.062445972 0.044350628 -0.04289262 -0.011823654 -2.4117339E-4 -0.062223893 0.08088371 0.03862842 0.09155647 0.022695065 -0.006955856 -0.014337873 0.019202977 -0.001541266 0.04302188 0.06777573 -0.029900638 0.055206846 -0.013194041 0.03577594 0.020590996 0.017897667 0.03269905 0.031018678 0.018380206 -0.028102208 0.022010624 0.09655496 0.022572856 0.063612774 -2.9957993E-4 -0.06802843 0.049251042 0.019306233 -0.06549432 0.06819048 0.019250864 -0.053061485 -0.0018712553 0.033258542 0.029480182 0.038565453 -0.037751537 0.02390592 0.01657574 0.10012255 -0.0030122236 0.08503551 -0.032995705 -0.018274488 0.005310455 -0.0030637495 0.0399131 0.045570802 -0.014334504 0.012654223 -0.0070834733 0.01677098 0.025219671 0.003077207 -0.01277407 0.08270085 -0.0153577635 0.040388677 -0.066074185 0.11585977 -0.009092225 -0.013502364 0.002455426 0.036077216 0.04378173 0.061448302 0.01297719 -0.021030774 0.007138405 0.087144114 0.03548764 0.07420772 0.03922801 -0.0065057585 0.030323647 -0.029843338 -0.00171253 -0.036591087 -0.031253 -0.009686768 -0.0037504435 0.03509425 -0.08078645 0.013969026 0.06072968 -0.006047109 0.08224366 -0.05443008 -0.0027173224 0.041721646 0.003238012 0.037329767 -0.011705965 0.037730373 -0.004643989 -0.056036565 0.03113252 0.02971138 -0.0404341 0.01627751 -0.03377857 -0.0363175 -0.021940125 -0.016033934 0.025512554 0.05549879 -0.0075578853 0.045107424 -0.04815471 -0.011631178 0.013791374 0.005124932 0.08710945 0.05951459 0.077037595 0.049668025 -0.035510093 -0.048043363 -0.057771128 -0.0031844808 0.042541686 -0.0036068847 0.0020307389 -0.028069925 0.049311433 0.02910047 -0.054040723 0.017900264 0.055845026 -0.0019238641 0.028359814 0.043677535 0.05920002 -0.020697668 -0.014234258 0.002495839 0.04353671 0.09254397 -0.018292204 0.013924 -0.023959566 -0.0745649 -0.026029803 0.023230236 -0.028013742 0.06685422 0.0248478 -0.017497638 0.013552183 0.08607033 0.033034682 -0.081098355 0.052040607 0.08375166 0.0013142533 -0.034206253 0.027368145 0.056276057 0.051816396 0.0068983543 -0.011507489 0.005369898 0.020440187 -0.076673865 0.02045319 -0.06567058 -0.05804381 0.098760985 0.009532255 0.028864926 0.06584134 0.005950291 0.038942777 -0.024895856 0.061764553 0.022049127 0.03918737 0.010065067 -0.075174965 0.05474415 0.008913632 -0.029596249 -0.017171446 0.03983267 0.1027232 -0.0323147 -8.8622724E-4 0.009879142 0.036162082 0.046907593 0.032314803 0.012262821 -0.011904645 -0.015814291 -0.0704225 0.009137643 0.06900623 0.06517824 -0.004790663 -0.045759585 0.015601584 -0.0070939986 0.068069935 0.020870993 0.062378474 0.017819183 0.029002732 0.025574032 0.053558916 -0.016847804 -0.060179185 0.01443668 0.009717116 -0.011078063 -0.024600184 -0.08682017 0.037997343 -0.011873999 -0.006691106 0.03597027 0.037660114 0.012704341 0.054208755 0.036658455 0.028393751 -0.0054196715 0.04494731 0.040847518 -0.02025912 -0.035973623 0.0055378787 -0.050966296 -0.036468506 0.06926932 0.0121977925 0.0062094135 -0.015588166 0.024393614 -0.018828569 -0.0024466142 -0.023856713 0.012439915 0.05510451 -0.035555884 0.10400532 0.0012697239 0.067455135 0.033086706 0.02621192 0.017821953 0.038590893 -0.030416586 0.017728465 -0.010461461 0.041937668 0.032233004 0.00831111 -0.0011999564 0.062684186 -0.04043133 0.0051808804 0.021792432 0.03059658 4.5547826E-4 0.0628625 -0.03571752 0.042974494 0.08709549 0.017301882 -0.029170476 0.041447993 0.019902322 -0.076153226 0.039008535 -0.011114886 -0.016363353 -0.016016753 -0.004402588 0.035567395 -6.32904E-5 -0.029006073 -0.014926928 0.029815555 0.031114953 -0.009743203 0.029362584 -0.048515283 -0.020882577 0.03400331 -0.003640378 -0.024966907 0.08286872 -0.008335151 -0.022705376 0.08815447 0.039178994 -0.05509169 0.024299609 -0.019509539 0.022218205 0.0056543285 0.010791569 0.058121685 0.044115596 -0.06315975 0.08534894 0.06433843 -0.017816916 0.022848964 0.060487624 0.04796769 0.022925416 0.048735037 0.054048207 0.036340233 0.023719719 0.016709227 0.10004538 0.037633758 0.0154670235 0.09972646 0.08775279 0.07034066 0.003016259 0.039305523 0.0019470394