0.06961116 -0.0021765232 0.062110767 0.022976575 0.1049975 -0.05046611 -0.023684511 0.08471925 0.07680586 -0.022560498 0.022831148 -0.03126722 0.17187919 -0.037643377 0.07689295 0.064744666 -0.047148433 -0.064798914 0.006090441 -0.101169564 0.008976417 0.016064437 -0.0014359432 0.03356933 0.08717718 -0.07487323 -0.010923972 0.014850738 -0.02784848 0.05360069 -0.06794492 0.03980093 -0.09905345 0.120021515 0.09368396 0.068698466 0.08148079 0.0063590347 -0.021329353 0.057440884 0.016257286 0.07253631 -0.050832346 -0.0071238214 0.044671547 -0.07158416 0.16589706 0.030854944 0.03484891 0.02654104 0.10465532 -0.03235921 0.022295093 -0.040164933 -0.0024965182 0.0016415681 0.014910201 -0.010531681 -0.06862631 0.065872416 0.011526223 -0.01398319 0.08325602 0.009821038 0.039948855 0.026378335 0.057652194 0.030243523 -0.031894792 -0.06750544 0.009984316 -0.047111 0.052804183 0.055779055 0.05917018 0.13096021 0.008803806 0.07530654 0.058559846 0.044850085 0.01160463 0.04192273 0.112961285 0.056483977 0.025617732 0.12893756 -0.069113836 0.013490774 0.11443194 0.06266542 -0.090140976 -0.0020932036 -0.031895824 -0.10488666 0.08457373 0.08147088 0.12475858 0.006997978 -0.013422937 0.0071436237 0.050029907 0.014534421 0.089891896 0.10613447 -0.03756806 0.024030153 -0.027012875 0.073943384 0.04646858 0.020056115 0.09659601 0.051185414 0.08680598 -0.06855881 0.051976185 0.14864269 0.043268077 0.10969242 0.018274715 -0.10879362 0.12397053 0.07851448 -0.06263331 0.09608073 0.044871874 -0.09266728 0.0051510893 0.08955698 0.042620316 0.05275752 -0.007795753 -0.016860317 -0.014562556 0.13285585 0.03841802 0.10858438 -0.016337305 -0.031288683 0.043818656 -0.040839244 0.035287634 0.095717825 -0.02314345 -0.0080566285 0.011061542 0.06673262 0.0453041 0.01835562 -0.038920738 0.11919694 -0.0038676118 0.10067549 -0.08484974 0.11991106 -0.0070875683 -0.004224622 0.10205567 0.08428916 0.100043446 0.10742059 0.03987993 0.0055038016 0.10212319 0.12994935 0.057877406 0.1071414 0.056374513 0.026811719 0.050983332 -0.043919306 0.018049704 -0.04008806 -0.06745308 0.011060798 -3.6454335E-4 0.1417503 -0.12362624 0.039109 0.056756042 -0.042592056 0.10161157 -0.061504994 0.010158438 0.07670113 -0.0036100643 0.058926594 -0.064637706 0.09240451 -0.0151704475 -0.075320564 0.04405915 0.0049930546 -0.09128732 -0.009241223 -0.05005935 -0.094785206 -0.08106168 0.015553677 0.075103045 0.070727184 -0.0016251473 0.066587605 -0.076600015 0.013006159 -0.025396757 0.01177789 0.10271056 0.09971555 0.13768211 0.05257748