0.085647725 0.059567377 0.04150757 -0.031646397 0.13480857 -0.01582356 -0.024172433 0.08957567 0.1431264 -0.0047437297 7.563985E-4 -0.030470582 0.20398356 -0.07390636 0.035975296 0.1634149 -0.070305124 -0.11033353 0.047500674 -0.13283055 0.027175201 0.06498208 -0.03138221 0.036225077 0.14799532 -0.09081208 -0.05109292 0.035125934 0.06629356 0.05148277 -0.105140865 0.059471507 -0.11467324 0.18062317 0.09140978 0.11540922 0.13091345 0.08499051 -0.02564919 0.14754605 -0.050795604 0.063837804 -0.035547514 0.04119159 0.09092138 -0.11466583 0.15138085 0.09258289 0.07007449 0.043361668 0.08936815 0.014841023 0.011486027 -0.035364643 -0.00510089 -0.010507497 0.07566048 -0.05049596 -0.1085407 0.06874891 -0.025186948 0.08402611 0.12020601 0.09425722 0.04374 0.032702725 0.11816701 0.042932868 -0.018054022 -0.04390713 0.04668786 -0.13779025 0.10113784 0.09228067 0.113338634 0.15711348 -0.005485464 -0.0011692635 0.14186865 0.042870693 0.12820743 0.08361653 0.2003567 0.14752497 0.055961102 0.24708344 -0.08932698 0.066424415 0.09756584 0.098240905 -0.10815175 0.015269348 -0.008188877 -0.09857436 0.12974636 0.04031936 0.14349522 -0.04089666 -0.019245727 -0.035093255 0.10911595 0.031183032 0.10641119 0.16417071 -0.063293055 0.105226204 -0.004540497 0.12827542 0.050911643 -0.01755742 0.048135523 0.0666449 0.11018898 -0.016364451 0.10031779 0.2058277 0.053307984 0.15038823 0.015862776 -0.1555274 0.1240912 0.060853787 -0.16854961 0.13716654 -0.01016476 -0.13092948 0.025124334 0.16595274 0.05603785 0.09308085 -0.10154878 0.06492217 0.066860996 0.16282745 -0.0068451087 0.15106748 0.037080303 -0.10261691 -0.015368445 -0.0010103657