0.0025473991 0.0042901062 -0.01284176 -0.01845353 0.008281567 -0.016028224 -0.044135105 0.023000402 0.005549738 -0.035210017 -0.026714684 -0.010685321 0.043957565 -0.018608602 -0.0023085647 0.012257263 -0.011686408 -0.06163514 -0.024919769 -0.050159577 -0.010534227 -0.007542776 -0.031002428 -0.0031761134 0.01660158 -0.052368816 -0.029734198 -0.026834283 -0.04141025 0.006511041 -0.04976839 -0.016028287 -0.035552535 0.041619528 0.027836723 0.015284958 0.016333092 0.013667957 -0.029017558 0.0058745025 -0.031007186 -0.0070904293 -0.03138855 -0.016435992 0.005247296 -0.07110119 0.03120761 -0.0017263729 -0.0053929063 -0.018600097 0.04712113 -0.037163734 -0.011408367 -0.055407997 -0.018543534 -0.011559449 -0.012844939 -0.009237945 -0.046208635 -0.02025661 -0.021793513 -0.0011949822 -0.0054658693 -0.014362013 0.01696924 -0.018411724 0.013095509 -0.01602974 -0.022035427 -0.026192417 -0.021384306 -0.05076893 0.002328312 -0.012136122 -0.001678233 0.021679198 -0.01500279 -0.0036757647 -0.011365825 0.011158286 0.0047571617 -0.012856295 0.03099954 0.011462281 -0.0036543508 0.03674132 -0.040223006 -0.03186212 0.033397723 0.016814003 -0.044433087 5.3407764E-4 -0.041212488 -0.040414114 0.011164142 0.0051281066 0.025186872 -0.015305083 -0.035781283 -0.009647887 -0.0017028518 -0.0045206207 0.0038287272 0.020325638 -0.045622826 0.025618011 -0.025007712 0.020252815 -0.028647937 -0.020661658 -0.0051691276 0.012385694 0.022492724 -0.018000366 0.036057707 0.047839493 -0.0035691422 0.030066475 -0.018489199 -0.053364538 0.02642572 0.0054019247 -0.05815099 0.027552333 0.0078545725 -0.04067457 -0.015754098 -0.01318565 0.017600976 -0.012044234 -0.04703284 -0.007811916 -0.02154439 0.027942332 -0.033638015 0.035304096 -0.018469714 -0.041947104 -0.02437973 -0.026297456 0.0077706627 0.009494339 -0.033781797 -0.0344089 -0.020207552 0.0038357945 0.009917114 -0.00480124 -0.009667672 0.052878935 -0.014641769 0.031852473 -0.030944796 0.04179178 -0.032517493 -0.050794054 -0.014982516 0.012556156 -0.0041257064 -9.642439E-4 0.0042347163 -0.03445839 -0.0011463484 0.022550646 -0.0011503826 0.02376235 0.025020622 -0.0222485 0.011218925 -0.029071273 0.0072633973 -0.043354165 -0.040112235 -0.01874171 -0.018880952 0.024603263 -0.046581935 -0.0056022606 0.02715344 -0.034802042 0.020062076 -0.02329448 -0.011912459 0.0020778156 -0.020694148 0.014439729 -0.03484743 0.018983731 -0.018735735 -0.048694145 0.018452182 -0.008666419 -0.040240444 -0.012157476 -0.03852509 -0.052010316 -0.027286163 -0.012143781 0.014008568 0.013718092 -0.014769621 0.01776801 -0.02279348 -0.0036987832 -0.016207216 -0.015326942 0.0072379117 0.02311861 0.025457017 -0.0051201712 -0.029872071 -0.047577836 -0.034023296 -0.029085701 0.007796181 -0.04365999 -0.022157151 -0.034689754 0.04475248 0.00997573 -0.05865666 5.798999E-4 0.020383367 -0.015215628 0.015131434 0.0060742996 0.009591971 -0.03639493 -0.029373808 -0.012911089 0.02577107 0.034621295 -0.021778168 0.0053072455 -0.041940033 -0.04782391 -0.05389956 0.019542629 -0.06281375 0.03005995 -0.0093723 -0.03551687 8.7429065E-4 0.03230524 0.011742152 -0.047148377 0.0012222992 0.017186254 -0.04198384 -0.032923654 -0.018801179 0.02624804 0.014193387 -0.012430634 -0.022070568 -0.021549072 -8.991811E-4 -0.0648341 0.0023710395 -0.0509295 -0.058660135 0.039632708 -0.02010749 -6.770157E-4 0.032671005 0.004294614 0.008719828 -0.018718444 0.021886544 -0.003274293 0.006545784 -0.019283125 -0.062930286 0.006112255 -0.014486215 -0.05458354 -0.020658094 0.0098790685 0.04016364 -0.036444686 -0.02015367 1.3006917E-4 0.0062844316 0.0037477098 0.0024634905 0.012686233 -0.029728867 -0.049464192 -0.047590878 -0.033438973 0.052454855 0.01734178 -0.007611092 -0.033814546 -0.03446598 -0.016613118 0.02332933 0.0014565596 0.030381162 -7.549004E-4 -6.0401915E-4 -0.016839948 0.0013179109 -0.032652948 -0.05919067 -0.025372222 -0.008118325 -0.030597439 -0.02857335 -0.058414586 -0.0026558186 -0.011462383 -0.017834326 0.030051615 -0.0011669736 -0.022164077 0.009162163 -0.0042921756 -0.0050077015 -0.038376596 0.014298102 0.003549722 -0.0119755715 -0.037934452 0.0052546286 -0.06804236 -0.06468964 0.03598052 -0.019113645 0.007907991 -0.044245232 -0.018828847 -0.014461843 -0.028995415 -0.03668311 0.0022060934 0.025878094 -0.016729485 0.023540026 -0.031800367 0.029413352 0.0141397305 0.003336749 -0.003143657 -0.006355656 -0.034899183 0.026581388 0.0015390033 0.009437507 -0.00913806 -0.0072607403 -0.0017038173 0.022406464 -0.04880437 -0.025961455 0.02131849 -0.020287713 -0.018383795 0.026513977 -0.040318165 -0.006398603 0.01501418 -0.005675223 -0.050839655 -8.0642506E-4 -0.0054410985 -0.036697708 0.0032886374 -0.02045184 -0.0108431745 -0.02246398 -0.013196773 -0.01046048 -0.003052022 -0.035653636 -0.017725747 0.003138524 0.02534779 -0.041834082 0.024968749 -0.041758988 -0.04037426 -0.009103266 -0.031533744 -0.026148805 0.027572718 -0.052659087 -0.030964116 0.023636319 -0.021117223 -0.06410109 -0.0025271566 -0.030092789 -0.0021715513 -0.020805726 -0.026151368 0.018568013 -0.0045791287 -0.044965606 0.0019620524 0.01327061 -0.034056097 -0.0011656617 0.00720372 0.02988323 -0.0027034217 0.0023179678 0.004696561 -0.0135574 -0.011791348 -0.023249755 0.046064362 0.030826248 0.009681545 0.006470424 0.034120716 0.023291696 1.7270927E-4 -0.005217907 -0.03245665 0.019570854 -0.0507189 0.055171564 -4.4145747E-4 -0.005349534 9.7328326E-4 -0.023405708 0.006350816 -0.01335501 -0.06716554 -0.03760521 -0.009142809 0.010629672 -0.039122935 -0.010210556 -0.057776764 0.014803613 -0.013277584 -0.043095984 -0.025912596 0.00833032 0.0016137722 -0.055329442 0.015800903 -0.040909205 0.01001786 -0.0082883295 -0.034010734 -0.043938927 -0.015887674 -0.008752001 -0.009160515 -0.031964663 -0.05487971 5.4819894E-4 0.0028299973 -0.0012785764 -0.003074647 -0.018760992 0.009325061 0.02533312 -0.05946556 -0.008139795 -0.013129077 -0.040072475 -0.06551274 0.03178552 -0.018760772 -0.03519399 -0.030159457 -0.010314638 -0.005816172 -0.047662623 -0.018685954 0.03335637 -0.006909211 5.757901E-4 -0.027115777 -0.018682001 -0.016891338 0.04357476 0.016976759 0.00166901 -0.016306518 -0.017502505 -0.025616758 -0.006961505 0.009925507 -0.0066544935 -0.025557242 -0.06646982 -0.028735679 0.004474786 -0.051565006 -0.04590522 -0.0030293213 0.032459177 0.032965623 0.0060750656 -0.033449307 -0.0069131474 -0.018242301 -0.008583868 -0.06163949 0.020060332 0.02290481 1.1728396E-4 -0.0133425705 0.0033409586 -0.021899913 -0.027672598 -0.017661922 -0.03496479 0.008263382 0.008605464 -0.045017213 -0.01171596 -0.016967436 0.026105858 0.003548328 -0.041723765 0.049027402 0.023892071 0.0060360376 -0.014129096 -0.05568146 -0.054247607 -0.003926571 0.0076029073 -0.0027176877 0.050372347 0.02576356 0.06337031 7.41974E-4 0.025036858 -0.020253042 -0.011000759 -0.022960192 0.004338093 -0.010420605 -0.002269474 -0.016750341 -0.028448911 -0.023989487 -0.010453213 0.012535958 -0.019866275 0.0370987 -0.023731265 0.008820188 -0.0076378216 0.014444809 -0.0051547205 -0.037369378 0.042897206 -0.0047481414 0.014069839 0.0018183963 -0.020526122 0.045548387 -0.03242252 -0.040612955 0.015009135 -0.060978364 -0.034405775 0.015139468 -0.0041200295 -0.027604382 -0.024802085 -0.005047635 -0.017248781 0.012384028 -0.024533298 0.012181961 0.010016948 -0.010192889 -0.040890053 -0.013085487 0.008946602 -0.002661004 -0.06492109 -0.02188837 -0.0011251002 -0.015394547 -0.007994195 -0.026859479 0.015993334 -0.015364933 -0.04119928 -0.01456913 -0.0122765405 -0.024264231 0.043536983 -0.058780298 -0.01423487 -0.008385693 -0.017928153 0.020540575 -0.02793051 2.3637064E-4 -0.05200929 -0.029896347 -0.0083300285 -0.017287973 0.03257814 -0.02065276 -0.026480641 -0.026124677 -0.013019921 -0.0461915 -0.035151143 -0.010464351 0.036585465 0.034544647 0.008676086 -0.04982779 0.01886957 0.012997612 -0.02537512 -0.03136774 -0.019985639 -0.022995913 -0.018597534 -0.012305548 0.0073077055 0.0077396766 -0.03607818 -0.019701248 -0.01124254 -0.011630901