-2.313355E-4 -5.885604E-4 -2.890557E-4 3.311035E-5 5.5307144E-5 -7.5089425E-4 9.540826E-5 -8.8097254E-4 -3.5817307E-4 -4.889986E-4 -3.8951077E-4 -2.2069439E-4 -8.908254E-5 2.6946727E-4 -6.1781364E-5 -7.511731E-4 -2.6123243E-4 -2.8536218E-9 1.0212916E-4 1.1385218E-37 -6.6399865E-4 -0.001118912 1.1067539E-5 -5.15736E-4 -2.3057242E-4 -3.21404E-6 1.1694137E-37 -0.0010512123 -7.6576683E-4 1.1186551E-37 0.0 -3.0923547E-4 9.337769E-16 -8.666067E-4 -1.369858E-5 -0.0010862513 -0.0011181135 -4.4930106E-4 1.1696699E-37 -4.3752254E-4 4.2874046E-5 2.6397829E-5 -3.397803E-4 -6.349378E-4 -8.590922E-4 -5.49641E-4 -6.181825E-6 -7.21075E-4 -3.1964047E-4 -4.634583E-4 1.1467575E-37 -9.37389E-4 -3.5974805E-4 -1.4889766E-4 -2.4058865E-4 1.0997779E-37 -4.4971763E-4 6.2447576E-19 -3.6831695E-4 -3.7081886E-4 -2.8371697E-4 -0.0013404819 -6.687581E-4 -5.1356055E-4 2.8097982E-4 3.4703746E-5 -0.0010036841 -2.4677688E-4 -6.088461E-5 -5.5945327E-4 -9.781985E-4 1.1515969E-37 -3.013027E-4 -7.398863E-5 -3.7607897E-4 -3.9565435E-4 -2.343509E-4 -9.538878E-5 -7.263936E-4 -3.1161257E-5 -3.954473E-4 -3.704809E-4 -6.6459435E-4 -9.284676E-4 -4.2723032E-4 -5.6066073E-4 1.1739129E-37 -3.7027316E-4 -1.7421659E-4 -4.297086E-4 3.016887E-5 -3.7944998E-4 -2.562005E-4 -1.7842138E-4 -6.247744E-4 1.1196686E-37 -7.847494E-4 1.0666545E-37 2.4354078E-5 -2.8336176E-4 -4.9093383E-4 6.0771854E-6 -1.7832733E-4 -5.5687723E-4 -5.448867E-4 -4.8616406E-4 -4.1150968E-4 -3.934814E-4 -3.278522E-4 -1.256287E-5 1.1522633E-37 -1.18896336E-4 -1.9234521E-4 -2.5999988E-4 -9.0658206E-5 -1.8727162E-4 -9.5169095E-4 -3.0867488E-4 -5.343712E-5 1.0935507E-37 -5.991332E-4 -5.98268E-4 1.2140308E-35 -1.0446658E-4 5.8198202E-30 2.600877E-5 -4.0008465E-4 -0.0011953465 -2.651963E-4 -4.6470322E-4 1.1123585E-37 -3.4552754E-4 -3.508202E-5 -1.9183804E-4 -1.209443E-4 -8.1514945E-4 -3.9451386E-4 1.0875901E-37 3.7435516E-6 -7.015192E-4