0.38170493 -0.13703133 0.13410234 -0.6493229 0.5993885 -2.5491986 0.12567677 2.628781 0.9366651 -0.27791205 0.06491062 0.75697404 0.8428961 -0.70046806 1.2001997 1.8341626 -0.74715716 -0.30042535 1.577155 0.98178345 -1.6253598 0.7586033 -0.73946255 -0.3911677 0.08324484 0.59116215 -0.3587937 0.6263737 -0.8207781 0.2380169 1.7891716 0.8814271 0.60387504 -0.19190702 -0.7245134 0.35887453 1.4161289 0.36485025 0.058234073 -1.3644555 1.1430441 1.8372154 -0.6548774 -1.3548876 -0.86651963 1.0834026 -0.5927681 -1.0474379 0.50780463 0.6883146 -0.88725543 1.7440009 -0.3181026 0.12454687 -1.0458018 -1.4205784 -0.56371796 0.72205627 -2.3622315 0.15124562 0.9882889 -1.183445 -0.6100104 -0.7464196 1.4535296 -0.4754142 -0.09748991 1.7753451 -0.398608 -1.3646681 -0.77591753 -0.36083642 0.17637444 0.38893312 0.38332376 0.26008016 -2.2758322 1.7348845 -0.8417238 0.13691746 1.1280042 1.0409138 1.7141486 1.6451714 2.2457092 0.614503 -0.5442303 0.6379855 0.51168716 -0.529274 -2.3712652 1.0490894 -0.7985126 1.8017014 -1.2172738 -1.669398 -0.60408235 -1.3248985 -0.82824385 0.37311783 0.30794424 -1.8849406 0.30719498 -0.3128186 0.011923003 0.38173315 -1.3570423 1.3065124 1.4188259 0.7957104 0.46433163 -1.2457553 -1.1857731 0.86847776 0.92312497 -0.024293361 -1.1493486 -1.2164832 -0.36990026 0.75378305 -0.20138212 -0.82229996 -0.79442406 -1.6014427 0.21920507 -1.2703133 -0.028845828 -0.85595393 0.5007634 -0.37432754 -1.0602397 0.4934916 0.31722334 -0.1335391 0.99018264 1.8339151 -1.3614621 -0.7092834 0.5708731 0.5874238 -0.21893464 -0.40165526 -1.0232257 0.37381846 -1.217487 0.13719909 -0.08307138 0.45918256 0.27952597 0.16917194 0.62610364 -1.4748135 -0.51914257 1.0519391 -0.21993929 -0.5100533 0.9839295 0.09906934 0.62035304 0.20921925 -0.27077508 -0.3682419 -0.5166575 -0.5114504 -1.9028751 -1.68811 1.041785 -1.3977104 -0.0013648001 0.9190539 2.2310684 -0.24858202 1.7857746 1.0538131 0.3934358 1.2270356 -0.6960372 0.9501051 -0.48780403 -0.11486378 -0.409234 -0.87635475 0.090840176 -0.83191717 -1.1326085 -1.654893 -2.3308396 0.5343346 0.18539877 0.9688298 0.80338377 -0.06899394 0.8859359 -1.5517039 0.15926018 -0.26673502 -0.8208093 -0.46995315 0.18029512 -1.1945952 0.6237003 -0.59230334 -1.4216851 -0.4411552 0.74077797 -0.84855 -0.905811 -0.5843977 -0.94417757 0.21184431 -0.38565663 2.497123 -1.023171 -0.22866 -1.632558 -0.5443772 2.2501895 -0.8847539 -0.10301036 0.2484393 0.72871226 2.013924 0.9004387 -0.00824546 -0.5348427 0.24784516 0.29300234 0.1154703 0.33558324 -1.2852703 0.48855406 0.6816422 0.4730821 -0.56382465 0.28423303 1.3850242 2.395219 0.17021114 0.14478976 -0.6455598 2.6052806 -0.30394313 -0.088363044 -2.5076017 0.85738784 0.91927373 -3.0214581 -2.0844052 0.7885993 -0.2438992 2.5975854 0.8724686 -0.9158206 0.7097643 1.3543519 -0.20790914 -0.9605134 0.8456014 -0.8844274 -0.50993747 0.7331278 -0.30504245 -0.4143104 -0.4929131 0.5710118 -0.4783402 0.31657618 1.1165206 -1.961649 1.6800205 -0.120165974 -0.8886445 0.58781046 -0.4468697 0.3806672 1.29382 -1.6952012 -0.8211609 0.67989177 -0.06501942 0.69461733 0.7014427 0.9167431 -0.9685635 0.84455717 -0.3332568 0.11063134 0.04875025 -0.5222872 -2.3613706 0.3900748 1.2632191