0.07941629 0.07846841 -0.032302868 0.049564056 0.10642166 0.10428367 -0.01726265 0.039607562 0.022533683 0.013091081 -0.025649488 0.006110653 0.11549696 0.049898673 0.109833285 0.081209496 0.04805757 0.008118136 0.0957264 0.10405384 0.01280006 0.01963724 0.024151402 0.13522084 0.03940049 0.09626097 -0.015971424 0.024333164 0.037013832 0.0147800585 0.040089145 0.0404948 0.06699421 -0.01590898 0.086148486 0.09538725 0.05373051 0.010181363 0.043512955 -0.019750467 -0.026722118 0.029448677 0.04377337 0.114656374 0.022124162 0.02379191 0.04049287 0.0065482478 -0.016247142 0.043530088 0.06665809 -0.00817396 0.07301704 0.06043366 -6.8410765E-4 -0.040003795 -0.03290479 0.034335203 -0.04197048 0.083310395 0.036441375 0.035639495 -0.041899346 0.057568546 0.008312818 -0.03008821 -0.03020344 0.008283643 -0.010667319 0.057896882 -0.039331667 -0.026649967 0.009645921 -0.0065272446 0.095294215 0.060423065 -0.037796117 -0.0490954 -0.0028515428 0.04090562 0.013205777 0.03788068 0.012789091 0.004219082 -0.033611335 -0.0022684978 0.06886979 0.04877648 -0.014524206 0.028992165 0.047181997 0.06354211 -0.03189368 0.03035329 0.043434855 0.011318685 0.016976586 0.013632688 0.04907666 0.0453862 0.0029458548 -0.039131247 0.050215285 0.025799448 -0.015031273 0.09141778 0.06021426 0.010287183 0.08996434 -0.011977307 0.063188806 -0.048150808 0.061609905 0.092619754 0.080552995 -0.021746814 -0.0038930117 0.0059170136 -0.0180695 -0.013632518 -0.015160537 0.016916499 0.08299252 0.011712971 0.04818431 0.036348946 0.01415764 -0.0025216865 0.09675956 3.2929942E-4 -0.030273665 -0.019052368 0.051966444 0.022683643 0.004894324 -0.029841984 0.009979197 -0.010316327 0.05187896 0.0018031079 -0.035633028 0.05043235 -0.023257622 0.098515324 0.006394322 -0.027259255 0.053830978 -0.013019215 0.08609484 -0.017441943 0.06913355 0.12348684 0.09076884 0.085723035 0.086236954 0.039062224 0.10763536 -0.025753506 0.04245753 -0.06390216 -0.008777434 0.0741529 0.09408479 0.03083999 0.08224211 0.04169756 0.11727405 -0.011368908 0.109473094 0.055689357 0.051421423 0.059647713 0.037341367 0.036933262 0.014509571 -0.0462573 -0.0039743767 0.062098287 -0.035140716 -0.039895397 0.07518166 -0.015990654 0.06502561 0.035577495 0.028698063 0.034300804 0.06146037 0.11318683 0.059568174 0.06976691 0.009889871 -0.013854988 0.07430375 -0.052404817 -0.009669036 0.05028897 0.083381526 -0.029391455 0.030688774 -0.020484375 0.081309974 0.07113322 0.10119514 -0.066160545 -0.075320356 0.017559286 0.038179096 0.044669967 -0.071461834 -0.011335023 -0.032068335 0.041869998 0.0016660409 -0.013455203 0.04652915 0.049399637 -0.015927464 0.04727922 0.11053015 0.02438747 0.03383536 0.048226997 0.047226056 -0.020237507 -0.0020994716 0.030503301 -0.0037873245 0.088543475 0.10547954 0.055502348 -0.004650122 -0.026952716 -0.014746148 0.06653643 0.067947224 0.037590932 0.063877985 0.06415356 0.054294232 0.014303903 -0.04334765 0.037135046 -0.017142685 0.06403494 0.015764343 -0.017602818 0.0023773815 0.046900183 0.05041882 0.05479471 0.038359065 0.0335738 0.022621078 0.016629985 0.03338482 0.0032102 0.009623128 -0.046218555 -0.041982345 0.029749792 -0.004885126 0.028177673 -0.088876784 0.022376617 0.063076235 0.06091263 0.096711844 0.0012641172 0.025557874 0.014273834 0.022186043 -0.008001083 0.04435006 0.07540546 -0.01616985 -0.015863003 -0.002198877 0.04918208 0.022398567 0.09467813 0.039101206 0.02823929 -0.020645866 0.0035446817 0.008686607 -0.0074351113 0.044501074 0.08023796 0.026734661 0.065308504 0.036997676 0.041456394 0.06404402 0.08065656 0.14329648 0.086705826 0.047374964 -0.008386049 -1.9187582E-4 0.049101908 0.1079287 0.069810875 0.05018018 0.051089413 0.061662003 0.068127036 6.881686E-4 -0.02502173 0.047275603 0.10079357 0.07368132 0.08360017 0.062952556 0.08116207 0.034224864 -0.015644807 -0.026412012 -0.023347199 -0.026796738 -0.089443564 0.007415929 -0.04804447 -0.029528359 0.045764685 0.03421238 -0.028864676 0.0038986856 0.0052222367 0.046074037 -0.014013621 0.008621677 0.008986531 0.029391686 -0.057840347 0.037101883 0.054415 0.08147092 -0.043689266 0.006834329 0.005039704 0.080898166 0.032982007 -0.0238694 0.12019284 0.016755816 0.005891534 0.03407705 0.041813314 0.04328354 0.079598784 -0.013063138 0.0021251093 -0.058297172 0.113436945 0.04986404 -0.017431872 0.063386254 0.047619954 0.09436567 -0.031307537 0.04840228 0.03160655 -0.055070035 0.030377757 0.035850413 -0.031014988 0.016206756 -0.0510442 0.030830026 -0.024636487 -0.023221275 0.012583694 -0.03541456 -0.014955763 0.025779063 0.06691944 0.025676005 -0.051116753 -0.05563233 0.040649813 0.075845264 0.07408122 0.023006303 -0.08292442 0.07578492 -0.02697677 0.04156385 0.07475247 0.04801189 0.004877225 0.011815298 -0.034463704 0.04680107 -0.00969313 -0.024167363 0.04222929 -0.021001337 0.06846307 -0.029695373 0.049725763 0.0076708416 0.09628985 -0.028570894 0.0019602617 -0.036289413 0.040219832 0.07553916 0.009552338 -0.005218804 0.10371514 -0.03193958 -0.0045163385 0.06385786 0.07994565 0.0027526224 0.091514565 -0.045017064 0.033521727 0.030275326 0.049070973