-5.1474746E-4 -1.3591848E-4 4.7835556E-4 1.4681775E-4 2.9682098E-5 2.1230456E-4 -4.017098E-5 -1.969044E-5 1.09559456E-4 -1.5138918E-5 8.1341284E-5 -1.8651123E-4 -3.5898396E-5 -8.2270463E-4 5.853179E-4 -3.820017E-4 2.0779855E-5 -1.0090787E-4 -1.5208498E-4 -1.5097018E-4 6.801857E-5 6.927899E-5 -8.082122E-5 -6.616982E-5 2.4799275E-4 5.7251233E-4 -2.7543813E-4 2.0514899E-4 5.6352856E-5 1.5692467E-4 -3.3722645E-6 3.2085314E-5 -3.0482443E-6 -4.269652E-5 4.1062568E-4 -3.9335503E-4 3.3740574E-4 -4.6217316E-5 -1.8882065E-4 1.7267943E-5 -1.496881E-4 -6.1290215E-5 -2.1980831E-4 -4.938153E-5 1.14391245E-4 2.2690649E-4 -5.765271E-4 1.9163552E-4 -2.365424E-4 1.6894577E-5 -9.916006E-6 -1.0727867E-4 -5.093449E-5 2.3120945E-5 2.4267273E-4 -6.876439E-5 5.096457E-5 1.0470202E-4 -5.0841347E-5 -2.08999E-4 -7.842839E-5 -7.1573944E-5 1.1974881E-4 2.390465E-5 1.1394354E-4 -4.6411215E-4 3.9578392E-4 -2.029259E-4 3.373602E-4 -1.4941563E-4 -7.015355E-5 -4.251804E-6 1.6798624E-5 5.140207E-4 -5.3505508E-5 1.913224E-6 -2.1487744E-5 -1.3958196E-4 5.9467813E-5 -2.798917E-4 5.0802155E-5 2.7907508E-5 -1.5499472E-4 -6.3131694E-5 1.0531196E-4 -2.2109083E-4 -2.5972238E-4 -2.6472734E-4 7.427111E-5 3.4670535E-5 -4.698745E-5 1.7951912E-4 -9.025315E-5 -8.7180946E-5 -8.2138155E-5 -4.583154E-5 -4.8413232E-5 -4.3388022E-4 1.16096024E-4 1.17940865E-4 -2.0659214E-4 -3.9359592E-4 3.7223392E-4 1.186497E-4 5.7410747E-5 1.1584684E-4 3.5223886E-4 -2.3461802E-5 -2.4579876E-4 -4.625667E-5 1.3389153E-4 -8.9453795E-5 -5.4904394E-6 2.28215E-5 1.1182317E-4 -1.3987458E-4 -3.3900072E-4 -4.5054177E-5 -4.4477736E-5 -1.5673064E-5 -5.809592E-5 -5.7692334E-5 2.0063075E-5 3.293545E-4 -7.020161E-5 1.3839842E-4 -1.1851671E-4 6.2263577E-4 -1.6006066E-5 1.301475E-4 -4.3381064E-4 2.3735913E-5 5.4015076E-5 8.303983E-5 4.939188E-4 2.854392E-5 1.4578091E-4 5.607499E-5 -1.8869773E-4 -3.2151327E-4 -2.721237E-4 -2.7485588E-4 -1.7662282E-4 4.96172E-4 -9.501946E-5 1.46039665E-5 -2.5621848E-4 -3.417009E-4 -2.2280439E-4 2.4883612E-4 -1.2587353E-4 1.6003588E-4 -6.5714834E-5 4.7150515E-5 -1.9788716E-4 1.1298268E-4 -2.2061184E-4 7.955203E-5 -7.1616414E-6 -8.5849235E-5 -4.619776E-5 -1.3059405E-5 1.7567529E-4 -4.0051524E-5 -2.5732792E-4 -1.1418235E-4 -6.997084E-4 4.003188E-6 -3.8950396E-4 3.769585E-5 2.2793311E-4 -9.636836E-5 -5.122779E-4 1.7107581E-4 -9.68659E-5 1.1944624E-4 1.1917916E-4 -1.5091227E-4 2.909845E-5 2.2917091E-4 1.1719395E-4 -8.732702E-6 -2.7440146E-5 1.9975056E-4 2.4076199E-4 2.5437586E-4 4.170164E-4 2.7231226E-4 1.3577468E-5 5.051687E-5 -1.3037774E-4 -5.5644334E-5 -2.6788184E-6 -3.6223006E-5 7.620989E-5 -2.0574487E-4 8.973302E-5 2.981798E-5 4.8321617E-6 9.42403E-5 -5.1670766E-5 -5.7466363E-4 2.2443148E-4 -9.963718E-5 -2.5920157E-4 3.7729408E-4 -1.02928505E-4 -1.0128082E-5 -2.982845E-5 4.7910938E-4 -8.1313745E-5 -2.306074E-5 -9.22841E-6 -1.9413524E-4 -9.4239236E-5 3.7370741E-4 -8.437077E-4 -1.0920345E-4 -2.806671E-4 -1.8995874E-4 9.1921946E-5 -1.8438137E-4 9.234016E-5 6.596583E-5 -5.584913E-5 6.364382E-6 8.115348E-5 3.4344244E-5 4.6036844E-4 1.5139162E-4 1.9181901E-4 5.6323224E-6 -1.1529332E-4 -3.1109215E-4 -2.3252358E-5 -2.7214902E-4 -3.5361445E-6 -7.0240465E-5 -4.504015E-5 -2.8467322E-5 -5.5764336E-5 3.224752E-4 1.7432607E-4 2.3896646E-5 2.7797197E-4 -1.2491626E-5 6.782108E-5 -4.2323765E-5 -1.3118236E-4 1.05227016E-4 3.741766E-5 9.41484E-5 7.181233E-4 -1.5347666E-4 5.4273E-4 5.586805E-4 -3.5293304E-4 8.1803184E-5 7.082078E-5 1.4660673E-4 8.239796E-6 -1.7074271E-6 -4.714947E-5 -8.714616E-5 -3.019317E-4 -6.764785E-5 -1.20228164E-4 -4.936589E-4 -1.180241E-4 -2.3533049E-4 -6.915048E-5 -5.7515696E-5 -3.3813223E-4 -4.89956E-4 2.0970316E-5 -1.4665199E-4 1.7426672E-4 -1.0407796E-4 -3.8696617E-5 2.6361828E-4 -6.551136E-4 -1.7596583E-4 -2.465053E-4 3.7668907E-4 -1.310207E-4 -5.335923E-4 -3.597721E-4 -1.2655728E-5 1.0837975E-4 6.431858E-4 -1.0335168E-4 8.323148E-5