8.566254E-5 -3.2487034E-4 -2.5711004E-5 -1.4547733E-4 -4.0157366E-4 -2.1482882E-4 -3.0145446E-5 -4.7457573E-4 4.1118407E-4 1.504947E-4 9.513427E-5 -1.5514107E-4 1.8213398E-4 -4.399931E-4 -2.1108582E-4 3.0524333E-4 5.7836496E-5 -8.664843E-6 -1.1209593E-5 -1.8944772E-4 -1.8163053E-4 -3.7560315E-4 -2.9680043E-5 -4.0817188E-4 -1.7236547E-5 2.9903106E-4 4.8102534E-5 -2.636032E-4 -1.3787938E-4 -3.3741974E-4 3.3919106E-4 -8.614606E-6 -4.5122713E-4 9.905652E-5 -2.1996973E-4 -4.0999315E-5 -2.1425505E-4 1.5292795E-5 -1.809366E-4 -1.5677858E-4 -5.673017E-5 5.652938E-4 1.3407023E-4 -1.6210224E-4 1.2115875E-4 3.4917277E-5 -1.3176723E-5 -2.932759E-4 -2.4128881E-4 -4.4219032E-5 -5.6832723E-5 -1.1858117E-4 3.240181E-5 -1.6608436E-4 4.8943615E-4 -1.4596646E-4 1.4603727E-4 2.1999436E-5 -1.02924E-4 1.0020398E-5 9.358693E-6 -2.518975E-4 -3.2097547E-4 -3.729696E-5 -2.4273536E-4 -1.00223464E-4 -1.7381986E-4 -2.3433847E-4 2.5697885E-4 1.0234112E-4 1.4265682E-4 -1.8718862E-4 -1.1347967E-4 -1.5600477E-4 1.3522277E-4 1.8714146E-4 -2.0751849E-4 -4.7434756E-4 -4.885027E-4 -1.7009968E-4 1.6451498E-4 -2.558974E-4 7.673661E-5 3.4628596E-5 -1.09796594E-4 -3.9316E-5 -1.996907E-4 -1.8552197E-4 4.9735685E-5 -1.9319824E-4 -2.1114435E-4 -3.5067022E-4 4.0407096E-5 -3.1220843E-4 4.6939027E-4 1.0363223E-4 1.8184092E-4 -8.360839E-5 -1.1674336E-4 -2.0253245E-4 -1.0225927E-4 -2.7719194E-5 -6.328358E-4 -2.35896E-4 -3.3098162E-4 -2.1862783E-4 -1.3808275E-4 2.3189397E-4 -7.5264956E-4 -6.518286E-5 -1.9982134E-4 -2.5612864E-4 -1.275252E-4 -7.256033E-4 -8.194335E-5 1.0452391E-4 -3.2133676E-4 1.8747742E-6 4.6596222E-4 -3.633985E-4 9.153774E-5 3.081379E-5 1.1814896E-5 2.5171805E-5 -6.295132E-5 -6.8182258E-6 2.9374848E-4 -2.992734E-4 -2.9172478E-4 -4.7276022E-5 -5.617204E-4 -2.5972354E-4 2.6448007E-4 5.5436154E-5 -4.59978E-4 8.2774284E-5 -2.8693822E-4 -2.1180922E-4 -3.8485695E-4 -1.231965E-4 1.20579934E-4 8.277409E-5 5.4202945E-5 -1.5487084E-4 -1.510809E-4 -6.61482E-5 -6.2029605E-5 -2.2721382E-4 1.7123608E-4 -7.2731206E-4 -2.3538781E-4 -7.20315E-4 -2.1288732E-5 -2.0920752E-4 -1.3769214E-4 -3.1281143E-5 -1.9569066E-4 -2.2206648E-4 -1.6491214E-4 1.3781106E-4 -8.2020226E-5 -7.689229E-5 2.9315983E-4 -1.1087104E-4 5.6845147E-5 -1.5518723E-4 -3.845906E-4 -5.0850915E-5 6.570663E-5 -1.1553476E-4 -5.643581E-5 9.9807556E-5 -4.324025E-6 -3.9185034E-5 -5.5089595E-6 -2.0998465E-4 -1.14979724E-4 2.6103826E-6 2.668574E-4 3.9493083E-4 -1.1436174E-4 2.7692763E-4 4.620112E-5 -3.0503927E-5 -5.8091583E-4 2.567991E-4 1.3967772E-5 -4.7954867E-4 -3.8419984E-4 -2.624204E-4 -4.7868685E-5 -4.3051856E-4 -3.5930276E-5 9.0307454E-5 1.02623664E-4 1.6730148E-4 -2.3487145E-4 -2.074682E-4 -3.7456682E-4 -6.466811E-5 -1.6028693E-4 -4.1419643E-4 2.5885922E-4 -7.3898665E-4 7.450728E-5 -6.184793E-4 4.2556603E-5 -2.5089475E-4 -4.114595E-4 -1.4217875E-4 -1.3399775E-4 8.804411E-5 -5.2348233E-4 -5.6649824E-6 2.3351738E-5 -3.984564E-4 -5.332641E-4 1.6033057E-4 -5.2210282E-5 -1.9867101E-4 4.6800767E-4 -5.3519332E-5 -2.843718E-4 -4.2228658E-6 -2.1953548E-4 -1.3614613E-4 4.1892963E-7 -1.298041E-5 -2.2391626E-4 -7.309852E-5 -1.6264532E-4 -3.9722567E-5 -1.810788E-5 2.1521212E-4 3.764798E-5 3.522146E-4 -3.7289606E-4 -2.5690085E-4 -5.2909134E-4 2.614233E-4 -4.1068078E-4 -2.6204638E-4 -1.20512064E-4 1.2806055E-4 2.510751E-6 -4.5052257E-6 -3.4536497E-5 -2.9761108E-4 -3.425083E-4 4.0079368E-4 3.0566307E-4 1.7530471E-4 3.0281071E-5 -4.4022658E-4 1.7607963E-5 1.9284622E-4 6.713888E-4 -1.0793033E-4 -9.690157E-5 -5.0341296E-6 -2.7465948E-4 -5.7441517E-5 -1.00193945E-4 -3.903338E-4 -4.2606777E-4 -3.280691E-5 -3.516312E-4 -4.1138028E-5 -5.800832E-4 -2.5935553E-4 -2.2968808E-5 4.7754216E-5 -4.0425584E-6 3.6198835E-5 -2.210561E-4 -5.751776E-5 -2.9347357E-4 9.7040116E-5 -8.366903E-5 3.162169E-4