-1.8297629E-4 -1.1806732E-4 -3.5099156E-4 -5.5637767E-5 -5.857616E-4 1.6444772E-4 -1.436403E-4 3.6270238E-5 -9.4754454E-5 2.2471245E-4 9.922421E-5 -1.5009288E-4 -1.5300619E-5 6.136951E-5 -1.5088459E-5 -5.9832793E-5 1.4180664E-4 -1.83589E-4 3.0692664E-4 -1.9598473E-4 -4.196043E-4 -7.3880896E-5 1.2159042E-5 -1.4945942E-4 -2.4855149E-4 -4.713029E-4 -1.8936754E-4 1.8319795E-4 2.520168E-5 -3.6933718E-4 -8.327473E-5 -3.0873838E-5 4.4008208E-5 -4.0063917E-4 -6.562404E-5 2.1410375E-4 -1.4555728E-4 -1.5446014E-4 -3.8462578E-4 -1.6293107E-4 2.635637E-4 9.0547444E-5 -1.4967922E-4 4.834809E-5 -2.98217E-4 2.362941E-4 -1.15356124E-4 9.578698E-5 -3.5649174E-4 -1.704063E-4 2.4833416E-5 -5.0001614E-5 -8.3911276E-5 -1.8099837E-4 -9.9930374E-5 -2.813664E-4 -2.8304447E-4 -1.10527784E-4 2.4244303E-4 -3.4173895E-4 -2.685879E-4 3.3435885E-5 -1.0782346E-4 -1.8978046E-4 -1.6092883E-4 -2.7387443E-5 1.8298099E-4 -2.496461E-4 -1.8314557E-4 1.2632966E-4 2.702613E-4 1.7042553E-4 -4.8363965E-4 -1.06914755E-4 2.5843395E-4 -3.8546692E-5 -1.0577919E-4 3.0639756E-4 1.4436389E-4 -2.871026E-4 9.508407E-6 -1.4897343E-4 -4.5927998E-5 2.6276376E-4 2.6837632E-4 -2.1591876E-4 -1.3728568E-4 -8.161401E-5 -2.2627665E-4 -1.2789055E-4 9.5797644E-5 2.21626E-5 -9.239258E-5 -1.0705859E-4 -3.853487E-4 6.993163E-6 -1.5126233E-4 1.5967893E-5 5.034575E-5 -1.0045713E-5 -3.0017452E-4 -1.4632421E-4 -3.3402126E-4 1.19925426E-4 1.3090437E-4 -4.5547957E-4 -2.0579867E-4 -1.7462441E-4 2.5879272E-4 5.3849355E-5 1.6627909E-4 -4.4946108E-4 -5.5927132E-5 -1.960045E-5 -4.5135745E-4 -5.564213E-4 -1.8168689E-4 -1.1418924E-4 4.8578528E-5 -1.4675737E-4 -2.0026075E-4 2.1118709E-4 3.368052E-4 -3.0171993E-4 -4.1210817E-4 -2.8465496E-5 -4.3258922E-5 -1.5692115E-4 -6.1214378E-6 -1.0836514E-4 2.054699E-4 -1.2243103E-4 -1.8939565E-4 -2.660986E-4 -1.0039997E-4 -4.285826E-4 -1.9070272E-4 1.7186844E-4 2.9975627E-4 -1.1791238E-4 1.0196946E-4 -3.4942653E-4 -2.6416342E-4 7.8493395E-5 9.947606E-5 -3.8844708E-5 1.6577015E-4 -2.2356231E-4 -2.8880956E-4 -2.1040803E-4 -1.8624762E-4 1.382336E-4 -7.604093E-5 -4.0774634E-5 -2.1048311E-4 -5.8599503E-4 2.3352882E-4 -5.397178E-6 -2.4080319E-4 1.4587842E-4 2.2763628E-4 -2.1406099E-4 1.05417595E-4 -2.557176E-4 4.1725446E-4 1.1822482E-5 -1.8440254E-4 -1.0869493E-4 9.329836E-5 1.0080546E-5 -1.6703231E-4 -4.6044803E-4 -5.9358653E-4 -8.8174E-5 -4.4240628E-4 -4.2419508E-4 1.0571575E-4 -1.2011453E-5 -9.0954345E-6 -8.9710775E-5 -2.8688197E-5 1.5195124E-4 -2.2308381E-4 -4.3326194E-4 -2.6897973E-4 -1.48386E-4 -1.0466862E-5 1.2674698E-4 -5.918704E-5 2.0412552E-5 -1.646675E-4 1.7873936E-5 -9.390937E-5 -3.9428087E-5 1.1529916E-4 -4.863626E-4 4.3847213E-5 2.4015958E-4 1.2795506E-4 -4.541604E-5 1.3766767E-4 2.8761072E-4 -1.7084794E-4 -2.2386266E-4 -1.8680969E-4 -9.203739E-5 1.0486203E-4 -1.5437305E-4 -9.434982E-5 1.1185563E-4 2.7179802E-4 2.7023262E-4 1.9288647E-4 6.351175E-5 -1.297999E-5 1.4661423E-4 -2.8387806E-4 -7.2485745E-5 7.719094E-5 8.1502745E-5 -7.711246E-5 -8.0125166E-5 2.821216E-4 -4.4407905E-5 2.1622282E-4 4.0035983E-4 3.4451066E-4 -2.2153532E-4 2.3679103E-4 -2.7139514E-4 -7.862566E-5 -8.774767E-5 -2.1576464E-4 4.0217674E-7 2.0760208E-4 1.9873965E-5 1.9018564E-5 -5.380672E-4 -2.300745E-4 -1.5590897E-4 -7.957243E-5 -4.4830336E-4 -1.5748477E-4 4.6433648E-4 5.545663E-4 1.5315592E-4 -1.8380882E-4 2.1008834E-4 1.8286519E-4 1.473667E-5 -1.00147685E-4 3.607263E-4 -2.3279412E-5 1.3834103E-4 -2.1092777E-4 -6.166594E-5 1.3545391E-4 4.3746317E-5 -1.0080677E-4 -1.4738811E-4 -4.758444E-4 -5.102603E-4 6.4456995E-5 -9.7371245E-5 -2.1505315E-4 -9.570158E-5 -9.555886E-5 -2.8616464E-4 -1.7789229E-4 8.122444E-5 5.1485793E-5 -6.0033046E-5 -5.3594726E-5 3.2496426E-4 6.06335E-5 1.8323216E-4 -3.088159E-4 -2.1025671E-4 1.9716176E-4 -3.063491E-4 3.0827962E-4 -7.897805E-6 2.353633E-4 1.8447291E-4 2.9461356E-5 5.340184E-5 -2.5800558E-5 8.878524E-6 8.686359E-6 -4.3406966E-4 -3.8364046E-4 9.9640165E-6 -2.8408776E-4 -1.4862395E-4 -4.3193166E-4 3.996785E-5 -6.528221E-5 -2.31908E-4 2.8233233E-4 -9.298844E-5 1.2084836E-4 -2.8706438E-5 -3.1428135E-7 -1.5280853E-4 7.274202E-5 -8.5201704E-5 -7.3055053E-6 1.1422174E-5 -1.913584E-4 -2.1963846E-4 -1.17812284E-4 -3.983201E-5 1.7062087E-4 -3.113074E-4 -5.392066E-4 4.3969267E-6 3.5993627E-4 3.7751277E-5 -1.3278578E-4 -3.683333E-4 -2.3477289E-4 -1.9411565E-4 -8.748553E-5 6.282226E-5 4.450335E-5 -1.9608773E-4 -1.5084502E-4 -1.7211244E-4 -9.761075E-5 -1.2031988E-4 2.3451154E-4 3.838679E-5 4.9972487E-6 -2.8304954E-4 7.828159E-5 -3.5529265E-5 -4.9664755E-4 -1.9174506E-4 -3.1712835E-4 -2.4989294E-4 -2.3593762E-4 -2.2597409E-4 -3.524527E-4 -3.5650856E-4 -4.0386367E-5 -4.8383896E-5 -6.186045E-5 -6.571672E-4 -6.226027E-4 1.9592218E-4