-2.8966647E-4 -3.1593058E-4 -2.1915461E-4 6.6852605E-5 -3.003417E-4 -6.6940323E-4 -2.9701816E-5 -1.3695651E-4 -3.6593614E-4 -2.2990574E-4 -7.92804E-5 -6.384088E-4 -1.5825721E-4 -2.7312065E-4 -1.3118332E-4 -1.4941147E-4 -1.6204287E-4 4.997111E-5 -1.17985095E-4 2.6863425E-5 -3.1800405E-4 1.9448463E-4 -1.6880644E-4 -3.2360276E-8 -3.925666E-4 -6.9503913E-6 -2.5387804E-4 7.0700546E-5 8.188878E-5 -2.220879E-5 -2.703438E-4 -4.4890045E-4 -4.981033E-4 -2.9187684E-4 -1.7037253E-4 -9.953331E-4 -2.2085679E-4 -1.1428502E-4 -1.4564779E-4 -2.9650988E-4 2.2750846E-5 -3.4520368E-4 4.3324952E-4 -5.44801E-4 -6.0882204E-4 -2.4532079E-4 -4.1610567E-4 1.42385325E-5 -9.699025E-5 -8.6287886E-4 -2.0829782E-4 -1.3721174E-4 -3.8752687E-4 3.3415905E-5 -6.919342E-5 -5.186504E-4 -3.6794212E-4 -7.465874E-5 -1.8614662E-4 -4.5126275E-5 -1.093834E-4 -4.8798134E-4 -2.2116488E-4 1.3285346E-4 -3.84911E-4 1.355565E-4 -4.6796963E-4 -9.4389055E-5 -6.846897E-4 -3.006119E-4 -1.7274098E-4 -2.031233E-4 -4.9308006E-4 -1.7980915E-4 8.92577E-5 -1.4639847E-4 -3.308544E-4 -3.133747E-4 1.7285801E-4 -3.3205832E-4 -2.8423034E-4 -3.3633818E-4 -3.3982532E-4 6.754816E-5 -1.6113637E-4 -2.8164635E-4 -1.2336636E-4 -1.2599932E-4 -3.9277328E-4 -2.8603023E-4 2.7909828E-4 5.6995454E-5 -2.298395E-4 -2.166609E-4 -1.4239075E-4 -1.8054107E-4 3.0990195E-6 -4.8815573E-4 -1.6054689E-4 -1.3852412E-4 -2.6704674E-4 -1.5679555E-4 -2.9708646E-4 3.5501165E-5 -1.3231601E-4 -3.7307563E-4 -2.2857009E-4 -5.115285E-4 -1.3640047E-4 2.2391998E-5 -4.51444E-4 -1.3457646E-4 -2.133295E-4 -4.610204E-4 1.2987244E-4 1.416682E-4 -1.6717729E-4 -7.421505E-5 -5.6342804E-4 -5.756516E-4 -0.0010034915 -1.4266731E-4 -3.5701494E-4 -3.5826443E-4 -2.581619E-4 -4.483945E-4 -5.810072E-5 -4.0020182E-4 1.6000334E-4 2.5830439E-5 -5.740403E-7 -5.4492375E-5 -3.6935926E-5 2.6481566E-5 8.4688254E-5 -2.4950635E-4 -2.2408857E-4 -2.974419E-4 5.394502E-5 -4.221316E-6 -1.7013689E-4 -3.6086325E-4 -7.662186E-6 2.5543722E-4 -5.835621E-4 -1.1236596E-4 -2.9348658E-4 -3.0067524E-5 -1.1608876E-4 8.466776E-5 -4.740967E-4 1.14225724E-4 -2.3589734E-4 -5.8432063E-4 4.107952E-4 -3.0123985E-5 3.1354615E-5 -7.760368E-5 -3.9468007E-4 -3.7525027E-4 -5.020494E-4 -6.071307E-4 -1.9096924E-4 -4.884349E-4 -8.244294E-5 -9.960734E-5 -3.2247848E-5 -1.9242935E-4 1.20162505E-4 -5.625795E-5 -3.7841505E-4 -5.2612484E-4 -3.1003496E-5 2.360756E-4 -3.9132232E-5 -4.5133205E-4 1.2727047E-4 -4.198438E-4 -1.6668063E-4 -3.4961845E-6 -3.112115E-4 -3.4295747E-4 -1.4218419E-4 -8.417768E-5 -5.1867333E-4 1.5655078E-4 -2.2057378E-4 1.244196E-6 1.0918299E-4 2.5624615E-5 -4.8365313E-4 -2.3735204E-4 -2.8436238E-5 1.13424525E-4 -1.8014401E-4 -8.19375E-5 3.2971002E-7 9.896227E-5 -1.3629251E-4 -1.3458532E-4 -2.3789406E-4 -3.059038E-4 -2.1785698E-5 -1.4252584E-4 1.9763203E-5 -1.9924631E-4 1.728342E-4 1.12222595E-4 -4.421919E-4 -2.6707754E-5