2.4749356E-4 1.404037E-4 -1.3441076E-4 -8.674603E-5 6.16113E-5 -4.6752085E-4 -2.841001E-5 4.8319514E-5 -1.08800676E-4 3.8186783E-5 -3.7157995E-5 -5.620751E-6 6.089021E-5 1.00974925E-4 -1.2284175E-4 -2.6148107E-4 -5.004272E-5 -7.0089E-5 -1.6784265E-5 -4.4517794E-5 -3.194103E-4 -6.134131E-5 -1.4565243E-4 1.082715E-4 -2.0882403E-4 -1.9838677E-5 1.8577335E-5 -2.109869E-4 -1.4422495E-5 1.9423205E-4 -2.369897E-4 7.604399E-5 -9.331553E-5 -1.4165576E-6 -2.1841176E-4 -3.698093E-5 9.678254E-5 1.2220007E-4 -2.8870269E-5 -1.398442E-4 -4.1465406E-5 1.15479575E-4 -2.6598512E-4 3.737268E-5 -1.14401075E-4 2.0681063E-4 5.591647E-5 1.7892887E-4 1.760318E-5 -3.0193882E-4 3.7312006E-5 -4.9710143E-5 -1.2461627E-4 -1.8164092E-4 -2.1038996E-4 -1.39570675E-5 -9.265123E-5 2.6514506E-4 1.4492284E-5 6.400074E-5 -2.5755554E-4 -8.2346065E-5 -6.367457E-5 -2.6708653E-5 1.1260329E-4 -2.047766E-5 1.0069365E-4 -2.3294443E-4 -9.7253964E-5 -1.7517377E-4 7.331676E-5 -3.826771E-5 1.7351347E-4 -6.436759E-5 -2.6854812E-4 3.453908E-5 -1.233034E-4 5.8879107E-7 -2.467956E-5 -1.5755538E-4 1.0069869E-5 1.5797897E-4 -1.0511876E-4 -1.446677E-4 1.3418382E-4 -1.9877573E-4 2.1240181E-5 -2.8333897E-4 2.1480859E-5 -1.0738077E-5 1.6656314E-4 9.927699E-5 7.38806E-5 -1.6623695E-4 -3.0205588E-4 1.5638441E-4 2.3698961E-4 -1.7560936E-4 1.450439E-4 2.5797555E-5 -2.4040315E-4 -2.1896862E-4 8.754949E-5 1.8470397E-4 -3.6398447E-5 -2.8504095E-5 -5.2732576E-5 2.2058174E-4 1.6651935E-5 -1.1182804E-4 -2.627336E-4 -2.7087362E-5 -1.05465064E-4 7.871389E-6 4.3734326E-6 -2.6525115E-4 1.3883805E-4 -2.4010033E-4 2.1954706E-4 -2.4104209E-5