-3.5202113E-4 -1.7513495E-4 5.4201693E-4 -4.8874656E-4 2.9532076E-4 -3.5415436E-4 3.166506E-4 -1.4396867E-4 3.9619837E-5 2.71967E-5 -4.5266264E-5 2.2743897E-4 -3.4889803E-5 2.2344192E-4 -5.797042E-4 -9.265044E-6 -7.2526E-5 -6.754144E-4 -4.3372547E-5 3.0808168E-4 3.6523782E-4 -1.7512948E-4 6.800976E-5 -6.751316E-4 -2.8941839E-5 1.5812565E-4 5.3806587E-5 -3.054791E-4 -2.5451405E-4 -5.3529296E-4 -7.131113E-4 -6.299464E-5 -5.428165E-4 2.7790284E-4 -1.8776231E-4 3.3780836E-4 -6.255682E-4 -3.4527224E-4 -4.3279846E-4 -1.090223E-4 -2.0185093E-5 -1.03895116E-4 6.933049E-4 7.323151E-5 -2.3429022E-4 -9.337521E-5 -4.038041E-4 -2.826899E-4 2.6660113E-4 3.155945E-4 -4.513023E-4 -2.6041738E-4 -4.6206696E-7 -1.986263E-5 -4.6117103E-4 1.1222688E-37 -3.6223565E-4 -1.8151017E-4 -7.1362196E-4 -6.5544725E-4 -1.033996E-4 -1.9013457E-4 6.8222376E-5 1.376691E-4 1.1362651E-37 1.1079097E-37 -8.239384E-4 2.0613654E-5 -1.8657124E-4 8.5553096E-4 -1.2893126E-4 -5.0636387E-4 2.4676812E-4 -7.055792E-5 1.8866915E-4 -1.808148E-4 -2.580549E-4 -3.592078E-4 1.833507E-4 -3.3578044E-4 1.1082488E-4 2.4618953E-4 -2.5866792E-4 1.1612926E-37 -7.0443517E-4 -1.7303928E-4 -5.603243E-4 6.1032086E-5 -1.7500397E-4 -1.5430499E-4 -4.7523042E-4 3.0161787E-4 3.3515494E-4 -7.6308596E-4 2.0156964E-4 4.7792513E-5 2.0306408E-5 1.0168161E-4 2.154529E-5 2.0613283E-4 -1.8755574E-4 -2.9283858E-4 1.0628898E-4 -2.528511E-4 -1.13160604E-4 6.630083E-5 1.1725603E-37 -6.562424E-4 -1.1780127E-4 1.4826027E-4 6.0457598E-5 -3.2260886E-4 -3.0139205E-4 -5.8093405E-4 -3.6986527E-4 -1.24317885E-5 -7.5724773E-4 -3.5041122E-4 9.4430525E-6 -2.529957E-4 9.8287805E-5 -1.6739234E-4 -7.533767E-5 7.455722E-5 -2.40257E-4 -2.1656982E-4 -8.9109075E-5 -5.335988E-4