-9.400264E-4 0.034991402 0.031395916 -0.0067403554 -0.037718005 0.0041649034 0.03798288 -0.12766106 0.03712313 0.036132723 -0.02314341 -0.021640748 0.038198855 0.04993416 0.019648021 -0.050770234 -0.016466668 -0.024679884 0.036028504 -0.04677461 0.05853484 -0.03723039 -0.008548337 -0.008157291 0.01540049 0.015723262 0.016236221 0.07354186 -0.0048461217 -0.042828653 0.021601776 -0.0372107 0.02714183 -0.04033198 0.015518383 -0.017282749 -0.034962073 0.083319575 -0.0015775893 -0.039923854 -0.020779438 -0.032030456 -0.0023436423 0.07859208 0.028587526 -0.048880037 0.027725928 0.019636381 -0.039375212 0.057670087 0.05747573 0.016190534 -0.0069494895 0.010780808 -0.0176327 -0.0062193787 0.026948268 0.019231688 0.031113746 -0.013003848 -0.007561249 -0.009012298 -0.046877366 0.035603493 0.011798446 0.027836457 0.03029479 -0.063174784 -0.026864886 -0.027831547 -0.06207075 -0.037631717 -0.05565851 -0.029642316 -0.055541717 -0.00459141 0.052961227 0.03873135 -0.03399116 -0.013862582 0.0066948123 -0.0700788 0.08161306 -0.01459484 0.05431743 -0.008798614 -0.03334565 0.027130583 -0.02642226 0.06642373 -0.008978414 0.005209182 -0.051647857 -8.1102253E-4 0.0459363 -0.022722922 0.067106694 0.013148981 -0.01923586 0.05794602 0.09423078 0.05476547 0.0421842 0.026733128 0.015640436 0.057181824 -0.0871113 0.034723695 0.08713934 0.056724735 -0.04256878 -0.03085231 0.062923655 -0.01284743 -0.03940624 0.005520566 -0.017509919 -0.004471319 0.07246157 -0.022008868 0.019360825 0.013098316 0.08089182 0.0068559316 -0.011623268 -0.07512699 0.0032470275 0.043249886 -0.012322059 0.010784769 0.0082648 0.034617018 0.020602403 0.103640676 -0.07473683 -0.0010944325 0.056500148 -0.036566418 -0.022477018 0.01875731 -0.072783045 0.020716932 0.016698075 -0.021113934 -0.018466838 -0.021288479 -0.021875473 -0.027379446 -0.0038377019 -0.044561088 0.060253277 0.011171173 -0.019903446 -0.019585676 -0.02436363 -0.00705533 0.03740739 -0.0669634 -0.029101469 0.061033078 -0.07467606 -0.08116032 0.023388088 0.06593961 -0.016926333 -0.102512844 0.063426696 -0.097878896 0.006584363 0.08486549 -0.017459877 -0.018386777 0.011635452 0.060464464 0.009266934 -0.017750053 0.018123094 -0.00949389 -0.0075022257 -0.029822027 0.015654562 -0.038690083 -0.051620826 -0.019176532 -0.045035154 -0.036351513 0.07072397 -0.025436975 0.0102333445 -0.023418488 0.0103967 -0.013204188 -0.06492117 -0.048427127 -0.03761857 -0.024751753 0.035135992 0.043692753 0.016169468 0.10728192 -0.021098765 0.0010028749 0.044314783 -0.012300471 0.057361692 -0.020992532 0.028344883 -0.028853234 -0.0054721544 6.831764E-4 0.012121221 -0.029784217 -0.04222407 0.013029145 -0.037576113 -0.017312927 0.008583861 0.011267802 0.045369223 0.046077464 -0.07849023 -0.029681621 -0.048915654 -0.037384942 -0.058381468 0.0013690069 0.002465043 0.024919318 9.0395624E-4 0.05458439 0.0922533 -0.067467555 0.046278704 -0.002648822 -0.036201395 -0.08911971 0.062089764 0.06424927 -0.07747449 0.040896367 -0.061058827 -0.024443178 -6.439639E-4 0.028076015 -0.016210338 0.014571396 -0.09178444 0.014217247 -0.043529343 0.0065705506 -0.10672617 -0.0366725 -0.050732557 -0.044985566 -0.020479893 0.023417681 0.099027365 0.011581425 -0.04008076 -0.03658711 -0.10590555 -0.037625838 -0.032238808 -0.010110025 -0.034212925 0.008822979 0.004512516 0.012993629 0.048369344 0.010196794 0.04751005 -0.03881346 0.04106023 0.002952336 0.0060238726 0.09141273 0.04879931 0.05886109 0.0014909764 -0.0012840691 -0.011354001 -0.014666506 0.013008081 0.06074698 0.087352164 -0.097856864 -0.007358589 0.030653868 -0.01350936 -0.003369699 0.011578712 -0.026536003 -5.082779E-4 0.057406742 0.0076307678 0.015267031 0.09435649 -0.0015564073 -0.060185093 -0.013676054 -0.038340352 -0.01553094 -0.06269129 -0.090024374 -0.007955716 -0.012248037 0.052716374 -0.028731277 -0.05733234 0.03479616 0.069683 0.06944366 -0.038183 0.042278383 -0.037146136 0.033442516 0.0075485036 0.046200804 0.025663683 0.010786649 -0.0087018935 0.01806502 0.016341683 -0.021281663 0.04406069 -0.069741905 -0.016139172 0.045164444 -0.036994725 -0.05629906 0.0026288545 0.00459516 0.034648295 -0.0033580074 -0.007989161 0.0575081 0.006087316 -0.02144678 -0.043567475 -0.034517806 0.029199362 0.0910594 0.0026882214 -0.021396331 -0.0456755 0.017057573 0.01324708 0.08394306 3.4318262E-4 -0.039043456 0.017267833 0.06514258 0.07930877 0.055727717 0.024013184 3.231062E-4 0.012964175 -0.020591853 0.025252368 -0.07716973 0.013524438 0.07965521 0.0384487 0.013648188 -0.022321826 0.05287886 -0.0481688 0.0011938252 -0.03531219 0.042775474 -0.004528148 0.07040186 0.111538745 -0.018951101 -0.01648672 0.011738346 0.042701375 -0.019819323 0.044539433 0.026579173 -0.074791454 -0.035372507 0.008601853 -0.011677649 -0.027373334 -0.0057007074 0.08952422 -0.005606519 0.029117396 -0.051084116 0.032309648 -0.03133595 0.028535984 -0.010397263 0.030382589 -0.014792366 -0.10070487 0.09236575 0.013708988 0.11898107 0.027857825 0.06845453 0.041035302 0.068360545 -0.013487753 0.04087385 -0.026453681 -0.03269698 0.020146476 -0.02028856 0.041744217 -0.019007143 -9.593424E-4 -0.037945442 0.010339765 0.054065097 0.06849059 -0.026397284 0.017804801 0.026502496 -0.0296492 0.046567287 -0.0053233067 -0.032579508 0.05015325 -0.02214424 -0.09266121 -0.007180674 -0.016919559 0.0046838443 -0.029392997 -0.023275616 -0.012870297 0.06145889 -0.048647087 0.028211752 -0.0128037585 -0.013029363 -0.016571667 0.00464255 0.0149965435 -0.014932487 -0.016635008 -0.048015278 0.06441204 -0.037724547 -0.027807923 0.027397525 -0.0231702 0.00154847 -0.048321355 -0.0030951034 3.6638032E-4 -0.011471306 0.03439604 0.0014870551 -0.0868408 -0.006612784 0.011694619 0.010587272 -0.010726 0.046089318 0.0094576515 -0.032118782 -0.08290698 0.002968575 -0.067082986 0.0029699698 0.051935684 0.09241427 0.037567254 -0.038297758 0.015878286 0.066708274 -0.08753312 0.017062422 0.10877752 0.02436467 -0.04205618 -0.009287992 -0.007696559 0.07623343 -0.005524648 -0.01800453 -0.0037177927 -0.022891963 0.020816892 0.025977092 0.028372522 0.039552093 0.06586779 -0.029347697 -0.082143635 0.06776201 0.02040378 0.025663687 -0.021937652 0.007921672 0.028532991 0.03087471 0.002839403 -0.00230356 -4.3801562E-4 -0.027945895 -0.016180322 -0.047356393 -0.0031950176 -0.018406887 0.047231007 0.046043586 0.044577148 0.05108001 -0.02220848 0.029361749 -0.038690545 -0.017341614 -0.037233844 -0.023782954 -0.0791077 0.029539622 -0.019775633 0.09231913 -0.034489978 -0.03535038 -0.09494665 -0.05571662 -0.04492494 4.799539E-4 0.0480763 -0.03491112 -0.07711457 -0.064281784 -0.0194758 0.0146007305 -0.017880784 -0.0035747758 0.034734853 -0.12941822 -0.025214778 0.042738605 -0.0057562785 -0.011480008 0.030820543 0.04859793 -0.008354351 -0.007231179 -0.029966779 0.017217875 0.00724089 -0.031389467 -0.018543834 0.08975276 -0.014163843 0.03725267 -0.04277566 0.0082844775 0.022232996 0.009309696 -0.048764877 0.009444851 0.009270869 0.01377274 -0.028747259 -0.03439195 0.036611706 -0.045545902 0.0362971 -0.12300411 0.002124215 -0.02497763 -0.073081724 -0.075190805 -0.061902653 0.028194437 0.04341734 0.025009317 0.05024066 0.0718376 0.026470013 0.03974019 0.045566767 0.09093754 0.016387025 0.03175181 -0.019061014 -0.012834125 0.05696855 -0.023955328 0.01826906 -0.02383449 -0.032886166 0.040199585 -0.0053717005 0.013809006 -0.057773266 -0.018258717 -0.024940938 0.019694345 -0.005079318 -0.0057652392 6.2222127E-4 0.037554473 0.014874673 0.023347529 0.043885034 -0.011607297 0.033026457 -0.025071971 -0.06081749 0.036373414 0.026392588 -0.03978392 -0.04128899 -0.028316488 0.04197107 -0.01021651 0.04198598 -0.019500041 -0.023336966 0.023533849 -0.056781605 0.03494665 0.033375632 0.060900208 -0.007589763 -0.03460348 0.05486378 -0.0039667687 -0.05951306 -0.033315375