-0.023441305 -0.016761487 0.10132025 0.03634885 -0.012647032 0.12838998 0.1231255 -0.15684468 0.1081228 0.16349408 -0.18141761 -0.058397103 0.11247337 0.13485076 0.04225527 -0.05001263 -0.07185513 -0.015844943 0.048817676 -0.13292645 0.11851698 -0.04321107 0.10317775 -0.074838385 0.09934598 0.14524749 0.061770737 0.14766122 0.096686065 -0.09679476 0.042177226 -0.06421528 0.08873213 -0.03495566 0.04966366 -0.15077989 -0.10121881 0.2566471 0.059786752 -0.05058018 -0.14500506 -0.04927178 0.08313976 -0.016416531 0.112268694 -0.17310572 0.08791808 0.03578291 -0.12334652 0.17217077 0.040775232 0.060579475 0.016514363 0.11997447 -0.23298848 -0.0046331794 0.049952533 -0.07064761 0.06397046 -0.05958023 -0.029307831 0.17602088 -0.18932366 0.122736365 0.18285257 0.08027747 0.16244704 -0.07913833 -0.092881344 0.023563027 -0.15888086 0.018103343 -0.050130237 -0.0081391325 -0.059166584 -0.02769239 0.07068303 0.11277475 -0.13158572 0.009907481 0.14062424 -0.069406524 0.15875472 -0.06957395 -0.0031991082 0.07503114 -0.032206472 -0.016701622 -0.17020915 0.1276691 -0.07117048 0.055754155 0.008500889 -0.042329393 0.15857197 -0.08732579 0.10781602 -0.057577375 0.02776976 0.071188904 0.15165791 0.079925284 0.08240002 0.07935082 0.13523129 0.1920291 -0.17358741 0.18183534 0.10735978 0.09438282 -0.17260732 -0.07515899 0.10124237 0.0073900395 -0.10158824 0.16294801 -0.08555124 0.0050279466 0.124233775 -0.041867565 0.12149003 -0.021070244 0.0917346 -0.129112 -0.07923191 -0.107363276 0.08484533 0.16449323 0.0722053 0.043878943 -0.1346761 0.047851257 0.10600133 0.20861991 -0.04918176 0.07793586 0.11664271 -0.11819193 -0.07497384 -0.072110415