-0.0016764519 0.10572563 0.039379194 0.032450244 0.026490802 0.03360629 0.046177454 -0.13445318 0.031566773 0.09440249 -0.015094288 0.07542581 0.07878584 0.13414684 -0.012517936 -0.12229195 0.021944705 -0.053995527 0.05027509 -0.10187978 0.1362408 -0.063806355 0.050329354 -0.03940962 -0.039675813 0.1347003 0.012686876 0.057528336 0.06994726 0.007983657 0.113705724 -0.065639816 0.07381721 -0.034005504 -0.027492056 -0.07355178 -0.117437765 0.18384723 -0.012122103 -0.07384159 -0.11994833 -0.0060611204 -0.018756375 0.03367156 0.008184986 -0.110085994 0.1434749 0.08136145 -0.021814784 0.12438707 0.14196031 0.027705418 0.09631035 0.10187279 -0.086509995 -0.047002986 0.05622745 -0.020093335 0.11364559 -0.0886108 -0.15470965 -0.0232608 -0.16850169 -0.029820962 0.057205863 0.031950567 0.07157655 -0.14356183 -0.052415065 -0.018545225 -0.004604365 0.018846331 -0.027220001 -0.124302305 -0.12850165 0.05929938 0.01867847 0.109341934 0.037458245 -0.07485669 0.10364053 -0.048405822 0.17263614 0.03965601 0.035605177 0.03929005 0.042708438 6.0524417E-5 -0.09792854 0.08817769 0.04536531 -0.03904962 -0.14798138 0.029998904 0.018207857 -0.00884719 0.04440627 0.0029129756 -0.06119851 0.087778054 0.15619116 0.08205782 0.097610384 0.102617264 0.116478674 0.113825224 -0.137938 0.14295083 0.054893162 0.086204655 -0.14541289 -0.13023557 0.06577461 -0.031185323 -0.07656455 0.07671499 -0.08595498 0.036088523 0.028590696 -0.12272009 -0.012753452 0.04957772 0.11456169 0.03908094 -0.02998404 -0.11805203 -0.00481966 0.12499852 0.050111156 0.07716706 -0.12462002 0.053521533 0.08345518 0.02779121 -0.0025963057 0.019129457 -0.03008682 -0.0365048 -0.039652023 -0.013106923 -0.13264233 0.1119138 0.05834783 -0.043637004 -0.053637642 0.04227977 -0.09321963 -0.05502636 -0.06728789 -0.08590835 0.13146363 0.121717215 0.0230899 -0.028275484 0.028579693 0.09100349 0.014434374 -0.14115635 -0.102334306 0.12412615 -0.069137946 -0.18822658 0.015814425 0.11473501 -0.095911354 -0.14055812 0.052042052 -0.025845595 0.01023761 0.16808243 -0.027916858 -0.045025095 -0.083878145 0.09128582 0.06864807 -0.1039721 0.063709386 0.015963694 -0.04358406 -0.004706693 0.0958335 -0.13548377 -0.049035978 -0.024879843 -0.076532595 -0.100716256 0.07925946 -0.08499219 -0.027302582 -0.0449084 0.10581318 0.13092628 -0.110278204 -0.09093765 -0.11531765 -0.047303844 0.077618614 0.18731532 0.055364374 0.15386881 0.030655706 0.07612466 0.110172994 -0.055352524 -0.0013727595 -0.13113663 0.06543032 -0.052379474 0.027640926 -0.049061842 0.04385132 -0.15465818 -0.07941447 0.04005565 -0.123488635 -0.11639219 -0.008289184 0.06483262 0.13689762 0.11099383 -0.08119756 0.044531602 -0.012114332 -0.1107391 -0.0051643336 -0.007659201 0.046555705 0.07119282 0.11759992 0.06798795 -0.022621807 -0.11298722 0.053348184 -0.04692529 -0.10462902 -0.11926215 0.061490625 0.13500535 -0.019871006 0.026460748 -0.15689535 -0.04966042 0.10021035 0.03347837 0.021285795 0.046284325 -0.16044088 -0.032262474 -0.063493766 0.0134161655 -0.12219039 -0.17202066 -0.10789444 -0.032229435 -0.16027999 0.033943567 0.1392505 0.014767649 -0.0484075 -0.035803158 -0.12960649 -0.12238957 -0.11831322 -0.024338411 -0.054382566 0.028250346 0.099893846 0.084071636 -0.03631764 0.08323407 0.052927274 -0.05728402 0.14279212 -0.025740912 0.011185693 0.06701284 0.006521031 0.13234384 -0.06523354 0.10580067 0.017946959 -0.051129755 -0.02394918 0.07280034 0.18888088 -0.010243258 0.048551228 0.18358998 -0.12589023 0.044070367 0.05043579 -0.09241658 0.042892713 0.123944946 -0.021834278 -0.08043822 0.11117028 -7.623065E-4 -0.13088512 0.12536156 0.02598393 0.018750153 -0.10965801 -0.1613503 -0.0913095 0.086625226 0.08733391 -0.028114034 -0.12084569 0.028688172 0.13427939 0.11760293 -0.111700945 0.011076941 0.04514139 0.09087638 -0.07231425 0.08963636 0.044532124 0.05801965 0.029735556 0.061109502 0.07555352 0.035732955 -0.016596941 -0.07945601 -0.033297025 0.015846586 -0.145462 -0.07273156 -0.011335086 -0.011155393 0.031417143 0.0021961604 0.035813604 0.15313394 0.042846408 -0.05125339 -0.106816925 0.020956565 -0.03767484 -0.015743304 -0.049678635 -0.09822826 -0.104244485 -0.0021284681 0.046580587 0.14390028 -0.042421486 -0.1056768 0.06665087 0.12204229 0.10652273 -0.014635774 0.0034592822 -0.035730284 -0.051949322 -0.122797854 0.13996792 -0.067866124 -0.013754301 0.10006865 -0.031490855 0.031410426 -0.067913085 0.12990788 0.019739233 -0.022807684 0.019076513 0.0453077 0.07620899 0.1151772 0.14718083 0.0048166933 0.03530635 0.08301079 0.18214397 0.035203997 0.12766655 0.078371316 -0.14130712 -0.0269638 0.024699444 0.07853053 0.009288296 0.03841504 0.16201621 0.1035598 0.10165149 -0.045124985 -0.026272835 -0.03395172 0.03188379 0.12303652 0.06261181 0.0255164 -0.13290046 0.09944738 -0.015119096 0.15308064 0.08125602 0.119534045 0.12623852 0.07977009 -2.8291374E-4 0.09612092 -0.1042547 -0.14811432 -0.053332236 0.015644033 0.113030694 0.01958199 0.1181229 -0.04045392 -0.0675859 0.16093709 0.14595991 -0.13969754 0.08934943 0.032756872