1.1962843E-4 -1.939113E-4 -9.948885E-4 1.4880887E-4 4.2234897E-5 0.0010909564 -6.8478397E-4 -1.787743E-4 -0.0011539031 6.249341E-4 5.9715426E-4 -3.5962855E-4 4.3442677E-5 -5.3223665E-4 -6.246206E-4 -3.2776705E-4 -9.125819E-5 9.5959185E-5 0.0011717712 -5.7341234E-4 4.3787583E-4 -1.5411375E-4 4.2315127E-4 -1.2422612E-4 1.11504225E-4 1.4052767E-4 4.96383E-4 -5.488114E-4 -3.1778176E-4 -2.591338E-4 -1.7748434E-4 2.825998E-4 -0.00100014 -1.1412542E-4 7.219018E-4 1.0993483E-4 -5.7677964E-5 5.5173456E-5 7.5531326E-4 3.152114E-4 5.727081E-4 -2.5194572E-4 2.4504616E-4 -7.810574E-4 -7.093829E-5 -9.777036E-5 -3.7759577E-4 1.4785453E-4 7.77224E-5 7.10069E-4 4.5255155E-4 -6.671954E-5 -2.7972803E-4 3.1067722E-4 2.044664E-4 -4.9756886E-4 4.5131258E-4 -1.293262E-4 4.0034764E-5 -1.095701E-4 -7.1915356E-4 -4.1624007E-4 -6.8746775E-4 -2.8463732E-4 5.6060334E-4 -2.721518E-4 0.0011940203 4.316973E-4 0.0012125366 -2.903672E-4 -0.001161539 1.0838776E-4 5.502603E-5 -8.069339E-5 3.1978326E-4 1.0516853E-4 8.785891E-4 7.4141246E-4 -4.2959908E-4 -4.915409E-4 -5.498319E-5 4.5389177E-5 6.7269057E-4 -8.855545E-5 -1.8005882E-4 1.8037706E-4 -4.591745E-4 4.906823E-4 -4.571315E-4 -0.0014735186 4.5031466E-4 0.0011601613 7.892073E-4 4.679087E-5 3.5824868E-4 4.6760292E-4 -0.0010411346 -2.943495E-4 6.7443914E-5 -4.3464746E-4 2.1003713E-4 2.690758E-4 -4.058979E-4 -1.6602475E-4 -7.8533194E-5 -5.9857266E-5 -5.926877E-4 -4.0546537E-4 9.5616095E-4 2.0324581E-4 -1.18407996E-4 6.719965E-4 5.863352E-4 2.2098106E-4 3.7720398E-4 -3.083226E-4 5.1544094E-4 -5.943156E-4 -5.573002E-4 3.39559E-4 2.490655E-4 5.726201E-4 9.685953E-5 -3.981338E-4 -3.115714E-4 -1.6683154E-4 -0.0010297766 1.7620562E-4 9.1521964E-5 -1.237441E-5 5.2005623E-4 -1.3582368E-4 3.2099464E-4 9.934127E-5 4.8092028E-4 4.688339E-4 5.9370002E-5 2.933144E-4 1.1250942E-4 -2.3947039E-4 -3.2203534E-4 5.664568E-4 1.5735807E-4 -1.4563219E-4 -0.0013152108 4.5578312E-5 -1.4967984E-4 -5.781968E-4 6.4280284E-5 1.1152439E-5 -4.1241E-6 7.4668427E-4 -4.050025E-4 -2.2360178E-4 -8.050105E-5 -2.0688075E-4 2.5008162E-4 -0.0011271401 -3.705689E-4 -5.4360542E-5 0.0011288887 -2.5026817E-4 4.3970364E-4 -3.95548E-4 2.578711E-4 1.4553219E-4 -6.156549E-5 -7.150329E-5 -3.6514108E-4 8.578441E-6 -2.3232156E-4 0.0010905501 3.1945758E-4 -1.7469894E-5 -1.1953477E-4 -4.294328E-4 -5.64945E-4 -3.633654E-4 2.6259298E-4 -8.51381E-4 -3.1112303E-4 5.814067E-5 -6.1826047E-4 1.9329786E-5 -3.8200885E-4 -2.9728364E-4 -2.7072369E-5 2.1883678E-4 9.929868E-4 -8.8954496E-4 -5.6615507E-4 3.08136E-4 -1.4547129E-4 -1.2315434E-4 -3.0792263E-4 -2.0222105E-4 2.8743528E-4 -5.859323E-4 -3.9661865E-4 -9.3596894E-4 -1.3700433E-4 3.3603152E-4 -7.608698E-5 -1.7192632E-4 3.9315282E-4 2.1896258E-4 -9.907712E-4 2.1140152E-4 -1.910702E-4 2.8439774E-4 -3.4668413E-4 -3.9648847E-4 4.7169568E-5 2.6838874E-4 2.541597E-4 -3.6252037E-5 -9.5052106E-5 4.0877715E-4 -2.837056E-4 -3.4702016E-4 -5.3730037E-4 -0.0011561166 -4.668694E-4 0.0014595514 -5.233331E-4 -3.2475693E-4 -2.5283673E-4 1.3719429E-5 -7.326882E-5 3.0649497E-4 1.7712121E-4 1.7060764E-4 -2.323867E-4 0.0017253715 2.4298912E-4 -1.937004E-4 1.5443975E-4 9.3194394E-5 7.5641007E-4 7.421094E-5 -1.6541714E-4 -2.7281634E-4 1.1880643E-4 -8.606696E-4 3.285799E-5 2.85633E-4 -9.864062E-4 -3.2414464E-4 1.16687006E-4 -8.0104294E-4 -7.753383E-5 -1.4028966E-4 3.5487974E-4 -1.7698083E-5 9.020079E-5 -2.2316528E-4 2.296773E-4 -5.690573E-5 -3.7466997E-4 -1.3524071E-5 -0.0013854867 -9.2579285E-6 -1.8193497E-4 5.096983E-4 -4.231768E-4 -7.7849E-4 -2.2398739E-4 6.966855E-4 -1.7426873E-4 2.0921172E-4 -3.0634634E-5 1.4057702E-4 -7.802475E-4 1.0049116E-4 -6.5006653E-4 6.9709105E-4 -4.8994867E-4 4.7882597E-5 -8.539886E-5 3.196909E-4 -2.6171716E-4 -5.892473E-4 3.6834073E-4 -5.3455704E-4 -6.1511045E-4 -0.0012696602 -5.8029516E-5 -1.3946155E-4 3.389154E-4 -2.0356156E-4 3.163134E-4 6.151127E-4 5.753172E-4 5.090009E-4 1.3340203E-4 2.4267778E-5 -0.0011844598 0.0014335153 -9.2473795E-4 -0.001054224 -1.2721325E-4 4.319765E-4 4.4578E-4 -7.4170413E-4 4.0029225E-4 -7.330645E-5 3.954782E-4 -2.1283329E-4 -8.278439E-4 -9.7286626E-5 7.2253076E-4 0.0010226903 1.6180215E-4 3.3336598E-4 -5.943275E-4 1.722778E-4 3.937884E-4 3.4865862E-4 -3.709505E-4 -4.624718E-4 -1.9386437E-4 1.759897E-5 -6.124374E-5 5.1703764E-4 -4.124493E-4 -7.744184E-4 6.2489475E-5 2.0427039E-4 -4.1012227E-4 7.133167E-5 3.267738E-4 -3.8937968E-4 -5.22976E-4 -1.7195048E-4 -6.445314E-5 -1.1094703E-4 0.0017728969 -6.295167E-4 3.1359275E-5 8.6254004E-4 -1.0237355E-4 -8.335154E-5 -1.2268078E-4 6.33389E-4 2.1051845E-4 -1.5671185E-4 6.590484E-5 -1.6345255E-4 2.3801762E-4 -3.007329E-4 -1.356637E-4 2.0861841E-4 -3.6846407E-4 3.9585857E-4 -4.8909526E-5 -2.7630315E-4 -4.3984182E-4 -4.48843E-4 -4.691643E-4 -3.8392853E-4 1.6731821E-4 -0.0011039893 -6.837524E-5 -5.1243184E-4 -5.0073676E-4 -4.1653783E-4 2.096841E-4 1.08132226E-4 0.0014258907 -7.617753E-6 6.673332E-4 -5.2094157E-4 -3.6622846E-4 4.687287E-5 -3.798842E-4 -4.3613443E-4 4.467842E-4 -7.2152034E-5 2.3059762E-4 1.965872E-4 -9.984065E-5 -1.129281E-5 1.2390302E-4 1.5171588E-4 6.8306073E-4 -1.2158809E-5 -7.020698E-5 -7.734755E-4 2.0120706E-4 -9.0584194E-4 4.733061E-4 9.3665905E-5 3.7483723E-4 6.8814465E-4 -1.2573565E-4 -3.4945278E-4 7.5738056E-4 6.2868814E-5 -3.4116E-4 4.04066E-4 0.0017037974 -2.8204042E-4 -8.033115E-4 7.744103E-4 1.8452352E-4 1.12347014E-4 -3.030707E-4 7.184593E-4 2.1059706E-5 -7.6085795E-4 -1.7965981E-4 -8.9400285E-4 6.970898E-5 -3.1330448E-4 -7.5262465E-4 4.680882E-4 3.9597187E-4 -0.0016614037 -3.5699326E-4 -8.8348315E-5 2.9112524E-4 7.96017E-4 -1.0787508E-4 4.6639354E-5 -1.2388812E-4 -4.656586E-4 1.2719189E-4 -4.4075307E-4 -1.071491E-4 -3.1025172E-4 -7.161106E-4 -7.876499E-4 1.3119038E-4 -6.20257E-4 1.846022E-4 8.764776E-5 1.4349268E-4 1.1622366E-4 0.001544168 -1.5899801E-5 0.0018292937 1.450662E-4 -3.4261993E-4 -2.7236113E-4 -2.235074E-4 5.148491E-4 4.757663E-4 4.0867995E-4 4.7210563E-4 6.217664E-4 5.577374E-4 -4.620888E-5 2.4086447E-4 -3.4098508E-4 -4.5152265E-6 8.604326E-5 6.394336E-4 -7.411537E-4 7.15645E-4 7.922465E-5 -1.8302613E-4 -1.09257075E-4 2.833035E-4 2.1857535E-4 -9.914458E-4 -3.5966854E-4 7.446797E-6 -5.36515E-5 3.2846822E-4 -8.664015E-4 8.67217E-4 1.4970772E-4 3.4061988E-4 9.514308E-4 -2.6309097E-4 8.474216E-4 0.0010025932 3.2239582E-4 2.049717E-4 -2.7237448E-4 -2.3354389E-4 8.4450527E-4 3.1295567E-4 -5.198895E-4 -0.0010295667 6.169573E-4 -8.3206105E-4 -2.3569864E-4 -2.1374522E-4 -0.0011185289 2.0131396E-4 -6.942767E-4 3.1744497E-4 0.0011342675 4.3417857E-4 1.4066647E-4 -5.7710375E-4 -5.386526E-4 4.9066823E-4 -3.5300266E-4 3.5872485E-4 -3.4219003E-4 5.0296995E-4 3.535236E-4 3.060239E-4 -1.2256595E-4 -5.812367E-4 -0.0012807983 4.4374925E-4 -4.9078965E-4 -1.3886025E-4 4.5001556E-4 8.547411E-4 -2.618848E-4 -5.9105747E-4 2.503512E-4 -2.2577695E-4 -9.1543276E-5 -1.3410501E-4 3.6212004E-6 -0.0010307214 1.00664096E-4 7.167576E-4 2.552115E-6 1.1958438E-4 1.5202822E-4 -5.7717797E-4 0.0011170208 -0.0012101317 -5.4938777E-4 1.7281296E-4 4.078541E-4 -5.218215E-4 -2.9173118E-4 1.4881048E-4 -4.696324E-4 3.178441E-4 1.2744381E-4 4.0154904E-5 4.0942876E-4 1.9848952E-4 2.4475157E-4 -6.3403073E-4 -3.8437737E-4 3.6823313E-4 1.7587095E-4 -2.072248E-4 3.234049E-4 -2.1366228E-5 5.9131894E-4 -3.6529812E-4 -6.843558E-4 -5.0251663E-4 -7.500362E-4 -5.3805503E-5 8.2671945E-4 4.4418615E-4 -5.242662E-4 -6.9119147E-4 3.9144E-4 -4.7041086E-4 -5.8766705E-4 -1.08630564E-4 5.780492E-4 3.0292128E-4 -1.5971734E-4 5.789302E-5 8.420398E-4 5.5302295E-4 3.6616217E-5 -0.0012228477 -7.120942E-5 7.066033E-4 2.773883E-4 3.406444E-4 1.1560615E-4 9.5489086E-5 -0.0010045323 -4.3837752E-4 7.527694E-4 -5.0346716E-6 -5.00257E-6 5.4210547E-4 -1.8959299E-4 -7.3058275E-4 -1.6817148E-4 6.8735404E-5 3.0470666E-4 8.9550763E-4 9.8500284E-5 6.992962E-4 3.3394495E-4 -6.926209E-5 -2.2735127E-4 4.957059E-4 4.0540934E-4 6.5081415E-4 1.2710321E-4 -3.5067252E-4 1.6474866E-4 -0.001219063 7.9855113E-4 -2.8259054E-4 1.8685026E-4 -1.1150584E-4 -3.7285054E-4 2.2698368E-5 3.146925E-4 -6.736982E-4 4.1497077E-4 9.278525E-5 2.740181E-5 2.534917E-4 1.30048E-4 0.0011247998 6.617986E-4 5.248854E-5 8.578977E-5 -2.8308132E-6 -1.8332986E-4 2.7280248E-4 -1.7550809E-4 -4.1433745E-5 -2.7727256E-5 2.7334175E-4 -4.5263217E-4 7.696508E-4 2.7473818E-4 6.893482E-5 -4.887139E-4