-1.9473884E-5 -8.385667E-5 -2.370759E-4 -1.14085975E-4 5.5628066E-4 -1.0456558E-4 3.543987E-4 5.9897E-4 -1.07413005E-4 -1.9054028E-4 -1.8666193E-4 -2.9885043E-5 -6.973259E-4 -7.398879E-5 -7.262284E-5 -3.0916406E-5 1.8162801E-4 3.8517435E-4 3.228387E-5 -3.0089135E-4 8.7198976E-5 -5.664621E-4 1.03953746E-4 1.0974889E-4 2.1002811E-4 1.16544834E-4 -4.458741E-4 1.2679535E-4 3.1613722E-4 4.3952357E-4 1.1050435E-4 2.6858106E-4 -9.625932E-5 -3.9724656E-4 5.8309897E-4 3.6030923E-4 -3.885405E-5 -3.6572175E-5 2.8297486E-4 -1.19096454E-4 2.3294451E-4 2.533498E-4 -1.7537893E-4 -1.6334525E-5 -3.117132E-4 4.4642264E-5 -3.173618E-4 -1.14112445E-4 4.3694617E-4 2.2954657E-5 -5.9574563E-4 3.554631E-4 1.0564399E-6 -5.7681522E-5 3.1383842E-4 -2.5633175E-4 -1.0753711E-4 -1.9168461E-4 -1.2783271E-4 -2.1168448E-4 -1.1959599E-4 -1.6767067E-4 -3.3574866E-4 3.4048365E-4 -7.4115305E-5 -2.5118212E-4 7.687143E-5 -2.662448E-4 1.2562901E-5 -7.9368045E-5 3.314729E-4 -2.8740498E-4 5.0588936E-4 -8.651824E-5 5.4327393E-5 3.553708E-5 1.5438555E-4 1.7975997E-4 6.7202796E-5 2.9286058E-4 -1.14390554E-4 1.4405677E-4 1.8928388E-4 1.1750296E-4 -4.8933923E-4 -2.3194887E-4 -1.431737E-4 -4.196539E-4 8.02216E-5 -1.6670939E-4 -7.0276714E-5 -2.5584985E-5 7.0207607E-6 -2.0039805E-4 -3.2777723E-4 -2.6403397E-5 -4.6143512E-5 -3.4436432E-4 1.2222872E-4 -4.8684495E-5 -1.5623635E-4 -1.0295545E-4 1.29339E-4 7.0381514E-4 1.2975864E-4 2.5473346E-5 -1.4313924E-4 -1.4703278E-4 -1.0049222E-4 1.3887936E-4 4.309497E-4 2.08459E-5 -7.603252E-6 7.548272E-5 3.6055347E-4 -7.422869E-5 -1.5940798E-4 -7.3496165E-5 -1.16328025E-4 2.8363627E-4 -2.5371448E-4 9.729338E-5 -4.147207E-4 2.1463023E-4 -1.108358E-4 5.0392046E-5 -5.03022E-4 9.089162E-5 -1.3646448E-4 8.1801656E-5 -1.7424463E-7 2.1824821E-4 2.7501906E-4 1.7656032E-4 8.018875E-5 3.5380846E-4 -8.718068E-5 -2.2728069E-4 2.628198E-4 -2.6793595E-4 1.2641295E-4 2.5274866E-4 2.1190241E-4 -2.1738617E-4 -8.771468E-5 -3.2959972E-4 3.2712525E-4 -1.4904872E-4 -2.4091513E-4 -1.332715E-4 -3.0176912E-4 1.1326442E-4 2.20226E-5 -1.6585406E-4 5.1894298E-5 -1.3184102E-4 3.056603E-4 5.584349E-5 5.407309E-5 7.460729E-5 -1.3611076E-4 1.952074E-5 6.1161246E-4 -7.6355165E-5 -5.1264977E-4 -1.1613444E-4 1.6530757E-4 1.2471846E-4 -9.029944E-6 -2.234761E-4 -6.399514E-4 -5.9218425E-4 -2.3499838E-4 1.6977108E-4 -2.1467773E-4 1.0959941E-4 1.7209226E-4 -6.4307835E-4 -2.3759878E-4 -3.7054683E-4 -2.5534077E-4 -2.868638E-4 -9.037778E-5 3.2326253E-4 2.598528E-4 -5.162816E-6 3.6907935E-5 -1.7788398E-4 -2.3796038E-5 -1.9435945E-4 1.1928423E-5 -2.9832986E-4 -1.1140178E-4 2.1107856E-4 5.1650364E-5 -5.28692E-4 -3.707201E-4 1.0252095E-4 -2.420233E-4 -2.2500921E-4 8.181358E-6 -3.937608E-4 2.2563589E-4 -3.0124083E-4 -1.6658727E-4 2.6881808E-4 -3.8355705E-5 1.3820548E-4 1.9148474E-4 2.5123806E-4