8.79385E-5 -2.94963E-4 -8.8854824E-5 -5.479086E-4 2.5324797E-4 -1.4261533E-4 -5.0228013E-4 -1.225938E-4 -2.0353182E-5 5.623176E-5 5.1710012E-5 1.730772E-4 -2.5683898E-4 -3.2452936E-4 -1.7051562E-4 -8.5390627E-4 -1.4266794E-4 -2.9364382E-4 -3.1687472E-5 -3.7262627E-4 1.3549329E-4 -3.3410132E-4 1.8965556E-4 -3.400255E-5 -2.5057067E-5 1.1456548E-5 3.313414E-5 3.1669086E-5 4.134996E-4 -2.2771723E-4 -6.650819E-5 -1.04245955E-4 -6.096074E-6 3.0206973E-4 4.23624E-4 -1.5067271E-4 2.258263E-5 -9.744073E-5 2.8419145E-5 1.1065575E-5 5.186491E-4 3.3829594E-5 2.7777028E-4 -2.3959466E-4 1.2932219E-4 4.2122617E-4 -2.4375899E-4 3.4645878E-4 -1.2537591E-4 2.2209402E-5 -5.6741133E-5 3.0448992E-4 -3.1916836E-5 2.8483875E-5 3.9215467E-4 3.13138E-4 3.6311863E-4 -5.0125178E-5 -7.55061E-5 9.873213E-4 3.0326995E-4 -1.4901806E-4 1.6408949E-4 -3.4047014E-4 -3.7862867E-4 -5.0666777E-4 3.712886E-4 7.587995E-4 3.0131276E-5 -2.7757688E-4 5.3697254E-4 -8.5557316E-5 8.641739E-5 2.0237704E-4 3.5085308E-5 1.2436688E-4 1.715904E-4 -2.6992505E-4 -3.991072E-7 5.6215154E-4 3.3609528E-4 5.2811706E-4 -1.7504979E-5 3.5576703E-4 3.0346724E-4 -1.430948E-4 -3.5091498E-4 9.941861E-5 -2.9891875E-5 4.6342597E-4 -3.08469E-4 -1.5133909E-4 2.4903272E-4 -3.5917052E-4 1.1453612E-4 4.4258675E-4 6.132442E-5 -2.5316294E-5 5.297095E-5 -1.7207258E-4 4.1573553E-4 2.5710615E-5 8.328352E-5 3.2153507E-4 -9.946016E-6 -1.01354046E-4 -4.173119E-4 -1.0388807E-4 -4.0359114E-4 7.5732285E-5 -4.4144638E-4 1.9113166E-4 -3.613232E-5 2.3292356E-4 -2.3214001E-4 -3.9868224E-5 -4.818875E-4 2.1688099E-4 1.7580482E-4 3.694577E-4 -2.3734581E-5 -2.5429676E-4 2.607973E-4 -6.6411245E-4 -3.203582E-4 4.007205E-4 3.3931102E-4 9.553523E-5 -6.400424E-5 -6.658919E-5 2.7979864E-4 -7.5606647E-4 2.5484047E-4 -5.8613694E-4 -4.759762E-5 -5.225412E-4 -1.2076236E-4 -2.7180562E-4 -1.5004865E-5 1.6066298E-4 -1.1881179E-4 -2.3976601E-4 -1.7957893E-4 8.319813E-5 -8.811016E-5 -4.1649438E-4 2.53623E-5 -1.17987416E-4 2.4546057E-4 -1.8055367E-4 -1.851701E-4 -2.7598994E-4 -3.8190538E-4 1.3513971E-4 -4.42125E-6 -3.711396E-4 5.763964E-4 3.541197E-4 -7.390069E-4 7.1803224E-6 1.20377954E-4 4.3781154E-5 2.154897E-5 -5.4413627E-5 3.2708707E-4 1.08965825E-4 -4.458403E-4 4.701785E-5 -1.4986467E-4 -3.3188108E-4 -7.772297E-5 1.3948449E-4 1.1804037E-4 2.0193764E-4 7.4278665E-5 1.9555625E-4 5.7448196E-6 -7.978131E-5 -5.211577E-4 -7.3495E-5 -1.9566214E-5 1.3608875E-4 -1.739338E-4 -3.713461E-5 9.862057E-5 4.0999454E-4 2.1288336E-4 4.05141E-4 2.05631E-4 -3.1857664E-4 -6.530063E-4 -9.859134E-5 5.928085E-5 -2.1134189E-4 1.1982409E-4 6.265733E-4 6.481939E-4 -2.5929778E-4 3.2929027E-5 -7.827059E-5 -4.043696E-4 -1.9619554E-5 -6.681554E-4 -4.6617788E-4 3.0045526E-4 2.4631084E-4 -2.744685E-4 1.7274098E-4 5.232058E-5 1.6802704E-4 -3.8118998E-4 1.9964573E-4 -3.3899245E-4 1.0405947E-4 5.5630103E-4 1.6210397E-4 -2.3077476E-4 -6.2963914E-4 -2.070294E-4 -1.1439486E-4 2.491472E-4 -1.514017E-4 -2.7144956E-4 8.624667E-5 -1.1300582E-4 -2.979609E-4 1.1621067E-4 4.592563E-4 3.5191886E-5 -7.9216785E-5 -1.5985766E-4 2.031994E-4 5.6303776E-5 -1.8031627E-5 1.18140655E-4 3.3139193E-5 -1.4307539E-4 2.6759823E-5 5.148446E-4 -2.8066972E-4 2.0777118E-4 -1.0868346E-4 6.248837E-5 -4.037971E-4 -7.0595066E-5 3.2449642E-4 -7.249798E-5 -2.8201903E-5 6.262346E-5 -1.3524259E-4 -5.640328E-5 2.7035293E-4 1.5401843E-4 -7.897929E-5 1.3859528E-5 -1.7885538E-4 -7.74099E-5 1.246897E-4 4.9926894E-6 2.743643E-4 -8.664273E-5 -3.8515095E-4 -5.4614607E-4 1.6760305E-4 2.1410538E-4 -2.6635494E-4 -1.14746625E-4 -8.7295834E-4 3.8655757E-4 -7.9684E-5 -1.9487031E-4 -2.608322E-4 1.1425808E-4 4.065623E-4 -2.1392557E-4 -1.3857071E-4 -2.663671E-4 4.2373416E-5 -1.3319962E-4 7.1351096E-5 -9.631054E-6 4.485611E-4 7.7646226E-5 -3.489702E-5 2.0239291E-5 -1.591319E-4 3.505019E-4 -1.4215967E-4 -1.0405488E-4 3.6526175E-4 -1.4244029E-4 -4.6102764E-4 7.0676935E-5 -2.3177404E-4 1.6907499E-4 3.5534988E-4 -3.5584715E-5 -3.5823882E-4 7.746605E-4 -2.2171969E-4 3.6214264E-5 -3.7997557E-4 1.0650611E-4 1.4247712E-4 3.271688E-4 8.373951E-4 -1.809845E-4 2.4817587E-4 8.6003725E-5 8.6918444E-5 -4.948616E-5 4.9769937E-5 3.8378395E-4 3.7694897E-4 -1.2716242E-4 1.6826073E-4 -5.8171136E-5 -5.714485E-4 1.8350012E-4 -2.542982E-4 -1.3327997E-4 8.6481174E-5 -3.0321308E-4 -1.8262462E-4 2.0976891E-4 6.3266454E-4 -7.27267E-5 -1.6174075E-5 9.014848E-6 -9.040004E-5 -1.6754518E-4 -3.7191215E-4 3.4833027E-4 1.3012126E-4 -3.667466E-4 2.0326971E-4 4.0942995E-4 -3.6084818E-4 1.8328629E-4 -2.5287282E-4 9.248877E-5 1.9944113E-4 -8.147463E-5 -2.4068519E-4 1.222995E-4 -2.5743013E-4 1.3186951E-4 -3.056503E-4 5.106148E-4 1.630328E-4 -8.2544924E-5 -3.4364546E-4 -4.035042E-4 1.5055934E-4 -3.1210424E-4 5.7916186E-5 -8.469351E-4 -2.1930398E-4 1.2210521E-4 -4.496675E-5 1.0438089E-7 -4.6346127E-4 3.3102316E-4 1.8198791E-4 -1.0252022E-4 3.072915E-4 -3.0710973E-5 5.0909293E-6 -3.8419588E-4 -6.5938606E-5 2.8976094E-4 -2.0934976E-4 2.6866273E-5 3.852506E-5 2.8646196E-4 1.3090414E-4 6.517889E-5 -1.2296608E-4 -1.17247575E-4 -6.154357E-4 2.3562813E-4 -2.8290218E-4 3.0006096E-4 1.1284354E-4 -1.08763255E-4 -2.0973076E-4 1.0838118E-4 6.0910665E-5 -5.1140354E-4 2.3012262E-4 1.8997438E-5 8.3209964E-4 -1.5041561E-4 -3.1281495E-5 1.2343001E-4 -8.54159E-5 4.1715027E-4 -6.385837E-4 -6.148993E-5 3.2270327E-5 1.6213249E-4 6.6576584E-4 -6.651832E-5 2.9333902E-4 -4.7746382E-4 -4.530105E-5 8.62143E-5 2.0623178E-4 -9.339955E-5 -6.2557217E-4 -2.0054515E-4 -4.9719226E-4 -7.017506E-5 -1.09194836E-4 1.2750177E-5 -3.6476046E-4 -4.4228364E-5 -2.0431168E-4 -2.2602311E-4 -2.58401E-4