-3.024575E-4 -4.9785106E-4 -5.273777E-5 1.1076454E-4 -2.564808E-4 7.076512E-5 -5.728869E-4 6.516263E-5 -3.201618E-4 -3.5278953E-4 6.5604167E-4 3.3667416E-4 1.5815701E-4 -1.0929142E-4 -1.7409312E-4 8.596588E-6 2.729679E-4 -3.692993E-5 8.032093E-5 2.3990033E-5 -3.7575682E-4 -2.5513722E-4 5.0674927E-5 -5.974475E-5 -3.1146864E-4 -3.1777956E-5 6.729139E-5 -5.512354E-4 -3.185856E-4 -1.1224926E-4 -2.117751E-4 5.5799E-5 -9.370873E-5 3.076849E-4 2.6436322E-4 -3.9223453E-4 3.1175994E-4 2.9434613E-4 2.3328015E-4 -5.6014323E-5 -2.6441814E-4 1.0807169E-5 -1.0454957E-4 4.7666056E-4 -2.649086E-4 1.477853E-4 -2.128701E-4 -3.097311E-4 -9.251195E-5 3.145801E-5 -6.106499E-5 -2.5715624E-4 1.7668467E-4 -1.8837578E-5 3.8293932E-4 1.3055015E-4 1.753605E-4 -4.601566E-5 1.4933033E-4 1.0062339E-4 -4.7531276E-4 -2.482367E-4 1.8883754E-4 -2.221255E-4 -1.429391E-4 -4.668892E-4 -1.6942067E-7 1.2027741E-4 2.4036053E-4 1.1901331E-4 2.8879932E-4 1.4191601E-4 3.0963845E-4 -1.6028679E-4 3.8349983E-5 -4.877131E-5 -2.605647E-4 -1.4561639E-4 4.067601E-5 3.1257805E-5 2.4502835E-5 -8.509206E-5 -2.3132833E-4 1.3401777E-4 -3.8086995E-4 1.7366256E-7 4.1829632E-4 -8.148565E-6 -2.6462832E-5 -4.5233326E-5 6.239191E-4 -7.5133523E-4 -3.0352932E-4 -8.634111E-5 -2.0765944E-4 2.96932E-4 1.04336315E-4 -4.4969268E-4 -4.8195774E-4 -4.0263636E-4 -2.0098206E-4 3.794006E-4 2.92874E-4 -1.2059334E-4 4.9051596E-5 9.100527E-5 4.8223505E-4 5.1915926E-5 7.896105E-4 -3.898866E-4 -4.3707696E-6 -3.345375E-4 7.695669E-4 -1.8130834E-4 3.348656E-4 5.0312956E-5 -3.8535145E-6 4.8603397E-6 -3.42429E-4 2.2836769E-4 -2.5384082E-4 4.5041516E-4 4.8870468E-5 -5.465722E-4 1.1115713E-5 -8.613513E-4 -2.3064634E-4 1.6392766E-4 -9.9257544E-5 1.044244E-4 1.5553102E-5 1.3388885E-4 -2.2839394E-4 -7.2730734E-5 3.8477324E-4 -6.917504E-5 -1.5653572E-4 -1.5773579E-4 -2.305732E-5 -1.30303E-4