0.42097473 -0.1528393 0.114767164 -0.6566344 0.60340947 -2.538163 0.14241426 2.614844 0.9392016 -0.2818561 0.08117288 0.7435422 0.8697261 -0.71714616 1.1983316 1.8267173 -0.7427452 -0.30234137 1.5829155 0.96941483 -1.6223103 0.75661665 -0.7350859 -0.39007604 0.07301861 0.58106166 -0.36515868 0.6018746 -0.8217653 0.22357744 1.7640101 0.88966906 0.6054631 -0.19107151 -0.7347152 0.34378454 1.411209 0.389179 0.07801352 -1.3767173 1.1366575 1.8541566 -0.6359363 -1.337958 -0.8868247 1.0605186 -0.59034204 -1.0428679 0.52176386 0.69721377 -0.8753454 1.759184 -0.33079123 0.09886633 -1.0622991 -1.4185038 -0.60254556 0.7281944 -2.3578742 0.14990067 0.98517233 -1.2036227 -0.6181632 -0.73443586 1.4588741 -0.48616326 -0.09392866 1.768168 -0.39237952 -1.3886058 -0.7649334 -0.33429557 0.18552665 0.42746064 0.3973931 0.26934376 -2.3056312 1.7516035 -0.8166064 0.12190736 1.150827 1.0405376 1.7196791 1.6473638 2.2747386 0.6201673 -0.5502358 0.6358784 0.5281075 -0.53260297 -2.3852963 1.0694733 -0.80435556 1.7902269 -1.2009166 -1.6588817 -0.5697405 -1.3361187 -0.83831567 0.3831795 0.27833623 -1.8392586 0.31550056 -0.3359364 0.021014294 0.3686269 -1.3703815 1.278312 1.4319782 0.7699884 0.4678243 -1.2544831 -1.183908 0.85543203 0.9228576 -0.015805345 -1.1265758 -1.2230964 -0.38863423 0.75025123 -0.18263583 -0.79225343 -0.79533917 -1.6263945 0.2141613 -1.2697568 -0.039227407 -0.83861476 0.47168118 -0.33313534 -1.0507703 0.49998295 0.32469368 -0.12147421 1.0214759 1.849543 -1.3743138 -0.68670505 0.5757257 0.5997365 -0.25603488 -0.41072917 -1.0183352 0.39110354 -1.2093616 0.105416276 -0.10201924 0.4690105 0.28871855 0.16514146 0.6152406 -1.4544609 -0.5056746 1.0905771 -0.23545288 -0.51277417 0.9787068 0.11024535 0.6142273 0.21081343 -0.27200657 -0.34291372 -0.5172952 -0.50088096 -1.904941 -1.6947801 1.0194868 -1.3857691 0.04045839 0.90438926 2.2353768 -0.25571597 1.7819606 1.0609108 0.37170056 1.2348484 -0.72842264 0.94485056 -0.47958037 -0.1292306 -0.42940935 -0.8671962 0.08861987 -0.840526 -1.1463182 -1.6478026 -2.299509 0.54893595 0.17337206 0.9649584 0.8157277 -0.067023456 0.88807964 -1.5504225 0.13253258 -0.26961768 -0.859466 -0.4794908 0.1823596 -1.1691004 0.6447613 -0.5647947 -1.4278737 -0.45575923 0.7651279 -0.87217015 -0.9108692 -0.5882363 -0.9445867 0.22884415 -0.37412423 2.489816 -1.0253875 -0.22144607 -1.6534122 -0.54309684 2.2626572 -0.87382424 -0.08799383 0.23596619 0.73393744 2.0101497 0.89388114 -0.0076844594 -0.544669 0.25536242 0.30287078 0.12511837 0.34858343 -1.2859633 0.4955803 0.65809715 0.46944606 -0.5609185 0.27561995 1.364256 2.3913198 0.15720694 0.146716 -0.66542655 2.5901198 -0.32032207 -0.08759146 -2.533401 0.87918454 0.917418 -3.0398808 -2.0863338 0.76603293 -0.26001918 2.6000562 0.85914934 -0.88790375 0.7413679 1.3305318 -0.17309771 -0.95034015 0.83422244 -0.89336675 -0.52911305 0.73815805 -0.33325645 -0.3905038 -0.46906325 0.5885496 -0.47534466 0.3075208 1.1227947 -1.9847329 1.6670622 -0.13720559 -0.8875099 0.5302175 -0.47073373 0.36348352 1.2992234 -1.6746695 -0.8458928 0.6687541 -0.07143115 0.70475054 0.6894436 0.9038025 -0.9726982 0.842492 -0.31442723 0.116457455 0.085628845 -0.53712577 -2.3890069 0.38571164 1.2603216