-4.930116E-7 -4.6925303E-5 -1.0618569E-6 1.2583827E-5 -8.4916326E-5 3.1587573E-5 -9.5279506E-7 4.9899754E-5 -3.2781496E-5 1.6378099E-4 1.8605217E-5 -5.7398625E-5 2.0417648E-4 -2.8302372E-4 1.1006347E-4 2.797678E-4 -4.067704E-5 2.9992306E-4 -1.8962621E-4 -4.642739E-5 2.2456926E-4 -2.013192E-6 -7.683248E-5 2.307606E-4 2.8586923E-5 8.105609E-5 1.754488E-5 2.09558E-5 1.0419513E-4 -8.474075E-5 -1.707002E-4 -1.3377267E-4 -3.976132E-5 -6.705736E-5 -2.464929E-4 -3.4657013E-4 3.2711338E-5 -1.595495E-4 -1.5089328E-4 1.2660914E-4 1.0222349E-4 -1.2701747E-4 2.2027784E-4 7.032069E-5 3.9219653E-5 -1.2937069E-4 4.8455136E-4 -5.429487E-6 7.762406E-6 -1.17249096E-4 3.775357E-5 7.0529495E-7 -1.5351258E-4 1.3031895E-5 -2.577632E-4 2.250079E-6 2.5972971E-5 1.1927163E-4 -9.621198E-5 -3.6447007E-5 1.3899148E-4 -5.111548E-5 -1.646362E-4 4.591245E-5 -9.5273965E-5 -1.0749402E-4 -1.4196445E-5 6.723127E-5 -1.0446044E-4 1.3562734E-5 -7.0518814E-5 3.0609765E-5 4.185262E-6 6.845896E-5 -1.6801714E-6 4.2856656E-5 6.503548E-5 -5.9161226E-5 1.4946246E-4 -1.9629471E-4 -7.2059265E-8 -6.6837194E-5 1.5341684E-5 8.3962004E-7 -5.343736E-7 -1.472455E-4 4.0188315E-6 4.13502E-5 1.8557732E-4 -5.3785112E-5 1.0362935E-4 1.4197777E-4 7.442215E-5 1.7657148E-5 -1.0000178E-4 7.930074E-5 3.6722315E-5 -7.804923E-5 -4.013296E-5 9.220751E-5 -1.7100119E-4 1.2369583E-4 4.5831592E-4 1.4317545E-4 -7.471676E-5 -3.5735495E-5 -5.2084586E-5 -1.099242E-4 2.2099601E-4 4.290124E-5 1.8682822E-5 -9.853737E-5 2.3713222E-4 7.51747E-5 5.712192E-5 -1.1126959E-4 -2.4763576E-5 8.578572E-5 -1.37600655E-5 1.3465091E-5 1.2953201E-4 -3.254957E-5 -3.3753593E-5 -2.132499E-4 -2.7338276E-5 1.00006175E-4 9.623906E-5 3.5502053E-5 2.1532843E-4 7.364823E-5 -1.01349855E-4 -8.814217E-6 -9.4045936E-5 -2.6756953E-4 -2.500882E-4 -1.6858958E-4 -2.373581E-5 -9.381806E-5 5.0136347E-5 5.1321404E-5 -6.0823884E-5 6.4902306E-5 1.4373649E-5 5.0622562E-5 1.3796308E-4 -1.4959153E-4 -1.24687795E-5 1.5601415E-4 5.875098E-5 1.6098034E-5 -1.1406635E-4 -5.166869E-5 -5.308997E-6 -6.269246E-5 -4.0049563E-5 -4.122052E-5 5.8886813E-5 -4.4693454E-5 -1.1400801E-4 -1.2172187E-4 -5.9808767E-6 1.4321106E-4 1.3489163E-4 -6.0018436E-5 2.4661917E-4 -8.9982404E-7 -3.270601E-4 2.1568128E-4 -6.47808E-5 -5.4224733E-5 -1.5620276E-4 8.18263E-5 -2.5192247E-5 -6.9530135E-5 1.2741165E-4 3.3821605E-5 7.338388E-5 1.5970689E-4 -6.7298606E-7 -4.3856184E-5 9.67205E-5 -7.1429386E-5 1.758514E-4 -1.3603556E-5 6.5963235E-5 -1.3902229E-4 2.1680424E-4 -1.7778884E-4 -3.5738722E-6 -1.6270533E-4 -1.7130359E-4 -9.2732225E-5 2.9591683E-5 -5.582522E-6 1.2559586E-4 -1.6516828E-4 3.2044336E-6 -1.4787204E-4 -1.8820688E-4 7.3944815E-5 7.948831E-5 -1.1000621E-4 6.640816E-5 -9.013536E-5 3.2352487E-4 -1.970481E-4 -1.4934117E-4 2.2174372E-5 -1.6724083E-4 2.4799726E-4 -3.3435652E-5 -1.5909155E-4 5.6488287E-5 1.1924989E-4 3.50548E-5 4.960093E-4 5.6746183E-5 -1.7090364E-4 -1.1203076E-5 -1.1801224E-4 3.052962E-5 8.835694E-5 3.4869743E-5 2.3824614E-6 -1.8595117E-4 -1.3584764E-4 2.9415552E-5 -4.935559E-5 2.6666181E-5 -3.3729117E-5 -1.2875668E-4 2.3523226E-5 -1.1348822E-4 -1.5569877E-4 -4.5856956E-5 -6.060335E-5 2.014481E-4 -3.016598E-4 2.9064562E-5 2.6851209E-5 -1.7798372E-4 -1.6594278E-4 7.9484904E-5 3.4574816E-5 1.7486904E-4 -1.200165E-4 -2.796285E-4 2.220021E-4 5.272562E-5 -3.8403683E-5 -7.083741E-5 -1.4417397E-4 3.6330233E-4 -7.015469E-5 1.2067906E-4 -3.3062723E-5 1.9241305E-4 1.1021066E-4 -2.4931589E-5 6.10984E-6 -1.865711E-5 -5.7731362E-5 -1.654691E-5 8.468435E-5 1.1990899E-4 8.175861E-5 7.655875E-5 -7.929869E-5 -2.2767264E-5 -6.2602274E-5 1.572957E-4 -1.3561644E-4 -1.10881294E-4 -9.7669974E-5 1.8840601E-5 1.3001893E-4 1.7162336E-5 -1.8548704E-4 2.2846787E-5 -1.6992711E-4 -5.4024073E-5 -1.5590672E-4 -4.959652E-5 9.7895754E-5 -2.660012E-5 -6.7093344E-5 1.1350108E-5 2.6844202E-5 6.6173016E-5 -4.8583891E-4 2.539823E-5 -1.2951954E-5