0.054228105 -0.057827026 0.03453331 -0.13920242 0.12258118 -0.48472682 0.033710204 0.48813993 0.18722701 -0.063520655 0.0019440879 0.16842672 0.14743824 -0.13785717 0.21554859 0.35095218 -0.15198241 -0.06640141 0.3008936 0.19240534 -0.3066676 0.14458467 -0.17093585 -0.09511207 0.04782532 0.13674304 -0.07730832 0.11395517 -0.16370946 0.06611054 0.34318873 0.146049 0.14903967 -0.06548861 -0.11076508 0.051706463 0.2763939 0.06502313 -0.0042500636 -0.27478176 0.21619532 0.35308594 -0.15636839 -0.2539387 -0.1418177 0.2138106 -0.071027614 -0.19748904 0.09878049 0.13388918 -0.16121328 0.3435032 -0.04738436 0.04495749 -0.21270615 -0.25991157 -0.10898953 0.13163406 -0.43978244 0.0315586 0.17343324 -0.24972746 -0.122254685 -0.15189554 0.26622283 -0.08807536 -0.013164704 0.34603092 -0.10256718 -0.26871863 -0.15374596 -0.07234563 0.04875437 0.08471701 0.044727363 0.078264646 -0.42378432 0.33014813 -0.1950359 0.035834447 0.21151894 0.2177073 0.34389895 0.3403789 0.4153562 0.12388735 -0.09766579 0.1305555 0.08489561 -0.09074155 -0.41932416 0.20723681 -0.15003444 0.33943212 -0.25325635 -0.33008504 -0.13094059 -0.23216805 -0.16716404 0.039502986 0.055364415 -0.36180034 0.07799855 -0.06459373 0.012370157 0.053345464 -0.2876008 0.22749318 0.29148048 0.14567772 0.07476804 -0.2729661 -0.25218675 0.16641866 0.17986101 0.005757044 -0.22118509 -0.2439464 -0.063975625 0.11942019 -0.042863954 -0.13905327 -0.13521867 -0.31082562 0.046609934 -0.2691968 0.001387161 -0.15152402 0.10205084 -0.06320689 -0.22203834 0.13048829 0.067839496 -0.035553887 0.23511536 0.3556437 -0.2619744 -0.12690462 0.105867654 0.10904263 -0.055569857 -0.107324615 -0.1985748 0.0652903 -0.23561525 0.027808815 -0.005033549 0.08524335 0.056554414 0.04103314 0.121381715 -0.28001222 -0.10968375 0.24661423 -0.059639353 -0.08065274 0.1849652 0.04450246 0.11072297 0.03358402 -0.030786784 -0.05402512 -0.11332326 -0.091196515 -0.383524 -0.3224488 0.1972333 -0.2458883 -0.022260442 0.19232358 0.41947907 -0.057025693 0.3481281 0.2006974 0.06737481 0.23990175 -0.15013924 0.18197335 -0.08380787 -0.05195913 -0.10926219 -0.16043578 2.642889E-4 -0.17971408 -0.23761652 -0.31760362 -0.4414314 0.08811421 0.020034708 0.18966913 0.20155399 2.7955245E-4 0.1591434 -0.29878753 -0.011850994 -0.057735223 -0.16505075 -0.09846969 0.024891736 -0.23077546 0.09037399 -0.11197404 -0.27653125 -0.07262137 0.1740533 -0.15171601 -0.1855578 -0.09842023 -0.16849475 0.03717295 -0.09333013 0.46927762 -0.19604965 -0.029207505 -0.29685655 -0.08724568 0.41682813 -0.17268626 -0.0073762834 0.056850802 0.12596272 0.3810433 0.17679656 -0.013700958 -0.084534064 0.07474125 0.05665161 0.010682384 0.039796136 -0.25310454 0.110268906 0.12795667 0.12135844 -0.14297405 0.056726467 0.2927691 0.4372502 0.04409317 0.004348888 -0.12252524 0.47938064 -0.076669484 -0.01585255 -0.47996977 0.17998004 0.18210863 -0.5648677 -0.40152353 0.1498583 -0.088978216 0.4767758 0.20092113 -0.1707669 0.1450597 0.26099354 -0.0276029 -0.17280975 0.16739948 -0.15327106 -0.08257597 0.12456605 -0.07920912 -0.07510839 -0.10834104 0.088727474 -0.09311687 0.07797875 0.22130446 -0.39603686 0.32858267 -0.029975494 -0.18858218 0.098011576 -0.08380923 0.08452803 0.26866734 -0.32745925 -0.17753068 0.122249395 -0.035299428 0.13974507 0.13285214 0.2136937 -0.15823942 0.1694577 -0.07743117 0.02205442 0.0026084313 -0.098537795 -0.45606866 0.084818885 0.23834741 0.03744418 -0.06409686 0.018442446 0.09309574 -0.14243476 -0.107028864 -0.007961482 0.3123696 -0.49236092 0.49369368 -0.08085483 0.019251827 -0.10538414 -0.04860473 0.18153995 -0.11137195 -0.0103708645 -0.15706815 0.2300153 0.38180965 0.08348002 0.09248295 0.09747984 -0.10996024 0.055409335 0.16641459 -0.063037574 0.22259095 -0.120405786 -0.06302231 -0.046434995 0.4566414 -0.03362353 0.0058583207 0.30294356 -0.31934106 0.017896188 0.33440465 0.04229164 -0.016213773 0.11671554 0.11288531 0.06647603 -0.4716988 -0.27807006 0.19087097 -0.08621758 -0.21729748 0.039213017 -0.10697381 -0.19660823 -0.12638922 0.15283589 0.05390925 0.39970773 0.2707626 -0.22492379 0.0068652933 0.15824634 0.0152573185 0.08493588 -0.27538973 -0.21646747 0.006124979 -0.17670976 0.10259549 0.17175864 -0.01680565 0.27257165 -0.08576399 0.28029677 0.3010629 0.1155477 0.31050482 -0.14030512 0.28000885 0.2542926 0.014080733 0.03487964 0.12387311 0.075060755 0.104128405 0.11692105 -0.00872634 0.09653688 -0.36231208 -0.2960501 -0.051327202 -0.1481216 -0.032664668 -0.24214384 0.12736988 0.2118011 -0.0045445133 0.21714573 -0.2901524 -0.075405955 -0.19434978 -0.04786756 -0.028805945 0.1317905 -0.05457108 0.18334834 -0.4611589 -0.004710354 -0.18059608 -0.2612516 0.02979635 0.1143351 -0.13645822 0.11285124 0.24622184 -0.1770814 0.08149038 0.20607312 0.13601048 0.19676605 0.1899765 -0.06431269 0.13459025 0.27323353 0.15852778 -0.15267918 -0.10346576 0.24531806 -0.10052169 -0.1768156 0.33759028 0.03339856 -0.14067298 0.2840205 0.011927471 0.30722293 -0.2297552 -0.3786235 0.310588 0.2155206 0.07316967 0.073396534 -0.03792011 -0.1527534 -0.24724588 0.048656434 0.18887849 9.285239E-4 0.15558317 -0.04144782 0.06416606 0.36713147 0.103716 -0.2631993 0.18078107 -0.0048329458 0.11818304 0.0060201534 -0.30537036 -0.04231026 -0.18981408 0.049678143 -0.12404302 0.23996727 -0.28860515 0.14116286 0.11895027 0.07663897 0.5016083 0.20727478 -0.05134083 -0.33544353 0.10223838 0.15703666 0.10101649 0.061585814 0.107281566 0.26246208 0.043106634 -0.20022509 -0.1152498 0.23931073 -0.17555124 0.0994387 0.2454633 -0.31341133 -0.18972398 0.011744885 -0.054653376 -0.07921877 0.121323235 0.16982917 -0.20170203 0.041387226 0.121317685 -0.020475399 -0.14747378 0.25880662 -0.05231808 -0.025640884 0.24797261 -0.014955254 0.01700124 0.09403883 0.19171004 0.12944062 0.04010041 -0.3196974 0.4939794 0.076809675 -0.042131554 -0.24982171 0.19345988 -0.03590229 -0.10713339 -0.25791982 -0.005415592 -0.13368087 0.1089213 -0.4431911 -0.24812321 -0.051480144 0.13426673 0.16202518 -0.136912 -0.009509516 -0.17510256 0.32021353 0.049289465 -0.1704907 -0.04412775 -0.06789488 0.1221057 -0.022670552 -0.16033415 0.09503199 0.18966666 -0.088429816 0.09870095 0.21719041 0.11639139 -0.1280271 -0.28031117 -0.012636986 0.14789626 0.032979958 0.078011416 0.105266534 0.021067979 0.14880793 0.1946066 0.2308909 0.39154416 -0.20548266 0.33618677 0.012882121 0.2021842 -0.07830485 -0.046914533 0.30571947 0.081917 -0.32873443 0.1156194 -0.16217844 0.22137372 0.29868376 0.23965794 0.32535228 0.12697238 -0.3364934 0.02711999 0.10747721 -0.21163858 -0.012485182 -0.09200529 -0.030219672 -0.38081113 0.07945693 -0.14982459 -0.16590281 -0.24790251 0.08496568 0.013372482 0.36512914 0.11147593 -0.25222504 0.16177487 0.10959856 -0.34188288 -0.025971692 -0.33661053 -0.023978923 -0.18042246 -0.109519854 0.023049554 -0.0908683 0.36377192 0.040055025 -0.42935592 0.08241238 -0.10056092 -0.09162602 -0.12834655 0.028544912 0.28344572 -0.18821299 -0.08486184 0.03519911 -0.04723408 0.23714215 0.2383523 -0.12643096 -0.10786497 0.23722237 0.41862363 -0.1526708 0.12405464 0.15946813 0.39656547 0.10263074 -0.018311653 -0.0063853427 0.021764312 -0.31226018 -0.15711324 -0.027582211 -0.08655903 0.06658421 0.114198506 -0.16013071 0.16383713 -0.093835786 0.1454125 0.29254434 -0.1379736 0.39357063 0.14682154 -0.037091076 -0.06969394 -0.16398962 0.07213879 -0.098812155 -0.11823191 0.05987168 -0.01722264 0.03506007 0.008292881 -0.1614783 0.15395552 0.020583147 -0.22784176 0.18310751 -0.16627513 -0.5477838 0.24815783 -0.17332031 -0.082896575 0.5077397 -0.14485802 0.18899608 0.04596855 -0.016212152 0.0762794 0.29029617 0.10656893 -0.15513909 0.27442896 -0.046155818 0.09585413 -0.14965679 0.24999323 0.16654223 0.28155023 -0.012541789 -0.14915793 -0.042013615 -0.017490761 0.059222404 0.11855455 -0.34350714 -0.28066975 -0.17776681 -0.36744243 0.07998806 -0.04072035 -0.03924268 -0.24545228 0.02171368 -0.15657665 0.038824815 -0.011475205 0.21207035 0.26270214 -0.117774785 0.03457864 -0.12616855 0.0034469785 -0.53538084 0.15350537 0.12772174 0.50179213 0.2703988 -0.002228598 -0.11366235 -0.32122883 -0.015529119 -0.1907716 -0.23634635 0.060774364 0.015714698 -0.066218205