0.09447387 -0.070730776 0.023997806 -0.15377225 0.14818493 -0.55167896 0.045206483 0.59033746 0.21254116 -0.08078162 -0.0142234415 0.1347877 0.21834567 -0.11586771 0.25312638 0.38168126 -0.12784347 -0.06761061 0.3279624 0.23775974 -0.34767514 0.11824555 -0.14619966 -0.094503075 0.03843205 0.15813863 -0.05323216 0.12784772 -0.19929475 0.012227718 0.3959456 0.19512792 0.17305264 0.005636022 -0.11962362 0.08382657 0.30156383 0.075287126 0.013396995 -0.30776945 0.23848459 0.39707243 -0.15214959 -0.28864217 -0.2125174 0.23812865 -0.09909433 -0.18815467 0.13663505 0.14058569 -0.20552345 0.3822993 -0.09051204 0.017704235 -0.22411206 -0.3195459 -0.095626384 0.1673493 -0.4696308 0.040914774 0.17816141 -0.2737377 -0.12344013 -0.15840772 0.32667163 -0.12818389 -0.025183473 0.39083603 -0.1267459 -0.26665202 -0.17390697 -0.08636504 0.06504602 0.12074916 0.050834425 0.07907032 -0.49139613 0.38407722 -0.21004169 0.06543777 0.2846025 0.25199765 0.37928593 0.3521016 0.48773548 0.11974692 -0.14750214 0.13420565 0.14479928 -0.13158917 -0.5114637 0.24398881 -0.18779615 0.38281277 -0.26029027 -0.33592978 -0.15439537 -0.30904758 -0.17743292 0.071110874 0.01200441 -0.41583952 0.07466005 -0.031850003 0.031938482 0.09157973 -0.30233344 0.28931874 0.31642208 0.19298126 0.12684192 -0.29945984 -0.26707506 0.20194921 0.20309395 -0.028492602 -0.21587634 -0.2396441 -0.12230394 0.18471299 -0.050832834 -0.15105192 -0.15450002 -0.3645108 0.045604244 -0.26981816 -0.024681967 -0.1891727 0.08146917 -0.06619745 -0.22138293 0.09996734 0.061056614 -0.042446006 0.20973527 0.41459018 -0.3190909 -0.1546405 0.13083094 0.13603456 -0.038836528 -0.07398386 -0.23095368 0.10837615 -0.2609793 -1.4543973E-4 -0.026664495 0.116496935 0.059889812 0.03193361 0.14879824 -0.3197069 -0.13889231 0.25413033 -0.05945 -0.10535959 0.24775524 0.0028324826 0.10881246 0.0557076 -0.022603748 -0.10614694 -0.11471478 -0.10448063 -0.40339366 -0.3757421 0.24768472 -0.3184549 0.017392343 0.20664103 0.47898126 -0.06543363 0.39877224 0.22832094 0.071391486 0.2504002 -0.16196063 0.18468706 -0.1155602 -0.0384512 -0.05368459 -0.14433067 0.020838013 -0.19354545 -0.26359928 -0.33438787 -0.48509246 0.11779692 0.04950044 0.21509106 0.1870754 -0.020238645 0.2209111 -0.29371473 0.024846712 -0.059207555 -0.2255366 -0.13104975 0.010839055 -0.2669657 0.16790186 -0.15977842 -0.2583568 -0.0924555 0.16946825 -0.19829926 -0.20384526 -0.1307694 -0.2254932 0.02306393 -0.10349951 0.5078326 -0.22265333 -0.034932066 -0.37618023 -0.08748856 0.4284137 -0.19099455 -0.046233803 0.0441864 0.1524047 0.4301684 0.24585068 -0.00421746 -0.12680766 0.08837479 0.045187917 0.048698045 0.071195886 -0.25146767 0.07936991 0.15469454 0.06996096 -0.09474634 0.08622832 0.27875718 0.52099836 0.04265296 0.047668014 -0.17638601 0.57643837 -0.060191948 -0.04593833 -0.54189205 0.13867389 0.19528823 -0.6657372 -0.4456461 0.16466834 -0.08960031 0.53840804 0.2060086 -0.19875896 0.1716032 0.29741392 -0.024385728 -0.17680603 0.21027532 -0.21549727 -0.08641111 0.15821695 -0.08718342 -0.08674119 -0.095088966 0.15268877 -0.08680028 0.1054437 0.26471975 -0.42730695 0.36397582 -0.060032375 -0.22547062 0.09063011 -0.0873942 0.107017726 0.2524795 -0.36462224 -0.16067314 0.12452361 0.0076332716 0.15827501 0.18082766 0.17018674 -0.1765509 0.19013631 -0.07178668 0.034542825 0.005532751 -0.08730422 -0.505659 0.10100071 0.2868134 -0.008077929 -0.043402873 0.07391928 0.088795066 -0.18916935 -0.12386721 -0.035832748 0.3712222