0.09602976 -0.013507609 0.027081024 -0.14282967 0.12423847 -0.50819373 0.019614175 0.52366626 0.19727133 -0.054938395 0.0053228424 0.16525741 0.18318069 -0.15389831 0.23921727 0.35786968 -0.15688255 -0.09458851 0.31529167 0.20140813 -0.31926906 0.14404188 -0.15988603 -0.07522213 0.020392988 0.13125755 -0.081276506 0.128796 -0.18409887 0.064810835 0.3561185 0.18830763 0.13535975 -0.043989234 -0.15809433 0.079993464 0.2860567 0.08877039 -0.0063357186 -0.27392644 0.23321694 0.36039475 -0.1236084 -0.27537918 -0.18791091 0.21138206 -0.12627207 -0.22960933 0.12468618 0.14358892 -0.18328333 0.33448887 -0.033076957 0.004732034 -0.222176 -0.27883422 -0.12784286 0.14783555 -0.47729063 0.04825471 0.19158526 -0.22829194 -0.122382514 -0.16829057 0.28993833 -0.11360777 -0.009431741 0.36253145 -0.08985721 -0.26582754 -0.18508995 -0.07324545 0.018398141 0.10640518 0.07651214 0.067582816 -0.46820402 0.35886648 -0.1765472 0.04198717 0.23382534 0.2214915 0.3464649 0.33338553 0.44606632 0.1287846 -0.13548547 0.13116707 0.12723611 -0.09628943 -0.47998098 0.2151589 -0.17684044 0.35383928 -0.25108263 -0.3414012 -0.1163575 -0.28492287 -0.1747991 0.0835571 0.062714934 -0.3746066 0.07366232 -0.07801771 0.028369632 0.092612274 -0.28486562 0.27925465 0.30012634 0.1550823 0.104949504 -0.26547873 -0.24436547 0.18282898 0.20424898 0.014913322 -0.23100325 -0.26491326 -0.09511713 0.15268101 -0.057151385 -0.166319 -0.17467308 -0.32364494 0.032312296 -0.265117 -0.0017317556 -0.17198277 0.089073025 -0.07592709 -0.22068304 0.11177825 0.06385268 -0.011763503 0.20819531 0.37019286 -0.2703436 -0.12910193 0.11675613 0.111794144 -0.03731524 -0.08743574 -0.2242732 0.10386441 -0.23919179 0.030533265 0.016478473 0.09396127 0.070038565 0.04863618 0.12096048 -0.28352356 -0.11390516 0.2148997 -0.054961517 -0.11685437 0.21419282 0.042265184 0.12697569 0.016212007 -0.06844158 -0.08776526 -0.08066497 -0.10913381 -0.3753328 -0.3331113 0.2076069 -0.27542 -0.009613708 0.19894622 0.4447751 -0.0771206 0.35861546 0.2283468 0.0906025 0.25159273 -0.16190557 0.193853 -0.09665032 -0.018453332 -0.092488654 -0.19826508 0.030570118 -0.17427702 -0.24148262 -0.32874897 -0.46404696 0.10706779 0.003836103 0.1989166 0.18053141 -0.025151087 0.18786174 -0.3093269 0.052268453 -0.06307019 -0.16727096 -0.10429062 0.056513913 -0.24278632 0.14199072 -0.13865635 -0.27718547 -0.06068276 0.16446565 -0.18329582 -0.19576254 -0.12804742 -0.19706947 0.051644314 -0.06957266 0.49617884 -0.21472944 -0.06495939 -0.3384877 -0.12069632 0.4615921 -0.16309638 -0.01941727 0.046388343 0.14926036 0.40701973 0.18804108 -0.0018545431 -0.09339712 0.041686334 0.031243524 0.018579204 0.08847201 -0.2503181 0.1190985 0.12817092 0.10702641 -0.12704691 0.048683975 0.28676197 0.47858444 0.014264821 0.01953321 -0.15683195 0.5127742 -0.07240919 -0.031267613 -0.500416 0.19103363 0.17073047 -0.6030272 -0.42141768 0.15664195 -0.06841698 0.5257095 0.18479776 -0.1995774 0.16132712 0.2790442 -0.017673511 -0.18855713 0.17839798 -0.17744718 -0.10900503 0.16524743 -0.070481546 -0.07429021 -0.11109029 0.13461195 -0.11119229 0.05600627 0.23406115 -0.4043095 0.33291423 -0.016591968 -0.19614244 0.13087283 -0.09693609 0.079381116 0.2616247 -0.35434413 -0.17727906 0.14754747 0.00550747 0.15293005 0.14152378 0.19821782 -0.21279065 0.18253486 -0.069023766 0.031073023 0.012901386 -0.101475045 -0.4684815 0.09222989 0.2537783 0.0030075987 -0.076290436 0.064679295 0.12829748 -0.17744975 -0.11997196 -0.011069512 0.34792757 -0.4979091 0.54672426 -0.09242262 0.010836755 -0.105333365 -0.055895362 0.20712608 -0.15505373 0.033877816 -0.15514202 0.2627318 0.41059443 0.07555318 0.12223036 0.10649709 -0.07450577 0.07381725 0.18820772 -0.05043344 0.25466192 -0.13247558 -0.022083972 -0.058293033 0.49431276 -0.016581638 0.016520528 0.32050568 -0.33323622 -0.0113470815 0.3443136 0.057319663 -0.014241391 0.14549448 0.120012306 0.10474282 -0.4917889 -0.27267697 0.22801746 -0.11089653 -0.21630065 0.04484937 -0.12491414 -0.22354925 -0.1597676 0.17574735 0.05857348 0.428196 0.28101864 -0.24206032 0.019933905 0.15115668 0.05349543 0.077684745 -0.26295045 -0.24667291 0.017948596 -0.19333243 0.11828004 0.19394037 -0.04320503 0.27214646 -0.091121234 0.30761436 0.3153882 0.09099001 0.33874902 -0.1510096 0.28486675 0.28851882 -0.007986135 0.0563867 0.13644388 0.040315863 0.09428894 0.13563164 -0.038032573 0.12800235 -0.38350537 -0.30250505 -0.01378854 -0.17088857 -0.030867135 -0.27367872 0.09261107 0.22166447 0.008380012 0.22733323 -0.27226102 -0.06275258 -0.22713555 -0.057997506 -0.037032798 0.14824854 -0.06176742 0.2295042 -0.45983875 0.021437949 -0.21209627 -0.26021844 -0.005408247 0.10713031 -0.12524353 0.11417255 0.24745212 -0.17537276 0.10329526 0.20740794 0.15497044 0.21500775 0.19030212 -0.06722886 0.13993916 0.28998595 0.17245302 -0.14889143 -0.108181365 0.2590882 -0.11547376 -0.20040634 0.34761223 0.044706907 -0.14796324 0.30179918 -0.01369647 0.3295475 -0.22802393 -0.41338637 0.3370287 0.23453744 0.085080706 0.07344686 0.007959888 -0.14346114 -0.26699615 0.053208083 0.20128614 0.015297765 0.16712761 -0.017100334 0.072861835 0.38074192 0.10409619 -0.29349175 0.1899335 -0.006051663 0.10877454 -0.017586011 -0.30920205 -0.043786354 -0.21181111 0.07765103 -0.15726773 0.2457614 -0.30497777 0.14621904 0.15288694 0.100185126 0.5195927 0.18920505 -0.058316246 -0.36729816 0.113147676 0.15314469 0.087679446 0.08542647 0.065121755 0.28038183 0.04511579 -0.23068838 -0.12146707 0.2585586 -0.20565988 0.0806988 0.24477601 -0.2974409 -0.21050031 0.0119565185 -0.086693004 -0.10722912 0.13251592 0.20390345 -0.20234194 0.01818537 0.10836515 -0.048949286 -0.1909344 0.28013295 -0.059495077 -0.039942496 0.23414557 -0.0022772804 -0.0036567603 0.09208843 0.17663915 0.14132799 0.025185103 -0.32600224 0.49998853 0.1077929 -0.033548396