0.1310224 -0.02607515 0.030503707 -0.17992818 0.17603403 -0.55456847 0.03647378 0.5783445 0.2144022 -0.054374974 0.010489728 0.18701342 0.20793106 -0.15617305 0.25695378 0.3837633 -0.10487641 -0.07132188 0.31702328 0.19712898 -0.3444948 0.12166224 -0.16565125 -0.09904447 0.054416224 0.13029699 -0.09430246 0.16687776 -0.17782971 0.050468568 0.40823504 0.17060839 0.12880966 0.007291198 -0.20489664 0.07161067 0.29312772 0.08946941 -0.013029384 -0.2997942 0.27260795 0.3967213 -0.15233767 -0.30242464 -0.24357681 0.1974623 -0.136346 -0.2312171 0.12698397 0.15725334 -0.22699752 0.40223274 -0.09015205 0.044231966 -0.20638202 -0.30710626 -0.105744764 0.13220735 -0.54415417 0.06543632 0.20335402 -0.26592267 -0.11275125 -0.16906357 0.23666842 -0.0825794 -0.005593729 0.43556297 -0.058965698 -0.26829994 -0.1923759 -0.09529957 0.099897385 0.11492728 0.08414461 0.09975031 -0.48162493 0.40489724 -0.19478431 0.044860158 0.27450606 0.23068213 0.37956882 0.38973066 0.47369978 0.12795821 -0.13802467 0.1384153 0.10822807 -0.14018834 -0.48855722 0.2743115 -0.15491496 0.39925358 -0.26927474 -0.3660563 -0.1508061 -0.32824448 -0.18920316 0.089358434 0.047132432 -0.40232432 0.1070447 -0.06295244 0.0424958 0.09985624 -0.32923615 0.33461887 0.34932268 0.18801126 0.09052708 -0.24105132 -0.27866974 0.19603163 0.22602947 0.016941717 -0.2689037 -0.30066577 -0.107535675 0.17970252 -0.0084057 -0.18640244 -0.10982879 -0.36369592 0.02640626 -0.30885154 -0.0031622045 -0.1984356 0.12177177 -0.12663747 -0.1968139 0.117674276 0.042396728 -0.015717557 0.25456303 0.40850684 -0.3362726 -0.123851106 0.103785545 0.0679341 -0.089285456 -0.05039394 -0.25154486 0.08537663 -0.25778085 0.027402973 -0.03215274 0.11842181 0.035555817 0.061354592 0.11851563 -0.3207879 -0.13747664 0.23312232 -0.026529044 -0.09250715 0.26454902 0.036939044 0.15409766 0.020178143 -0.044369906 -0.08463696 -0.10608878 -0.1288911 -0.41133404 -0.38398835 0.1953188 -0.306841 0.0073103663 0.20458497 0.48366633 -0.0834943 0.36197716 0.20687081 0.07494676 0.27776313 -0.16439979 0.17947184 -0.14666337 -0.014756145 -0.06976023 -0.20442113 -0.016631315 -0.18175028 -0.20634566 -0.36121517 -0.49974868 0.09819708 0.04704598 0.2036565 0.2257912 0.020522932 0.22504807 -0.35887173 0.09021941 -0.03373043 -0.2001173 -0.10264644 0.06785274 -0.22898926 0.16991225 -0.14826977 -0.34537393 -0.06873473 0.19401482 -0.23178911 -0.21693812 -0.11665532 -0.16373311 0.020538423