0.10595257 -0.0045540263 0.04329878 -0.1412044 0.13603139 -0.5238282 0.04353969 0.54825693 0.19825827 -0.074322276 -0.0055401153 0.15289752 0.19369757 -0.16340607 0.25053272 0.38551503 -0.15153497 -0.033704005 0.3348108 0.21337894 -0.3442842 0.15960814 -0.15460216 -0.09126743 0.042741317 0.12489832 -0.05759668 0.12525262 -0.20234099 0.07106203 0.37911126 0.18933883 0.12164856 -0.046431717 -0.13548943 0.09464998 0.29763764 0.08808463 -0.014188678 -0.27792665 0.23467763 0.37338537 -0.14461581 -0.2708673 -0.19492336 0.2268246 -0.122454405 -0.21874331 0.1254793 0.14057325 -0.20150934 0.37868622 -0.09048825 0.019560283 -0.20579976 -0.2958818 -0.12897332 0.15112264 -0.491956 0.041496817 0.21369074 -0.2512087 -0.13695659 -0.1372804 0.2614934 -0.11289791 -0.012613757 0.3765068 -0.078903414 -0.31033692 -0.13791932 -0.099635705 0.054424364 0.105816066 0.06559553 0.085089795 -0.46618745 0.3634368 -0.18005 0.030807795 0.24159777 0.21782908 0.36253956 0.33527905 0.4712485 0.117790125 -0.12590003 0.15342152 0.08627181 -0.117156886 -0.50126004 0.19261035 -0.19292235 0.3752304 -0.25492162 -0.33339137 -0.13219737 -0.2707889 -0.18614024 0.07401534 0.0370297 -0.38825506 0.050969105 -0.074160874 0.016129559 0.07560938 -0.29070243 0.26485866 0.30872712 0.18703158 0.0955748 -0.27799278 -0.25027022 0.18508248 0.22436745 -0.001569521 -0.20633358 -0.260748 -0.07400316 0.17263716 -0.034038655 -0.18304822 -0.14691183 -0.36056334 0.05379612 -0.28291854 -0.00410581 -0.1838697 0.12115235 -0.05076147 -0.23841126 0.12058962 0.1016753 -0.042646904 0.20157176 0.3959136 -0.2592127 -0.14955314 0.14870931 0.12905823 -0.03825873 -0.076987326 -0.22633591 0.09013047 -0.26065585 0.014651605 -0.013198882 0.114711106 0.07334879 0.04904721 0.12387064 -0.2912428 -0.12826303 0.22805524 -0.05519235 -0.10605319 0.20111816 -0.0046423627 0.12222847 0.019845167 -0.036742393 -0.076153934 -0.10943959 -0.118759826 -0.4018651 -0.35035995 0.20548336 -0.29813102 0.033596434 0.19544847 0.45013687 -0.06503939 0.37201095 0.21507281 0.08474313 0.24668762 -0.13008592 0.20511758 -0.10511662 -0.040335942 -0.10443144 -0.19437873 0.01579219 -0.16828418 -0.24516806 -0.3610573 -0.46506703 0.097619094 0.05669895 0.18597645 0.17886434 -0.04747635 0.16301489 -0.31125847 0.035385426 -0.067852326 -0.16113429 -0.11161395 0.029241456 -0.23418456 0.13106093 -0.1342454 -0.25105482 -0.1011779 0.14580908 -0.1798006 -0.19828369 -0.14770046 -0.20125796 0.03618903 -0.11207276 0.48847908 -0.19725491 -0.032800954 -0.3352334 -0.09307649 0.4645861 -0.1824137 0.0012562906 0.042032912 0.15909533 0.4199139 0.19811618 0.017264077 -0.12485005 0.03779204 0.062798165 0.004667991 0.09828 -0.26066625 0.120449826 0.13350773 0.09062065 -0.12417908 0.069964744 0.2871882 0.4897998 0.04645815 0.038324658 -0.15009639 0.55735856 -0.054052662 -0.04255024 -0.52741414 0.19859457 0.17831706 -0.62583834 -0.43217686 0.18393493 -0.038383424 0.54212564 0.18496428 -0.19600764 0.1706699 0.26804605 -0.02994946 -0.21921816 0.16372111 -0.1972421 -0.12554862 0.15178873 -0.038235184 -0.09703283 -0.112804726 0.14099492 -0.098131366 0.06751214 0.23837046 -0.41525808 0.3431889 -0.05043121 -0.21090952 0.13329363 -0.11097467 0.09373639 0.27347282 -0.34296337 -0.14471075 0.1232785 -0.022338621 0.13543133 0.14407393 0.20301624 -0.2151219 0.15948443 -0.08392546 -0.0012658928 0.014572988 -0.13389145 -0.44347838 0.09668149 0.25370294 0.015333137 -0.08834368 0.06838435 0.13514593 -0.1819117 -0.09310667 -0.011283635 0.34987542 -0.5354278 0.5664511 -0.090700746 -0.012833293 -0.10977924 -0.055509873 0.17494845 -0.14332327 0.025197089 -0.1573317 0.27482674 0.43702188 0.09666452 0.11802277 0.06312564 -0.1223424 0.08061404 0.18805031 -0.03934714 0.24960987 -0.08741684 -0.059202377 -0.06762149 0.5038603 -0.02838985 -0.0019592328 0.31800705 -0.36016974 -0.0011707471 0.30807787 0.036683362 0.008723208 0.1402643 0.1278117 0.045867763 -0.5172365 -0.29438403 0.22880028 -0.1254084 -0.25266287 0.038110226 -0.14192171 -0.21071029 -0.16649179 0.12901938 0.060353458 0.44029063 0.3093764 -0.23658065 -0.042215116 0.14806189 0.039339937 0.122596204 -0.29409382 -0.26028234 0.019322036 -0.20449486 0.12460412 0.17911918 -0.027684826 0.30209532 -0.1205976 0.32292926 0.33670297 0.07534558 0.3397641 -0.1785091 0.2957285 0.29361624 -0.017074417 0.044756506 0.11075871 0.06627979 0.123858824 0.12641853 -0.01561639 0.07478488 -0.4163934 -0.3033004 -0.044590168 -0.18848334 -0.06168577 -0.27348107 0.11454835 0.23418985 0.018548463 0.22057448 -0.29139692 -0.03974967 -0.23862447 -0.06510452 -0.046571434 0.1189507 -0.08069865 0.19182622 -0.47193635 -0.019872414 -0.2082507 -0.26441205 0.028234722