0.093464024 -0.018315816 0.022107268 -0.13692929 0.118696004 -0.50593984 0.03148289 0.5240374 0.17825544 -0.047235906 0.017179117 0.15997414 0.15792966 -0.14030223 0.23402023 0.36938512 -0.14865233 -0.0589865 0.309253 0.19502546 -0.31573948 0.14823398 -0.1473884 -0.06722752 0.013712316 0.1187633 -0.070157036 0.13180946 -0.15944229 0.039797485 0.346024 0.17172995 0.11506342 -0.042405095 -0.14686005 0.070278466 0.2746095 0.08233119 0.024358561 -0.27587137 0.2207814 0.34882963 -0.11415402 -0.26866528 -0.16196018 0.2076838 -0.1145699 -0.20972589 0.096339405 0.14343002 -0.16942877 0.34381795 -0.05977245 0.023955334 -0.20798483 -0.27820587 -0.11807498 0.13980334 -0.47492057 0.021472413 0.1950235 -0.23338044 -0.11830358 -0.14670381 0.2902216 -0.10400173 -0.025567243 0.34538013 -0.07811232 -0.26892677 -0.15689045 -0.067556195 0.029622264 0.09153728 0.083528355 0.05518577 -0.4636743 0.34906852 -0.17196408 0.02306951 0.22890672 0.20154935 0.33956993 0.32119977 0.44911498 0.11606247 -0.11835876 0.13220608 0.10309805 -0.1015476 -0.46382347 0.20187093 -0.16349244 0.358929 -0.24322851 -0.3251188 -0.113578916 -0.26455632 -0.16107586 0.07964691 0.044456333 -0.36245525 0.05967643 -0.060209796 -0.013990601 0.07773055 -0.27120253 0.25185966 0.2774278 0.15913007 0.09533254 -0.25142565 -0.24201834 0.17786948 0.17749338 -0.0068336893 -0.22290099 -0.23381217 -0.06715472 0.14391105 -0.0380757 -0.15368523 -0.16438457 -0.32352433 0.044616643 -0.24586727 -0.0016628727 -0.16331047 0.09011192 -0.08082449 -0.19698021 0.085906476 0.06385511 -0.028961737 0.19693539 0.37072456 -0.26800093 -0.13739158 0.11560603 0.11807277 -0.04698284 -0.07879612 -0.1973624 0.08436156 -0.23153166 0.027344028 -0.019234352 0.094903074 0.065607116 0.030836357 0.13894431 -0.28402388 -0.10726675 0.20369302 -0.04744931 -0.09786627 0.20336378 0.024387848 0.12681104 0.045420583 -0.050353408 -0.072513275 -0.099774584 -0.08477605 -0.36190307 -0.3327289 0.20227355 -0.25781816 0.004509368 0.17467587 0.43726516 -0.063646115 0.35075375 0.20038378 0.09130066 0.23601148 -0.13360895 0.19639654 -0.10558289 -0.026138453 -0.088436894 -0.1730297 0.01587282 -0.16529362 -0.22689413 -0.31676516 -0.44599223 0.10371376 0.036361266 0.20690653 0.15734825 -0.007644345 0.18132544 -0.30886278 0.01839774 -0.049445756 -0.16066062 -0.0847274 0.029788824 -0.22551236 0.1258796 -0.11513178 -0.26891062 -0.0858608 0.14541589 -0.17363201 -0.18399505 -0.116836466 -0.1864367 0.05332665 -0.07342514 0.48879215 -0.19473262 -0.052760802 -0.32002583 -0.09234684 0.44155183 -0.17084593 -0.025081942 0.04166405 0.14801793 0.39855048 0.17924215 -0.006170932 -0.10340992 0.05225873 0.06675719 0.035624374 0.0784061 -0.2569714 0.106525935 0.13120161 0.08250045 -0.114871055 0.0609879 0.27843484 0.47714376 0.034290995 0.037746817 -0.13370094 0.5117594 -0.05982941 -0.019333875 -0.49546826 0.16861321 0.1746667 -0.600117 -0.42191547 0.15627089 -0.060124718 0.51773566 0.17073978 -0.1738775 0.15386876 0.26691452 -0.040476497 -0.18964198 0.15651745 -0.1764819 -0.096425906 0.135347 -0.072288975 -0.07112623 -0.096425824 0.11633522 -0.10056926 0.060041357 0.21898654 -0.39196953 0.33010575 -0.033221405 -0.18287894 0.117512494 -0.08403984 0.06392561 0.25504938 -0.33714584 -0.16269487 0.14176023 -0.026921587 0.13517633 0.13864821 0.17818055 -0.17990142 0.16668116 -0.059474427 0.016450355 0.028898114 -0.1167712 -0.46454707 0.08426122 0.24668163 0.014204546 -0.07051606 0.049097113 0.11660667 -0.15650077 -0.10255808 -0.014972512 0.3253892 -0.50933826 0.5369298 -0.06476138 -0.0059977365 -0.08983447 -0.036605783 0.19146933 -0.14366499 0.0033284216 -0.14489207 0.25659636 0.4159751 0.08048871 0.104804955 0.10051802 -0.09745486 0.057973314 0.15790129 -0.07282732 0.23764795 -0.1152214 -0.05103412 -0.05047806 0.4865681 -0.0357387 0.004891132 0.29983744 -0.3238657 0.02397028 0.34139255 0.038354035 0.007940527 0.12143621 0.12600738 0.079594806 -0.48032638 -0.2656686 0.20192878 -0.0999807 -0.20742938 0.030963091 -0.11339198 -0.2276733 -0.13749777 0.1386908 0.05507135 0.41105467 0.28441307 -0.22265407 0.009935877 0.13980576 0.034424298 0.08494278 -0.25380862 -0.23293807 0.0022764753 -0.188071 0.11429915 0.17672168 -0.03930381 0.2686227 -0.07767751 0.29193524 0.31681153 0.081207 0.31826365 -0.13998641 0.27626577 0.2860677 2.198933E-5 0.040612064 0.11245037 0.07536377 0.117144085 0.12791862 -0.013174429 0.09558161 -0.3869261 -0.2961132 -0.028630147 -0.15137877 -0.04239348 -0.2679344 0.100895606 0.21710968 -0.0058410205 0.2056306 -0.27269334 -0.06140679 -0.21549696 -0.043527313 -0.050524857 0.13460647 -0.05781536 0.21005654 -0.44769526 5.602933E-4 -0.19943412 -0.24677725 0.010585163 0.098729 -0.12832081 0.1216072 0.22686982 -0.16387878 0.09397404 0.19255686 0.13187532 0.2021677 0.1815742 -0.072503306 0.12830499 0.26795954 0.16546609 -0.14451323 -0.09185555 0.25713152 -0.08758351 -0.16876659 0.3399695 0.025316264 -0.1393384 0.2979902 0.0024829272 0.32159626 -0.2406414 -0.3928485 0.3236086 0.23881528 0.07258808 0.08210478 -0.011776215 -0.13869809 -0.26996353 0.055979084 0.19463944 0.019134236 0.16582125 -0.039454773 0.05727749 0.36077878 0.094164714 -0.28327852 0.17758486 -0.014614727 0.117333256 0.011752517 -0.29729965 -0.049311806 -0.1978341 0.06301946 -0.13638914 0.244577 -0.2755114 0.1445779 0.13383687 0.10450106 0.5216866 0.17899542 -0.05535139 -0.3650883 0.10149696 0.15643674 0.09380394 0.076492876 0.09713339 0.26451123 0.07907332 -0.23152612 -0.10645203 0.24739507 -0.19023186 0.10935048 0.23378813 -0.30239147 -0.19771728 0.003846266 -0.07417046 -0.09799242 0.118211225 0.18797113 -0.18819353 0.020314388 0.08982993 -0.031332824 -0.17541601 0.27429733 -0.027923984 -0.04844942 0.23690851 0.012659139 0.018408788 0.10717232 0.18092227 0.14016084 0.054673765 -0.32611108 0.50092566 0.07042167 -0.034696613 -0.25363243 0.17875549 -0.016063092 -0.07919935 -0.2857622 0.012684212 -0.13958398 0.12952489 -0.45379892 -0.22021456 -0.044172574 0.13642529 0.16409335 -0.13154683 -0.003691587 -0.14511402 0.33392972 0.068264194 -0.17833808 -0.045981623 -0.11447561 0.14661188 -0.021347092 -0.13423231 0.08058282 0.19091946 -0.08061417 0.08876351 0.23330258 0.13796377 -0.11644039 -0.29326203 -0.0014604926 0.1510001 0.034861807 0.08386541 0.1007829 0.024427721 0.14284207 0.20376317 0.22330388 0.3940638 -0.19604358 0.3252865 -0.005947643 0.21086757 -0.08760795 -0.06234165 0.31260467 0.06368797 -0.33926615 0.13319017 -0.14921513 0.21628498 0.32221302 0.2741151 0.31780782 0.10773158 -0.34923527 0.054640215 0.123180225 -0.23494306 -0.018555535 -0.10935768 -0.012675207 -0.39169237 0.07223871 -0.14153123 -0.15304096 -0.2540009 0.10689713 0.04524371 0.37786618 0.15516545 -0.24110432 0.15613031 0.11822192 -0.3539392 -0.027191468 -0.36930004 -0.014775651 -0.1795318 -0.06434161 0.029595904 -0.09203674 0.364303 0.009358571 -0.46792975 0.06973817 -0.10111577 -0.09833791 -0.11275113 0.033172917 0.28952262 -0.18794422 -0.11765009 0.044654742 -0.04977932 0.23464106 0.23938753