0.0724151 0.020750144 -0.0038833013 -0.15284757 0.11797023 -0.53607655 -0.0025806755 0.5768093 0.18916185 0.029829055 -0.001638106 0.11687686 0.16986288 -0.1682999 0.28519493 0.3887946 -0.12825377 -0.1150557 0.3869194 0.26032424 -0.32172567 0.18898389 -0.18616949 -0.030873295 0.008893214 0.1293864 -0.08819252 0.13589558 -0.15151563 0.05236663 0.4087762 0.2290861 0.099444464 -0.06105006 -0.20742506 0.05795516 0.28998962 0.06811269 0.03845761 -0.28236094 0.17263278 0.37030098 -0.1364197 -0.278427 -0.1910187 0.2088021 -0.16395701 -0.21111305 0.11500159 0.16504858 -0.2122068 0.38658822 -0.087259516 0.06527558 -0.28215355 -0.28302 -0.16165575 0.18446817 -0.46746883 -0.0022424469 0.1705697 -0.25984445 -0.15918404 -0.1998188 0.33154058 -0.084437914 -0.05127084 0.38461584 -0.049251337 -0.3292154 -0.13663141 -0.08176731 0.06555391 0.10178083 0.09600569 -0.006809014 -0.49546131 0.41879043 -0.2507575 0.028733311 0.24351954 0.23781158 0.3613991 0.36996704 0.47178605 0.12569174 -0.13045064 0.15939927 0.084398605 -0.07482719 -0.5598611 0.2834503 -0.17287448 0.425551 -0.29759434 -0.3978266 -0.10746727 -0.29283565 -0.20813617 0.12705778 0.02070331 -0.32556102 0.065559745 -0.06852696 0.057124224 0.11929166 -0.3289539 0.28220695 0.33077598 0.18382713 0.11480231 -0.20770383 -0.2750697 0.19821878 0.16349514 -0.043534607 -0.18782727 -0.23686522 -0.082284614 0.12933932 -0.12173807 -0.1368242 -0.19259967 -0.29843423 0.08674457 -0.26498276 0.009783754 -0.18453561 0.10248884 -0.07568366 -0.2519106 0.14956479 0.026354194 -0.080668226 0.1948845 0.416666 -0.2786061 -0.18103896 0.1571452 0.115518264