-2.9001627E-4 -0.0014152026 -1.1542831E-4 0.0016161093 -0.0012963885 7.991654E-4 -0.0010878928 1.4505628E-4 -0.0016338169 -0.00299229 0.0017695776 5.0736434E-4 3.5352272E-4 7.306284E-5 0.0015904203 0.0037086876 0.0026859015 -7.913154E-5 7.113404E-4 -0.0014348144 -2.9572856E-4 -4.4065737E-4 0.0013485642 0.0032078857 0.0022331472 -0.0026864258 0.0016051917 8.139684E-4 -5.630569E-4 0.0016547597 -4.7935057E-5 0.0011751547 -0.0012991325 8.00512E-4 -2.5338976E-4 9.125305E-4 -8.534058E-6 0.0014593801 4.4168514E-4 6.3785363E-4 -0.001949097 -2.8018141E-5 9.5574686E-4 -4.1448648E-4 -1.5226964E-4 1.3710745E-4 -0.0011029345 -0.0014503935 -0.0023635754 -0.0011991115 3.289529E-4 0.001016225 0.0012407693 0.0012539899 -0.0011166243 -0.003636596 9.957163E-4 -2.4088203E-4 -0.0012175399 -3.6836264E-4 0.0012236754 0.0026810193 -2.6650087E-5 4.6662433E-4 -4.328806E-4 0.0018116088 -0.001409382 -0.0014307932 -4.6579176E-4 0.0029107004 0.002803927 8.597693E-4 -1.4896298E-4 -4.8040747E-5 2.8697093E-4 0.001036013 -4.910793E-4 8.45853E-4 -8.8761543E-4 -7.936886E-4 9.705177E-4 0.002176114 0.0011511517 -0.0021078067 -3.2985024E-4 -5.622529E-4 -7.2539435E-4 0.0017841259 0.001155724 7.547203E-4 -2.0331587E-4 0.0016189798 0.001954086 -8.918517E-4 0.0011108974 0.0014312076 0.001116519 0.0023629926 -0.0015676639 -1.4142634E-4 -0.0038563698 -3.4442474E-4 0.0010225734 -2.588492E-4 -0.0015889216 0.0011269371 -9.785555E-4 6.7287276E-4 0.0012064503 5.665852E-4 0.0010606482 -0.0022990813 -5.1760813E-5 -0.003673927 -0.0013700516 1.9978882E-4 -6.578326E-4 5.613808E-4 0.0021027077 -7.020171E-4 -9.076061E-4 0.0011335078 -0.0016560097 2.7844502E-4 -0.0021803211 -0.0017152386 0.001276833 4.4386514E-4 2.8910223E-4 0.0014913594 7.351155E-4 -6.145856E-4 -5.516963E-4 -1.9924948E-4 4.0035302E-4 3.4725806E-4 4.2919462E-4 -3.664736E-4 -8.4741676E-4 2.0206609E-4 2.1992633E-4 0.0013717422 0.0032005124 -6.552895E-4 -6.6281477E-4 -2.195051E-4 0.0014054568 5.1795016E-4 0.0023566098 -7.899868E-4 0.0017906941 -6.127099E-4 0.0035422966 -0.0014958566 0.0010371113 -0.0018025078 -0.0014320216 7.637921E-4 -5.0238956E-4 -0.001717429 0.004054499 -0.0020457625 0.0015549284 -0.0010689647 0.0041401573 0.0010767214 0.0025266856 1.6787637E-4 2.466438E-4 7.576053E-4 -0.0020302474 -7.528202E-4 -6.141084E-4 -7.4670615E-4 2.2278757E-5 0.0020362407 -0.002482647 -3.024377E-5 8.8968273E-4 5.3204165E-4 0.0023027095 -0.0013141914 7.825708E-4 9.990677E-4 0.0028929962 0.0015537508 -0.0022686722 -2.8506768E-4 -7.01245E-4 -4.0995702E-4 -1.3048761E-5 -0.0012927684 0.0015701728 0.0034275912 -0.0013299014 -2.2351186E-4 -0.0011810324 3.922276E-4 8.0036157E-4 0.0010265581 -0.0021603196 0.0011661443 -8.3032704E-4 8.004427E-4 -0.001478036 -0.0021152892 -1.7921391E-4 -2.1427125E-4 -3.4361647E-4 -0.0016966132 0.0028331797 -3.7953397E-4 -2.2172637E-4 9.373784E-4 3.397402E-4 -3.106863E-4 -0.0017297869 -5.2388955E-4 8.7036274E-4 0.0022288435 0.0011243228 -5.906897E-4 -0.0022405752 4.352242E-5 -4.9585203E-4 -0.0015638673 0.002548329 4.9129676E-4 -7.160445E-4 0.0012083013 3.0844967E-5 1.8009916E-4 0.0018785016 0.0010693037 0.0011920765 0.0011952035 -0.0016338571 -0.002303433 0.0010638176 8.1657246E-4 -4.9659406E-4 -8.562726E-4 0.0013086174 -9.098081E-4 5.0491584E-4 0.0018542045 0.003630612 2.195852E-4 -3.4678882E-4 -0.0010010183 7.126635E-4 -2.3650518E-4 0.0013380761 -0.0034361104 0.0016962803 -7.525156E-5 0.001115546 0.0015172835 -9.005081E-4 1.876402E-4 9.5374056E-4 0.0010071261 1.8408033E-4 6.7059987E-4 -8.9496863E-4 6.415477E-5 6.3474744E-4 6.5620977E-4 9.884407E-4 4.7907373E-4 1.7168844E-5 2.4217102E-4 6.592757E-4 -6.7056774E-4 3.0845104E-4 -7.277762E-4 -5.806315E-4 -2.4970423E-4 6.696519E-4 -3.3310874E-4 -0.004013601 -5.6568015E-4 3.982319E-4 9.954316E-4 -5.391566E-4 2.469283E-4 4.988214E-4 0.0019577278 -0.0018674935 0.0015802316 -7.9678674E-4 0.0035293503 -0.0011189621 0.0011966124 6.3640764E-4 4.98547E-4 -8.4375194E-4 2.4536625E-4 -5.7714863E-4 9.251771E-4 1.16413226E-4 -0.0016111246 -0.0019770523 -2.2072071E-4 0.0013321796 7.375766E-4 -0.0010181017 -9.663076E-4 -9.6361915E-4 0.003456703 0.002469635 5.7736697E-4 0.0013463162 -0.0015926934 0.0012655682 3.4166046E-4 -7.0057285E-4 -0.0021618016 3.5027915E-6 -0.0011471706 0.0018977611 -0.0013458227 -0.0023353887 5.4849643E-4 2.4605836E-4 0.0026387167 1.4555256E-4 -8.5100543E-4 -0.0010652983 0.002718653 7.128901E-4 -2.0596758E-4 0.0012552035 1.3678533E-4 1.5686867E-4 0.0029463465 6.27413E-4 -2.815657E-4 -7.415288E-4 0.0014396743 -4.2701E-4 -8.8073465E-4 -1.898986E-4 0.002632327 1.0870062E-5 -0.002568487 9.5201726E-4 -0.0018654291 -0.0010834557 0.0028404938 -6.42183E-4 7.3488377E-4 -4.6677567E-4 -0.0010334739 0.0017852307 2.8527057E-4 -0.0012625983 5.5672287E-4 -4.9008476E-4 -0.002223282 -0.0015861744 -9.101424E-4 -0.0012741017 8.054819E-4 0.0011379848 -1.2393971E-4 -0.0014853678 -0.0018590952 -4.6581583E-4 4.891443E-4 0.0022787186 1.48125E-4 -1.5257359E-4 8.198976E-4 -8.879761E-4 -9.95755E-4 0.0012224925 -0.0020117275 -2.4559535E-4 -9.775207E-4 -0.0033880752 -1.6626407E-4 9.1509335E-4 2.5611458E-4 0.001253588 -0.0017515136 -0.0040290216 0.0035212287 -0.0027284194 8.095893E-4 -0.0036576185 2.44893E-4 0.0022734504 8.1926363E-4 -0.0011173419 0.0018167382 0.002463625 0.0035654532 0.0017057743 0.001193508 0.0026186672 0.0012000533 0.0014220455 -0.00156515 -8.039693E-4 -0.0019442774 6.185014E-4 0.0031789425 0.0014941058 6.9210626E-4 7.682522E-4 4.397637E-4 -7.155977E-4 3.6874588E-4 9.200395E-4 -0.0019157626 0.0024301608 -9.239401E-4 -1.9850815E-4 -3.882554E-4 5.0288485E-4 -3.1757145E-4 2.0725909E-4 5.998189E-4 0.003419478 -9.4451243E-4 -0.0025222402 -0.0024733269 -0.0031946145 7.463241E-4 0.0035863146 -0.0037381947 -0.0068241395 0.0020405147 -4.9040397E-4 -6.280187E-4 -0.0010643768 -2.4447395E-4 2.9841485E-4 4.4398534E-5 -0.0010736657 -2.459156E-4 3.12841E-4 6.8374246E-4 3.9521302E-4 -4.3148024E-4 -5.7790277E-4 7.837947E-4 0.0010777686 1.7249462E-4 -1.2206119E-4 -8.262872E-4 -1.9726082E-4 0.0020615319 -0.0017028898 0.0035478014 -8.684575E-4 0.0020489534 0.0039156033 4.61156E-5 0.0030894042 -0.0013592886 -4.3485433E-4 0.0013082756 7.92374E-4 -0.001973853 -0.0019547786 0.0012961166 -7.2188006E-5 3.2426443E-4 8.411376E-4 0.0022536854 7.823503E-4 2.577987E-4 0.003924806 -6.1575725E-4 4.7729188E-4 0.0012741297 2.117944E-6 0.0016947793 -7.3836395E-4 3.6303408E-4 2.4374473E-4 -0.0020882888 1.4740508E-6 6.2267855E-4 6.244311E-5 -0.002143855 -5.030859E-5 0.0010987878 -1.7817674E-4 -6.364777E-4 4.2596253E-4 -0.0012579252 5.001143E-4 -0.002170701 2.736207E-4 -0.0010547837 -6.8096677E-4 -1.5731964E-4 7.343341E-4 0.002388912 0.0011521259 -0.0032307426 -0.0015050586 6.3351914E-4 5.154471E-4 4.8226293E-4 3.885968E-4 0.0019188849 -0.0017001316 -7.798362E-4 -6.77067E-4 -3.3188728E-4 4.783859E-4 0.0010716725 -0.0015450073 7.93709E-4 0.002125702 2.65482E-4 0.0032830318 5.254976E-4 -2.8108977E-4 0.0014098265 7.5505755E-4 -0.0025755693 -5.069836E-4 9.210338E-4 0.0019859008 0.0012090725 0.0012253427 -3.2616884E-4 0.004335117 -5.3718715E-4 -0.0044468455 -0.0013802531 -8.708214E-4 0.0014475659 -7.1981974E-4 -8.8191184E-4 2.4194628E-4 -0.0010913841 8.6358085E-4 7.767559E-4 -0.0018945466 -3.2120378E-4 -0.0013672558 -0.0015360137 4.749432E-4 -0.001107041 5.692105E-4 -6.648835E-4 6.997074E-4 7.1113615E-4 -0.002160387 -6.5258605E-4 6.050895E-4 -0.0052274056 0.001481938 5.591114E-4 8.130221E-4 -0.002880392 -7.656419E-4 0.0015239767 0.0020945247 -7.9224753E-4 -7.092806E-4 0.002208864 -9.0338825E-4 -8.4271515E-4 5.3298176E-4 3.632992E-4 0.0015935967 -0.0026132318 -0.0019645512 -0.002174228 0.0028810182 0.0011577995 -9.926773E-4 0.0021573687 -9.506644E-4 0.0017528152 0.0013211665 5.662688E-4 -0.0024839183 -7.404161E-4 7.94108E-4 -0.001168828 0.0013964204 -9.662307E-4 -0.0014036912 0.0017852131 -1.6662537E-4 2.4188217E-4 3.2567943E-4 -3.0305193E-4 -0.0018686244 0.004471816 -0.0016808028 4.2290107E-4 -2.3543078E-4 -0.0016217 0.0020021403 2.7489732E-4 0.0014064776 0.0020394856 -0.0011090164 -0.001346029 -0.0023170507 -0.0024073198 3.6804838E-4 0.0014966961 -0.004973594 -0.003556565 2.1895446E-4 -0.0010079959 9.7606564E-4 0.0013816144 -0.003112191 -0.0013828222 -9.133512E-4 -6.0687505E-4 -2.7169008E-5 -0.0017505497 -8.576121E-4 -4.1253417E-4 7.261093E-4 -0.002230925 2.0460412E-4 2.4451863E-4 0.0013899745 -2.4589777E-4 -0.002764603 5.750076E-4 5.0208764E-4 -0.0017864608 6.3136034E-4 -0.0044681397 0.001230621 -0.0015558036 -1.9636068E-4 5.5401144E-4 0.0014663006 -0.0017868973 -0.001806628 8.7194296E-4 0.0024938884 -9.963211E-4 0.0014560145 -2.8808368E-4 0.0013044374 -0.0015272909 -0.001471713 0.0018455661 9.695797E-4 0.0023608343 -0.0013371878 2.323525E-4 -5.215856E-4 -0.0016754271 -8.3889376E-5 -0.0040183137 -0.0023276191 -0.0026800614 0.0023748628 -4.292917E-4 0.0016405242 -4.4543255E-4 0.0031759976 9.1990725E-5 -0.0013950231 -0.0017439427 -3.2876822E-4 8.612301E-4 0.0010565175 -0.0017366116 -0.0018939311 -3.0320833E-4 0.0011457739 -0.001606293 -0.0032901475 -9.6174853E-4 -0.0016171987 -6.6770497E-4 -0.0025063024 6.639438E-4 5.596423E-4 -0.0014586161 -9.5979054E-4 -0.0020634988 -3.7400133E-4 5.30445E-4 0.0027891805 8.4120635E-5 -0.0027981931 8.9836057E-4 6.8397244E-4 0.0021421053 0.0024990102 0.001710196