5.5098755E-4 1.4746899E-4 -4.0151385E-4 2.7649294E-4 6.979662E-4 0.002805187 -4.8392278E-4 -0.0025135453 6.225545E-5 -4.278764E-4 1.222665E-5 -0.002951962 -6.4685295E-4 -1.8512644E-4 -0.0010546886 -0.001309375 1.20552955E-4 -0.0010545165 -0.0014518963 -0.0035636784 5.6188914E-4 -3.876575E-4 -1.555226E-4 8.422001E-5 -3.490829E-4 1.155065E-4 6.118778E-5 -5.259995E-4 -0.0017640714 -5.7605316E-4 -0.0010085702 -6.267956E-4 -7.985382E-4 -6.4088745E-5 2.6403368E-4 -1.567445E-5 -0.0019572312 -2.1066447E-4 -3.5061245E-4 -1.2718214E-4 -0.0015656108 -0.001580809 -2.696173E-5 -4.3053E-4 0.0029952712 6.5433356E-4 -1.7521868E-4 0.0016156898 -0.0024641412 6.7662384E-4 3.859318E-4 -9.9868106E-5 -7.549843E-4 3.3382053E-4 -2.2988254E-4 1.1252996E-5 9.6050854E-4 1.7944642E-4 4.65411E-6 1.4140518E-4 -8.418088E-5 2.9170405E-5 -3.4565385E-4 0.002712797 -0.0012867828 7.928328E-4 5.977993E-4 -0.0016274026 8.127326E-4 3.66846E-4 -3.969448E-5 4.2266134E-4 -4.2231628E-4 -2.1140504E-4 9.186275E-6 -0.0019213227 0.0015149924 -7.686233E-4 4.6785624E-4 -0.0012047783 1.941672E-4 -4.0665123E-4 -0.0034394856 -0.0012036092 -7.7613234E-4 -7.5543695E-4 8.731113E-4 -1.721895E-4 -0.0016273163 -9.717309E-5 0.003130714 -0.0023624955 -2.67056E-4 -1.7406396E-4 4.0531068E-4 1.5106794E-4 6.558892E-5 7.6982455E-4 0.0021946596 -8.116461E-4 -1.1591517E-4 4.4341775E-4 -8.6360954E-4 -9.451064E-5 -0.0014931035 -7.475694E-5 4.987497E-4 -0.0024138233 -9.551917E-4 -0.0011315221 7.025781E-6 0.006042946 0.0012816037 -8.676131E-5 -0.0011035552 -0.0013771272 -1.7532322E-4 2.0912883E-4 2.3768107E-4 -2.5734544E-4 -5.588174E-5 4.251962E-4 -1.1348544E-4 0.0013896583 2.6372168E-4 0.0021347278 3.0676337E-4 0.0013541306 -2.6604638E-4 4.5778468E-4 4.0662874E-4 -1.2646266E-4 1.226583E-4 -0.0014258169 -4.4819343E-4 -4.9380644E-4 -7.024066E-4 0.0010702241 -2.0257641E-4 4.3063588E-4 7.490207E-5 4.3167023E-4 -0.0011067165 0.0018274327 3.6697538E-4 -3.937302E-4 -0.0013263435 -4.2556343E-4 3.7219445E-4 -0.0027651824 1.6733399E-4 -2.3674173E-4 -4.848907E-4 2.1168625E-4 -4.2068522E-4 -4.3358898E-4 3.8693508E-4 -7.456727E-5 -0.002546095 1.7361445E-4 -1.0423863E-4 -2.4276788E-4 1.482812E-4 2.8987756E-4 0.0019941821 4.694476E-4 5.7453464E-5 3.1502979E-4 4.134308E-4 -0.0010654537 -9.677083E-4 -5.960727E-4 -9.370829E-4 -0.0026456588 2.0041922E-4 -0.0012857592 8.532947E-4 -4.4236367E-5 3.020302E-6 9.1860755E-5 6.750252E-4 -5.5084744E-4 4.1795772E-4 9.1916416E-5 1.0468933E-4 0.0013083718 0.0018673438 3.807473E-4 1.228705E-4 -9.837425E-4 8.370796E-4 1.4364647E-4 -4.1939324E-4 0.004426097 -7.3422905E-4 2.7969395E-4 0.0012988413 -2.5321252E-4 -0.0016394255 4.920331E-4 -0.0010384616 0.0013674871 9.7964454E-5 0.0014938958 -0.002441804 -4.3517177E-4 0.0019991181 -3.016403E-4 8.7456417E-4 -3.3535023E-4 -1.3739067E-4 -0.0017963923 0.0013917156 -2.1002651E-4 9.527422E-4 5.4209516E-4 -7.437069E-5 0.0019113303 5.4756718E-5 -2.8749878E-4 -5.2821985E-4 -3.8878457E-4 -0.0010885949 6.6643895E-4 1.4421111E-4 2.7168004E-4 -4.3805657E-4 1.0266682E-4 1.5461275E-4 5.672212E-4 -0.0015145696 1.0173253E-4 2.3283286E-4 -2.6431482E-4 2.3400658E-4 6.110369E-4 -0.001287011 -2.3396581E-4 7.657021E-4 0.0010078839 -1.4181514E-4 9.2461484E-4 3.1815984E-4 0.002858399 4.0466076E-4 2.5256522E-6 2.4210959E-4 9.4627216E-4 -4.954609E-4 4.7710584E-4 -5.3869036E-4 -1.9977186E-4 0.0017961349 -2.3191783E-4 -8.146402E-4 6.4044213E-4 2.5756622E-4 -0.0011854575 5.789935E-4 6.0296303E-4 7.4723503E-6 -1.0383719E-4 -2.3906925E-4 -5.0448114E-5 6.6762805E-6 -0.001234296 1.14864095E-4 -8.873204E-4 -6.0244487E-4 -0.0021099045 3.8029277E-4 0.0021764045 -0.0015863075 -5.250621E-4 1.8834836E-4 -5.2193005E-4 4.9215753E-4 -3.4327863E-4 -0.001702871 -1.2501267E-4 -2.8251938E-4 -4.577258E-4 -0.0016909108 7.85283E-4 4.1137767E-4 -3.1537516E-4 -2.1915507E-4 7.684581E-5 -1.2928342E-4 0.0019084883 1.944009E-4 -2.7820503E-4 -1.2987685E-4 -5.6330115E-5 3.9232653E-4 -2.0313862E-4 7.4399007E-4 1.95337E-4 3.2799493E-4 -5.0080207E-4 0.0012825303 -0.0031914734 0.0015328319 5.6799164E-4 3.9665733E-4 1.090765E-5 -6.866612E-4 6.3955656E-4 -3.745876E-4 -3.2825748E-4 -0.002424329 -0.0017381129 5.2056514E-4 1.1266908E-5 3.306687E-5 2.3575587E-4 -4.120526E-5 8.281401E-4 3.855212E-4 -0.0016840497 2.5161688E-4 2.4006481E-4 -1.2741095E-4 -0.0022404138 -5.27413E-4 4.7093877E-4 -0.0011091249 0.0051507717 0.0022074333 -0.0018337087 -9.4657775E-4 -6.920482E-4 -7.8490854E-4 1.4799295E-4 -2.2917977E-4 0.001566059 5.81489E-5 2.0024338E-4 0.002148673 0.0027132076 -5.7576416E-4 6.832648E-5 0.0010770969 -1.0144955E-5 1.9464846E-4 1.5668863E-4 1.498817E-4 -0.0021754347 5.351919E-4 -0.001713591 -2.4115565E-4 -8.673931E-5 -6.717319E-4 7.396686E-4 0.0031809907 -0.0016129804 0.0016943564 6.809806E-4 -7.0470246E-4 4.6852583E-5 -7.431632E-4 -0.001321571 1.1484354E-4 -8.1327703E-4 5.7192345E-5 -0.0019401597 -5.137435E-4 -1.0104108E-4 -0.0025660067 -5.8673555E-4 -3.8583548E-4 -0.0022686445 -3.2461493E-4 -8.63943E-4 -2.2258653E-4 3.3308283E-4 3.8462743E-4 0.0012136884 5.826712E-4 -5.410751E-4 0.0013164758 1.8969536E-4 0.0010136144 -2.2568734E-4 1.669991E-4 -1.2252145E-4 -0.0011894209 0.0014633192 4.6335676E-4 5.754871E-4 1.0311435E-4 -1.367278E-4 0.0012290848 1.5745703E-4 -0.001649585 0.0012207865 8.971905E-5 0.0021488136 -6.1979424E-4 -5.971432E-4 -5.42412E-5 1.6796764E-4 -5.0419336E-4 -0.0043651117 0.0012393321 3.9727482E-4 -6.4918457E-4 4.9561396E-4 -1.3385198E-4 -1.5954094E-4 -0.0014945066 -0.002005294 -6.866002E-4 -3.1283282E-4 5.852259E-4 -1.05163635E-4 -2.9720488E-4 -2.9756967E-4 9.643514E-4 -0.0014306584 2.6214065E-4 -7.830887E-4 -0.0027557595 -1.468606E-4 -4.8737935E-4 -6.4041757E-4 0.00204058 -0.0017051889 -6.0843234E-4 -1.0513861E-5 -1.9196013E-4 1.49208E-4 9.453462E-4 0.003186318 1.1326727E-4 -5.3640746E-5 2.3540754E-4 -4.7270206E-4 2.6162885E-4 1.7650827E-4 -0.0037853888 -1.238471E-4 -5.796425E-4 5.46933E-4 -4.1427728E-4 -1.16547235E-4 -0.0017825931 -3.384007E-5 7.729714E-4 -5.554785E-4 2.7934057E-4 8.9782075E-4 -4.700455E-4 0.002690828 1.5932665E-4 -7.588751E-5 -1.7626934E-4 -8.7475183E-4 3.1809957E-4 -1.6723036E-4 7.722979E-4 -2.910205E-4 2.2700493E-5 -0.0014948708 -2.2317505E-4 1.5645835E-4 8.898621E-5 -3.678312E-4 2.3190462E-4 4.8779955E-4 -0.0011285787 0.0059561315 1.9761402E-4 -4.3762365E-4 2.353237E-4 0.0018089513 -8.2738686E-4 -7.434562E-4 7.382801E-4 0.0016929376 6.8310456E-4 3.1892257E-4 -3.4757057E-4 -1.7439801E-4 6.534779E-5 8.382846E-5 -3.2211916E-4 7.978063E-4 -1.22066114E-4 -0.002160976 3.17001E-4 -1.723136E-4 -6.513804E-4 5.122331E-5 -0.0011743065 6.7364675E-4 -0.0014363632 -0.001029802 -0.0013071401 2.603186E-4