-4.795325E-4 -2.2836728E-5 -3.081794E-4 3.0829431E-4 -4.8136455E-4 0.0010454756 -2.2343869E-4 -2.2039353E-4 4.1446692E-4 -3.6264476E-4 6.044343E-4 -5.454535E-4 -9.622943E-5 4.0643988E-4 -2.1316863E-4 -3.6138768E-4 2.7852796E-4 -3.0228712E-6 -4.1078182E-4 -3.1961803E-4 -1.09686036E-4 -3.3991513E-5 6.558752E-4 3.2358116E-4 -4.906396E-4 2.0941721E-4 0.0013768733 -5.0807017E-4 7.0199385E-5 -8.4927764E-5 7.557219E-5 -1.0226041E-4 -5.8913726E-4 -6.1104947E-6 7.1294623E-4 1.3426793E-4 5.138005E-4 -8.20374E-5 -4.3557974E-4 3.4143237E-4 -6.0724525E-4 4.1837964E-4 2.891054E-4 3.5043882E-4 6.6286896E-4 7.183809E-4 4.7266594E-4 -1.1341752E-5 -1.0041225E-4 -4.086811E-4 9.555003E-5 -7.365505E-4 5.673069E-4 -4.773299E-4 9.507665E-5 0.0015539015 -2.1348672E-4 2.3682324E-4 6.476441E-4 -7.1247676E-5 -3.3682067E-4 3.3772524E-4 1.0752867E-4 2.0388857E-4 -9.98532E-4 -2.2173277E-5 -6.101964E-4 -9.667314E-4 -8.2641025E-4 -3.0168798E-5 3.7619745E-4 -1.7663324E-4 1.964726E-4 -3.8659206E-4 6.721701E-4 -4.5759568E-4 1.391393E-4 -0.0023793294 -5.864015E-5 -3.4543715E-4 -6.130071E-4 -2.576974E-4 -7.9215E-4 -2.8015327E-4 -1.6033111E-5 3.8684512E-4 -2.087807E-6 3.9330753E-4 -1.9137641E-4 -4.0804356E-4 2.682695E-4 -5.154705E-4 -2.9354563E-4 1.7964619E-4 5.635007E-4 1.0613754E-4 2.7584872E-4 8.5281703E-4 2.791703E-4 -7.8824605E-4 1.490186E-4 9.359723E-4 -3.773803E-4 4.542063E-4 1.3864574E-4 2.0774652E-4 3.664475E-4 -9.5595955E-4 -7.9143146E-4 1.7031704E-4 -1.774848E-5 1.4371681E-4 3.737691E-4 -2.7916717E-4 -2.1447467E-4 -2.1988728E-4 3.8639433E-4 0.0012794208 6.215218E-5 -3.0760415E-4 -3.7622638E-4 1.8234605E-4 -2.8772134E-4 -2.650955E-4 -2.466675E-4 5.2999303E-4 -2.9556817E-5 -1.04834326E-4 -1.3940601E-4 5.113075E-4 -1.7130273E-4 -6.793715E-4 -2.1916661E-4 -2.2263009E-4 1.4089528E-4 -9.671409E-4 4.6288225E-4 -8.4692E-5 -2.8888448E-4 1.9544947E-4 -1.9855052E-4 -5.098149E-4 5.5811106E-4 -3.551162E-5 -2.4646166E-4 -1.3843506E-4 6.773028E-4 -8.1967894E-4 -9.186583E-5 -1.7668286E-4 -7.29741E-5 2.699549E-4 -1.8923309E-4 -2.1787023E-4 3.1989457E-5 -1.9299891E-4 -8.677509E-4 3.74044E-4 -2.7641177E-4 4.409029E-4 8.180244E-5 7.287539E-4 -2.6279158E-6 3.3694707E-4 3.2774528E-4 1.7856341E-4 1.7569055E-4 -9.23397E-5 -9.071073E-5 -4.7240348E-4 -2.4275699E-4 2.0894677E-4 -6.824997E-4 -2.9077806E-4 1.7100468E-4 -4.8982626E-4 2.867991E-4 9.099927E-5 1.6754004E-4 5.6784967E-4 3.049991E-4 2.1564245E-4 7.041702E-5 4.992344E-4 3.9212033E-4 -1.0233681E-4 0.0010958157 1.862231E-4 -1.0572366E-4 -7.2048703E-4 -0.0010941498 5.034666E-4 -9.935584E-4 0.0020575253 -6.267757E-4 -6.9676185E-5 2.003405E-4 -4.4155252E-4 1.1592698E-4 -2.886303E-4 -5.1028916E-4 1.9009196E-5 5.7984504E-4 -6.758754E-4 -2.3991156E-4 4.232226E-4 1.822287E-4 -1.4021179E-4 -1.8934457E-4 4.7007354E-4