-1.1626637E-4 -2.8169173E-4 -8.511476E-5 -2.3097856E-4 -5.176639E-4 7.162719E-4 9.505369E-5 -0.0010191745 -8.5810665E-4 -0.001113065 3.1621224E-4 3.7896368E-4 2.0488916E-4 0.0012037343 -6.394048E-5 -0.0017167077 4.8199567E-5 8.305766E-5 -4.2422247E-4 -2.112393E-4 0.0012745939 -5.2881765E-4 4.4849934E-5 -8.1999693E-4 1.4406665E-5 -5.762074E-4 1.7985945E-5 -6.0602222E-5 -1.2957487E-4 -2.1302229E-5 -5.119616E-4 -6.767579E-5 2.9451735E-4 3.063206E-4 4.3730627E-4 -0.0015509938 -2.565496E-4 6.7970215E-4 4.7319094E-4 3.4627362E-4 -4.7905554E-4 4.4074998E-4 4.902188E-4 3.1519553E-4 6.0281367E-4 -4.9617374E-5 8.066346E-5 6.477873E-4 -4.5251538E-4 -7.8242226E-4 2.7475745E-4 4.37349E-4 -1.2952005E-5 -3.041442E-4 4.9579903E-6 -3.7494564E-4 9.26869E-4 -2.994124E-4 9.197168E-5 7.5721653E-4 7.966801E-5 6.364279E-4 -2.3543218E-4 4.60208E-4 -1.4010274E-4 -0.0010120436 6.129007E-4 -3.1450661E-4 5.267033E-4 3.8417793E-4 9.110077E-4 -1.6769637E-4 -7.045693E-4 -3.0665222E-5 -1.256169E-4 8.5441174E-4 -5.1787833E-4 -4.7893857E-4 3.565313E-4 -5.368888E-4 1.5944627E-4 -7.621867E-4 -2.1376609E-4 -4.8422333E-4 -4.6951705E-4 -1.0166796E-4 2.2255315E-4 -4.1429885E-4 -1.8597601E-4 2.1909272E-4 8.2290784E-4 -5.802943E-4 0.0011956445 -0.0010284702 0.001446671 9.847023E-4 -4.359886E-4 -1.8915164E-4 7.522483E-5 7.998674E-5 -1.5619757E-5 8.045293E-4 2.6601876E-4 8.2059717E-4 -0.0013754291 -8.426106E-5 4.1920296E-4 -1.1262018E-4 -4.5609783E-4 -4.9366173E-4 -3.7438143E-4 -2.5250972E-4 2.3577685E-4 -3.7597414E-4 7.134916E-4 1.2763706E-4 -9.6148875E-4 1.5894798E-4 6.824127E-4 -2.7656707E-4 0.0013060217 -4.1116093E-4 1.6606937E-5 -2.8782716E-4 -8.847708E-4 -3.0491172E-4 -1.819896E-4 -9.789711E-4 -5.269212E-5 5.932215E-4 4.4812378E-4 6.9150014E-4 -8.1575505E-4 -9.242755E-4 7.081366E-4 -7.480148E-4 5.6081184E-4 6.0599763E-5 -2.1153787E-4 2.649775E-4