-4.3577247E-4 -3.3288487E-4 -6.884712E-5 8.156867E-4 -1.1688177E-4 0.001796716 1.5108235E-4 -0.0020365866 -4.031673E-4 0.0012311691 0.00144199 -6.8796864E-5 -0.001086042 1.3624296E-5 -7.103911E-4 -9.137942E-4 3.6564417E-4 -2.0715028E-4 -0.0023351389 -1.9937227E-4 0.002316347 -9.3578384E-4 0.0011835913 0.0019035611 -0.00227135 -3.115009E-4 -9.6257485E-5 -2.9205432E-5 6.830118E-4 3.1241542E-4 -0.0011834727 -8.566888E-4 -2.0425741E-6 7.743811E-5 -6.3904896E-5 -0.0010402717 -0.001970036 -0.0018211197 -5.376517E-4 8.6149573E-4 -0.0016288564 -0.0012393185 8.9548016E-4 3.5032484E-4 1.9545131E-4 -4.6653583E-4 3.186878E-5 1.473877E-4 -7.291365E-4 2.2362365E-4 2.4873816E-4 -7.806959E-4 3.5951388E-4 1.3476082E-4 -8.194293E-5 3.7045678E-4 4.2785512E-5 -1.4208228E-4 0.0016794075 -2.0349724E-4 -7.7506475E-4 4.0673785E-4 8.1655855E-4 9.025468E-4 -3.0402548E-4 0.0010040987 -0.0012690268 -9.784976E-4 1.7239363E-5 0.0011490183 1.0025463E-5 4.7896584E-4 -3.5405328E-4 -4.8367074E-4 1.8058212E-4 -4.945833E-4 7.961347E-4 -0.0019700574 3.9947664E-4 -6.9511624E-4 -9.923291E-4 -6.0883886E-4 -0.0010489008 -0.0011536636 -4.6158332E-4 8.62949E-5 8.2713366E-4 5.252854E-4 -2.9936858E-4 3.0571013E-5 6.6194846E-4 -4.0344248E-4 0.0018292048 -6.4569607E-4 -4.4059881E-4 1.2883876E-4 1.6261826E-4 6.398716E-4 -3.7477614E-4 -2.7452712E-4 -1.4532783E-5 0.0012391834 -8.823206E-6 3.094229E-4 6.814083E-5 -8.0358404E-5 1.2731762E-6 -2.1378987E-4 -3.2100172E-4 -0.0012915318 -0.001160886 0.0012944099 9.352504E-5 -1.655341E-4 -0.0012115836 -1.3026789E-4 -3.4326146E-4 0.002385066 3.1366534E-4 -4.559841E-4 1.7873953E-4 4.4811837E-4 4.3431236E-4 8.425687E-4 1.372353E-4 3.9842573E-4 2.765546E-4 0.0018214611 -1.6592248E-4 -0.002129374 8.508665E-4 -7.880532E-4 -9.3623955E-4 5.5005227E-4 -4.8166042E-4 -9.3179353E-4 4.5420462E-4 5.2099914E-4 -2.2004067E-4 -4.4282462E-4 -4.6202846E-4 1.7363227E-4 2.0996877E-4 -6.917159E-5 3.685621E-4 0.0011921062 1.215376E-5 -9.2827587E-4 -4.10596E-4 4.272271E-5 -5.0944596E-4 9.780115E-4 7.568243E-4 -0.0012220893 0.0011429074 6.9205365E-5 -0.0011281515 9.951226E-4 -4.8071833E-4 1.9824208E-4 -4.5939724E-4 5.412131E-4 7.7774364E-4 1.7313533E-4 8.4677275E-4 8.346776E-4 -0.0015198017 4.0604913E-4 -4.2943814E-4 -1.962047E-4 -0.0014037329 0.0011010553 -5.3819193E-4 -5.4910022E-5 1.1672475E-4 -4.313516E-5 2.5072572E-4 -8.272666E-4 6.237666E-4 1.9114358E-4 3.7574297E-4 4.748992E-4 -2.996127E-4 2.9467273E-4 2.8872304E-4 8.316806E-4 0.0011527075 6.8134826E-4 -2.6706242E-4 -5.964721E-5 -2.183119E-4 -3.492937E-5 3.249565E-5 8.0479577E-4 -3.098781E-4 6.215131E-4 6.5357785E-4 4.3387944E-4 -7.165733E-5 4.103259E-4 -3.2277484E-4 6.0766714E-4 6.263269E-4 5.33169E-4 -2.1175318E-4 5.01466E-4 4.3448794E-4 4.8778984E-5 4.2916543E-4 9.930364E-5 8.412598E-4 2.995396E-4 0.0016220155 2.3491797E-4 3.7966235E-4 -1.3033606E-4 -0.0012544205 7.631457E-4 7.912662E-6 3.9090388E-4 -0.001214237 -0.001610101 -0.0014207626 -0.0012420712 4.1657986E-4 2.5586673E-4 -9.878993E-4 7.721766E-5 -2.1833341E-4 0.00100423 -9.369727E-4 -7.394072E-4 -5.44723E-4 2.5185605E-4 -2.6870568E-4 -2.737358E-4 -0.0019995426 7.2332856E-5 1.9819452E-4 1.8415175E-4 -0.0015440123 5.7634024E-4 0.0015832293 0.0012402639 -5.40312E-4 -3.7582094E-4 0.001645218 5.4595224E-4 5.729401E-4 -0.0011458076 -0.0015667096 -0.0012659981 5.249044E-4 -0.0010133522 -9.070587E-4 -8.775416E-5 1.6221727E-4 -1.0292038E-4 2.3631917E-4 2.325333E-4 -2.845279E-4 1.0335448E-4 -2.8262933E-5 0.0011408248 -4.5274716E-4 2.0663362E-4 -1.1738556E-4 -4.1038357E-4 8.5141923E-4 -0.0013255525 9.461582E-5 3.208082E-4 -5.6205034E-5 3.0437886E-4 2.2619468E-4 -5.7572493E-4 0.0011056307 1.0527568E-4 -2.6090944E-5 -6.514105E-5 -0.0013586463 -3.2255685E-4 5.128159E-5 1.9791318E-4 -5.7414063E-4 6.6025753E-4 2.2568318E-4 8.1669656E-5 4.1248547E-4 1.2215778E-4 1.8966777E-5 -8.384177E-4 -2.0084287E-4 2.5862892E-4 -8.350262E-4 -5.900053E-4 3.7862136E-4 -1.9409759E-4 -3.6309466E-6 -5.058816E-4 0.0014197587 -0.0014209903 3.8472418E-4 0.0013156562 0.0011182476 7.0175005E-4 -3.7216564E-4 0.0011424165 -2.0374902E-4 3.6202685E-4 -8.589348E-4 -0.0012278262 -1.83127E-4 -0.0013367899 -5.434217E-4 6.7595765E-4 -1.923223E-4 -8.395424E-6 -2.869494E-4 -7.3610176E-4 -8.706123E-5 1.8658534E-4 7.1535114E-4 -0.0018838218 1.8747794E-4 9.923537E-4 -9.928412E-4 0.0015121235 7.69161E-4 -5.540913E-4 -1.15239614E-4 -3.07795E-4 -7.2374113E-4 -0.0017049502 0.0016389693 0.0011787037 0.0011513822 -7.352102E-4 2.486952E-4 8.0076687E-4 2.6786074E-4 1.5039631E-4 5.661616E-4 2.9372296E-4 2.075105E-4 -1.6366786E-4 -0.0014825526 -6.273786E-4 9.009829E-4 -7.0828985E-4 -0.0010088843 4.1123894E-6 -2.2476888E-6 0.0015837551 3.787429E-4 -4.6612014E-4 1.9837197E-4 -2.5731628E-4 9.3354945E-5 -5.7033694E-4 -0.0018375351 0.0016929125 -0.0011335938 -2.9054558E-4 -4.3283253E-5 -0.0011986955 5.4860883E-4 5.695587E-4 -0.0010908217 3.5394361E-4 -7.009663E-4 -0.0011243733 4.213766E-4 -4.3601097E-4 -4.4950584E-4 4.9754314E-4 -2.0606106E-4 0.0010309403 0.0010660912 -3.0674195E-4 0.0022802004 4.794527E-4 0.0017846907 -5.875337E-4 -3.8968615E-4 -6.292656E-4 -3.3615413E-4 5.71837E-5 -4.2778952E-4 0.0014072723 3.9979306E-4 1.1489577E-4 -1.6294132E-4 -1.0176885E-4 5.7927467E-4 5.318902E-4 -8.977314E-4 0.001173907 0.0014409516 -6.8245083E-4