2.3476641E-5 -2.70188E-4 1.10202476E-4 -1.1002382E-4 -2.6809913E-4 2.879995E-6 -3.488503E-5 -1.1487697E-4 1.2755151E-4 -2.323408E-4 -1.857896E-4 -3.5336638E-5 -1.04847626E-4 -1.7768299E-4 -2.4244824E-4 3.753099E-4 -4.8968315E-5 -1.9681435E-4 -9.85495E-6 -1.536086E-4 1.79471E-4 2.6491784E-5 -1.0652047E-4 5.279444E-7 5.7572834E-5 -9.816193E-5 3.5464025E-5 -1.5829128E-4 3.3353554E-6 -3.6486128E-4 1.16030584E-4 8.475919E-5 2.0847125E-4 -8.192322E-5 -1.8528002E-4 3.0587066E-4 -4.2532698E-5 -2.558995E-4 -1.344349E-4 -5.6196826E-5 -3.6590785E-4 -2.4107654E-4 3.5124383E-5 -7.178764E-5 -1.366979E-4 2.7960498E-4 8.125242E-5 -1.2836084E-5 -6.669952E-5 1.0138099E-4 -2.152592E-5 2.0172815E-4 1.7912796E-4 1.2208107E-4 -2.7419894E-4 -9.268072E-5 -9.48035E-5 5.9482045E-6 2.4222334E-4 -8.2814004E-5 4.119998E-5 9.0146554E-5 1.04448874E-4 -6.706512E-5 1.453987E-4 -2.0819117E-4 9.1069116E-5 -3.5332981E-4 -1.0935431E-4 -2.3411545E-4 1.2256514E-4 -1.6802795E-4 1.9052696E-4 -1.0401542E-4 -1.3695516E-4 -1.980835E-4 4.1679486E-5 -6.5005974E-5 4.4192842E-5 -1.7665446E-4 -2.1610914E-4 -2.2284983E-4 -4.3592023E-5 -1.990301E-4 -1.9723513E-5 2.8040918E-4 -1.8734307E-4 1.1136962E-4 3.6599267E-6 1.7950035E-5 -8.992702E-5 6.701652E-5 1.1595097E-5 -2.8435592E-5 -8.522105E-5 -5.2565345E-5 -1.6216177E-4 -2.150773E-6 -5.553227E-5 -2.1676226E-4 2.3422088E-4 -1.0555197E-4 -1.20662626E-4 -1.2602757E-4 -6.428533E-5 -1.6002046E-4 1.8854256E-4 -9.995058E-5 8.929172E-6 8.389377E-6 -1.9380021E-4 -3.516208E-5 -1.1393553E-4 1.6834168E-4 -6.507347E-5 2.202699E-4 -1.038796E-4 6.241268E-5 -5.842126E-5 -1.4071954E-4 -1.16030584E-4 -5.4016917E-5 -3.3105607E-4 2.7081114E-6 -1.8608937E-4 1.2836911E-4 -1.5591766E-5 -1.8030073E-4 -5.521688E-5 3.822868E-5 -8.0812446E-5 -1.5191796E-4 -1.7939205E-4 -1.2036517E-4 -3.2715494E-4 1.0873693E-5 -3.8233656E-4 -2.3704322E-4 -1.9319347E-4 -7.567111E-5 -1.0309689E-4 8.7047665E-6 -2.9413655E-5 -3.6945095E-4 1.0463888E-4 -4.5637862E-5 -1.54688E-4 -4.2765413E-4 -3.4333603E-4 1.2603647E-4 1.1932665E-4 3.1101456E-4 -1.6004156E-4 8.315384E-5 -1.2184133E-5 1.4550926E-5 -6.441766E-5 -1.8518031E-4 1.2538494E-6 -1.9522318E-5 -1.0740257E-4 -6.7384375E-5 -1.06389205E-4 -3.3810906E-4 -5.6594723E-5 1.525665E-5 -1.7761874E-4 -1.324586E-4 -2.2778517E-4 -7.199116E-5 -7.170453E-5 -1.8217681E-4 -8.7872555E-5 1.159442E-5 -6.889934E-5 1.05809755E-4 1.9525185E-4 -2.9977187E-4 -3.8074177E-6 -1.6203168E-4 -2.7288037E-4 -4.8379417E-5 -5.720977E-4 1.9265969E-4 -9.290949E-5 -1.9700134E-4 -2.1379071E-4 1.1808871E-4 -2.7013785E-4 3.2867723E-5 -9.155449E-5 2.394905E-4 3.0097505E-4 -8.266841E-6 -2.2146372E-4 1.2395281E-5 -2.2697554E-5 -1.2299702E-4 6.047044E-5 -7.975606E-5 6.328183E-5 1.592826E-5 1.2496034E-4 -3.037815E-4 -7.31622E-5 4.0797193E-5 1.3906424E-4 -9.977979E-5 -1.0992793E-4 1.0918979E-5