0.03824855 0.015513004 0.027748546 -0.017823834 0.005705545 0.024452178 -4.1140112E-4 -0.042256 0.0038969174 0.0031773956 -0.015686551 -0.024285905 -0.034295652 -0.007232934 0.04165819 -3.7109878E-4 -0.074147224 -0.06382137 0.0811854 -0.02422386 0.0110222725 -0.014058219 -0.058943927 0.02681996 -0.0058631906 0.047678858 0.030700536 0.029578935 0.05861874 -0.0012008689 0.0048625343 -0.037510823 -0.029297242 -0.055985257 -0.042885013 0.0432559 0.004792544 -0.014921719 0.04964129 -0.0490511 0.031378478 0.019638587 0.011300406 -0.008901923 0.029527696 -0.031711448 0.0016225144 0.035126906 0.013908506 0.07206621 -0.050292168 -0.012172527 0.005865303 -0.065963216 0.023619395 0.007002007 -0.028588586 0.03429427 -0.011612563 0.04806354 -0.01335966 0.0016389721 0.0071514705 0.009492562 0.010032983 -0.022562325 -0.0058458634 0.034862995 -0.0023821346 -0.0058416296 -0.014563471 -0.00952289 -0.029229356 0.005544138 0.0437345 0.007039065 0.029210126 0.015430599 -0.007219668 -0.009342031 0.025578374 -0.018532787 0.024505064 0.031566996 0.076141156 0.024760373 0.03513423 -0.026646363 -0.024035932 -0.012226266 -0.04898637 -0.025254168 -0.064477116 -0.009476289 0.034552664 -0.046325907 0.011211301 0.03727076 -0.014934597 -0.07252436 -0.039016295 0.02163144 -0.024117403 -0.032486923 0.045137003 -0.087281555 0.040462192 0.025091844 0.005045135 -0.003069787 -0.010441999 0.08149011 0.03685362 0.0022294594 0.022987815 -0.040199954 -0.051381696 -0.0073577296 0.021619977 0.00503134 0.02232499 -0.012569219 0.04742619 -0.052483667 -0.0010733143 0.029062966 0.036221497 0.004114121 0.006860776 -0.0031339494 0.0055187186 0.038048204 0.013286869 0.054142 -0.026826635 0.035162535 0.04575391 -0.050137013 0.006390532 -0.012112032 -0.07683106 0.03721112 -0.01812878 0.012416007 -0.0015689984 -0.035041936 -0.0023039232 0.04761439 -0.006066307 -0.040903427 0.020572158 -0.0017413815 -0.012979539 -0.03722277 0.06719677 -0.057428125 -0.009163424 0.015695952 0.03730428 -0.0031458586 -0.020079365 0.05086235 -0.019530997 -0.0075711086 0.021824712 -0.0050704903 -0.010045507 -0.0015958628 -0.028533595 -0.019205453 -0.0036933317 0.021091858 0.007417985 -0.011667772 -0.027119547 -0.039670296 -0.01234055 0.0012369399 0.056450527 0.017888501 0.025759425 -0.015656514 0.028526925 0.011462423 0.015600093 -0.013892581 0.036204502 -0.0071408385 -0.01431131 -0.05051771 0.013447159 -0.021244068 0.03268356 0.024566524 -0.050480355 0.027620332 0.018101634 0.011701284 0.014254487 0.01605826 0.037772644 0.022341425 0.03848496 -0.026328184 -0.041278847 0.064403884 -0.015905645 -0.04446157 -0.008768964 0.012328824 0.02040141 -0.012654028 0.028931567 -0.008750435 0.00807997 -0.014876799 0.0055230903 0.036426626 -0.0022071924 -0.01828782 -0.04666336 8.692062E-4 0.029677572 0.025971651 -0.06788666 0.005459148 -0.021189185 0.020187631 -0.0011737149 -0.06259704 0.014271947 -0.017623719 0.040257294 -0.027668031 0.0051658107 -0.056280326 -0.030312845 0.026026938 0.0504586 0.006110479 0.013167935 -0.028096747 0.04472204 0.006620229 0.018848125 -0.017396698 0.01415088 0.039825764 0.005368452 -0.02144398 0.05249765 0.030247927 0.060636587 0.004972361 0.039844923 0.005551919 0.019195275 -0.0302873 0.013797162 0.006788744 0.030203553 -0.011152 -0.036465928 -0.0045573097 -0.029937584 0.0064573535 0.06894834 0.039468966 0.017285932 0.007834352 0.026144134 -0.014495398 0.026448572 -9.539229E-6 -0.012241582 -0.06192972 -0.022205317 -0.013406305 -0.01836804 0.08751979 -0.049936786 0.021274421 0.0055654855 0.013535496 -0.03140402 0.06408641 -0.028800827 0.023845337 0.024792088 0.0042721406 0.0050759716 5.007643E-4 0.052007347 -0.02486294 -0.03675572 0.0026565876 -0.08850286 -0.013565577 0.031224921 0.062103663 0.007130806 -0.04578022 7.288112E-4 0.056003448 -0.018751072 0.013356362 -0.0037491303 -0.014417242 -0.018527983 -0.0068491125 0.010577088 0.01827241 0.020116918 0.056448203 -0.009323537 -0.0058579133 -0.0070525603 0.01877091 0.023979923 0.022192296 -0.023931138 0.036157392 -0.031224435 0.020235665 0.035767402 -7.866935E-4 -0.009650296 -2.0598024E-4 0.064861774 -0.018034646 0.028597452 0.0015126556 7.244231E-4 -0.015334502 0.031671144 0.054279637 7.223253E-4 -0.006118122 -0.006336166 -0.029601611 -0.017484317 -0.04204047 -0.009253739 0.019602949 0.001611291 -0.038707435 0.016430903 0.040109664 -0.04309068 0.0012337249 -0.021326546 -0.027835438 0.032105684 -0.018242067 0.07157102 -0.024382917 -0.007073976 0.050134875 4.777837E-4 -0.042084575 -0.0067506884 0.027102385 -0.027911676 0.015028037 -0.031534273 0.047927115 -0.057826992 0.015761774 -0.047118183 0.02154206 0.01062654 -0.02822489 -0.021302951 -0.022337927 -0.022011865 -0.03629512 0.007730744 5.230626E-4 0.009762561 0.007896737 0.017789053 0.020489683 0.028376546 -0.036260962 -0.01912151 -5.63159E-4 0.030698514 -0.015891934 -0.03550776 0.03407668 -0.033166707 0.040685352 -0.040864013 -0.04040727 -0.022172045 -0.018402232 0.007259514 -0.02627305 0.011424664 -0.017191162 0.034566697 0.022023896 0.0148275085 1.2699167E-4 -0.06630196 0.009247728 0.006792544 -0.02802262 0.009370364 -0.027767401 -0.04823712 -0.042575166 -0.05822822 0.033476237 -0.0065860585 0.037948847 -0.007339371 -0.08293626 -0.03932484 0.0627785 -0.046770718 0.0073979576 0.0077669425 -0.027314218 -0.008113196 0.00666297 -0.025578098 -0.045889094 -0.00695109 -0.05152119 0.017072268 -0.02832963 0.017860552 0.0066974815 0.02302109 -0.03353251 0.024784727 -0.01877117 -0.03750046 0.004506584 -0.033049125 -0.026078708 0.045232102 0.009307598 0.05335798 -0.03244599 0.004578016 -0.03313169 0.027620992 -0.043660354 -0.041023318 0.025316488 0.05751536 0.004235656 0.010022274 0.05636082 0.024891462 0.029430635 -0.016238967 0.049633473 0.015105862 -0.021798449 0.029020488 -0.040788893 0.057802267 -0.03757208 0.0138016865 -0.0019854384 -0.0119591355 0.017301077 -0.004389478 -0.03676173 0.019533604 -0.0012716098 -0.004318095 -0.028217807 0.005884938 -0.030541196 0.0039218287 -0.01713477 0.013400166 -0.071563706 0.023152811 0.04798804 -0.06769719 -0.013884354 0.031681642 -0.049510207 0.0065072314 0.029224655 0.0022749607 0.001805421 -0.037099123 -0.028688021 0.06783351 -0.0148837315 0.017543875 0.011297437 -0.01932408 0.007578092 -0.012777952 -0.0030331386 -0.020848678 -0.023921756 -0.057490863 0.087819725 0.038951904 0.021664372 -0.05720149 -0.01926248 -0.02223403 -0.05166011 0.0751436 0.028313514 -0.034839224 0.0324187 -0.016957944 -0.02616903 0.016815938 -0.0032461926 0.010839962 -0.0072974716 -0.036021266 -0.04143182 -0.062086288 -0.0019445689 -0.039110832 -0.027955553 0.01212899 0.023934357 0.03151122 0.048543964 -2.202933E-5 -0.021560004 -0.004218197 0.009271403 -0.01057954 -0.015819121 0.013898852 0.018493846 -0.014243531 -0.01709473 -0.020516971 0.03239522 -0.001569939 -0.053865124 -0.010590904 -0.06255074 0.006148147 -0.03088523 0.046378084 0.008138108 -0.0029394084 0.022153396 -0.013760053 -0.026309097 0.028805899 -0.03901325 0.021560889 0.008893494 -0.0073123784 -0.01025799 -0.047508925 0.0013539392 -0.031318303 -0.026599035 -0.069652505 0.054250542 -0.04149739 -0.007645742 0.00995872 -0.02695591 -0.045810986 0.011801253 -0.02786364 -0.01034995 0.02752919 0.0152764525 -0.028276537 0.026616769 -0.013559395 0.0044244593 0.029929511 0.02386453 -5.2942993E-4 0.008070677 2.1270175E-4 -0.007915876 0.029112037 0.07650226 0.052575234 0.0064917225 0.026139684 -0.02041322 0.047798492 0.012933187 -0.030481745 0.023152959 -8.7079295E-4 -0.046110936 0.06292347 0.033645336 -0.015900621 0.007986902 0.029239848 -0.013892726 -0.029618062 0.03851376 -0.05179532 0.054889005 -0.03865818 -0.01259752 -0.020734563 -0.03377032 0.0072472924 -0.024274884 0.020321151 -0.03274365 -0.0089408215 0.011231809 -0.022711132 0.052481245 0.0013780837 0.032317135 -0.0067140367 -0.045671083 -0.010705536 -0.056980807 0.022089368 -0.028395852