-1.1935331E-4 -1.2227567E-4 1.6476336E-4 8.719027E-6 -8.839133E-5 1.0778311E-4 1.079293E-4 6.155417E-5 3.4713572E-5 2.7409864E-5 -2.0863171E-4 -2.4838286E-5 -6.763486E-5 -1.23022455E-5 -5.851431E-5 -1.3562603E-4 -1.5695769E-4 2.3145613E-4 1.3487155E-4 7.065595E-6 2.9137012E-4 -6.660269E-5 3.8566977E-5 -1.5657704E-4 7.096642E-5 -8.016721E-5 -1.0619416E-4 -1.4826295E-5 -8.614201E-6 -1.4379832E-4 -1.5568371E-4 9.806124E-5 -8.070279E-5 8.769981E-5 -2.4686102E-5 -1.7989925E-4 4.5285346E-5 4.959165E-5 -1.0847188E-4 1.4229798E-4 4.8967275E-5 1.2312148E-4 -7.658772E-5 3.702343E-5 7.979669E-5 9.553734E-5 -2.6644135E-5 5.158005E-5 -3.5563375E-5 -2.650983E-5 -2.053881E-5 -1.7869481E-4 -2.7630813E-7 -2.855777E-5 5.881148E-5 1.711765E-5 -1.23561185E-5 -7.585189E-5 -6.3500465E-7 1.487599E-4 1.0780929E-4 1.3022649E-5 -1.7118648E-4 -2.9674393E-5 1.0432675E-4 -3.1122265E-5 9.41225E-5 -1.85573E-5 -2.9545513E-4 -1.0124463E-5 3.9443126E-5 5.828382E-6 1.5980186E-5 1.32165715E-5 7.134878E-5 8.9615016E-5 1.3567394E-4 -1.120698E-4 7.960058E-5 -1.3981291E-5 -2.3831645E-4 -1.5538499E-4 -2.9277877E-5 -2.4583434E-5 -1.0380546E-4 5.100197E-5 -2.3404733E-5 -5.952746E-5 1.677456E-4 8.642348E-5 1.869542E-5 8.231564E-5 4.9569746E-5 -1.09639295E-4 1.29524215E-5 -3.6781217E-5 9.2331175E-5 2.140083E-4 6.872548E-5 6.4125794E-5 2.1218866E-4 -1.8271519E-4 -3.356977E-5 -4.16242E-5 -2.9749062E-6 -1.071909E-4 -7.463496E-5 -5.829452E-5 4.204947E-6 -1.0045621E-5 -5.674478E-5 2.099253E-5 -1.2838E-4 6.529724E-5 6.0986233E-5 4.511097E-5 5.2020416E-5 2.0006845E-4 3.9029215E-5 7.8794976E-5 2.3404045E-5 5.6105062E-5 2.255119E-4 -8.728023E-5 2.4717574E-5 -7.1841016E-5 1.4419347E-4 -3.121107E-5 -2.7909406E-5 -2.3847798E-4 -5.561499E-5 1.2800422E-4 6.2822783E-6 -7.429336E-5 -1.2470043E-4 -9.205632E-5 -1.0169315E-6 4.4960707E-5 -1.0696966E-4 3.68997E-5 1.7453248E-4 -1.9741748E-5 -2.5760506E-5 -1.0136262E-4 -2.6139838E-5 7.3884934E-5 -2.208134E-4 -2.164876E-5 3.7631828E-5 6.644345E-5 5.1121024E-6 -1.2932485E-4 2.4407406E-4 3.0256058E-5 4.8471375E-5 2.1706233E-4 1.9214598E-4 5.194558E-6 1.7520773E-5 2.0503656E-5 8.3197134E-5 1.3713817E-4 -5.485028E-5 -3.3946657E-5 -7.3267285E-5 1.1792776E-4 7.444078E-5 -1.6017086E-4 -1.6268299E-4 9.3490205E-5 -2.9919933E-5 1.02142105E-4 1.3065025E-4 -2.1860932E-4 9.3245515E-5 -1.955569E-4 9.89252E-5 3.0692454E-6 7.184055E-5 -4.4261244E-5 6.595456E-5 -9.057901E-5 1.914208E-5 2.331314E-5 1.4393605E-4 4.0789666E-5 -1.1617945E-4 5.240716E-6 1.156765E-4 -4.800396E-5 4.0693E-5 4.241046E-5 1.3715377E-4 -2.1726868E-4 1.5444512E-5 -1.9742458E-4 9.123128E-5 -4.2707896E-5 -5.4424956E-5 5.0329454E-5 6.0157E-5 4.4220436E-5 3.0279865E-5 6.5892864E-6 8.0187365E-6 2.1218104E-4 -2.3070439E-5 2.6320951E-5 5.721907E-5 -1.3683797E-4 5.968736E-5 -9.652754E-5 2.8287199E-5 3.829962E-6 3.6282006E-5 -2.1887761E-5 2.2500301E-4 -6.424094E-5 1.0164003E-6 -7.2637726E-5 1.0106802E-4 -9.810655E-6 -6.359584E-5 -9.744839E-5 -2.3210412E-4 3.7092002E-5 4.2934735E-5 2.5008347E-5 -1.9757063E-5 3.9432292E-5 -1.7257797E-4 1.6447686E-4 3.139989E-5 -5.0076764E-5 1.0532766E-4 1.6395643E-5 6.606966E-5 -3.7272777E-5 6.928911E-5 2.2859173E-4 8.840658E-6 -1.511498E-5 -1.9302655E-5 8.500741E-6 9.969923E-5 -1.07195934E-4 -4.0046405E-5 1.4653886E-4 1.05643354E-4 1.3539454E-4 -4.7509675E-6 1.2772682E-4 8.265798E-5 2.1769603E-5 1.1103226E-4 3.777493E-5 -1.3432324E-4 -6.437568E-6 1.179976E-4 1.15471565E-4 -1.18187854E-4 -8.930745E-5 -3.6036443E-5 7.4151685E-5 -1.3995986E-4 2.2371534E-5 -9.3440256E-5 1.1390611E-4 2.1991432E-4 -5.0531773E-5 -5.941699E-5 9.480209E-7 -1.035817E-4 5.5616125E-5 -1.5634793E-4 -4.726156E-6 -1.2788032E-4 -7.2638E-5 1.4360878E-4 6.862998E-5 -1.8405954E-5 -2.2224634E-5 3.6241698E-5 8.35245E-5 1.21498015E-4 1.0130608E-4 1.4177381E-4 1.9118162E-4 -7.4929994E-5 -5.3726053E-5 7.709287E-5 -7.8793215E-5 -2.0385615E-4 9.929434E-6 -9.485462E-5 9.51047E-6 -2.7096252E-5 -2.0916386E-4 7.681865E-5 4.6195248E-5 1.3364962E-4 -5.7134872E-5 1.4717788E-5 -9.846181E-5 8.3379404E-5 7.93426E-5 1.5894524E-4 1.1779873E-4 -6.841722E-5 -1.991688E-5 -1.2010295E-4 -5.866648E-5 1.1855987E-4 6.4752385E-5 8.904E-5 -1.2163211E-4 8.885202E-5 1.19975164E-4 -3.9340328E-5 1.849109E-4 2.7475675E-4 6.857851E-5 -4.9513E-5 2.802383E-5 5.072896E-6 -6.0012226E-5 -2.2140676E-4 8.628043E-6 -2.5713528E-4 7.165318E-5 9.5245145E-5 6.5627275E-5 -1.03721744E-4 1.5656688E-4 -9.16842E-5 1.3047656E-4 7.1544055E-5 1.099107E-4 -3.9436345E-5 1.0683561E-4 2.076814E-5 3.4342294E-5 -3.3990502E-5 -7.277579E-5 -1.7499415E-5 4.1333973E-5 6.7200144E-6 5.193204E-5 1.5576307E-4 4.3051266E-5 1.536803E-4 2.4935096E-5 4.7141235E-5 -1.8242054E-4 6.270941E-5 1.9238528E-4 4.740671E-5 -1.1040334E-4 -3.819423E-5 -2.4954461E-5 -4.440785E-5 -1.6743389E-4 -2.8565268E-5 -1.6023147E-4 -1.8064113E-4 -7.43235E-5 1.1940836E-5 -8.615401E-5 -1.5087133E-4 -2.4878056E-5 1.8112512E-5 -7.929897E-5 -1.5412646E-4 -2.4219902E-5 -4.7518755E-5 -8.567825E-5 1.19938544E-4 8.420389E-6 -7.769509E-5 -1.15181785E-4 -1.5431862E-4 -7.95768E-5 7.908128E-5 -1.604647E-5 -7.948391E-6 1.6292787E-4 1.118728E-4 -2.383632E-4 -1.103939E-4 -1.125259E-5 -7.954929E-5 -4.6587782E-5 1.2737888E-4 2.7495651E-5 -1.846635E-4 -1.9369886E-4 9.333023E-5 -7.140525E-6 -7.245585E-5 -3.4623896E-5 -5.6547782E-5 1.3968057E-4 1.3198874E-4 -2.5467256E-5 -1.5718838E-4 -9.499199E-7 -1.10006E-5 3.8783626E-5 -1.4712455E-4 -8.970499E-6 -6.633923E-5 1.00813795E-5 1.2560193E-4 -3.1658703E-5 1.6709437E-4 -1.28861975E-5 -4.0974937E-5 -1.5051993E-4 -3.625753E-5 2.6155883E-4 -2.0540023E-4 1.8553867E-5 6.710114E-5 4.4144275E-5 6.0799408E-5 5.529319E-5 2.5169462E-5 -1.8179265E-4 -1.0365271E-5 8.441806E-6 -1.8707996E-4 9.128486E-6 -4.3970776E-6 9.090167E-5 1.27868E-4 -1.9303081E-5 1.00794445E-4 -3.7448423E-5 -8.5240776E-5 3.1037867E-5 -1.1847558E-4 -5.9560607E-6 3.1555086E-5 -2.1371446E-4 -2.018497E-4 -1.8315598E-4 7.279459E-5 -1.8276597E-4 -6.012005E-5 4.0340215E-5 -4.7811645E-5 -7.678791E-7 1.8008228E-4 2.9506595E-5 -7.666953E-5 2.5553061E-5 -2.1684571E-4 -6.402725E-5 -9.995855E-5 1.00975136E-4 3.6380516E-5 6.7832174E-5 1.3103591E-4 -1.1334536E-4 -1.2488756E-4 -1.05988365E-4 6.431926E-5 8.2873165E-5 8.044626E-5 4.7550257E-5 6.967504E-5 1.0513733E-4 2.162102E-4 9.287914E-5 1.5690058E-4 5.7206686E-5 2.048966E-5 4.3675347E-5 3.3312805E-5 1.0370064E-5 -5.1823776E-5 9.958011E-5 -1.627128E-4 4.0267012E-5 2.5704372E-5 -8.723703E-5 8.6367345E-6 -1.8994849E-4 1.0885399E-4 -5.5276018E-5 5.9310736E-5 -1.2988392E-5 4.3040864E-6 5.0315706E-5 1.5485624E-5 -1.3505072E-4 -2.984595E-5 -1.887305E-4 -2.1262777E-4 -1.7412663E-4 -9.4474235E-5 -2.5743882E-5 2.8954462E-5 -1.1089546E-4 -1.1654432E-4 -1.2421893E-5 1.3303485E-4 -2.7365537E-4 1.2454628E-4 8.1653794E-5 2.984955E-5 -5.327772E-5 1.3579713E-4 5.9815677E-5 8.410204E-5 1.4766147E-4 -7.215906E-5 6.732666E-5 -1.778238E-4 -6.320934E-5 2.2468285E-4 -3.9424856E-5 2.3350833E-5 -3.427361E-5 -2.6838484E-4 6.623703E-5 6.9034904E-5 -1.4844783E-4 6.1160164E-5 -1.8116074E-4 4.12896E-5 6.915957E-5 -3.2376312E-4 -2.319547E-5 -1.1662315E-4 -6.461906E-5 8.3796935E-5 7.5827906E-5 -2.556209E-5 2.7766384E-5 6.211187E-5 -8.147259E-5 -1.0511356E-4 1.457311E-4 -1.4982029E-4 3.2592507E-6 1.496215E-5 -8.224536E-5 1.814531E-4 2.1982069E-5 3.9308965E-5 4.455263E-5 -6.0515922E-5 -1.8187212E-4 1.0135982E-4 3.6294958E-5 8.509819E-5 2.2951535E-5 -3.593744E-5 -7.21556E-6 -1.3679027E-4 6.839071E-5 1.8988177E-4 2.3902423E-5 3.802862E-5 -2.6233617E-4 8.684749E-5 1.4357423E-4 1.8563438E-5 -7.342643E-5 -1.9206878E-4 3.5322155E-4 -9.729822E-5 1.09795E-4 -4.1084906E-5 1.1540404E-4 -4.529102E-5 5.6834644E-5 1.785261E-5 -4.209296E-5 7.649619E-5 -2.5832884E-5 -5.1930117E-5 -2.7374219E-5 -3.2598033E-4 7.371717E-5 9.449284E-5 1.5107144E-5 1.7754699E-4 1.5869064E-4 3.012608E-5 9.5407624E-5 -8.108653E-5 -1.6981809E-5 2.6222607E-4 -4.4545603E-5 4.5590736E-5 -1.430634E-4 -2.4931927E-4 1.8513488E-4 2.9230717E-4 -1.732443E-5 -1.8930576E-4 -5.624294E-5 1.1760946E-4 -1.2273093E-4 1.7548914E-4 7.9534555E-5 -2.0039859E-4 4.1240324E-5 -1.6564518E-4 8.458106E-5 8.0083E-5 -9.939396E-5 1.2150753E-4 -2.7712333E-5 7.401873E-5 5.6192308E-5 -1.15406665E-5 1.5996555E-4 -6.163791E-5 1.2237363E-4 1.5269991E-4 -2.4924157E-5 9.347199E-5 -1.1214707E-4 -1.8455794E-5 -8.0182166E-5 -9.18228E-5 6.2843814E-5