0.054605976 -0.05245669 -0.12156699 0.033721793 0.06296375 -0.5120573 0.061164744 0.75748897 0.14397144 0.020154467 -0.0056261467 0.24967545 0.09585154 -0.238636 0.29312578 0.34689108 -0.49155095 -0.11877064 0.09896256 0.3233424 -0.27116132 0.059708305 -0.29121742 -0.0856184 -0.18838495 0.23804696 -0.12923315 0.12392244 -0.21034747 -0.06246046 0.36351252 0.037427507 0.14910133 -0.06298441 -0.14397112 -0.10631386 0.4060045 0.13114472 0.106312536 -0.32467428 0.17862067 0.44053522 -0.084606595 -0.32820222 -0.17357136 0.20569876 -0.08802587 -0.18727481 0.2747939 -0.014005212 0.10939225 0.36118048 -0.08205186 0.085591875 0.046318512 -0.36761934 -0.2153677 0.2025144 -0.1549873 0.0686072 0.030150406 -0.1820898 -0.047492832 -0.32746246 0.13749304 -0.0847536 -0.118911095 0.3063043 -0.17873012 -0.2789804 -0.12916517 -0.072880596 0.20894226 -0.07552342 -0.010824949 0.1405496 -0.54175335 0.21794963 -0.15195866 -0.011992691 0.14110033 0.28841582 0.14305817 0.26373416 0.45301467 -0.08298901 -0.116549775 -0.15366462 0.23392135 -0.07991847 -0.5282307 0.08004805 -0.27834934 0.42484036 -0.13133925 -0.337745 -0.18033466 -0.089226685 -0.0854372 0.085611895 -0.2158137 -0.35558453 0.0867977 0.052794885 0.11453136 0.24652301 -0.26411828 0.2040728 0.40639535 -0.015202508 0.13001457 -0.1084918 -0.24318857 0.13045734 0.07243754 -0.037695765 -0.24548875 -0.20450567 -0.16178513 0.24139006 0.0593549 -0.19866978 -0.14917424 -0.2502512 0.0704532 -0.34380278 -0.1454026 -0.31291455 0.16452253 -0.06409493 -0.3302222 0.32988134 -0.038382187 -0.010420143 0.14916232 0.43072838 -0.26776606 -0.09366849 0.17154624 0.1605947 -0.28734002 0.06898607 -0.5520613 0.055355363 -0.18849362 -0.047432404 0.08099974 0.07260442 0.26753378 -0.037444934 0.2526773 -0.30759788 -0.029635925 0.2318554 0.037317984 -0.22228947 0.2596858 0.06608767 0.06923065 0.12348603 -0.051090624 0.05679903 -0.13895258 0.08324358 -0.30219868 -0.43183976 0.06332072 -0.40013644 -0.00104796 0.13253441 0.34355402 -0.34478486 0.34944168 0.09333172 0.2087811 0.34455225 -0.20126617 0.35460767 -0.027823461 -0.034890614 -0.08081997 -0.23706098 -0.0045361877 -0.08001176 -0.20542273 -0.22109026 -0.33673498 0.05045187 -0.09788513 0.43055907 0.12598091 -0.072234906 0.09502368 -0.31917682 -0.21585913 -0.014956902 -0.12860188 -0.26197246 -0.17408386 -0.48018205 0.27182886 -0.05556005 -0.4959786 -0.14794195 0.2215752 -0.2015496 -0.19486159 -0.07438981 -0.21591377 0.0524114 -0.14906278 0.26975206 -0.15689962 -0.040540826 -0.00969042 -0.16983435 0.24626051 -0.21469177 0.121266834 -0.2001309 0.17122054 0.35664278 0.109694056 0.042488147 -0.06028098 0.059981294 -0.16418862 0.13340318 0.09189846 -0.18949454 0.24111229 0.211166 0.13034955 -0.12316825 0.14607218 0.10141265 0.42235845 0.023815427 0.07651949 -0.26338446 0.6317082 -0.17670831 0.045041043 -0.3545275 0.18574128 0.35471666 -0.4370919 -0.27915034 0.11271703 -0.16363442 0.5214006 0.19324034 -0.21405552 0.35728863 0.25166446 0.0011561962 -0.026846157 -0.032500487 -0.14664744 -0.01772567 0.077920645 0.27925724 -0.07172205 -0.17648906 0.011730663 -0.05801138 0.0285641 0.16527213 -0.53883237 0.35379452 -0.04175729 -0.06854131 0.11914144 -0.23119417 -0.012230421 0.28363582 -0.43150312 -0.15322344 0.08555302 0.00914374 0.06953385 0.21814878 0.1261538 -0.20698293 0.048965327 -0.25516164 0.085258774 0.09362709