3.9872426E-5 7.7575896E-5 -8.801842E-6 7.7274686E-5 2.7511513E-5 3.7058016E-5 8.340436E-5 8.243204E-6 -3.753801E-6 -8.866601E-5 2.4744917E-5 -2.2152723E-5 -7.417316E-5 1.3229934E-5 -1.36832205E-5 2.6910002E-5 2.3649802E-5 -2.4942303E-5 1.1647083E-4 -2.3278171E-5 2.8209766E-5 -5.9097205E-5 3.4872202E-5 -2.5422929E-5 -9.727266E-6 -3.2627002E-5 2.9204555E-5 -9.320476E-5 -6.549933E-5 3.5444795E-5 2.0104704E-5 -2.4416602E-5 2.4412657E-5 -1.3242374E-5 3.8070117E-5 1.4212963E-4 -3.072686E-6 3.092199E-5 1.500537E-4 -1.0750111E-4 1.7377424E-5 4.5026416E-5 -3.267425E-5 7.977532E-5 -1.0590794E-4 2.9506895E-5 8.400087E-5 -2.975647E-5 -1.534343E-6 -1.6612471E-6 -5.4205237E-5 -2.5589297E-6 6.6696215E-5 3.1150948E-6 3.7841193E-5 -6.886746E-5 -6.333528E-5 1.040349E-4 1.375678E-6 1.656432E-5 9.740566E-6 -3.234948E-5 9.860924E-6 -1.5695286E-6 -6.7798237E-6 -1.0032427E-6 2.215028E-6 6.4137166E-6 6.8793626E-5 -7.4430113E-6 7.826764E-5 -1.0946968E-4 1.8918125E-5 5.3657986E-5 9.750003E-5 -1.6150353E-4 -6.113744E-5 -2.6779548E-5 -1.5043475E-5 -3.07721E-5 -7.4319294E-5 1.7615917E-5 1.6981065E-5 -3.6106896E-5 -2.7937209E-5 -2.4155666E-5 -4.8950744E-5 9.153709E-6 -1.0663134E-5 1.2839746E-4 -5.0944973E-6 -2.0329958E-4 -2.2844368E-5 2.098417E-6 7.871347E-6 1.3335576E-5 9.91641E-5 -6.212648E-5 1.2664282E-4 1.8063689E-5 4.0016228E-5 5.9911625E-5 5.3457825E-5 -1.5502901E-5 1.1268235E-5