-8.6074484E-5 -1.0160215E-4 -3.6174224E-5 6.0726525E-6 2.8431532E-5 2.8295603E-5 -1.3921251E-4 -6.1726925E-5 6.3070205E-5 -3.1804666E-5 1.1319404E-5 -1.1015008E-4 2.5589127E-4 2.5392208E-5 2.2403627E-5 -2.0551603E-5 -3.368708E-5 5.8478032E-5 1.1332668E-4 -2.1734108E-4 2.3547866E-4 1.9118663E-4 1.2256425E-4 6.960076E-5 1.9298861E-5 -1.0310685E-4 8.280801E-5 -5.261693E-5 6.8495574E-6 1.8909333E-4 -1.662713E-5 8.720533E-5 -9.046201E-5 2.231177E-4 -1.6699672E-5 7.0000387E-6 -7.8994715E-5 2.3072073E-5 1.2253097E-4 6.308276E-5 5.378233E-5 -1.2163107E-4 6.902495E-5 -1.3158984E-4 -5.0472354E-5 -7.0215356E-5 3.375244E-7 1.8328932E-4 -2.89825E-5 1.0458387E-4 2.0906975E-4 -2.762771E-4 1.6469636E-4 1.1859054E-5 3.38128E-5 2.0508669E-5 7.620409E-5 -8.76761E-5 2.045108E-4 -1.5614525E-5 -2.680277E-5 3.0422563E-5 1.122637E-5 -1.0129485E-4 5.569511E-6 -1.3306637E-4 -4.4060092E-5 -1.6828961E-4 -1.01390535E-4 8.2955834E-5 -9.035588E-5 2.4357432E-6 -1.998609E-4 2.8970826E-6 -2.2210028E-5 -4.8645776E-5 5.5081106E-5 -1.6048283E-4 -2.2905078E-5 -6.644591E-5 -1.6500076E-4 -1.5528228E-4 -6.803E-5 -6.978576E-5 -1.04295705E-5 -1.049272E-4 -1.607098E-4 -1.7883124E-4 1.674776E-5 1.0314808E-4 1.0007483E-4 5.192498E-6 4.28426E-5 5.0703384E-6 7.6965734E-5 2.9951087E-5 1.307518E-4 -5.258885E-5 -3.0706502E-5 7.113674E-5 -1.2217351E-4 2.158893E-5 3.685987E-5 -1.2737687E-5 -1.4680332E-4 -6.5371205E-5 -2.4116234E-5 -1.0570385E-4 -1.10035944E-4 5.184498E-6 -6.685638E-5 2.3868473E-4 1.793516E-4 -3.1700085E-5 8.553716E-5 -8.031067E-5 1.6668433E-4 1.9784237E-4 4.59523E-5 -3.6807265E-5 -8.35447E-5 -1.0948163E-4 -1.7890701E-4 -5.85092E-5 2.1337708E-4 -9.7365555E-5 1.8795786E-4 2.2460561E-5 2.0976608E-4 -2.6956637E-5 -3.472222E-5 -5.5399214E-6 4.9542723E-6 4.7148264E-5 -1.07510685E-4 -1.3574454E-4 2.644084E-5 -7.217052E-5 -2.2030032E-5 -1.3833807E-5 1.15549235E-4 -1.0538763E-4 5.420075E-5 -7.061849E-5 -1.9374216E-4 -4.4986933E-5 1.0080077E-4 -2.8793933E-5 3.1669304E-5 -7.700063E-5 2.928757E-5 1.0829475E-4 6.204592E-5 -7.176591E-5 -2.8167371E-5 -1.0141768E-4 -1.7502712E-4 -1.7401183E-4 4.5456727E-5 4.0404375E-6 -1.05254134E-4 -6.997607E-5 -1.4765954E-4 -2.6279744E-5 2.3973756E-5 1.3147699E-5 -3.401098E-5 -9.4763345E-5 4.06065E-5 1.727632E-4 -1.8316843E-4 -1.3326181E-4 -7.56054E-5 -1.0621413E-4 -4.8444177E-5 1.7158974E-4 3.769429E-4 -6.055458E-5 -6.2631098E-6 5.6907877E-5 -3.2359734E-5 4.33308E-5 2.0221896E-4 1.30623885E-5 7.776801E-5 -7.150158E-5 -2.5354078E-5 4.671099E-5 3.952152E-5 1.15173054E-4 4.581263E-5 7.3984847E-6 -1.0296677E-4 5.84575E-7 -8.955794E-5 -3.9306826E-5 2.4281268E-5 8.795557E-5 -1.17711395E-4 -7.440259E-5 8.642021E-5 -1.03282466E-4 -6.439535E-5 8.9923764E-5 6.0943203E-6 -2.5187219E-6 7.9207355E-5 -1.8731249E-4 -1.1227308E-4 -1.3014796E-5 1.8323328E-5 5.125738E-5 -2.5266453E-4 3.529778E-6 -2.019808E-4 7.3428455E-6 4.2959524E-5 2.390577E-4 -1.7302757E-4 9.075837E-6 -6.4131986E-5 3.119264E-5 -2.6262001E-4 -1.2284875E-4 -6.2780426E-5 -4.7591457E-6 -1.10252906E-4 1.0906117E-4 -8.248296E-5 -1.394629E-4 2.605371E-4 -8.962393E-5 -3.469283E-5 1.05410785E-4 -3.2697437E-5 -3.2609314E-5 -1.2856061E-4 -4.012024E-5 -2.3807658E-4 1.4688418E-4 1.8255765E-4 1.81004E-4 1.3501845E-4 9.067739E-5 8.443156E-5 -6.126882E-5 -8.2149716E-5 -5.4887787E-6 -7.4653646E-5 1.6392123E-4 -1.3937306E-4 4.710017E-5 -4.139115E-5 1.8675282E-4 4.9622133E-5 7.2884184E-5 -3.5935132E-5 3.7770595E-5 2.4082199E-4 -2.0870055E-5 -1.2369786E-4 1.7842916E-5 2.0216973E-4 -4.5602534E-5 -3.1943142E-5 3.252796E-5 9.1768765E-5 -4.520565E-5 4.5386732E-5 -9.7708806E-5 -8.36639E-5 -5.5274686E-5 4.1682695E-5 -5.630376E-6 3.779053E-5 -3.6803322E-6 1.2489881E-4 4.7657755E-5 -5.7788595E-5 -1.7310485E-5 7.8940866E-5 1.4295991E-5 1.0636577E-5 5.8096986E-5 5.702168E-7 2.6009317E-5 -1.1081742E-4 -4.8867572E-5 -2.859E-4 3.235874E-5 -1.636681E-4 -1.411476E-4 2.0028086E-4 2.3681161E-5 2.9343913E-5 -7.484737E-5 1.0372822E-5 3.0069868E-4 1.9476278E-4 7.364253E-5