-9.882303E-5 -6.6946624E-5 -3.9049488E-4 4.653338E-5 1.4631782E-4 1.7946317E-4 -7.757012E-5 -1.9404758E-4 -1.1522466E-4 -2.0533812E-4 1.46343855E-5 3.0044283E-4 6.179446E-5 -5.8300945E-4 3.351679E-4 -4.562016E-4 7.1351056E-4 -2.1401081E-4 -3.564493E-5 -4.171358E-4 -2.668805E-4 2.6200427E-4 -5.516383E-4 3.3873465E-4 -1.03679486E-4 -0.0011807221 4.7271003E-4 4.8518338E-4 -3.5705866E-4 2.9248535E-4 -2.8403578E-5 2.7680877E-4 2.0752637E-5 -1.3851984E-4 -3.4618634E-4 -4.073255E-4 1.5046302E-5 2.7100008E-4 4.5190885E-4 -4.2976928E-4 1.21289675E-4 -6.614954E-5 -1.7893159E-4 -3.9965057E-4 -3.9847908E-4 2.4707228E-4 4.528546E-5 -6.404095E-4 2.2676238E-4 -1.0125911E-4 -5.4191635E-4 1.331063E-4 1.628591E-5 -3.3981568E-4 -6.306796E-4 -1.1045595E-4 -2.6946433E-4 -2.1085079E-4 -3.929587E-4 -3.4036924E-4 -9.7691634E-5 -6.5510474E-5 -1.6288977E-5 -2.903629E-4 -1.6017475E-6 3.9998023E-4 1.4611466E-4 -1.5633793E-4 -1.0035116E-4 1.2337722E-4 1.669618E-4 -4.450069E-4 4.4382046E-5 -1.9197559E-4 -4.4348172E-4 -3.5058692E-5 1.6028385E-4 2.4459488E-5 -6.9407455E-4 -4.660438E-4 -1.0116531E-4 4.3292527E-4 3.9586714E-5 -8.9360314E-5 9.242867E-5 4.0201397E-4 6.848044E-4 2.1030493E-4 1.7933137E-4 -1.9863009E-4 1.0328017E-4 6.161261E-4 -2.7428594E-4 1.2410455E-5 1.2494823E-4 -1.06275016E-4 2.0344599E-4 4.6167997E-4 3.44303E-6 -6.353743E-4 -3.3457938E-4 -6.304254E-4 -1.3806456E-4 2.611236E-4 9.829286E-5 3.2048547E-4 -3.5112374E-4 2.0125888E-5 4.8942794E-4 7.102697E-4 1.212201E-4 5.8548278E-5 -2.7061455E-4 -2.167209E-5 3.717968E-4 4.7266225E-5 3.2754312E-4 4.487924E-4 -3.601496E-4 5.057898E-5 1.0042589E-4 2.6477218E-4 -6.769915E-8 -4.043448E-4 5.923035E-4 1.9750343E-5 3.8151394E-4 -2.6443636E-4 -2.6882457E-4 2.5470753E-4 -3.3188402E-4 -3.1536736E-4 4.782332E-4 1.8909384E-5 9.541375E-4 -2.8248632E-4 -2.8874673E-4 1.403531E-4 5.39586E-5 7.7011145E-4 3.9564335E-4 9.769559E-5 -3.4975725E-5 2.4186354E-4 -1.6880105E-4 -1.2690945E-4 1.5337521E-4 2.0350199E-4 3.5574552E-4 -1.0098872E-4 1.7128771E-4 -2.6850917E-4 1.5076184E-4 -3.1167257E-4 -1.2859606E-4 9.508442E-5 -6.9992006E-5 1.1405315E-4 3.4062326E-4 5.403325E-4 4.4400225E-4 4.960575E-4 -4.1860796E-4 4.1258907E-5 -3.351021E-5 -2.4503973E-4 -1.6112681E-4 -4.6601088E-4 -2.8284738E-4 4.2241873E-4 -2.489373E-4 -1.2646044E-4 1.0711171E-4 1.099333E-4 -4.9046153E-4 5.662697E-4 -1.10884925E-4 -2.0738067E-4 2.88347E-4 -2.0012908E-4 4.3353206E-4 -5.8375497E-4 3.9859427E-5 -4.742816E-4 6.620222E-5 1.977929E-5 -2.1967104E-4 2.0098702E-4 1.530739E-4 -4.2244678E-4 4.3884985E-4 -7.179479E-5 -6.3308777E-4 -0.0012769494 -1.15885836E-4 -2.207275E-4 -4.744467E-4 1.19249264E-4 3.3010208E-4 -7.5587584E-4 3.9066141E-4 -3.1803953E-5 1.89833E-4 -5.8644306E-5 -2.511039E-4 -3.2679436E-5 -1.6515431E-4 5.939711E-4 -9.371148E-5 -1.4944549E-4 3.1725597E-4 -6.188611E-4 -9.015642E-5 -2.714367E-4 -8.567207E-4 -9.0223015E-4 3.7412782E-4 -3.5013515E-4 -1.3003258E-4 6.128321E-7 -2.1272793E-4 -4.4593494E-4 -2.58784E-4 3.80099E-4 1.5078513E-4 2.6275445E-4 -9.2650065E-4 -1.6765947E-4 -8.270694E-6 -1.041811E-4 1.7862784E-4 1.1910272E-4 -6.811712E-5 1.2140561E-4 3.8592392E-4 -4.4840918E-4 -3.1889672E-4 -2.5276025E-4 1.7705394E-4 -3.4870574E-4 6.1471816E-5 -1.073157E-4 -9.146449E-5 -6.007149E-4 5.7156716E-4 -2.5317344E-4 2.3734148E-4 2.2998627E-4 -2.5987992E-4 2.900782E-4 1.0280066E-4 -9.983522E-5 1.6926098E-4 2.6103092E-4 0.0012094217 6.5748655E-4 -3.761654E-4 8.808487E-5 -5.0022332E-5 2.0655445E-4 8.523218E-5 8.049273E-4 2.2557656E-4 9.4041294E-5 1.8154674E-4 1.3828473E-4 4.5534995E-4 -2.5795025E-4 6.272982E-4 -1.825126E-4 -4.9556147E-5 -3.462677E-4 -4.933677E-5 1.527462E-4 5.134743E-4 9.359214E-5 -1.0595156E-4 -7.538956E-5 -2.7845983E-4 -3.9089128E-4 2.1725446E-4 4.471342E-4 1.9586485E-4 -1.5198082E-5 6.1567023E-4 7.643299E-4 -1.6968398E-4 -1.8477303E-4 -2.8309342E-4 -4.0001434E-4 6.122749E-5 -2.0424437E-4 -4.7751324E-5 -1.7583917E-4 -3.3674238E-4 -3.9636093E-4 3.6418423E-4 3.516847E-4 1.283947E-4 -4.599691E-5 3.7914142E-4 -7.6122704E-4 4.7338154E-4 -0.0013316341 1.2241933E-4 -1.7262046E-4 -1.7109254E-5 1.2311692E-4 3.3978286E-4 -3.079357E-4 -1.5668315E-4 -4.35473E-4 -2.6578753E-5 -2.8972057E-4 5.992004E-4 2.1799214E-4 1.6273647E-4 1.1120416E-4 -3.798444E-4 -6.568531E-4 2.9513327E-4 8.3462866E-5 1.415578E-4 5.1916484E-4 8.4141764E-5 -1.5685521E-4 2.0232014E-4 3.322464E-4 1.1525102E-4 4.7752837E-4 2.7140847E-4 -5.1102208E-5 3.5068725E-4 2.5866204E-5 -2.1920525E-5 -1.030916E-4 -2.919411E-5 7.5887865E-4 1.2384096E-4 -9.078689E-5 7.3910065E-5 -7.104724E-5 -6.7846687E-4 1.7000578E-4 -2.2848934E-4 1.1217325E-4 1.7254453E-4 -2.0389929E-5 -4.9066264E-4 -2.8572578E-4