1.9902429E-5 5.046867E-4 -4.0326564E-4 5.182737E-4 5.255513E-4 1.846201E-4 -5.153429E-4 7.3636074E-5 -0.0012020542 -7.2107156E-4 3.6451535E-4 -9.772262E-4 6.4963254E-4 6.451855E-5 -7.13183E-4 -2.533974E-4 -7.9375244E-4 -3.7432706E-4 -6.397612E-4 -3.6507778E-4 -1.1561026E-5 5.0523155E-4 -2.2695611E-4 -0.0010270586 0.0011625021 -9.29725E-4 4.6630774E-4 -2.0279079E-4 8.6520624E-4 5.155291E-4 2.531598E-4 1.6249926E-4 -9.765496E-5 3.164258E-4 -3.1511366E-4 -9.425057E-5 -0.0013300731 -4.4578698E-4 4.845982E-4 6.590744E-4 3.2424353E-4 3.707505E-4 5.6405057E-5 7.21353E-4 -4.409138E-4 7.592541E-4 -1.4010249E-5 2.5101606E-4 5.1845546E-4 0.0011633759 -8.977691E-4 -0.0010728822 -5.021126E-4 -4.9047364E-4 -0.0014531174 -6.100627E-4 5.4629854E-5 -0.0012588594 -0.0011296532 -2.4258473E-4 5.89454E-5 2.2331109E-4 -3.4691443E-4 5.9970457E-4 5.0385186E-4 -4.7610464E-4 7.0890895E-4 1.0205599E-4 8.0418034E-4 -8.0606027E-4 9.937951E-5 2.7097357E-4 -8.599104E-4 -1.9743017E-4 5.4689014E-4 -7.8847836E-4 5.9548765E-4 8.529153E-5 -2.558917E-4 -1.8063126E-4 6.46624E-4 -7.891878E-4 -4.6965762E-4 5.097196E-4 1.0612191E-4 -2.7703674E-5 6.353009E-5 5.664371E-4 0.0011420932 -3.6163922E-4 -3.1546468E-4 -5.2203934E-5 -4.0209375E-4 0.0015114733 -6.493129E-4 -9.184978E-4 2.891369E-4 -3.2021548E-5 -3.8215995E-4 -4.0378916E-4 -3.024464E-4 -1.447273E-4 -1.521749E-4 8.0911233E-4 -0.0010222734 3.6402335E-4 -5.104424E-4 -0.0011871271 -7.452944E-4 2.9472652E-4 -0.0017817091 3.1352724E-4 8.5373124E-4 -4.7369231E-4 1.0466711E-4 -3.4018303E-6 6.471151E-4 3.7191436E-4 5.4713344E-4 -9.545245E-4 0.0013485334 -1.7371825E-4 1.5262129E-4 2.537181E-4 -0.0013457728 1.8261839E-5 -1.2814865E-4 -1.1838695E-4 -4.956795E-4 0.0015935923 4.858708E-4 0.0013341941 2.34139E-5 1.6005224E-4 -3.5635845E-4 -4.4246487E-4 -8.461982E-5 -0.0011063695 -2.461358E-4 -8.387052E-4 -5.0578243E-4 -1.7241336E-4 -8.639363E-4 6.650621E-5 2.8889597E-4 -5.363361E-4 0.0021668577 -4.0252536E-4 -5.3464394E-4 0.0022666713 1.21693214E-4 0.0018841046 4.3580073E-4 9.599572E-4 -3.671245E-5 2.572696E-4 3.247989E-4 4.8905215E-4 -1.764139E-4 6.9609785E-4 -5.099518E-4 7.674475E-4 -9.7452034E-4 0.0014976468 -1.1022379E-5 3.0011692E-4 -4.5584096E-4 -0.001380735 8.431479E-5 -0.0012096328 -0.0015564237 7.8646117E-4 4.6522208E-4 -4.284353E-4 4.7510766E-4 -7.265379E-4 0.001216728 1.5914324E-4 4.3869863E-5 -8.216378E-4 -7.2284206E-4 -3.8410065E-4 -5.254615E-4 -6.858116E-4 -5.4277224E-4 -3.1848653E-4 -5.729374E-4 -4.219912E-4 -4.05241E-5 -5.359731E-4 -2.46833E-4 -1.049893E-4 3.907385E-4 4.1407818E-4 -0.0020174533 6.5483915E-4 3.8825948E-4 -7.332006E-4 0.0011135939 -0.0018615021 -0.0019510894 -1.17687574E-4 1.937247E-4 -3.2211602E-4 -8.3636516E-4 -9.666529E-4 7.815145E-5 -7.695597E-5 8.238007E-4 2.8240395E-4 -5.7861063E-4 -6.090375E-4 3.6324657E-4 1.3506525E-4 5.187357E-5 -4.3179956E-4 -8.207748E-4 -3.26394E-4 5.317138E-4 -2.3554271E-4 2.8563582E-4 4.4127036E-4 4.2375705E-5 8.6262194E-4 4.5829796E-4 -6.2948314E-4 5.6763092E-6 -5.4421637E-4 -5.70051E-4 0.0010318668 4.8998994E-5 4.730493E-4 6.7682844E-4 -2.738961E-4 7.1361475E-4 -0.0016909258 4.4393918E-4 -4.2036484E-4 4.0365514E-4 5.08026E-4 -6.956001E-4 8.504595E-4 -5.324581E-4 -3.083964E-5 -2.5145014E-4 0.0014966172 -7.769836E-4 1.3299829E-4 -5.4998853E-4 9.501884E-4 -1.2419207E-4 -0.0010008503 -0.001077369 -3.128429E-5 7.837589E-6 9.39261E-4 -0.0017524733 6.534782E-5 -4.7224373E-4 -5.6260853E-4 5.097351E-4 0.0015854947 -5.0607463E-4 7.865992E-4 0.0012438347 -1.4456254E-4 -8.575269E-4 2.8538835E-4 -1.0682621E-4 -1.2896056E-4 -2.832327E-4 1.5009053E-4 5.197448E-4 4.2204955E-4 -1.0685355E-4 -7.935488E-5 -7.93947E-5 5.9953454E-6 8.203075E-4 9.881738E-4 -4.6161123E-4 -5.5115856E-4 0.0010181788 0.0014095609 4.70497E-4 -3.0578507E-5 2.4166808E-4 -0.0012807938